SVM-light Version V6.02
2 # kernel type
3 # kernel parameter -d 
0.001 # kernel parameter -g 
1 # kernel parameter -s 
1 # kernel parameter -r 
empty# kernel parameter -u 
3945 # highest feature index 
1829 # number of training documents 
118 # number of support vectors plus 1 
2.4246063 # threshold b, each following line is a SV (starting with alpha*y)
-31.048139494973117535892015439458 3:0.01520913 4:0.0076045599 6:0.0076045599 8:0.0076045599 10:0.01520913 11:0.022813691 13:0.0076045599 15:0.0076045599 16:0.034220532 17:0.01901141 19:0.0076045599 20:0.0076045599 74:0.12771392 150:0.12771392 186:0.12771392 192:0.12771392 193:0.12771392 369:0.25542784 383:0.12771392 417:0.12771392 430:0.12771392 463:0.12771392 475:0.12771392 484:0.12771392 540:0.12771392 552:0.12771392 567:0.12771392 574:0.12771392 645:0.12771392 649:0.12771392 663:0.12771392 699:0.12771392 764:0.12771392 774:0.12771392 831:0.12771392 891:0.12771392 926:0.12771392 942:0.12771392 967:0.12771392 988:0.12771392 1028:0.12771392 1034:0.12771392 1117:0.12771392 1139:0.12771392 1158:0.12771392 1269:0.12771392 1303:0.12771392 1313:0.12771392 1318:0.12771392 1360:0.12771392 1367:0.12771392 1375:0.12771392 1389:0.12771392 1431:0.12771392 1447:0.12771392 1566:0.12771392 1666:0.12771392 1669:0.12771392 1685:0.12771392 1738:0.25542784 1759:0.12771392 1774:0.12771392 1808:0.12771392 1816:0.12771392 1890:0.12771392 1978:0.12771392 2031:0.12771392 2165:0.12771392 2170:0.12771392 2172:0.12771392 2231:0.12771392 2239:0.12771392 2291:0.12771392 2306:0.12771392 2314:0.12771392 2315:0.12771392 2367:0.12771392 2399:0.12771392 2497:0.12771392 2525:0.12771392 2545:0.12771392 2566:0.12771392 2652:0.12771392 2691:0.12771392 2704:0.12771392 2712:0.12771392 2716:0.12771392 2769:0.12771392 2878:0.12771392 2935:0.12771392 2941:0.12771392 2951:0.12771392 2958:0.25542784 2965:0.12771392 2972:0.12771392 2973:0.12771392 2978:0.12771392 2979:0.12771392 2983:0.12771392 2984:0.12771392 2986:0.12771392 3048:0.12771392 3062:0.12771392 3070:0.12771392 3076:0.12771392 3078:0.12771392 3086:0.12771392 3089:0.12771392 3093:0.12771392 3096:0.12771392 3121:0.12771392 3123:0.12771392 3134:0.12771392 3141:0.12771392 3142:0.12771392 3250:0.12771392 3254:0.25542784 3278:0.12771392 3325:0.12771392 3430:0.12771392 3546:0.12771392 3557:0.12771392 3575:0.12771392 3647:0.12771392 3684:0.38167939 3685:0.19083969 3687:0.19083969 3692:0.19083969 3693:0.38167939 3694:0.19083969 3695:0.19083969 3697:0.19083969 3699:0.19083969 3701:0.19083969 3702:0.38167939 3706:0.19083969 3708:0.57251906 3711:0.19083969 3712:0.19083969 3714:0.38167939 3715:0.19083969 3720:0.19083969 3724:0.38167939 3726:0.19083969 3728:0.19083969 3729:0.38167939 3731:0.19083969 3732:0.38167939 3734:0.57251906 3738:0.19083969 3739:0.38167939 3742:0.19083969 3743:0.19083969 3745:0.19083969 3748:0.19083969 3752:0.38167939 3754:0.19083969 3756:0.19083969 3757:0.38167939 3758:0.19083969 3761:0.19083969 3762:0.57251906 3763:0.38167939 3764:0.19083969 3767:0.19083969 3769:0.19083969 3775:0.19083969 3776:0.19083969 3777:0.19083969 3779:0.19083969 3780:0.19083969 3781:0.38167939 3783:0.19083969 3786:0.19083969 3787:0.57251906 3788:0.19083969 3790:0.19083969 3793:0.38167939 3797:0.19083969 3803:0.19083969 3804:0.19083969 3810:0.19083969 3811:0.19083969 3814:0.38167939 3816:0.19083969 3818:0.38167939 3819:0.57251906 3822:0.19083969 3823:0.19083969 3825:0.19083969 3826:0.19083969 3827:0.76335877 3830:0.19083969 3831:0.38167939 3834:0.38167939 3835:0.19083969 3838:0.19083969 3840:0.38167939 3841:0.19083969 3842:0.19083969 3843:0.38167939 3848:0.19083969 3850:0.19083969 3851:0.19083969 3852:0.57251906 3856:0.19083969 3859:0.19083969 3863:0.19083969 3864:0.19083969 3865:0.19083969 3866:0.38167939 3867:0.38167939 3868:0.19083969 3869:0.38167939 3870:0.95419848 3871:1.1450381 3872:0.19083969 3874:0.38167939 3877:0.19083969 3878:0.19083969 3880:0.38167939 3882:0.57251906 3883:0.57251906 3884:0.57251906 3885:0.57251906 3892:0.19083969 3894:0.76335877 3895:0.19083969 3898:0.57251906 3899:0.19083969 3901:0.19083969 3905:0.19083969 3915:0.57251906 3919:0.19083969 3921:0.034220532 3922:0 3923:0.057034221 3924:0.045627382 3925:0.034220532 3926:0.060836501 3927:0.01901141 3928:0.076045617 3929:0.034220532 3930:0.087452471 3931:0.022813691 3932:0.060836501 3933:0.049429659 3934:0.060836501 3935:0.030418251 3936:0.12927757 3937:0.087452471 3938:0.05323194 3939:0.0076045599 3940:0.049429659 3941:0.0059930002 3942:5.1999999e-05 3943:6.2999999e-05 3944:1e-06 3945:0.30798501 #
-6.3835333736237211965658389090095 2:0.01234568 4:0.01234568 6:0.01234568 7:0.02469136 8:0.018518521 11:0.01234568 12:0.02469136 15:0.01234568 17:0.018518521 70:0.20833333 72:0.20833333 120:0.20833333 123:0.20833333 158:0.20833333 181:0.20833333 361:0.20833333 382:0.20833333 385:0.20833333 495:0.20833333 519:0.20833333 532:0.20833333 544:0.20833333 554:0.20833333 582:0.20833333 588:0.20833333 595:0.20833333 626:0.41666666 629:0.20833333 640:0.20833333 667:0.20833333 737:0.20833333 865:0.20833333 914:0.20833333 924:0.20833333 959:0.20833333 1003:0.20833333 1065:0.20833333 1254:0.20833333 1445:0.20833333 1464:0.20833333 1499:0.20833333 1507:0.20833333 1593:0.20833333 1613:0.20833333 1631:0.20833333 1659:0.20833333 1717:0.20833333 1720:0.20833333 1761:0.20833333 1820:0.20833333 2095:0.20833333 2272:0.20833333 2283:0.20833333 2284:0.20833333 2289:0.20833333 2326:0.20833333 2353:0.20833333 2434:0.20833333 2448:0.20833333 2500:0.20833333 2505:0.20833333 2517:0.20833333 2529:0.20833333 2580:0.20833333 2584:0.20833333 2623:0.20833333 2831:0.20833333 2862:0.20833333 3134:0.20833333 3265:0.20833333 3288:0.20833333 3302:0.20833333 3553:0.20833333 3598:0.20833333 3610:0.20833333 3675:0.310559 3678:0.310559 3680:0.62111801 3682:0.310559 3683:0.310559 3692:0.310559 3694:0.310559 3695:0.310559 3697:0.310559 3698:0.310559 3704:0.93167704 3705:0.62111801 3706:0.62111801 3707:0.310559 3709:0.310559 3710:0.62111801 3712:0.93167704 3713:0.310559 3714:0.310559 3716:0.310559 3729:0.310559 3730:0.310559 3733:0.310559 3736:0.310559 3738:0.310559 3740:0.310559 3752:0.310559 3759:0.310559 3763:0.310559 3767:0.310559 3769:0.310559 3771:0.310559 3772:0.62111801 3778:0.62111801 3779:0.310559 3781:0.310559 3783:0.310559 3785:0.310559 3786:0.310559 3787:0.310559 3789:0.310559 3790:0.93167704 3792:0.310559 3802:0.310559 3806:0.310559 3810:0.62111801 3811:0.62111801 3823:0.62111801 3824:0.62111801 3825:0.310559 3834:0.62111801 3835:0.310559 3838:0.310559 3839:0.62111801 3844:0.62111801 3857:0.310559 3859:0.310559 3860:0.310559 3862:0.310559 3863:0.310559 3876:0.310559 3877:0.310559 3878:0.310559 3884:0.62111801 3889:0.310559 3894:0.310559 3895:0.310559 3896:0.310559 3897:0.310559 3898:0.310559 3911:0.310559 3914:0.310559 3915:0.310559 3916:0.310559 3917:0.310559 3921:0.061728399 3922:0.00617284 3923:0.086419746 3924:0.12345679 3925:0.01234568 3926:0.086419746 3927:0.01234568 3928:0.04938272 3929:0.04938272 3930:0.074074067 3931:0.02469136 3932:0.043209881 3933:0.074074067 3934:0.05555556 3935:0.043209881 3936:0.02469136 3937:0.04938272 3938:0.05555556 3939:0.01234568 3940:0.05555556 3941:0.001911 3942:-3.3e-05 3943:7.0000001e-06 3944:-0 3945:0.28395101 #
-27.871060449809515802144233020954 1:0.0080000004 2:0.016000001 4:0.0080000004 6:0.035999998 7:0.016000001 10:0.016000001 11:0.0080000004 14:0.02 16:0.016000001 19:0.0080000004 32:0.13440861 68:0.13440861 113:0.13440861 125:0.13440861 177:0.13440861 183:0.13440861 240:0.13440861 378:0.13440861 439:0.13440861 484:0.13440861 534:0.13440861 550:0.13440861 620:0.13440861 685:0.13440861 739:0.13440861 748:0.13440861 767:0.13440861 808:0.13440861 852:0.13440861 914:0.13440861 1003:0.13440861 1018:0.13440861 1036:0.13440861 1038:0.13440861 1042:0.13440861 1050:0.13440861 1211:0.13440861 1272:0.13440861 1300:0.13440861 1364:0.13440861 1388:0.13440861 1422:0.13440861 1490:0.13440861 1524:0.13440861 1687:0.13440861 1735:0.13440861 1763:0.13440861 1770:0.13440861 1793:0.13440861 1804:0.13440861 1929:0.13440861 2064:0.13440861 2090:0.13440861 2194:0.13440861 2195:0.13440861 2237:0.13440861 2253:0.13440861 2282:0.13440861 2306:0.13440861 2326:0.13440861 2336:0.13440861 2350:0.13440861 2500:0.26881722 2505:0.13440861 2508:0.13440861 2511:0.13440861 2531:0.13440861 2532:0.13440861 2550:0.13440861 2629:0.13440861 2660:0.13440861 2688:0.13440861 2689:0.13440861 2715:0.13440861 2716:0.13440861 2720:0.13440861 2743:0.13440861 2779:0.26881722 2793:0.26881722 2821:0.13440861 2831:0.13440861 2857:0.13440861 2874:0.13440861 2885:0.13440861 2909:0.13440861 2914:0.13440861 2958:0.13440861 2961:0.26881722 2968:0.13440861 2988:0.13440861 2993:0.13440861 2995:0.13440861 2996:0.13440861 3008:0.13440861 3013:0.13440861 3017:0.13440861 3037:0.13440861 3050:0.13440861 3055:0.13440861 3059:0.13440861 3077:0.13440861 3098:0.13440861 3120:0.13440861 3137:0.13440861 3165:0.13440861 3184:0.13440861 3201:0.13440861 3249:0.13440861 3252:0.26881722 3276:0.13440861 3277:0.13440861 3303:0.13440861 3317:0.13440861 3422:0.13440861 3557:0.13440861 3563:0.26881722 3674:0.20080322 3676:0.40160644 3678:0.40160644 3679:0.20080322 3680:0.60240966 3681:0.20080322 3683:0.40160644 3684:0.40160644 3694:0.20080322 3696:0.20080322 3700:0.20080322 3701:0.20080322 3702:0.20080322 3705:0.40160644 3706:0.20080322 3713:0.20080322 3715:0.20080322 3716:0.20080322 3717:0.20080322 3718:0.20080322 3720:0.20080322 3721:0.20080322 3723:0.20080322 3726:0.60240966 3727:0.20080322 3735:0.20080322 3736:0.20080322 3737:0.20080322 3738:0.20080322 3739:0.40160644 3740:0.20080322 3749:0.20080322 3750:0.20080322 3753:0.20080322 3756:0.60240966 3757:0.40160644 3762:0.40160644 3763:0.40160644 3764:0.40160644 3766:0.20080322 3768:0.20080322 3771:0.20080322 3773:0.20080322 3774:0.20080322 3778:0.20080322 3779:0.20080322 3783:0.20080322 3785:0.20080322 3786:0.40160644 3787:0.20080322 3789:0.40160644 3791:0.20080322 3793:0.20080322 3794:0.20080322 3800:0.20080322 3805:0.20080322 3807:0.20080322 3809:0.20080322 3811:0.40160644 3815:0.20080322 3816:0.20080322 3822:0.40160644 3823:0.20080322 3826:0.20080322 3828:0.20080322 3829:0.20080322 3838:0.20080322 3839:0.60240966 3840:0.20080322 3841:0.20080322 3849:0.20080322 3850:0.40160644 3852:0.80321288 3854:0.20080322 3856:0.40160644 3857:0.40160644 3859:0.40160644 3860:0.20080322 3862:0.20080322 3863:0.40160644 3865:0.20080322 3866:0.20080322 3867:0.20080322 3869:0.60240966 3870:0.40160644 3871:0.20080322 3872:0.80321288 3874:0.60240966 3875:0.40160644 3877:0.20080322 3878:0.20080322 3879:0.40160644 3880:0.20080322 3881:0.40160644 3882:0.20080322 3883:0.20080322 3885:0.20080322 3887:0.20080322 3888:0.40160644 3894:0.60240966 3896:0.20080322 3897:0.40160644 3898:0.40160644 3899:0.40160644 3905:0.20080322 3910:0.20080322 3914:0.20080322 3919:0.40160644 3921:0.068000004 3922:0.012 3923:0.039999999 3924:0.032000002 3925:0.059999999 3926:0.056000002 3927:0.012 3928:0.068000004 3929:0.032000002 3930:0.059999999 3931:0.024 3932:0.028000001 3933:0.088 3934:0.064000003 3935:0.068000004 3936:0.092 3937:0.075999998 3938:0.068000004 3939:0.012 3940:0.039999999 3941:0.005663 3942:-6.1999999e-05 3943:5.6000001e-05 3944:-1e-06 3945:0.36000001 #
23.117286546724773899086358142085 3:0.01477833 4:0.0049261102 6:0.0049261102 8:0.022167491 10:0.0098522203 11:0.0049261102 14:0.0049261102 15:0.017241379 16:0.03940887 17:0.086206898 20:0.01477833 149:0.082508251 185:0.082508251 190:0.082508251 192:0.41254124 193:0.082508251 402:0.082508251 437:0.082508251 485:0.082508251 665:0.082508251 706:0.082508251 852:0.082508251 930:0.082508251 990:0.082508251 1030:0.082508251 1034:0.1650165 1035:0.1650165 1220:0.082508251 1313:0.082508251 1371:0.082508251 1387:0.1650165 1389:0.1650165 1742:0.082508251 1815:0.082508251 1816:0.082508251 2096:0.082508251 2138:0.082508251 2143:0.082508251 2166:0.082508251 2168:0.082508251 2170:0.082508251 2171:0.082508251 2176:0.082508251 2233:0.082508251 2250:0.082508251 2286:0.1650165 2291:0.082508251 2314:0.24752475 2315:0.1650165 2322:0.082508251 2323:0.082508251 2493:0.082508251 2527:0.082508251 2537:0.082508251 2877:0.1650165 2885:0.082508251 2888:0.082508251 2896:0.082508251 2901:0.1650165 2908:0.082508251 2909:0.1650165 2911:0.1650165 2924:0.24752475 2935:0.082508251 2945:0.082508251 2951:0.082508251 2965:0.082508251 2966:0.082508251 2967:0.082508251 2970:0.082508251 2972:0.1650165 2973:0.1650165 2977:0.082508251 2979:0.082508251 2980:0.1650165 2982:0.082508251 2983:0.24752475 2984:0.082508251 2985:0.1650165 2986:0.1650165 2987:0.082508251 2989:0.082508251 2990:0.082508251 2993:0.082508251 2996:0.082508251 3005:0.082508251 3015:0.082508251 3017:0.41254124 3025:0.082508251 3026:0.082508251 3028:0.082508251 3031:0.082508251 3033:0.082508251 3034:0.082508251 3039:0.082508251 3047:0.24752475 3048:0.082508251 3049:0.24752475 3059:0.082508251 3077:0.1650165 3078:0.082508251 3089:0.082508251 3090:0.082508251 3092:0.1650165 3093:0.1650165 3118:0.082508251 3120:0.082508251 3121:0.1650165 3122:0.082508251 3124:0.1650165 3125:0.082508251 3126:0.082508251 3127:0.082508251 3128:0.082508251 3129:0.082508251 3130:0.1650165 3133:0.1650165 3134:0.330033 3135:0.082508251 3141:0.1650165 3142:0.24752475 3143:0.082508251 3228:0.082508251 3272:0.082508251 3278:0.24752475 3308:0.082508251 3310:0.082508251 3317:0.082508251 3318:0.1650165 3326:0.082508251 3502:0.082508251 3534:0.082508251 3658:0.082508251 3666:0.082508251 3678:0.24691358 3680:0.12345679 3684:1.3580247 3686:0.12345679 3693:0.24691358 3696:0.24691358 3701:0.24691358 3702:0.24691358 3710:0.12345679 3712:0.24691358 3715:0.49382716 3716:0.24691358 3726:0.24691358 3729:0.37037036 3733:0.24691358 3736:0.12345679 3738:0.74074072 3739:0.37037036 3745:0.12345679 3750:0.12345679 3755:0.12345679 3756:0.12345679 3757:0.24691358 3762:0.12345679 3763:0.61728394 3764:0.12345679 3769:0.12345679 3778:0.12345679 3779:0.24691358 3785:0.12345679 3787:0.12345679 3789:0.12345679 3793:0.12345679 3811:0.74074072 3814:0.37037036 3815:0.61728394 3816:0.12345679 3818:0.61728394 3819:0.49382716 3822:0.86419755 3823:0.24691358 3824:0.37037036 3825:0.49382716 3827:0.98765433 3828:0.24691358 3831:0.12345679 3832:0.24691358 3833:0.12345679 3840:0.24691358 3855:0.12345679 3859:0.12345679 3860:0.12345679 3863:0.12345679 3864:0.24691358 3865:0.12345679 3866:0.74074072 3867:0.24691358 3868:0.37037036 3869:0.12345679 3870:1.1111112 3871:1.9753087 3872:0.74074072 3874:0.12345679 3875:0.98765433 3877:0.37037036 3878:0.24691358 3879:0.37037036 3880:1.2345679 3881:0.24691358 3882:1.2345679 3883:0.86419755 3884:2.5925925 3885:0.74074072 3888:0.12345679 3889:0.12345679 3890:0.12345679 3891:0.12345679 3892:0.24691358 3894:0.12345679 3896:0.12345679 3897:0.12345679 3898:0.37037036 3899:0.74074072 3906:0.12345679 3910:0.12345679 3914:0.12345679 3920:0.12345679 3921:0.049261078 3922:0.0049261102 3923:0.032019701 3924:0.029556651 3925:0.01477833 3926:0.098522156 3927:0.01477833 3928:0.049261078 3929:0.01477833 3930:0.036945809 3931:0.00246305 3932:0.076354682 3933:0.08374384 3934:0.029556651 3935:0.0098522203 3936:0.16009852 3937:0.2044335 3938:0.073891617 3939:0.0049261102 3940:0.0098522203 3941:0.015807001 3942:0.000182 3943:0.00042299999 3944:9.0000003e-06 3945:0.231527 #
68.081400005904512795495975296944 3:0.0042734998 7:0.0042734998 8:0.0085470099 10:0.0042734998 11:0.01068376 12:0.0042734998 14:0.0085470099 15:0.0042734998 16:0.02991453 17:0.064102568 20:0.0064102602 78:0.071530759 117:0.071530759 149:0.071530759 183:0.071530759 188:0.071530759 192:0.21459228 193:0.071530759 311:0.071530759 326:0.071530759 331:0.071530759 333:0.071530759 407:0.071530759 411:0.071530759 466:0.071530759 470:0.071530759 471:0.071530759 474:0.071530759 476:0.071530759 477:0.071530759 485:0.071530759 493:0.071530759 517:0.071530759 542:0.071530759 665:0.071530759 706:0.071530759 776:0.071530759 779:0.071530759 812:0.071530759 813:0.071530759 851:0.071530759 859:0.071530759 862:0.071530759 909:0.14306152 914:0.071530759 917:0.071530759 930:0.14306152 992:0.071530759 1028:0.14306152 1030:0.071530759 1034:0.071530759 1036:0.071530759 1054:0.071530759 1060:0.071530759 1219:0.071530759 1313:0.071530759 1357:0.071530759 1371:0.071530759 1387:0.14306152 1393:0.071530759 1394:0.14306152 1398:0.071530759 1416:0.071530759 1419:0.071530759 1499:0.071530759 1577:0.071530759 1581:0.071530759 1692:0.071530759 1716:0.071530759 1740:0.071530759 1762:0.071530759 1791:0.071530759 1795:0.071530759 1815:0.071530759 1817:0.071530759 1984:0.071530759 2088:0.071530759 2134:0.071530759 2143:0.14306152 2163:0.071530759 2164:0.071530759 2168:0.071530759 2172:0.071530759 2175:0.071530759 2176:0.071530759 2204:0.071530759 2233:0.071530759 2253:0.071530759 2286:0.071530759 2291:0.071530759 2322:0.071530759 2323:0.071530759 2324:0.071530759 2328:0.071530759 2490:0.071530759 2527:0.071530759 2537:0.071530759 2548:0.071530759 2627:0.071530759 2714:0.071530759 2720:0.071530759 2755:0.071530759 2883:0.071530759 2894:0.071530759 2907:0.14306152 2910:0.14306152 2924:0.071530759 2935:0.071530759 2939:0.071530759 2945:0.071530759 2951:0.071530759 2958:0.071530759 2966:0.071530759 2969:0.071530759 2970:0.14306152 2973:0.071530759 2974:0.071530759 2982:0.071530759 2985:0.14306152 2987:0.071530759 2988:0.21459228 2990:0.071530759 2995:0.071530759 3005:0.071530759 3007:0.071530759 3009:0.071530759 3015:0.14306152 3017:0.14306152 3021:0.071530759 3027:0.21459228 3033:0.071530759 3037:0.071530759 3039:0.071530759 3040:0.071530759 3047:0.071530759 3048:0.071530759 3049:0.071530759 3057:0.071530759 3059:0.14306152 3067:0.14306152 3075:0.14306152 3078:0.071530759 3090:0.071530759 3093:0.071530759 3115:0.14306152 3117:0.071530759 3120:0.071530759 3122:0.14306152 3123:0.14306152 3124:0.071530759 3125:0.071530759 3126:0.071530759 3128:0.14306152 3130:0.071530759 3132:0.14306152 3133:0.14306152 3134:0.42918456 3135:0.14306152 3139:0.071530759 3141:0.14306152 3142:0.3576538 3143:0.071530759 3151:0.071530759 3154:0.071530759 3203:0.071530759 3228:0.071530759 3232:0.14306152 3246:0.071530759 3278:0.071530759 3309:0.071530759 3310:0.071530759 3311:0.071530759 3312:0.071530759 3313:0.071530759 3314:0.071530759 3317:0.071530759 3318:0.14306152 3456:0.071530759 3500:0.071530759 3502:0.071530759 3503:0.071530759 3534:0.14306152 3571:0.071530759 3637:0.071530759 3644:0.071530759 3648:0.071530759 3653:0.071530759 3666:0.071530759 3675:0.10706638 3679:0.10706638 3680:0.10706638 3681:0.10706638 3684:0.6423983 3685:0.21413276 3687:0.10706638 3690:0.21413276 3691:0.10706638 3692:0.10706638 3694:0.10706638 3697:0.21413276 3698:0.10706638 3700:0.5353319 3701:0.32119915 3702:0.32119915 3703:0.10706638 3704:0.10706638 3705:0.10706638 3706:0.10706638 3708:0.10706638 3709:0.10706638 3712:0.10706638 3715:0.10706638 3716:0.10706638 3718:0.10706638 3721:0.21413276 3722:0.10706638 3723:0.5353319 3726:0.10706638 3727:0.21413276 3729:0.10706638 3730:0.32119915 3732:0.21413276 3734:0.10706638 3736:0.10706638 3738:0.6423983 3739:0.32119915 3750:0.10706638 3752:0.10706638 3754:0.10706638 3756:0.10706638 3757:0.10706638 3758:0.10706638 3759:0.10706638 3761:0.10706638 3763:0.32119915 3764:0.74946469 3766:0.21413276 3768:0.10706638 3769:0.21413276 3771:0.10706638 3772:0.10706638 3778:0.21413276 3780:0.10706638 3781:0.10706638 3783:0.21413276 3785:0.10706638 3786:0.10706638 3787:0.32119915 3789:0.21413276 3790:0.32119915 3791:0.32119915 3802:0.10706638 3810:0.10706638 3811:0.21413276 3812:0.10706638 3813:0.10706638 3814:0.10706638 3815:0.42826551 3817:0.21413276 3818:0.32119915 3819:0.21413276 3821:0.10706638 3822:0.21413276 3824:0.21413276 3825:0.10706638 3827:0.32119915 3828:0.42826551 3836:0.10706638 3838:0.10706638 3840:0.21413276 3841:0.10706638 3844:0.10706638 3848:0.10706638 3852:0.21413276 3855:0.21413276 3856:0.10706638 3859:0.21413276 3862:0.10706638 3863:0.10706638 3864:0.21413276 3865:0.21413276 3866:0.6423983 3867:0.32119915 3868:0.21413276 3869:0.10706638 3870:0.74946469 3871:0.42826551 3872:0.6423983 3874:0.42826551 3875:0.74946469 3876:0.21413276 3877:0.42826551 3878:0.10706638 3879:0.32119915 3880:0.5353319 3881:0.42826551 3882:0.42826551 3883:0.85653102 3884:1.9271948 3885:0.96359742 3886:0.21413276 3887:0.21413276 3888:0.32119915 3890:0.42826551 3891:0.10706638 3892:0.42826551 3893:0.10706638 3894:0.21413276 3896:0.10706638 3898:0.6423983 3899:0.74946469 3901:0.10706638 3910:0.21413276 3911:0.21413276 3914:0.42826551 3918:0.10706638 3919:0.32119915 3920:0.10706638 3921:0.0534188 3922:0.01923077 3923:0.0491453 3924:0.02777778 3925:0.047008552 3926:0.068376072 3927:0.0042734998 3928:0.05555556 3929:0.036324792 3930:0.05555556 3931:0.0064102602 3932:0.05982906 3933:0.051282048 3934:0.02350427 3935:0.02350427 3936:0.10897436 3937:0.16880342 3938:0.089743592 3939:0.01282051 3940:0.03846154 3941:0.018077999 3942:0.00039999999 3943:0.000619 3944:3.4000001e-05 3945:0.32692301 #
89.642707237684021492896135896444 1:0.0017452 3:0.0017452 4:0.0017452 9:0.0052355998 11:0.0043629999 12:0.0017452 15:0.0017452 16:0.049738221 17:0.0017452 19:0.0017452 25:0.029137529 74:0.029137529 78:0.029137529 83:0.029137529 85:0.029137529 145:0.029137529 326:0.029137529 386:0.029137529 399:0.029137529 417:0.029137529 484:0.029137529 490:0.029137529 557:0.029137529 581:0.029137529 589:0.058275059 661:0.029137529 736:0.029137529 785:0.029137529 818:0.029137529 891:0.029137529 893:0.029137529 933:0.029137529 935:0.029137529 965:0.029137529 973:0.029137529 1013:0.029137529 1058:0.029137529 1085:0.029137529 1116:0.029137529 1158:0.029137529 1182:0.029137529 1186:0.029137529 1189:0.029137529 1190:0.029137529 1321:0.029137529 1453:0.029137529 1474:0.029137529 1533:0.029137529 1573:0.029137529 1652:0.029137529 1674:0.029137529 1696:0.029137529 1731:0.029137529 1732:0.029137529 1743:0.029137529 1762:0.029137529 1811:0.029137529 1818:0.029137529 1985:0.029137529 2086:0.029137529 2094:0.029137529 2095:0.029137529 2164:0.029137529 2228:0.029137529 2236:0.029137529 2291:0.029137529 2302:0.029137529 2322:0.029137529 2349:0.029137529 2662:0.029137529 2718:0.029137529 2723:0.029137529 2865:0.029137529 2969:0.029137529 2970:0.029137529 2972:0.029137529 2976:0.029137529 2995:0.029137529 3006:0.029137529 3007:0.029137529 3010:0.029137529 3054:0.029137529 3089:0.029137529 3133:0.029137529 3159:0.029137529 3246:0.029137529 3256:0.029137529 3273:0.029137529 3309:0.058275059 3365:0.029137529 3397:0.058275059 3544:0.029137529 3595:0.029137529 3616:0.029137529 3635:0.029137529 3674:0.043668121 3677:0.087336242 3683:0.043668121 3688:0.13100436 3690:0.17467248 3691:0.087336242 3692:0.043668121 3693:0.087336242 3694:0.34934497 3695:0.087336242 3696:0.043668121 3697:0.30567685 3698:0.043668121 3700:1.3973799 3701:0.043668121 3702:0.087336242 3704:0.043668121 3707:0.087336242 3709:1.441048 3710:1.0480349 3712:0.043668121 3715:0.043668121 3717:0.043668121 3720:0.39301309 3721:0.087336242 3722:0.043668121 3725:0.043668121 3727:0.043668121 3729:0.087336242 3731:0.21834061 3733:0.043668121 3734:0.13100436 3737:0.043668121 3738:0.087336242 3741:0.17467248 3742:0.043668121 3744:0.21834061 3745:0.17467248 3747:0.26200873 3751:0.043668121 3756:0.043668121 3758:0.043668121 3759:0.043668121 3768:0.34934497 3770:0.17467248 3772:0.043668121 3773:0.21834061 3775:0.043668121 3778:0.087336242 3780:0.087336242 3782:0.043668121 3784:0.043668121 3786:0.043668121 3787:0.13100436 3789:0.043668121 3792:0.13100436 3793:0.043668121 3811:0.13100436 3814:0.043668121 3815:0.043668121 3816:0.043668121 3817:0.087336242 3818:0.043668121 3821:0.13100436 3822:0.21834061 3823:0.13100436 3824:0.043668121 3825:0.043668121 3826:0.043668121 3828:0.087336242 3829:0.043668121 3836:0.043668121 3842:0.043668121 3843:0.043668121 3844:0.043668121 3845:0.043668121 3846:0.043668121 3849:0.043668121 3852:0.087336242 3861:0.043668121 3862:0.043668121 3864:0.087336242 3865:0.043668121 3866:0.043668121 3870:1.3537118 3872:0.043668121 3873:0.087336242 3874:0.39301309 3878:0.043668121 3880:0.087336242 3882:0.043668121 3883:0.087336242 3884:0.043668121 3888:0.043668121 3891:0.087336242 3893:0.087336242 3894:0.087336242 3898:0.17467248 3903:0.043668121 3904:0.087336242 3905:0.21834061 3908:0.043668121 3910:0.043668121 3912:0.043668121 3916:0.087336242 3918:0.043668121 3920:0.087336242 3921:0.0069808001 3922:0.080279231 3923:0.14485165 3924:0.076788828 3925:0.023560209 3926:0.02094241 3927:0.059336819 3928:0.0026177999 3929:0.11343805 3930:0.05322862 3931:0.00087260001 3932:0.055846419 3933:0.03839441 3934:0.0026177999 3935:0.0069808001 3936:0.075043634 3937:0.0095985997 3938:0.01221641 3939:0.13176265 3940:0.084642231 3941:0.133928 3942:0.001952 3943:0.029957 3944:0.00098699995 3945:0.179756 #
-20.669242539017190551930980291218 1:0.0046728998 2:0.0046728998 4:0.01401869 7:0.02803738 8:0.0046728998 10:0.0046728998 11:0.01401869 12:0.02336449 14:0.0070093502 16:0.15186916 24:0.078247257 54:0.078247257 73:0.078247257 105:0.078247257 125:0.078247257 184:0.078247257 303:0.078247257 367:0.15649453 375:0.078247257 399:0.078247257 405:0.15649453 407:0.078247257 466:0.078247257 502:0.078247257 518:0.078247257 521:0.23474178 527:0.15649453 531:0.078247257 532:0.078247257 534:0.078247257 547:0.078247257 578:0.078247257 579:0.078247257 582:0.078247257 583:0.078247257 585:0.078247257 587:0.078247257 594:0.078247257 597:0.078247257 621:0.078247257 623:0.078247257 626:0.078247257 635:0.078247257 662:0.078247257 665:0.5477308 678:0.078247257 747:0.078247257 753:0.078247257 761:0.078247257 787:0.078247257 851:0.078247257 866:0.078247257 887:0.078247257 950:0.078247257 951:0.078247257 964:0.078247257 1004:0.078247257 1103:0.078247257 1144:0.078247257 1153:0.078247257 1253:0.078247257 1269:0.078247257 1273:0.078247257 1322:0.078247257 1419:0.078247257 1438:0.078247257 1439:0.078247257 1440:0.15649453 1445:0.078247257 1454:0.078247257 1455:0.078247257 1460:0.078247257 1461:0.078247257 1494:0.078247257 1497:0.078247257 1504:0.15649453 1505:0.078247257 1514:0.078247257 1515:0.078247257 1525:0.078247257 1533:0.078247257 1534:0.15649453 1542:0.078247257 1548:0.078247257 1550:0.078247257 1561:0.078247257 1565:0.078247257 1567:0.078247257 1575:0.078247257 1588:0.078247257 1626:0.078247257 1635:0.078247257 1662:0.078247257 1723:0.078247257 1728:0.078247257 1737:0.078247257 1739:0.078247257 1740:0.15649453 1764:0.078247257 1774:0.078247257 1778:0.078247257 1783:0.078247257 1807:0.15649453 1824:0.078247257 1950:0.078247257 2089:0.078247257 2112:0.078247257 2147:0.078247257 2171:0.078247257 2217:0.078247257 2304:0.078247257 2309:0.078247257 2385:0.078247257 2396:0.078247257 2452:0.078247257 2461:0.15649453 2488:0.078247257 2510:0.15649453 2550:0.078247257 2586:0.078247257 2651:0.078247257 2656:0.078247257 2677:0.078247257 2697:0.15649453 2699:0.078247257 2740:0.078247257 2763:0.078247257 2785:0.078247257 2807:0.078247257 2883:2.0344288 2886:0.078247257 2888:0.62597811 2901:0.078247257 2908:0.078247257 2910:0.078247257 2916:0.078247257 2939:0.078247257 2949:0.078247257 2959:0.078247257 2965:0.078247257 2966:1.0172144 2967:0.23474178 2971:0.078247257 2972:2.1126761 2973:0.15649453 2978:0.078247257 2984:0.078247257 3007:0.078247257 3027:0.078247257 3069:0.078247257 3101:0.078247257 3120:0.078247257 3147:0.078247257 3178:0.078247257 3191:0.078247257 3195:0.078247257 3238:0.078247257 3296:0.078247257 3308:0.078247257 3394:0.15649453 3674:0.11709602 3675:0.11709602 3679:0.11709602 3680:0.11709602 3684:0.23419204 3687:0.11709602 3688:0.11709602 3693:0.35128805 3694:0.11709602 3696:0.11709602 3697:0.11709602 3699:0.11709602 3700:3.6299765 3701:0.11709602 3703:0.11709602 3704:1.0538641 3705:0.7025761 3706:0.11709602 3709:0.81967211 3710:0.35128805 3712:0.11709602 3713:0.11709602 3715:1.2880563 3717:0.11709602 3718:0.23419204 3719:0.11709602 3720:0.11709602 3721:0.11709602 3722:0.11709602 3723:0.11709602 3726:0.23419204 3727:0.11709602 3729:0.11709602 3732:0.11709602 3733:0.23419204 3734:0.23419204 3736:0.11709602 3738:0.11709602 3741:0.11709602 3744:0.11709602 3745:0.11709602 3750:0.11709602 3752:0.11709602 3755:0.11709602 3757:0.11709602 3758:0.23419204 3761:0.11709602 3763:0.11709602 3764:0.11709602 3766:0.23419204 3767:0.58548009 3768:0.35128805 3769:0.23419204 3770:0.23419204 3772:0.58548009 3773:0.23419204 3774:0.23419204 3775:0.46838409 3776:0.23419204 3777:0.46838409 3778:0.46838409 3779:0.35128805 3781:0.23419204 3785:0.11709602 3786:0.35128805 3787:0.46838409 3789:0.23419204 3790:0.35128805 3792:0.11709602 3801:0.11709602 3806:0.11709602 3811:0.11709602 3816:0.11709602 3818:0.35128805 3819:0.23419204 3822:0.11709602 3824:0.11709602 3826:0.23419204 3831:0.23419204 3835:0.11709602 3836:0.35128805 3839:0.23419204 3841:0.11709602 3844:0.11709602 3847:0.11709602 3848:0.23419204 3850:0.11709602 3851:0.35128805 3854:0.23419204 3855:0.11709602 3857:0.11709602 3858:0.11709602 3863:3.2786884 3864:1.6393442 3866:0.35128805 3867:0.11709602 3868:0.23419204 3869:0.23419204 3870:5.6206088 3871:0.23419204 3872:0.11709602 3874:0.35128805 3877:0.23419204 3881:0.11709602 3883:0.23419204 3886:0.11709602 3887:0.11709602 3889:0.23419204 3893:0.11709602 3894:0.23419204 3897:0.11709602 3898:0.23419204 3904:0.23419204 3915:0.11709602 3921:0.02803738 3922:0.0046728998 3923:0.11915888 3924:0.10514019 3925:0.03504673 3926:0.03738318 3927:0.0093457904 3928:0.025700931 3929:0.10981309 3930:0.053738318 3931:0.0070093502 3932:0.04205608 3933:0.025700931 3934:0.025700931 3935:0.03037383 3936:0.27102804 3937:0.025700931 3938:0.025700931 3939:0.0046728998 3940:0.01401869 3941:0.02172 3942:0.0020270001 3943:0.00077799999 3944:0.000128 3945:0.17990699 #
-100 2:0.0069930102 3:0.020979021 4:0.01398601 7:0.017482519 8:0.0069930102 11:0.01048951 12:0.020979021 15:0.0069930102 16:0.05244755 17:0.062937073 106:0.11737089 172:0.11737089 249:0.11737089 313:0.11737089 367:0.11737089 417:0.11737089 468:0.35211268 528:0.11737089 529:0.11737089 530:0.11737089 552:0.11737089 562:0.11737089 582:0.11737089 623:0.11737089 675:0.11737089 856:0.11737089 861:0.11737089 940:0.11737089 955:0.11737089 988:0.11737089 1027:0.11737089 1032:0.11737089 1067:0.11737089 1076:0.11737089 1157:0.11737089 1172:0.11737089 1195:0.11737089 1199:0.11737089 1307:0.11737089 1375:0.11737089 1391:0.11737089 1392:0.11737089 1488:0.11737089 1499:0.11737089 1503:0.11737089 1504:0.11737089 1514:0.11737089 1559:0.11737089 1562:0.11737089 1584:0.11737089 1642:0.11737089 1652:0.11737089 1723:0.11737089 1741:0.11737089 1766:0.11737089 1792:0.11737089 1808:0.11737089 1814:0.11737089 2026:0.11737089 2028:0.11737089 2083:0.11737089 2113:0.11737089 2118:0.11737089 2132:0.11737089 2165:0.11737089 2174:0.11737089 2281:0.11737089 2296:0.11737089 2314:0.11737089 2315:0.11737089 2328:0.11737089 2392:0.11737089 2460:0.11737089 2502:0.11737089 2577:0.11737089 2609:0.11737089 2618:0.11737089 2660:0.11737089 2673:0.11737089 2686:0.11737089 2706:0.11737089 2715:0.11737089 2755:0.11737089 2804:0.11737089 2808:0.11737089 2883:0.35211268 2901:0.11737089 2906:0.11737089 2909:0.11737089 2910:0.23474178 2939:0.35211268 2961:0.11737089 2969:0.11737089 2970:0.11737089 2972:0.11737089 2973:0.23474178 2983:0.11737089 2984:0.46948355 2985:0.46948355 2993:0.11737089 3067:0.11737089 3077:0.11737089 3089:0.11737089 3092:0.11737089 3109:0.11737089 3118:0.11737089 3120:0.23474178 3121:0.58685446 3133:0.23474178 3134:0.93896711 3135:0.11737089 3170:0.11737089 3190:0.11737089 3271:0.11737089 3278:0.11737089 3279:0.11737089 3308:0.11737089 3564:0.11737089 3585:0.11737089 3676:0.1754386 3678:0.1754386 3679:0.1754386 3683:0.1754386 3685:0.1754386 3688:0.1754386 3690:0.1754386 3691:0.1754386 3693:0.3508772 3697:0.1754386 3700:1.0526316 3701:0.3508772 3704:0.52631581 3705:0.52631581 3706:0.1754386 3707:0.1754386 3709:0.1754386 3713:0.1754386 3717:0.1754386 3723:0.1754386 3726:0.1754386 3727:0.3508772 3729:0.1754386 3732:0.1754386 3733:0.1754386 3738:0.1754386 3740:0.3508772 3743:0.1754386 3745:0.1754386 3747:0.1754386 3748:0.3508772 3750:0.1754386 3753:0.1754386 3754:0.1754386 3755:0.1754386 3756:0.1754386 3759:0.1754386 3761:0.1754386 3763:0.1754386 3764:0.3508772 3770:0.1754386 3771:0.1754386 3772:0.52631581 3773:0.1754386 3774:0.1754386 3775:0.3508772 3776:0.1754386 3777:0.3508772 3780:0.1754386 3784:0.1754386 3786:0.52631581 3787:0.3508772 3789:0.1754386 3791:0.1754386 3792:0.1754386 3802:0.1754386 3806:0.52631581 3810:0.1754386 3811:0.3508772 3812:0.1754386 3813:0.1754386 3814:0.52631581 3818:0.70175439 3819:0.70175439 3821:0.3508772 3823:0.3508772 3825:0.1754386 3827:0.52631581 3828:0.1754386 3832:0.1754386 3836:0.1754386 3839:0.3508772 3844:0.1754386 3846:0.1754386 3847:0.1754386 3849:0.3508772 3850:0.3508772 3851:0.1754386 3852:0.1754386 3855:0.1754386 3857:0.1754386 3858:0.3508772 3863:0.52631581 3864:0.1754386 3866:0.70175439 3867:0.87719297 3869:0.70175439 3870:1.4035088 3871:1.7543859 3872:0.3508772 3874:0.1754386 3875:0.1754386 3876:0.1754386 3882:1.0526316 3883:1.7543859 3884:2.2807016 3885:0.1754386 3888:0.1754386 3889:0.1754386 3898:0.52631581 3921:0.02447552 3922:0.017482519 3923:0.05244755 3924:0.041958041 3925:0.017482519 3926:0.045454551 3927:0.034965031 3928:0.03846154 3929:0.062937073 3930:0.059440561 3931:0.01398601 3932:0.094405591 3933:0.048951048 3934:0.020979021 3935:0.048951048 3936:0.18881118 3937:0.14335664 3938:0.031468529 3939:0 3940:0.01398601 3941:0.0076120002 3942:0.000126 3943:0.000106 3944:3.0000001e-06 3945:0.202797 #
-100 2:0.0029806299 3:0.019374071 4:0.017883761 6:0.00596125 7:0.0029806299 8:0.0029806299 10:0.0029806299 11:0.0089418804 12:0.01639344 15:0.01043219 16:0.073025338 17:0.049180329 19:0.0029806299 63:0.049825609 103:0.049825609 149:0.049825609 161:0.049825609 176:0.049825609 179:0.049825609 183:0.049825609 184:0.099651217 185:0.099651217 192:0.099651217 230:0.049825609 239:0.049825609 322:0.049825609 354:0.099651217 362:0.099651217 365:0.049825609 415:0.049825609 417:0.049825609 437:0.049825609 446:0.049825609 458:0.049825609 466:0.049825609 469:0.049825609 473:0.049825609 525:0.049825609 532:0.049825609 580:0.049825609 582:0.049825609 596:0.049825609 600:0.049825609 663:0.049825609 669:0.049825609 704:0.049825609 706:0.049825609 739:0.049825609 744:0.049825609 752:0.049825609 779:0.049825609 781:0.049825609 785:0.049825609 792:0.099651217 807:0.049825609 812:0.049825609 828:0.049825609 851:0.099651217 855:0.049825609 893:0.049825609 916:0.099651217 972:0.049825609 988:0.049825609 1005:0.049825609 1028:0.099651217 1035:0.049825609 1117:0.049825609 1199:0.049825609 1205:0.049825609 1213:0.049825609 1257:0.049825609 1273:0.049825609 1288:0.049825609 1317:0.049825609 1323:0.049825609 1351:0.049825609 1375:0.049825609 1378:0.049825609 1387:0.049825609 1388:0.14947683 1389:0.049825609 1393:0.049825609 1399:0.049825609 1431:0.049825609 1455:0.049825609 1467:0.049825609 1471:0.049825609 1483:0.049825609 1490:0.049825609 1495:0.049825609 1499:0.049825609 1505:0.049825609 1506:0.049825609 1507:0.049825609 1524:0.049825609 1534:0.049825609 1578:0.049825609 1579:0.099651217 1581:0.049825609 1589:0.049825609 1646:0.049825609 1652:0.049825609 1721:0.049825609 1724:0.099651217 1725:0.049825609 1729:0.049825609 1738:0.049825609 1740:0.049825609 1767:0.049825609 1779:0.049825609 1781:0.049825609 1801:0.049825609 1809:0.049825609 1813:0.049825609 1814:0.049825609 1815:0.049825609 1816:0.049825609 1825:0.049825609 1863:0.049825609 1910:0.049825609 1937:0.049825609 1960:0.049825609 2020:0.049825609 2084:0.049825609 2109:0.049825609 2110:0.049825609 2115:0.049825609 2120:0.049825609 2139:0.049825609 2159:0.049825609 2166:0.049825609 2168:0.049825609 2169:0.049825609 2177:0.099651217 2180:0.049825609 2193:0.049825609 2226:0.049825609 2261:0.049825609 2262:0.049825609 2274:0.049825609 2288:0.049825609 2296:0.049825609 2311:0.049825609 2315:0.049825609 2316:0.049825609 2409:0.049825609 2464:0.049825609 2495:0.049825609 2500:0.049825609 2508:0.049825609 2514:0.049825609 2547:0.049825609 2549:0.099651217 2550:0.049825609 2631:0.049825609 2670:0.049825609 2677:0.049825609 2699:0.099651217 2706:0.049825609 2707:0.049825609 2708:0.049825609 2720:0.049825609 2721:0.049825609 2755:0.049825609 2759:0.049825609 2763:0.049825609 2764:0.049825609 2793:0.049825609 2806:0.049825609 2808:0.049825609 2877:0.049825609 2883:0.049825609 2888:0.049825609 2896:0.14947683 2907:0.049825609 2909:0.099651217 2910:0.049825609 2911:0.049825609 2916:0.049825609 2918:0.049825609 2921:0.049825609 2924:0.049825609 2938:0.049825609 2939:0.049825609 2958:0.049825609 2966:0.099651217 2967:0.049825609 2969:0.049825609 2970:0.19930243 2971:0.14947683 2972:0.44843048 2973:0.34877926 2974:0.049825609 2977:0.049825609 2980:0.049825609 2981:0.049825609 2984:0.19930243 2985:0.19930243 2986:0.099651217 2990:0.099651217 2994:0.049825609 2995:0.049825609 3005:0.049825609 3008:0.049825609 3017:0.049825609 3030:0.049825609 3031:0.049825609 3033:0.049825609 3036:0.099651217 3059:0.099651217 3089:0.049825609 3093:0.14947683 3096:0.049825609 3098:0.049825609 3110:0.049825609 3111:0.049825609 3119:0.049825609 3120:0.14947683 3122:0.099651217 3124:0.14947683 3125:0.049825609 3127:0.049825609 3128:0.049825609 3133:0.14947683 3134:0.5480817 3137:0.049825609 3141:0.099651217 3168:0.049825609 3204:0.049825609 3210:0.049825609 3227:0.049825609 3230:0.099651217 3244:0.049825609 3249:0.049825609 3273:0.049825609 3288:0.049825609 3289:0.049825609 3295:0.049825609 3298:0.049825609 3309:0.099651217 3310:0.049825609 3333:0.049825609 3440:0.049825609 3462:0.049825609 3535:0.049825609 3596:0.049825609 3626:0.049825609 3635:0.049825609 3648:0.049825609 3666:0.049825609 3676:0.074626863 3679:0.14925373 3682:0.074626863 3683:0.14925373 3684:0.37313432 3685:0.074626863 3687:0.074626863 3690:0.074626863 3691:0.074626863 3692:0.14925373 3693:0.14925373 3694:0.074626863 3696:0.074626863 3697:0.14925373 3698:0.074626863 3699:0.074626863 3700:0.29850745 3701:0.14925373 3702:0.2238806 3704:0.14925373 3705:0.074626863 3708:0.074626863 3709:0.14925373 3710:0.14925373 3715:0.29850745 3716:0.14925373 3718:0.37313432 3719:0.14925373 3720:0.074626863 3721:0.2238806 3722:0.37313432 3723:0.2238806 3724:0.074626863 3726:0.37313432 3727:0.074626863 3729:0.074626863 3730:0.29850745 3733:0.2238806 3734:0.074626863 3736:0.074626863 3738:0.074626863 3739:0.074626863 3742:0.074626863 3743:0.074626863 3748:0.14925373 3749:0.074626863 3752:0.14925373 3755:0.074626863 3756:0.074626863 3757:0.074626863 3758:0.2238806 3759:0.074626863 3761:0.29850745 3762:0.074626863 3763:0.52238804 3764:0.2238806 3767:0.14925373 3768:0.2238806 3769:0.074626863 3770:0.074626863 3771:0.2238806 3772:0.44776121 3773:0.2238806 3774:0.074626863 3775:0.2238806 3776:0.074626863 3778:0.2238806 3779:0.29850745 3780:0.14925373 3784:0.074626863 3785:0.14925373 3786:0.37313432 3787:0.2238806 3788:0.074626863 3789:0.14925373 3790:0.14925373 3791:0.074626863 3792:0.2238806 3793:0.074626863 3795:0.074626863 3800:0.074626863 3802:0.074626863 3806:0.074626863 3810:0.074626863 3812:0.2238806 3814:0.52238804 3815:0.074626863 3817:0.074626863 3818:0.74626863 3819:0.37313432 3820:0.14925373 3821:0.37313432 3823:0.14925373 3824:0.37313432 3825:0.29850745 3826:0.14925373 3827:0.44776121 3828:0.14925373 3831:0.074626863 3834:0.14925373 3836:0.2238806 3837:0.074626863 3838:0.074626863 3839:0.37313432 3840:0.29850745 3841:0.37313432 3847:0.074626863 3849:0.074626863 3850:0.074626863 3851:0.37313432 3852:0.2238806 3855:0.37313432 3857:0.074626863 3858:0.37313432 3862:0.074626863 3863:0.2238806 3864:0.074626863 3865:0.2238806 3866:0.5970149 3867:0.52238804 3868:0.37313432 3869:0.2238806 3870:2.1641791 3871:1.3432835 3872:0.44776121 3874:0.14925373 3875:0.44776121 3876:0.074626863 3877:0.074626863 3878:0.29850745 3879:0.29850745 3880:0.074626863 3881:0.44776121 3882:0.37313432 3883:0.89552242 3884:1.641791 3885:0.2238806 3888:0.2238806 3890:0.14925373 3892:0.2238806 3893:0.14925373 3894:0.074626863 3896:0.29850745 3897:0.14925373 3898:0.5970149 3900:0.074626863 3901:0.074626863 3905:0.074626863 3906:0.074626863 3910:0.074626863 3914:0.074626863 3916:0.074626863 3918:0.074626863 3919:0.14925373 3920:0.14925373 3921:0.038748141 3922:0.0089418804 3923:0.049180329 3924:0.02980626 3925:0.046199702 3926:0.02980626 3927:0.01043219 3928:0.052160949 3929:0.068554386 3930:0.064083457 3931:0.0074515701 3932:0.078986593 3933:0.056631889 3934:0.044709388 3935:0.035767511 3936:0.17883755 3937:0.1147541 3938:0.052160949 3939:0.0089418804 3940:0.02384501 3941:0.035785999 3942:0.000203 3943:0.002451 3944:5.6000001e-05 3945:0.26974699 #
100 1:0.01492537 2:0.0059701502 3:0.0119403 7:0.04179104 10:0.0059701502 11:0.03582089 12:0.080597013 15:0.0119403 21:0.1001001 23:0.1001001 31:0.1001001 51:0.2002002 52:0.2002002 116:0.1001001 119:0.1001001 120:0.1001001 121:0.2002002 124:0.1001001 156:0.1001001 165:0.2002002 168:0.1001001 195:0.1001001 202:0.1001001 229:0.1001001 250:0.1001001 277:0.1001001 282:0.1001001 302:0.1001001 354:0.1001001 367:0.1001001 370:0.2002002 397:0.1001001 406:0.2002002 408:0.1001001 415:0.1001001 447:0.1001001 464:0.1001001 507:0.1001001 512:0.1001001 520:0.1001001 525:0.1001001 527:0.1001001 531:0.2002002 532:0.1001001 556:0.1001001 580:0.1001001 582:0.6006006 583:0.2002002 588:0.1001001 617:0.1001001 653:0.1001001 681:0.1001001 765:0.1001001 782:0.1001001 789:0.1001001 887:0.1001001 955:0.1001001 964:0.2002002 967:0.1001001 1001:0.1001001 1091:0.1001001 1182:0.1001001 1279:0.1001001 1297:0.1001001 1298:0.1001001 1302:0.1001001 1314:0.1001001 1330:0.1001001 1364:0.1001001 1408:0.1001001 1413:0.1001001 1419:0.1001001 1428:0.1001001 1437:0.1001001 1439:0.1001001 1444:0.1001001 1463:0.1001001 1484:0.1001001 1485:0.1001001 1487:0.1001001 1494:0.3003003 1495:0.1001001 1499:0.1001001 1500:0.1001001 1504:0.1001001 1506:0.1001001 1510:0.2002002 1514:0.2002002 1518:0.1001001 1567:0.1001001 1570:0.1001001 1577:0.1001001 1625:0.1001001 1629:0.2002002 1632:0.1001001 1639:0.1001001 1650:0.1001001 1659:0.1001001 1662:0.2002002 1665:0.1001001 1684:0.1001001 1710:0.1001001 1714:0.1001001 1719:0.2002002 1720:0.1001001 1725:0.1001001 1727:0.1001001 1732:0.1001001 1734:0.1001001 1735:0.1001001 1741:0.1001001 1764:0.1001001 1765:0.1001001 1786:0.1001001 1791:0.1001001 1797:0.1001001 1841:0.1001001 2085:0.1001001 2089:0.1001001 2096:0.1001001 2120:0.1001001 2138:0.1001001 2259:0.1001001 2269:0.1001001 2292:0.1001001 2318:0.1001001 2323:0.1001001 2327:0.1001001 2374:0.1001001 2378:0.1001001 2448:0.2002002 2580:0.1001001 2587:0.2002002 2605:0.1001001 2612:0.1001001 2623:0.1001001 2645:0.2002002 2789:0.1001001 2824:0.1001001 2856:0.1001001 3013:0.1001001 3016:0.1001001 3078:0.1001001 3090:0.1001001 3122:0.1001001 3137:0.1001001 3160:0.2002002 3169:0.1001001 3178:0.1001001 3238:0.1001001 3243:0.1001001 3294:0.1001001 3343:0.1001001 3556:0.1001001 3574:0.1001001 3598:0.1001001 3613:0.1001001 3674:0.44910181 3675:0.59880239 3680:0.89820361 3682:0.1497006 3683:0.44910181 3684:0.1497006 3685:0.29940119 3688:0.1497006 3689:0.44910181 3692:0.1497006 3693:0.44910181 3694:0.44910181 3696:0.1497006 3697:0.29940119 3698:0.1497006 3699:0.1497006 3702:0.29940119 3703:0.1497006 3704:0.74850297 3705:1.0479041 3706:0.1497006 3707:0.1497006 3708:0.1497006 3709:1.3473054 3710:0.44910181 3712:0.1497006 3713:0.1497006 3714:0.1497006 3715:0.1497006 3716:0.1497006 3717:0.1497006 3720:0.1497006 3721:0.1497006 3722:0.1497006 3729:0.29940119 3732:0.1497006 3733:0.44910181 3734:0.44910181 3736:0.1497006 3738:0.1497006 3739:0.1497006 3743:0.1497006 3747:0.1497006 3749:0.1497006 3754:0.29940119 3756:0.44910181 3757:0.1497006 3758:0.1497006 3759:0.29940119 3762:0.1497006 3764:0.1497006 3766:0.44910181 3767:0.59880239 3769:0.29940119 3771:0.59880239 3772:2.0958083 3773:0.89820361 3775:0.29940119 3777:0.44910181 3779:0.59880239 3780:0.1497006 3781:1.1976048 3782:0.1497006 3783:0.1497006 3785:0.59880239 3786:0.74850297 3787:1.0479041 3789:0.29940119 3791:0.44910181 3793:0.1497006 3811:0.1497006 3812:0.29940119 3814:0.29940119 3815:0.29940119 3822:0.1497006 3823:0.1497006 3824:0.1497006 3825:0.29940119 3827:0.29940119 3828:0.29940119 3832:0.1497006 3835:0.29940119 3838:0.1497006 3844:0.44910181 3846:0.29940119 3848:0.44910181 3854:0.1497006 3856:0.1497006 3857:0.1497006 3860:0.1497006 3862:0.1497006 3863:0.44910181 3868:0.1497006 3872:0.1497006 3875:0.44910181 3876:0.1497006 3878:0.1497006 3882:0.1497006 3883:0.1497006 3885:0.1497006 3888:0.44910181 3891:0.1497006 3893:0.29940119 3894:0.1497006 3897:0.1497006 3899:0.1497006 3901:0.1497006 3915:0.1497006 3916:0.1497006 3921:0.068656713 3922:0.065671653 3923:0.077611938 3924:0.11343284 3925:0.01492537 3926:0.047761191 3927:0.01492537 3928:0.04179104 3929:0.16119403 3930:0.12238806 3931:0.00298507 3932:0.053731341 3933:0.047761191 3934:0.023880601 3935:0.04179104 3936:0.01492537 3937:0.032835819 3938:0.032835819 3939:0 3940:0.02089552 3941:0.010254 3942:-7.0000001e-06 3943:0.00018800001 3944:0 3945:0.34925401 #
100 1:0.022831051 4:0.0091324197 7:0.01141553 8:0.01369863 10:0.0091324197 11:0.0068493201 12:0.025114151 16:0.0045662099 19:0.0045662099 20:0.015981739 23:0.076452598 24:0.076452598 26:0.076452598 27:0.076452598 43:0.076452598 49:0.076452598 51:0.076452598 54:0.076452598 70:0.076452598 78:0.076452598 92:0.076452598 96:0.076452598 103:0.076452598 104:0.076452598 113:0.076452598 115:0.1529052 121:0.076452598 124:0.076452598 147:0.076452598 179:0.1529052 184:0.076452598 185:0.076452598 202:0.076452598 205:0.076452598 368:0.076452598 394:0.076452598 413:0.076452598 415:0.076452598 420:0.076452598 505:0.076452598 507:0.1529052 525:0.076452598 526:0.076452598 528:0.076452598 532:0.076452598 582:0.076452598 592:0.076452598 594:0.076452598 599:0.076452598 636:0.076452598 649:0.076452598 677:0.076452598 709:0.076452598 887:0.076452598 891:0.076452598 914:0.076452598 929:0.076452598 953:0.076452598 971:0.076452598 1005:0.076452598 1015:0.076452598 1032:0.076452598 1033:0.076452598 1038:0.076452598 1042:0.076452598 1201:0.076452598 1210:0.076452598 1249:0.076452598 1253:0.076452598 1254:0.076452598 1278:0.076452598 1299:0.076452598 1317:0.076452598 1327:0.076452598 1332:0.076452598 1359:0.076452598 1414:0.076452598 1416:0.076452598 1417:0.076452598 1419:0.076452598 1469:0.1529052 1481:0.076452598 1494:0.076452598 1500:0.076452598 1502:0.076452598 1509:0.076452598 1511:0.076452598 1514:0.076452598 1577:0.076452598 1624:0.076452598 1626:0.076452598 1628:0.1529052 1647:0.076452598 1649:0.076452598 1678:0.076452598 1684:0.076452598 1690:0.076452598 1691:0.076452598 1718:0.076452598 1728:0.076452598 1730:0.076452598 1737:0.076452598 1754:0.076452598 1769:0.076452598 1783:0.076452598 1786:0.076452598 1788:0.076452598 1793:0.076452598 1799:0.076452598 1841:0.076452598 2074:0.076452598 2143:0.076452598 2165:0.076452598 2175:0.076452598 2197:0.076452598 2214:0.076452598 2323:0.076452598 2356:0.076452598 2437:0.076452598 2457:0.076452598 2574:0.076452598 2578:0.076452598 2678:0.076452598 2681:0.076452598 2708:0.1529052 2772:0.076452598 2805:0.076452598 2812:0.076452598 2896:0.076452598 2916:0.076452598 2918:0.076452598 2956:0.076452598 2967:0.076452598 3005:0.076452598 3010:0.076452598 3011:0.076452598 3030:0.076452598 3031:0.076452598 3045:0.076452598 3063:0.076452598 3078:0.076452598 3090:0.076452598 3142:0.076452598 3210:0.076452598 3235:0.076452598 3240:0.076452598 3251:0.1529052 3252:0.076452598 3272:0.076452598 3276:0.076452598 3278:0.076452598 3279:0.076452598 3320:0.076452598 3326:0.076452598 3339:0.076452598 3529:0.076452598 3544:0.076452598 3674:0.5720824 3675:0.22883295 3676:0.11441647 3677:0.11441647 3678:1.0297483 3679:0.45766589 3680:0.5720824 3683:0.22883295 3685:0.22883295 3686:0.11441647 3693:0.34324944 3694:0.11441647 3696:0.22883295 3697:0.68649888 3698:0.11441647 3700:0.34324944 3702:0.45766589 3703:0.5720824 3704:0.34324944 3705:0.34324944 3706:0.11441647 3709:0.22883295 3710:0.34324944 3713:0.22883295 3714:0.11441647 3715:0.11441647 3716:0.22883295 3717:0.22883295 3721:0.22883295 3722:0.11441647 3724:0.22883295 3725:0.11441647 3726:0.11441647 3729:0.45766589 3733:0.11441647 3734:0.22883295 3736:0.45766589 3737:0.11441647 3738:0.34324944 3739:0.5720824 3740:0.22883295 3744:0.11441647 3749:0.22883295 3752:0.45766589 3754:0.45766589 3756:0.22883295 3757:0.22883295 3758:0.34324944 3759:0.22883295 3761:0.11441647 3762:0.22883295 3764:0.22883295 3766:0.45766589 3767:0.11441647 3768:0.11441647 3769:0.22883295 3771:0.22883295 3772:0.68649888 3773:0.5720824 3775:0.22883295 3778:0.22883295 3779:0.80091536 3780:0.45766589 3783:0.45766589 3784:0.11441647 3785:0.11441647 3786:0.34324944 3787:0.22883295 3789:0.11441647 3790:0.11441647 3791:0.45766589 3793:0.22883295 3794:0.11441647 3800:0.11441647 3807:0.11441647 3810:0.45766589 3811:0.11441647 3813:0.11441647 3815:0.34324944 3816:0.22883295 3818:0.11441647 3823:0.11441647 3824:0.11441647 3827:0.22883295 3828:0.22883295 3830:0.22883295 3832:0.11441647 3833:0.11441647 3834:0.34324944 3836:0.11441647 3838:0.11441647 3840:0.22883295 3841:0.22883295 3844:0.34324944 3846:0.11441647 3848:0.11441647 3850:0.22883295 3852:0.22883295 3856:0.11441647 3858:0.34324944 3863:0.22883295 3864:0.45766589 3865:0.11441647 3866:0.34324944 3867:0.11441647 3869:0.11441647 3870:0.11441647 3871:0.11441647 3872:0.11441647 3874:0.22883295 3875:0.11441647 3876:0.11441647 3878:0.45766589 3880:0.45766589 3881:0.11441647 3882:0.11441647 3885:0.22883295 3887:0.11441647 3888:0.22883295 3889:0.11441647 3890:0.22883295 3893:0.34324944 3894:0.34324944 3895:0.11441647 3898:0.45766589 3899:0.34324944 3901:0.34324944 3904:0.11441647 3906:0.22883295 3910:0.11441647 3914:0.45766589 3919:0.11441647 3921:0.11872146 3922:0.0068493201 3923:0.066210046 3924:0.066210046 3925:0.022831051 3926:0.079908676 3927:0.015981739 3928:0.063926943 3929:0.089041099 3930:0.084474877 3931:0.0091324197 3932:0.04109589 3933:0.036529679 3934:0.034246579 3935:0.029680369 3936:0.066210046 3937:0.045662101 3938:0.077625573 3939:0.01141553 3940:0.034246579 3941:0.016443999 3942:-9.9999997e-06 3943:0.000478 3944:-3.0000001e-06 3945:0.383562 #
100 1:0.024096381 2:0.0080321301 4:0.0080321301 7:0.01606426 8:0.032128509 10:0.01606426 11:0.0080321301 14:0.0080321301 15:0.0080321301 17:0.0080321301 20:0.01606426 23:0.13495277 26:0.13495277 31:0.13495277 52:0.13495277 73:0.13495277 104:0.13495277 110:0.13495277 149:0.13495277 173:0.13495277 174:0.13495277 177:0.13495277 192:0.13495277 195:0.13495277 501:0.13495277 535:0.13495277 636:0.13495277 643:0.13495277 654:0.13495277 663:0.13495277 923:0.13495277 927:0.13495277 959:0.13495277 1375:0.13495277 1391:0.13495277 1397:0.13495277 1413:0.13495277 1581:0.13495277 1587:0.13495277 1596:0.13495277 1623:0.13495277 1626:0.13495277 1632:0.13495277 1741:0.13495277 1788:0.13495277 1789:0.13495277 1824:0.13495277 2315:0.13495277 2368:0.13495277 2457:0.13495277 2609:0.13495277 2616:0.13495277 2695:0.13495277 2801:0.13495277 2831:0.13495277 2873:0.13495277 2910:0.13495277 2919:0.13495277 2941:0.13495277 2979:0.13495277 2989:0.13495277 2996:0.13495277 3030:0.13495277 3044:0.13495277 3069:0.13495277 3125:0.13495277 3154:0.13495277 3160:0.13495277 3169:0.13495277 3170:0.13495277 3306:0.13495277 3326:0.13495277 3674:0.60483873 3675:0.60483873 3676:0.40322581 3678:0.60483873 3679:0.40322581 3682:0.60483873 3683:0.60483873 3684:0.2016129 3685:0.40322581 3687:0.2016129 3692:0.2016129 3693:0.40322581 3696:0.2016129 3697:0.2016129 3702:0.40322581 3703:0.40322581 3704:0.2016129 3705:0.40322581 3708:0.2016129 3709:0.40322581 3710:0.2016129 3712:0.2016129 3713:0.40322581 3714:0.40322581 3715:0.40322581 3717:0.40322581 3721:0.2016129 3722:0.2016129 3727:0.2016129 3729:0.40322581 3730:0.2016129 3731:0.2016129 3733:0.40322581 3734:0.2016129 3736:0.2016129 3738:0.40322581 3740:0.2016129 3743:0.2016129 3752:0.40322581 3756:0.40322581 3757:0.40322581 3759:0.2016129 3761:0.40322581 3763:0.2016129 3764:0.60483873 3765:0.2016129 3766:0.2016129 3768:0.2016129 3771:0.40322581 3773:0.2016129 3774:0.2016129 3778:0.40322581 3779:0.80645162 3780:0.40322581 3781:0.2016129 3786:0.2016129 3787:0.2016129 3791:0.40322581 3792:0.40322581 3810:0.2016129 3811:0.80645162 3812:0.2016129 3818:0.2016129 3819:0.2016129 3824:0.2016129 3825:0.2016129 3826:0.2016129 3827:0.2016129 3830:0.2016129 3836:0.60483873 3838:0.2016129 3841:0.2016129 3846:0.40322581 3851:0.60483873 3852:0.2016129 3856:0.40322581 3857:0.2016129 3860:0.40322581 3864:0.2016129 3866:0.40322581 3867:0.2016129 3871:0.2016129 3872:0.40322581 3875:0.2016129 3878:0.60483873 3880:0.40322581 3881:0.2016129 3882:0.2016129 3884:0.2016129 3886:0.2016129 3888:0.80645162 3889:0.2016129 3890:0.40322581 3891:0.2016129 3892:0.80645162 3894:0.40322581 3898:0.40322581 3899:0.40322581 3902:0.2016129 3906:0.2016129 3911:0.2016129 3916:0.2016129 3921:0.11646587 3922:0.0080321301 3923:0.044176709 3924:0.084337354 3925:0.032128509 3926:0.072289146 3927:0.01204819 3928:0.076305218 3929:0.056224901 3930:0.076305218 3931:0.0080321301 3932:0.056224901 3933:0.040160641 3934:0.032128509 3935:0.052208841 3936:0.052208841 3937:0.060240969 3938:0.092369467 3939:0.01606426 3940:0.01204819 3941:0.0054580001 3942:2.6e-05 3943:5.3e-05 3944:1e-06 3945:0.409639 #
-72.234818989317631121593876741827 1:0.0073800702 3:0.00369004 6:0.0073800702 7:0.00369004 8:0.01291513 10:0.00369004 11:0.00369004 12:0.0073800702 14:0.01476015 15:0.00369004 16:0.01476015 17:0.00369004 19:0.0073800702 20:0.0073800702 24:0.12345679 60:0.061728399 65:0.061728399 73:0.061728399 115:0.061728399 117:0.061728399 120:0.061728399 126:0.061728399 143:0.061728399 149:0.061728399 162:0.061728399 186:0.061728399 215:0.061728399 285:0.061728399 326:0.061728399 378:0.12345679 379:0.061728399 402:0.061728399 408:0.061728399 417:0.061728399 422:0.061728399 431:0.061728399 443:0.061728399 452:0.061728399 474:0.061728399 477:0.061728399 492:0.061728399 521:0.061728399 552:0.061728399 572:0.061728399 580:0.061728399 592:0.061728399 596:0.061728399 597:0.061728399 608:0.061728399 615:0.061728399 626:0.061728399 627:0.061728399 628:0.061728399 633:0.061728399 651:0.061728399 677:0.061728399 710:0.061728399 731:0.061728399 732:0.061728399 745:0.12345679 748:0.061728399 788:0.061728399 793:0.061728399 794:0.061728399 799:0.061728399 816:0.061728399 858:0.061728399 902:0.061728399 910:0.061728399 924:0.061728399 926:0.061728399 928:0.061728399 941:0.061728399 949:0.061728399 950:0.061728399 954:0.061728399 965:0.061728399 1028:0.061728399 1097:0.061728399 1104:0.061728399 1129:0.061728399 1167:0.061728399 1180:0.061728399 1228:0.061728399 1243:0.061728399 1251:0.061728399 1253:0.061728399 1290:0.061728399 1318:0.061728399 1321:0.061728399 1334:0.061728399 1354:0.061728399 1382:0.061728399 1386:0.061728399 1389:0.061728399 1393:0.061728399 1419:0.061728399 1420:0.061728399 1434:0.061728399 1437:0.061728399 1445:0.061728399 1456:0.061728399 1464:0.061728399 1494:0.061728399 1518:0.061728399 1533:0.061728399 1556:0.061728399 1590:0.061728399 1593:0.061728399 1629:0.061728399 1645:0.061728399 1649:0.061728399 1650:0.061728399 1653:0.061728399 1662:0.061728399 1669:0.061728399 1678:0.061728399 1683:0.061728399 1687:0.061728399 1710:0.061728399 1712:0.061728399 1724:0.061728399 1734:0.061728399 1749:0.061728399 1756:0.061728399 1768:0.061728399 1769:0.061728399 1778:0.061728399 1793:0.061728399 1803:0.061728399 1807:0.061728399 1811:0.061728399 1813:0.061728399 1815:0.12345679 1827:0.061728399 1829:0.061728399 1834:0.061728399 1894:0.061728399 1911:0.061728399 1944:0.061728399 1947:0.061728399 1961:0.061728399 1962:0.061728399 2069:0.061728399 2074:0.12345679 2076:0.061728399 2093:0.061728399 2107:0.061728399 2116:0.061728399 2119:0.061728399 2122:0.061728399 2138:0.061728399 2156:0.061728399 2158:0.061728399 2165:0.061728399 2166:0.061728399 2175:0.061728399 2183:0.061728399 2214:0.061728399 2216:0.061728399 2218:0.061728399 2219:0.061728399 2220:0.061728399 2266:0.061728399 2274:0.061728399 2275:0.061728399 2301:0.061728399 2314:0.061728399 2325:0.061728399 2331:0.061728399 2349:0.061728399 2354:0.12345679 2364:0.061728399 2371:0.061728399 2404:0.061728399 2416:0.061728399 2470:0.061728399 2488:0.061728399 2490:0.061728399 2494:0.061728399 2548:0.061728399 2565:0.061728399 2569:0.061728399 2597:0.061728399 2681:0.061728399 2711:0.061728399 2739:0.061728399 2749:0.061728399 2820:0.061728399 2828:0.061728399 2846:0.061728399 2901:0.12345679 2902:0.061728399 2907:0.061728399 2910:0.061728399 2916:0.061728399 2924:0.061728399 2939:0.061728399 2949:0.061728399 2951:0.061728399 2959:0.061728399 2969:0.061728399 2970:0.12345679 2981:0.061728399 2983:0.061728399 2990:0.061728399 2995:0.061728399 2999:0.061728399 3005:0.061728399 3006:0.061728399 3007:0.061728399 3017:0.061728399 3028:0.061728399 3036:0.061728399 3045:0.061728399 3046:0.061728399 3054:0.061728399 3061:0.061728399 3069:0.061728399 3079:0.061728399 3086:0.061728399 3091:0.061728399 3121:0.061728399 3122:0.061728399 3131:0.061728399 3212:0.061728399 3217:0.061728399 3227:0.061728399 3238:0.061728399 3240:0.061728399 3242:0.061728399 3288:0.061728399 3313:0.061728399 3335:0.061728399 3339:0.061728399 3343:0.061728399 3431:0.061728399 3450:0.061728399 3456:0.061728399 3495:0.061728399 3497:0.061728399 3538:0.061728399 3579:0.061728399 3585:0.061728399 3643:0.061728399 3674:0.18484288 3675:0.092421442 3676:0.18484288 3679:0.092421442 3680:0.46210721 3682:0.092421442 3684:0.27726433 3686:0.092421442 3688:0.092421442 3689:0.092421442 3690:0.092421442 3692:0.092421442 3693:0.18484288 3694:0.27726433 3696:0.18484288 3697:0.27726433 3698:0.27726433 3701:0.18484288 3702:0.18484288 3704:0.092421442 3705:0.092421442 3706:0.18484288 3708:0.18484288 3709:0.092421442 3710:0.27726433 3711:0.092421442 3712:0.36968577 3713:0.092421442 3714:0.092421442 3715:0.36968577 3717:0.27726433 3718:0.27726433 3719:0.092421442 3720:0.18484288 3721:0.18484288 3722:0.27726433 3723:0.092421442 3726:0.092421442 3727:0.18484288 3729:0.092421442 3730:0.092421442 3731:0.18484288 3732:0.092421442 3733:0.36968577 3734:0.27726433 3735:0.092421442 3736:0.092421442 3737:0.092421442 3741:0.18484288 3743:0.092421442 3744:0.092421442 3746:0.092421442 3747:0.092421442 3752:0.36968577 3753:0.092421442 3754:0.092421442 3755:0.092421442 3756:0.092421442 3757:0.092421442 3758:0.18484288 3759:0.18484288 3761:0.18484288 3762:0.092421442 3763:0.18484288 3764:0.18484288 3765:0.092421442 3766:0.36968577 3767:0.092421442 3768:0.092421442 3769:0.18484288 3770:0.18484288 3771:0.092421442 3772:0.18484288 3773:0.46210721 3775:0.64695007 3776:0.092421442 3778:0.18484288 3779:0.092421442 3780:0.55452865 3781:0.36968577 3782:0.18484288 3783:0.36968577 3785:0.36968577 3786:0.18484288 3787:0.092421442 3788:0.092421442 3789:0.27726433 3790:0.092421442 3791:0.18484288 3792:0.18484288 3794:0.092421442 3795:0.092421442 3798:0.092421442 3801:0.27726433 3802:0.18484288 3807:0.18484288 3810:0.46210721 3811:0.27726433 3812:0.36968577 3814:0.092421442 3815:0.18484288 3816:0.092421442 3817:0.27726433 3818:0.18484288 3819:0.092421442 3820:0.092421442 3821:0.092421442 3822:0.092421442 3823:0.18484288 3824:0.18484288 3825:0.092421442 3826:0.092421442 3827:0.18484288 3830:0.18484288 3832:0.092421442 3835:0.18484288 3836:0.18484288 3837:0.092421442 3838:0.092421442 3840:0.18484288 3841:0.092421442 3843:0.27726433 3845:0.092421442 3850:0.092421442 3852:0.092421442 3854:0.36968577 3859:0.092421442 3860:0.092421442 3861:0.092421442 3864:0.18484288 3866:0.18484288 3867:0.18484288 3868:0.18484288 3869:0.092421442 3870:0.36968577 3871:0.36968577 3872:0.46210721 3873:0.18484288 3874:0.27726433 3875:0.092421442 3877:0.27726433 3878:0.092421442 3879:0.18484288 3880:0.18484288 3881:0.27726433 3882:0.18484288 3883:0.27726433 3884:0.092421442 3885:0.092421442 3890:0.18484288 3892:0.27726433 3893:0.36968577 3894:0.27726433 3895:0.092421442 3896:0.18484288 3898:0.092421442 3899:0.092421442 3900:0.092421442 3901:0.27726433 3905:0.092421442 3906:0.18484288 3907:0.092421442 3910:0.27726433 3911:0.092421442 3914:0.36968577 3915:0.18484288 3916:0.18484288 3921:0.05535055 3922:0.020295201 3923:0.05535055 3924:0.05719557 3925:0.051660519 3926:0.068265676 3927:0.01660517 3928:0.05350554 3929:0.070110701 3930:0.092250921 3931:0.02214022 3932:0.071955718 3933:0.05719557 3934:0.036900371 3935:0.01845018 3936:0.07564576 3937:0.049815498 3938:0.05535055 3939:0.01845018 3940:0.05350554 3941:0.024685999 3942:-5.3e-05 3943:0.001103 3944:-2e-06 3945:0.35055399 #
-12.780261001868778336643117654603 8:0.036363639 12:0.1 142:0.30864197 283:0.30864197 460:0.30864197 554:0.30864197 582:0.30864197 620:0.30864197 755:0.30864197 927:0.30864197 928:0.30864197 961:0.30864197 967:0.30864197 1014:0.30864197 1032:0.30864197 1040:0.30864197 1220:0.30864197 1436:0.30864197 1460:0.30864197 1461:0.30864197 1467:0.30864197 1469:0.30864197 1494:0.30864197 1502:0.30864197 1520:0.30864197 1585:0.30864197 1590:0.30864197 1615:0.30864197 1625:0.30864197 1674:0.30864197 1699:0.30864197 1723:0.61728394 1773:0.30864197 2087:0.30864197 2111:0.30864197 2118:0.30864197 2140:0.30864197 2223:0.30864197 2285:0.30864197 2535:0.30864197 2597:0.30864197 2706:0.30864197 2739:0.30864197 2886:0.30864197 2898:0.30864197 3008:0.30864197 3107:0.30864197 3155:0.30864197 3193:0.30864197 3197:0.30864197 3213:0.30864197 3579:0.30864197 3593:0.30864197 3596:0.30864197 3675:0.45871559 3676:0.45871559 3684:0.91743118 3689:0.45871559 3692:0.45871559 3697:0.45871559 3699:0.45871559 3706:0.45871559 3709:1.3761468 3713:0.45871559 3718:0.45871559 3719:0.91743118 3721:0.45871559 3729:0.45871559 3734:0.91743118 3737:0.45871559 3738:0.45871559 3739:0.91743118 3742:0.45871559 3744:0.45871559 3750:0.45871559 3766:0.45871559 3769:1.8348624 3772:2.7522936 3774:0.45871559 3778:0.45871559 3779:0.45871559 3781:0.45871559 3782:0.45871559 3784:0.45871559 3786:0.91743118 3790:0.45871559 3792:0.45871559 3794:0.45871559 3806:0.45871559 3812:0.45871559 3815:0.45871559 3822:0.45871559 3824:0.45871559 3845:0.45871559 3851:0.45871559 3854:0.45871559 3863:0.45871559 3864:0.45871559 3874:0.45871559 3877:0.45871559 3878:0.45871559 3883:0.45871559 3885:0.45871559 3887:0.45871559 3889:0.91743118 3890:0.45871559 3899:0.45871559 3911:0.45871559 3915:0.45871559 3916:0.91743118 3919:0.45871559 3921:0.054545451 3922:0.018181819 3923:0.036363639 3924:0.063636363 3925:0.036363639 3926:0.11818182 3927:0.027272729 3928:0.0090909097 3929:0.16363636 3930:0.07272727 3931:0.027272729 3932:0.036363639 3933:0.063636363 3934:0.018181819 3935:0.027272729 3936:0.045454551 3937:0.081818178 3938:0.045454551 3939:0.0090909097 3940:0.045454551 3941:0.001151 3942:4.9999999e-06 3943:2e-06 3944:0 3945:0.26363599 #
-24.470440618805081811615309561603 1:0.00711744 2:0.00711744 7:0.00711744 8:0.00711744 11:0.01423488 12:0.00711744 14:0.00711744 15:0.028469751 17:0.02135231 20:0.02135231 26:0.11947431 49:0.11947431 80:0.11947431 92:0.11947431 123:0.11947431 189:0.11947431 190:0.11947431 206:0.11947431 272:0.11947431 354:0.11947431 370:0.11947431 384:0.11947431 397:0.11947431 412:0.11947431 416:0.11947431 419:0.11947431 435:0.11947431 466:0.11947431 476:0.11947431 477:0.11947431 522:0.11947431 524:0.11947431 535:0.11947431 551:0.11947431 570:0.11947431 584:0.11947431 599:0.11947431 644:0.11947431 666:0.11947431 667:0.11947431 698:0.11947431 731:0.11947431 746:0.11947431 756:0.11947431 796:0.11947431 819:0.11947431 857:0.23894863 862:0.11947431 909:0.11947431 955:0.11947431 957:0.11947431 959:0.11947431 971:0.11947431 1014:0.11947431 1019:0.11947431 1039:0.11947431 1082:0.11947431 1085:0.11947431 1104:0.11947431 1139:0.11947431 1269:0.11947431 1295:0.11947431 1297:0.11947431 1315:0.11947431 1326:0.11947431 1393:0.11947431 1468:0.11947431 1508:0.11947431 1515:0.11947431 1521:0.11947431 1543:0.11947431 1545:0.11947431 1589:0.23894863 1596:0.23894863 1602:0.11947431 1667:0.11947431 1696:0.11947431 1718:0.11947431 1733:0.11947431 1755:0.11947431 1756:0.11947431 1778:0.11947431 1789:0.11947431 1798:0.23894863 1806:0.11947431 1814:0.11947431 1823:0.11947431 1825:0.11947431 1871:0.11947431 1872:0.11947431 1938:0.11947431 2026:0.11947431 2116:0.11947431 2198:0.11947431 2201:0.11947431 2239:0.23894863 2244:0.11947431 2252:0.11947431 2283:0.11947431 2341:0.11947431 2419:0.11947431 2459:0.11947431 2608:0.11947431 2622:0.11947431 2688:0.11947431 2700:0.11947431 2756:0.11947431 2763:0.11947431 2766:0.11947431 2801:0.11947431 2828:0.11947431 2869:0.11947431 2908:0.11947431 2924:0.11947431 3017:0.11947431 3027:0.11947431 3033:0.11947431 3044:0.11947431 3048:0.11947431 3080:0.23894863 3124:0.11947431 3142:0.23894863 3251:0.11947431 3263:0.11947431 3270:0.11947431 3312:0.11947431 3327:0.11947431 3336:0.11947431 3342:0.11947431 3352:0.11947431 3372:0.11947431 3480:0.11947431 3508:0.11947431 3557:0.11947431 3674:0.17857143 3676:0.17857143 3677:0.17857143 3678:0.35714287 3680:0.17857143 3684:0.53571427 3685:0.53571427 3686:0.17857143 3692:0.35714287 3693:0.17857143 3694:0.17857143 3695:0.17857143 3696:0.17857143 3697:0.53571427 3699:0.17857143 3700:0.35714287 3701:0.35714287 3702:0.17857143 3704:0.53571427 3705:0.17857143 3706:0.17857143 3708:0.17857143 3709:0.17857143 3710:0.17857143 3714:0.17857143 3715:0.17857143 3716:0.17857143 3717:0.17857143 3718:0.17857143 3719:0.53571427 3722:0.17857143 3725:0.17857143 3726:0.17857143 3727:0.53571427 3729:0.35714287 3730:0.35714287 3732:0.17857143 3733:0.71428573 3734:0.17857143 3737:0.35714287 3738:0.35714287 3739:0.53571427 3741:0.53571427 3743:0.35714287 3745:0.35714287 3756:0.53571427 3758:0.17857143 3759:0.35714287 3761:0.17857143 3762:0.17857143 3763:0.17857143 3764:0.53571427 3766:0.17857143 3769:0.17857143 3770:0.17857143 3772:0.17857143 3773:0.17857143 3774:0.17857143 3776:0.35714287 3778:0.71428573 3780:0.53571427 3781:0.17857143 3783:0.17857143 3784:0.17857143 3786:0.17857143 3787:0.35714287 3789:0.17857143 3790:0.17857143 3791:0.53571427 3792:0.35714287 3796:0.71428573 3800:0.17857143 3806:0.17857143 3810:0.53571427 3812:0.53571427 3822:0.35714287 3824:0.17857143 3825:0.89285713 3826:0.17857143 3827:0.17857143 3828:0.17857143 3829:0.17857143 3830:0.17857143 3832:0.17857143 3834:0.17857143 3836:0.35714287 3846:0.17857143 3847:0.17857143 3850:0.17857143 3851:0.17857143 3855:0.53571427 3857:0.17857143 3860:0.17857143 3865:0.17857143 3866:0.35714287 3867:0.17857143 3873:0.17857143 3875:0.35714287 3877:0.35714287 3878:0.53571427 3879:0.17857143 3880:0.71428573 3881:0.17857143 3884:0.53571427 3885:0.71428573 3890:0.35714287 3893:0.17857143 3894:0.35714287 3895:0.17857143 3896:0.17857143 3899:0.53571427 3900:0.17857143 3901:0.35714287 3902:0.17857143 3908:0.17857143 3911:0.17857143 3915:0.17857143 3921:0.056939501 3922:0.00355872 3923:0.081850544 3924:0.046263341 3925:0.060498219 3926:0.085409246 3927:0.03202847 3928:0.067615658 3929:0.049822059 3930:0.078291818 3931:0.02135231 3932:0.03202847 3933:0.081850544 3934:0.02135231 3935:0.039145909 3936:0.035587192 3937:0.092526689 3938:0.081850544 3939:0.01779359 3940:0.01423488 3941:0.0068839998 3942:-4.6000001e-05 3943:8.2999999e-05 3944:-1e-06 3945:0.370107 #
100 1:0.0032679699 3:0.026143789 4:0.0032679699 5:0.0032679699 6:0.083333343 7:0.0032679699 8:0.0032679699 9:0.0130719 10:0.0032679699 11:0.0032679699 12:0.01470588 13:0.0032679699 14:0.0032679699 15:0.03267974 16:0.03267974 17:0.01960784 19:0.0065359501 20:0.0032679699 32:0.054644808 103:0.054644808 109:0.054644808 117:0.054644808 125:0.054644808 143:0.054644808 149:0.054644808 184:0.054644808 192:0.054644808 408:0.054644808 466:0.054644808 483:0.054644808 525:0.054644808 567:0.054644808 569:0.054644808 582:0.054644808 596:0.054644808 606:0.054644808 649:0.054644808 669:0.054644808 756:0.054644808 812:0.054644808 889:0.054644808 930:0.054644808 990:0.054644808 1003:0.054644808 1020:0.054644808 1027:0.054644808 1041:0.054644808 1126:0.054644808 1214:0.054644808 1250:0.054644808 1272:0.054644808 1279:0.054644808 1311:0.054644808 1357:0.054644808 1379:0.054644808 1388:0.054644808 1391:0.054644808 1392:0.054644808 1395:0.054644808 1439:0.054644808 1444:0.054644808 1464:0.054644808 1500:0.054644808 1503:0.054644808 1504:0.054644808 1533:0.054644808 1542:0.054644808 1553:0.054644808 1557:0.10928962 1561:0.054644808 1581:0.054644808 1615:0.054644808 1623:0.054644808 1681:0.054644808 1723:0.054644808 1733:0.054644808 1757:0.054644808 1760:0.054644808 1782:0.054644808 1809:0.054644808 1815:0.054644808 1992:0.054644808 2089:0.054644808 2119:0.054644808 2122:0.054644808 2168:0.10928962 2170:0.054644808 2197:0.054644808 2219:0.054644808 2226:0.054644808 2272:0.054644808 2296:0.054644808 2314:0.054644808 2315:0.054644808 2327:0.054644808 2364:0.054644808 2427:0.054644808 2461:0.054644808 2464:0.054644808 2473:0.054644808 2490:0.054644808 2492:0.054644808 2496:0.054644808 2498:0.054644808 2500:0.054644808 2505:0.054644808 2510:0.054644808 2525:0.054644808 2537:0.10928962 2544:0.054644808 2545:0.054644808 2579:0.054644808 2582:0.054644808 2585:0.054644808 2625:0.054644808 2635:0.054644808 2640:0.054644808 2656:0.054644808 2699:0.054644808 2706:0.054644808 2719:0.054644808 2783:0.054644808 2811:0.054644808 2868:0.054644808 2872:0.054644808 2874:0.054644808 2877:0.054644808 2883:0.054644808 2894:0.054644808 2896:0.10928962 2900:0.054644808 2901:0.10928962 2910:0.054644808 2917:0.054644808 2938:0.054644808 2949:0.054644808 2953:0.054644808 2960:0.054644808 2964:0.054644808 2965:0.16393442 2968:0.10928962 2970:0.10928962 2972:0.10928962 2973:0.054644808 2981:0.054644808 2983:0.054644808 2984:0.054644808 2985:0.10928962 2987:0.054644808 2993:0.054644808 2995:0.054644808 3010:0.054644808 3047:0.054644808 3048:0.054644808 3049:0.054644808 3057:0.054644808 3089:0.16393442 3093:0.054644808 3119:0.054644808 3120:0.054644808 3121:0.054644808 3122:0.054644808 3124:0.054644808 3134:0.10928962 3167:0.054644808 3214:0.054644808 3227:0.054644808 3232:0.054644808 3246:0.054644808 3252:0.054644808 3273:0.054644808 3306:0.054644808 3309:0.054644808 3592:0.054644808 3616:0.054644808 3644:0.054644808 3674:0.081833057 3675:0.081833057 3676:0.081833057 3678:0.081833057 3679:0.16366611 3680:0.16366611 3681:0.081833057 3682:0.24549918 3683:0.16366611 3684:0.24549918 3686:0.081833057 3692:0.081833057 3700:0.16366611 3701:0.16366611 3702:0.16366611 3704:0.081833057 3705:0.081833057 3708:0.24549918 3709:0.24549918 3710:0.081833057 3711:0.081833057 3713:0.32733223 3714:0.081833057 3715:0.081833057 3716:0.081833057 3717:0.081833057 3719:0.081833057 3722:0.16366611 3723:0.081833057 3724:0.24549918 3726:0.16366611 3727:0.24549918 3728:0.081833057 3729:0.16366611 3733:0.081833057 3735:0.081833057 3736:0.16366611 3737:0.081833057 3738:0.16366611 3739:0.16366611 3747:0.081833057 3748:0.24549918 3752:0.081833057 3753:0.081833057 3754:0.24549918 3755:0.081833057 3757:0.081833057 3760:0.081833057 3762:0.081833057 3763:0.32733223 3764:0.24549918 3767:0.16366611 3768:0.081833057 3769:0.081833057 3771:0.081833057 3772:0.40916529 3773:0.24549918 3775:0.24549918 3776:0.16366611 3777:0.24549918 3779:0.081833057 3780:0.081833057 3782:0.16366611 3783:0.081833057 3784:0.081833057 3785:0.16366611 3786:0.081833057 3787:0.081833057 3788:0.16366611 3789:0.24549918 3790:0.24549918 3793:0.16366611 3800:0.16366611 3802:0.081833057 3803:0.081833057 3804:0.24549918 3806:0.16366611 3810:0.16366611 3812:0.32733223 3813:0.081833057 3814:0.81833059 3815:0.16366611 3816:0.49099836 3817:0.16366611 3818:0.32733223 3819:0.40916529 3821:0.24549918 3823:0.24549918 3824:0.32733223 3825:0.98199672 3826:0.16366611 3827:0.32733223 3828:0.16366611 3830:0.16366611 3831:0.081833057 3832:0.16366611 3833:0.24549918 3835:0.081833057 3836:0.40916529 3837:0.24549918 3838:0.16366611 3839:0.16366611 3840:0.65466446 3841:0.24549918 3843:0.24549918 3844:0.24549918 3847:0.16366611 3848:0.081833057 3851:0.16366611 3852:0.081833057 3854:0.16366611 3855:0.081833057 3856:0.16366611 3858:0.32733223 3862:0.081833057 3863:0.081833057 3865:0.40916529 3866:0.16366611 3867:0.40916529 3868:0.90016365 3869:0.32733223 3870:0.90016365 3871:0.65466446 3872:0.24549918 3873:0.081833057 3874:0.16366611 3875:0.081833057 3877:0.16366611 3878:0.081833057 3880:0.49099836 3881:0.49099836 3882:0.40916529 3883:0.65466446 3884:0.57283145 3885:0.081833057 3888:0.081833057 3889:0.081833057 3890:0.16366611 3892:0.24549918 3893:0.081833057 3894:0.081833057 3897:0.081833057 3898:0.24549918 3899:0.081833057 3906:0.081833057 3909:0.081833057 3912:0.081833057 3914:0.24549918 3915:0.081833057 3916:0.16366611 3921:0.049019609 3922:0.00490196 3923:0.022875819 3924:0.03104575 3925:0.029411759 3926:0.03267974 3927:0.024509801 3928:0.044117648 3929:0.045751631 3930:0.050653599 3931:0.026143789 3932:0.088235296 3933:0.083333343 3934:0.15849674 3935:0.034313731 3936:0.12254902 3937:0.080065362 3938:0.03594771 3939:0.0065359501 3940:0.029411759 3941:0.028464001 3942:-0.00054400001 3943:0.001616 3944:-3.9999999e-05 3945:0.240196 #
72.044886854566755118867149576545 1:0.0020876799 2:0.0041753701 3:0.0020876799 4:0.0041753701 5:0.0020876799 6:0.0020876799 7:0.0041753701 8:0.0020876799 9:0.0020876799 10:0.0041753701 11:0.01043841 12:0.0062630498 14:0.0062630498 15:0.0062630498 16:0.097077243 17:0.01148225 19:0.0020876799 20:0.0020876799 49:0.034867499 52:0.034867499 53:0.034867499 103:0.034867499 119:0.034867499 121:0.034867499 182:0.034867499 184:0.034867499 193:0.034867499 222:0.034867499 324:0.034867499 326:0.034867499 351:0.034867499 356:0.034867499 369:0.034867499 402:0.034867499 414:0.034867499 417:0.034867499 542:0.034867499 599:0.034867499 627:0.034867499 631:0.034867499 655:0.034867499 665:0.034867499 705:0.034867499 729:0.034867499 779:0.034867499 796:0.069735013 814:0.034867499 842:0.034867499 851:0.069735013 852:0.034867499 854:0.034867499 860:0.034867499 902:0.034867499 930:0.034867499 955:0.034867499 992:0.034867499 1037:0.034867499 1045:0.034867499 1056:0.034867499 1058:0.034867499 1068:0.034867499 1090:0.034867499 1217:0.034867499 1255:0.034867499 1256:0.034867499 1293:0.034867499 1352:0.034867499 1372:0.034867499 1376:0.034867499 1388:0.10460251 1389:0.069735013 1391:0.10460251 1393:0.069735013 1394:0.034867499 1417:0.034867499 1418:0.034867499 1455:0.034867499 1500:0.034867499 1505:0.034867499 1513:0.069735013 1515:0.034867499 1573:0.069735013 1581:0.034867499 1625:0.034867499 1647:0.034867499 1676:0.069735013 1681:0.034867499 1711:0.034867499 1725:0.034867499 1738:0.034867499 1754:0.034867499 1755:0.034867499 1757:0.034867499 1801:0.034867499 1805:0.034867499 1827:0.034867499 1843:0.034867499 1844:0.034867499 1848:0.034867499 2105:0.034867499 2140:0.034867499 2143:0.034867499 2166:0.069735013 2253:0.034867499 2256:0.034867499 2260:0.069735013 2267:0.034867499 2286:0.034867499 2290:0.034867499 2291:0.034867499 2306:0.069735013 2307:0.034867499 2314:1.0808926 2315:0.13947001 2321:0.069735013 2322:0.034867499 2402:0.034867499 2493:0.034867499 2589:0.034867499 2618:0.034867499 2636:0.034867499 2689:0.034867499 2710:0.034867499 2718:0.034867499 2743:0.034867499 2761:0.034867499 2787:0.034867499 2793:0.034867499 2803:0.034867499 2807:0.034867499 2810:0.034867499 2811:0.034867499 2812:0.034867499 2857:0.034867499 2870:0.034867499 2877:0.034867499 2908:0.45327756 2920:0.034867499 2921:0.034867499 2925:0.034867499 2941:0.034867499 2961:0.034867499 2966:0.034867499 2967:0.069735013 2968:0.034867499 2969:0.52301258 2970:0.10460251 2971:0.034867499 2972:0.52301258 2973:0.10460251 2974:0.13947001 2981:0.069735013 2984:0.034867499 2986:0.10460251 2988:0.034867499 2990:0.10460251 2995:0.034867499 3012:0.034867499 3026:0.034867499 3049:0.034867499 3051:0.034867499 3057:0.034867499 3059:0.069735013 3063:0.034867499 3066:0.034867499 3067:0.069735013 3087:0.069735013 3092:0.034867499 3094:0.034867499 3097:0.034867499 3098:0.069735013 3120:0.069735013 3123:0.034867499 3124:0.034867499 3126:0.034867499 3128:0.069735013 3130:0.034867499 3134:0.034867499 3140:0.034867499 3141:0.10460251 3157:0.034867499 3271:0.034867499 3289:0.034867499 3290:0.034867499 3310:0.034867499 3312:0.034867499 3529:0.034867499 3550:0.034867499 3577:0.034867499 3594:0.034867499 3595:0.034867499 3598:0.069735013 3619:0.034867499 3635:0.034867499 3642:0.034867499 3643:0.034867499 3650:0.034867499 3653:0.034867499 3670:0.034867499 3674:0.0522466 3675:0.10449321 3676:0.15673982 3678:0.15673982 3679:0.0522466 3680:0.15673982 3682:0.0522466 3684:0.10449321 3687:0.15673982 3690:0.10449321 3692:0.0522466 3693:0.0522466 3694:0.0522466 3696:0.15673982 3697:0.10449321 3700:0.10449321 3701:0.10449321 3702:0.10449321 3705:0.10449321 3707:0.0522466 3708:0.0522466 3709:0.0522466 3710:0.15673982 3712:0.15673982 3714:0.0522466 3715:0.0522466 3716:0.20898642 3718:0.0522466 3719:0.15673982 3720:0.0522466 3721:0.10449321 3722:0.20898642 3723:0.10449321 3725:0.0522466 3726:0.31347963 3727:0.31347963 3729:0.0522466 3731:0.0522466 3733:0.0522466 3734:0.10449321 3738:0.0522466 3739:0.15673982 3740:0.0522466 3743:0.0522466 3749:0.0522466 3750:0.10449321 3751:0.0522466 3752:0.15673982 3754:0.10449321 3755:0.15673982 3757:0.10449321 3758:0.15673982 3759:0.31347963 3761:0.10449321 3762:0.0522466 3763:0.31347963 3764:0.41797283 3766:0.10449321 3768:0.20898642 3769:0.0522466 3772:0.15673982 3773:0.15673982 3775:0.0522466 3776:0.0522466 3779:0.0522466 3780:0.10449321 3782:0.36572623 3783:0.15673982 3784:0.10449321 3785:0.26123303 3786:0.0522466 3787:0.26123303 3789:0.26123303 3790:0.0522466 3791:0.0522466 3792:0.10449321 3793:0.26123303 3794:0.0522466 3797:0.0522466 3799:0.0522466 3800:0.0522466 3805:0.0522466 3807:0.0522466 3810:0.15673982 3813:0.0522466 3814:0.0522466 3815:0.20898642 3817:0.10449321 3818:0.15673982 3819:0.0522466 3821:0.15673982 3822:0.26123303 3823:0.20898642 3824:0.0522466 3825:0.15673982 3826:1.2016718 3827:3.4482758 3828:0.36572623 3834:0.10449321 3836:0.0522466 3840:0.10449321 3843:0.0522466 3844:0.0522466 3846:0.0522466 3847:0.0522466 3849:0.10449321 3850:0.10449321 3852:0.26123303 3854:0.0522466 3855:0.94043887 3857:0.10449321 3858:0.41797283 3859:0.0522466 3862:0.0522466 3863:0.20898642 3864:0.15673982 3865:0.10449321 3866:0.78369904 3867:0.31347963 3868:0.0522466 3869:0.20898642 3870:3.6050158 3871:0.67920583 3872:0.36572623 3874:0.26123303 3875:0.26123303 3877:0.10449321 3878:0.0522466 3879:0.10449321 3880:0.15673982 3881:0.41797283 3882:0.20898642 3883:0.20898642 3884:0.31347963 3885:0.31347963 3887:0.15673982 3889:0.0522466 3890:0.0522466 3892:0.20898642 3896:0.15673982 3898:0.31347963 3899:0.10449321 3900:0.0522466 3901:0.10449321 3904:0.0522466 3908:0.0522466 3914:0.0522466 3915:0.10449321 3916:0.26123303 3918:0.10449321 3919:0.0522466 3920:0.0522466 3921:0.02713987 3922:0.01043841 3923:0.04697286 3924:0.02192067 3925:0.04175365 3926:0.02505219 3927:0.02400835 3928:0.0605428 3929:0.028183719 3930:0.05532359 3931:0.02922756 3932:0.03549061 3933:0.1691023 3934:0.0302714 3935:0.045929018 3936:0.21085595 3937:0.066805847 3938:0.028183719 3939:0.0041753701 3940:0.03862213 3941:0.082268 3942:0.012646 3943:0.014701 3944:0.004559 3945:0.25261 #
100 1:0.00193424 2:0.00193424 3:0.019342359 4:0.00386847 5:0.00193424 7:0.00386847 8:0.00386847 10:0.01740812 11:0.01450677 12:0.0058027101 13:0.00193424 14:0.00193424 16:0.08317215 17:0.033849131 19:0.00386847 68:0.032299738 77:0.032299738 95:0.032299738 125:0.032299738 142:0.032299738 173:0.032299738 184:0.096899226 186:0.032299738 198:0.064599477 324:0.032299738 326:0.032299738 346:0.032299738 356:0.032299738 370:0.032299738 381:0.032299738 406:0.032299738 417:0.032299738 473:0.032299738 475:0.032299738 483:0.032299738 529:0.032299738 535:0.032299738 544:0.032299738 572:0.032299738 603:0.032299738 618:0.032299738 625:0.032299738 651:0.032299738 663:0.032299738 665:0.064599477 670:0.032299738 672:0.12919897 698:0.032299738 699:0.032299738 729:0.032299738 789:0.032299738 812:0.032299738 839:0.032299738 851:0.12919897 852:0.096899226 858:0.032299738 860:0.032299738 890:0.032299738 902:0.032299738 930:0.032299738 936:0.032299738 941:0.032299738 992:0.032299738 1035:0.064599477 1039:0.032299738 1045:0.032299738 1056:0.032299738 1058:0.032299738 1216:0.032299738 1219:0.064599477 1275:0.032299738 1298:0.032299738 1310:0.032299738 1321:0.032299738 1330:0.032299738 1357:0.064599477 1376:0.032299738 1385:0.032299738 1388:0.19379845 1389:0.12919897 1392:0.064599477 1393:0.064599477 1431:0.032299738 1432:0.032299738 1450:0.032299738 1467:0.032299738 1486:0.032299738 1498:0.032299738 1514:0.032299738 1539:0.032299738 1571:0.032299738 1575:0.032299738 1576:0.032299738 1581:0.064599477 1582:0.032299738 1598:0.032299738 1628:0.032299738 1646:0.032299738 1661:0.064599477 1676:0.032299738 1681:0.032299738 1682:0.032299738 1683:0.032299738 1712:0.032299738 1714:0.032299738 1716:0.032299738 1722:0.032299738 1725:0.032299738 1729:0.032299738 1742:0.064599477 1757:0.032299738 1760:0.032299738 1762:0.032299738 1807:0.032299738 1815:0.096899226 1816:0.032299738 1826:0.032299738 2123:0.032299738 2143:0.032299738 2165:0.032299738 2168:0.032299738 2170:0.032299738 2172:0.032299738 2176:0.064599477 2226:0.032299738 2296:0.032299738 2313:0.032299738 2314:0.096899226 2319:0.032299738 2322:0.032299738 2409:0.032299738 2415:0.032299738 2458:0.032299738 2461:0.032299738 2513:0.032299738 2537:0.032299738 2569:0.032299738 2699:0.032299738 2706:0.032299738 2707:0.032299738 2716:0.032299738 2727:0.032299738 2748:0.032299738 2758:0.032299738 2881:0.032299738 2885:0.032299738 2891:0.032299738 2897:0.032299738 2908:0.064599477 2909:0.22609819 2910:0.032299738 2913:0.032299738 2914:0.032299738 2918:0.032299738 2920:0.032299738 2924:0.032299738 2936:0.032299738 2938:0.19379845 2939:0.12919897 2945:0.032299738 2947:0.032299738 2951:0.032299738 2957:0.032299738 2962:0.032299738 2965:0.19379845 2966:0.064599477 2967:0.064599477 2968:0.032299738 2969:0.096899226 2970:0.032299738 2971:0.16149871 2972:0.25839794 2973:0.29069766 2974:0.064599477 2976:0.096899226 2977:0.064599477 2978:0.032299738 2979:0.16149871 2980:0.032299738 2981:0.032299738 2982:0.032299738 2983:0.064599477 2984:0.35529715 2985:0.064599477 2986:0.032299738 2990:0.032299738 2991:0.032299738 2993:0.032299738 2996:0.064599477 3005:0.032299738 3006:0.064599477 3007:0.032299738 3008:0.064599477 3016:0.064599477 3017:0.032299738 3030:0.12919897 3031:0.064599477 3040:0.032299738 3048:0.032299738 3051:0.032299738 3059:0.064599477 3061:0.032299738 3063:0.032299738 3066:0.032299738 3067:0.064599477 3070:0.032299738 3073:0.032299738 3075:0.12919897 3077:0.032299738 3078:0.064599477 3087:0.032299738 3089:0.032299738 3093:0.032299738 3094:0.032299738 3103:0.032299738 3117:0.032299738 3118:0.12919897 3120:0.35529715 3121:0.25839794 3122:0.032299738 3123:0.032299738 3126:0.032299738 3128:0.12919897 3129:0.032299738 3130:0.064599477 3133:0.12919897 3134:0.16149871 3135:0.032299738 3139:0.032299738 3141:0.032299738 3195:0.032299738 3244:0.032299738 3249:0.032299738 3252:0.032299738 3310:0.032299738 3315:0.032299738 3318:0.032299738 3534:0.032299738 3571:0.032299738 3616:0.032299738 3619:0.032299738 3647:0.032299738 3650:0.064599477 3670:0.032299738 3674:0.048402712 3676:0.096805423 3678:0.096805423 3679:0.096805423 3680:0.096805423 3683:0.096805423 3684:0.19361085 3685:0.096805423 3687:0.096805423 3688:0.048402712 3689:0.048402712 3690:0.19361085 3691:0.096805423 3692:0.14520814 3693:0.048402712 3694:0.096805423 3695:0.048402712 3696:0.14520814 3697:0.096805423 3700:0.14520814 3701:0.19361085 3702:0.048402712 3705:0.096805423 3706:0.19361085 3708:0.19361085 3710:0.096805423 3711:0.048402712 3713:0.048402712 3714:0.048402712 3715:0.38722169 3716:0.33881897 3717:0.096805423 3718:0.048402712 3719:0.096805423 3720:0.14520814 3721:0.096805423 3722:0.096805423 3723:0.048402712 3725:0.096805423 3726:0.53242981 3727:0.14520814 3729:0.096805423 3730:0.096805423 3731:0.048402712 3732:0.24201356 3734:0.14520814 3738:0.14520814 3739:0.14520814 3740:0.048402712 3741:0.096805423 3745:0.14520814 3747:0.048402712 3748:0.048402712 3749:0.048402712 3750:0.24201356 3751:0.048402712 3752:0.096805423 3753:0.048402712 3755:0.048402712 3756:0.24201356 3757:0.48402712 3758:0.19361085 3759:0.19361085 3760:0.048402712 3761:0.24201356 3763:0.87124878 3764:0.33881897 3765:0.048402712 3767:0.096805423 3768:0.096805423 3769:0.14520814 3770:0.14520814 3771:0.14520814 3772:0.14520814 3773:0.048402712 3774:0.14520814 3775:0.048402712 3778:0.19361085 3779:0.14520814 3780:0.14520814 3781:0.096805423 3782:0.19361085 3783:0.19361085 3784:0.048402712 3785:0.19361085 3786:0.24201356 3787:0.43562439 3788:0.048402712 3789:0.29041627 3792:0.096805423 3793:0.096805423 3797:0.096805423 3799:0.048402712 3800:0.048402712 3802:0.096805423 3803:0.048402712 3804:0.048402712 3806:0.048402712 3807:0.096805423 3810:0.096805423 3811:0.048402712 3812:0.048402712 3814:0.48402712 3815:0.19361085 3817:0.048402712 3818:0.48402712 3819:0.53242981 3821:0.19361085 3822:0.096805423 3823:0.19361085 3824:0.14520814 3826:0.048402712 3827:0.43562439 3828:0.24201356 3830:0.048402712 3832:0.048402712 3835:0.048402712 3836:0.096805423 3838:0.096805423 3839:0.048402712 3840:0.096805423 3843:0.048402712 3846:0.048402712 3851:0.19361085 3852:0.096805423 3853:0.048402712 3854:0.14520814 3855:0.048402712 3857:0.048402712 3858:0.19361085 3859:0.096805423 3863:0.24201356 3864:0.29041627 3865:0.14520814 3866:0.72604066 3867:0.96805423 3868:0.24201356 3869:0.096805423 3870:2.3233302 3871:1.5972894 3872:0.29041627 3874:0.58083254 3875:0.33881897 3877:0.048402712 3878:0.48402712 3879:0.19361085 3880:0.19361085 3881:0.58083254 3882:0.33881897 3883:1.8877057 3884:0.96805423 3885:0.29041627 3889:0.096805423 3891:0.096805423 3892:0.14520814 3893:0.048402712 3894:0.096805423 3895:0.048402712 3897:0.19361085 3898:0.19361085 3899:0.24201356 3901:0.096805423 3904:0.048402712 3910:0.048402712 3914:0.19361085 3915:0.048402712 3916:0.14520814 3919:0.29041627 3921:0.036750481 3922:0.019342359 3923:0.033849131 3924:0.037717599 3925:0.032882009 3926:0.04061896 3927:0.02417795 3928:0.070599623 3929:0.05609284 3930:0.063829787 3931:0.01450677 3932:0.072533853 3933:0.046421658 3934:0.01450677 3935:0.019342359 3936:0.19535783 3937:0.13926499 3938:0.036750481 3939:0.0029013499 3940:0.04255319 3941:0.104595 3942:0.0050229998 3943:0.018544 3944:0.001914 3945:0.27466199 #
-55.811963382700035651851067086682 1:0.02469136 4:0.02469136 5:0.02469136 16:0.086419746 34:0.42194092 59:0.42194092 78:0.42194092 167:0.42194092 289:0.42194092 358:0.42194092 452:0.42194092 786:0.42194092 919:0.42194092 1057:0.42194092 1388:0.42194092 1573:0.42194092 1676:0.42194092 1709:0.42194092 1849:0.42194092 2551:0.42194092 2571:0.42194092 2869:0.42194092 2965:0.42194092 2972:0.42194092 2974:0.42194092 2991:0.42194092 3007:0.42194092 3016:0.42194092 3119:0.42194092 3175:0.42194092 3241:0.42194092 3317:0.42194092 3558:0.42194092 3640:0.42194092 3674:0.625 3675:0.625 3683:0.625 3685:0.625 3698:0.625 3709:1.25 3715:0.625 3716:0.625 3721:0.625 3726:0.625 3730:0.625 3763:0.625 3778:0.625 3782:0.625 3785:0.625 3794:0.625 3802:0.625 3806:0.625 3815:0.625 3818:0.625 3827:0.625 3841:0.625 3843:0.625 3846:0.625 3858:0.625 3863:0.625 3864:1.25 3868:1.25 3870:2.5 3872:0.625 3874:0.625 3875:1.25 3878:0.625 3883:0.625 3893:0.625 3898:0.625 3899:0.625 3918:0.625 3921:0.074074067 3922:0.074074067 3923:0.04938272 3924:0.061728399 3925:0.02469136 3926:0.02469136 3927:0 3928:0.02469136 3929:0.098765433 3930:0.02469136 3931:0.037037041 3932:0.02469136 3933:0.074074067 3934:0.037037041 3935:0.02469136 3936:0.19753087 3937:0.04938272 3938:0.061728399 3939:0 3940:0.037037041 3941:0.00064699998 3942:-3.0000001e-06 3943:1e-06 3944:-0 3945:0.320988 #
-89.523360167439435031155881006271 1:0.0071343598 3:0.01426873 4:0.0023781201 7:0.016646851 8:0.0071343598 10:0.01426873 11:0.0083234198 12:0.01426873 15:0.0047562402 16:0.090368614 17:0.01426873 20:0.02259215 31:0.039729841 33:0.039729841 34:0.039729841 49:0.039729841 58:0.039729841 59:0.11918951 88:0.039729841 91:0.039729841 92:0.039729841 104:0.039729841 126:0.039729841 155:0.039729841 181:0.079459667 184:0.039729841 185:0.039729841 189:0.039729841 195:0.039729841 198:0.039729841 199:0.039729841 346:0.039729841 370:0.079459667 382:0.079459667 412:0.039729841 469:0.039729841 479:0.039729841 481:0.039729841 502:0.039729841 504:0.039729841 528:0.079459667 530:0.039729841 562:0.039729841 572:0.039729841 590:0.039729841 595:0.039729841 596:0.039729841 617:0.039729841 620:0.039729841 623:0.039729841 629:0.039729841 659:0.039729841 660:0.079459667 661:0.079459667 662:0.039729841 663:0.15891935 664:0.039729841 665:0.27810887 670:0.039729841 672:0.15891935 685:0.039729841 719:0.039729841 731:0.039729841 738:0.039729841 773:0.039729841 786:0.039729841 788:0.039729841 793:0.039729841 795:0.039729841 813:0.039729841 815:0.039729841 835:0.039729841 851:0.039729841 868:0.039729841 894:0.039729841 898:0.039729841 905:0.039729841 924:0.039729841 945:0.039729841 947:0.039729841 955:0.039729841 990:0.039729841 1005:0.039729841 1020:0.039729841 1033:0.039729841 1035:0.039729841 1061:0.039729841 1156:0.039729841 1189:0.039729841 1193:0.039729841 1216:0.039729841 1226:0.039729841 1275:0.039729841 1278:0.079459667 1300:0.039729841 1311:0.11918951 1314:0.039729841 1317:0.039729841 1321:0.079459667 1324:0.039729841 1325:0.039729841 1350:0.039729841 1351:0.039729841 1357:0.039729841 1375:0.039729841 1388:0.11918951 1392:0.11918951 1408:0.039729841 1422:0.039729841 1432:0.039729841 1455:0.039729841 1460:0.039729841 1469:0.039729841 1486:0.039729841 1488:0.039729841 1492:0.039729841 1494:0.039729841 1495:0.039729841 1499:0.039729841 1507:0.039729841 1517:0.039729841 1519:0.039729841 1548:0.039729841 1568:0.039729841 1581:0.039729841 1587:0.079459667 1588:0.039729841 1591:0.039729841 1592:0.039729841 1595:0.039729841 1613:0.039729841 1623:0.079459667 1629:0.079459667 1631:0.039729841 1645:0.039729841 1648:0.039729841 1658:0.039729841 1659:0.039729841 1663:0.039729841 1704:0.039729841 1709:0.039729841 1713:0.039729841 1715:0.039729841 1718:0.039729841 1730:0.039729841 1741:0.039729841 1755:0.039729841 1769:0.039729841 1781:0.039729841 1790:0.039729841 1795:0.039729841 1807:0.039729841 1808:0.039729841 1818:0.039729841 1821:0.039729841 1829:0.039729841 1853:0.039729841 1878:0.039729841 1907:0.039729841 2028:0.039729841 2087:0.039729841 2089:0.039729841 2095:0.039729841 2109:0.039729841 2111:0.039729841 2116:0.039729841 2118:0.039729841 2119:0.039729841 2138:0.039729841 2162:0.039729841 2165:0.039729841 2166:0.039729841 2174:0.079459667 2175:0.039729841 2209:0.039729841 2259:0.039729841 2285:0.039729841 2312:0.039729841 2314:0.15891935 2315:0.19864918 2318:0.039729841 2322:0.039729841 2326:0.039729841 2328:0.039729841 2329:0.079459667 2332:0.039729841 2370:0.039729841 2373:0.039729841 2460:0.039729841 2492:0.039729841 2506:0.039729841 2544:0.039729841 2616:0.039729841 2622:0.039729841 2700:0.039729841 2708:0.039729841 2827:0.039729841 2830:0.039729841 2876:0.039729841 2884:0.039729841 2885:0.039729841 2888:0.15891935 2891:0.039729841 2896:0.11918951 2907:0.039729841 2908:0.039729841 2909:0.079459667 2910:0.039729841 2911:0.079459667 2914:0.079459667 2915:0.039729841 2919:0.039729841 2938:0.039729841 2942:0.039729841 2949:0.039729841 2951:0.039729841 2965:0.079459667 2967:0.23837902 2968:0.079459667 2969:0.23837902 2970:0.079459667 2972:0.3178387 2973:0.19864918 2974:0.3178387 2977:0.079459667 2978:0.039729841 2979:0.23837902 2980:0.079459667 2982:0.039729841 2985:0.079459667 2986:0.079459667 2988:0.039729841 2989:0.5164879 2995:0.079459667 3015:0.039729841 3030:0.11918951 3031:0.19864918 3036:0.039729841 3041:0.039729841 3059:0.039729841 3063:0.079459667 3066:0.039729841 3070:0.039729841 3075:0.039729841 3089:0.039729841 3096:0.039729841 3103:0.039729841 3105:0.079459667 3115:0.039729841 3118:0.039729841 3120:0.11918951 3121:0.039729841 3122:0.039729841 3125:0.079459667 3128:0.039729841 3135:0.11918951 3139:0.039729841 3141:0.039729841 3143:0.039729841 3160:0.039729841 3162:0.039729841 3170:0.039729841 3183:0.039729841 3191:0.079459667 3195:0.079459667 3206:0.039729841 3209:0.039729841 3212:0.039729841 3217:0.039729841 3232:0.039729841 3235:0.039729841 3243:0.039729841 3249:0.039729841 3254:0.079459667 3278:0.079459667 3280:0.039729841 3289:0.039729841 3299:0.039729841 3305:0.039729841 3307:0.039729841 3309:0.19864918 3310:0.039729841 3316:0.039729841 3320:0.039729841 3324:0.039729841 3386:0.039729841 3573:0.039729841 3619:0.039729841 3643:0.039729841 3648:0.039729841 3674:0.17857143 3675:0.41666666 3676:0.05952381 3677:0.05952381 3678:0.17857143 3679:0.05952381 3680:0.11904762 3682:0.11904762 3683:0.11904762 3684:0.17857143 3685:0.29761904 3692:0.11904762 3693:0.11904762 3694:0.17857143 3695:0.05952381 3697:0.05952381 3700:0.17857143 3701:0.17857143 3702:0.29761904 3703:0.11904762 3704:0.05952381 3705:0.47619048 3706:0.11904762 3707:0.05952381 3708:0.35714287 3709:0.05952381 3710:0.29761904 3712:0.23809524 3714:0.05952381 3715:1.9642857 3716:0.77380955 3717:0.23809524 3718:0.11904762 3719:0.05952381 3721:0.11904762 3722:0.23809524 3723:0.11904762 3725:0.05952381 3726:0.23809524 3729:0.05952381 3732:0.17857143 3733:0.05952381 3736:0.05952381 3737:0.05952381 3738:0.11904762 3739:0.11904762 3745:0.05952381 3747:0.05952381 3748:0.05952381 3750:0.05952381 3754:0.53571427 3755:0.05952381 3756:0.05952381 3757:0.35714287 3758:0.29761904 3759:0.17857143 3760:0.05952381 3761:0.29761904 3762:0.05952381 3763:0.29761904 3764:0.35714287 3766:0.11904762 3768:0.17857143 3769:0.17857143 3771:0.29761904 3772:0.35714287 3773:0.11904762 3775:0.05952381 3776:0.05952381 3777:0.05952381 3778:0.41666666 3779:0.29761904 3780:0.17857143 3781:0.23809524 3783:0.05952381 3784:0.05952381 3785:0.17857143 3786:0.17857143 3787:0.23809524 3789:0.11904762 3790:0.11904762 3791:0.11904762 3792:0.29761904 3794:0.05952381 3796:0.05952381 3806:0.05952381 3811:0.11904762 3812:0.23809524 3814:0.41666666 3815:0.11904762 3816:0.05952381 3817:0.05952381 3818:0.23809524 3819:0.11904762 3821:0.05952381 3823:0.05952381 3824:0.29761904 3825:0.11904762 3827:1.0119047 3828:0.17857143 3829:0.05952381 3830:0.05952381 3831:0.05952381 3836:0.17857143 3838:0.05952381 3839:0.05952381 3840:0.35714287 3841:0.11904762 3847:0.11904762 3851:0.11904762 3852:0.11904762 3858:0.05952381 3859:0.11904762 3860:0.11904762 3862:0.11904762 3863:0.17857143 3864:0.47619048 3865:0.35714287 3866:0.89285713 3867:0.23809524 3868:0.17857143 3870:2.5 3871:0.95238096 3872:1.25 3874:0.05952381 3875:0.35714287 3877:0.05952381 3878:0.65476191 3879:0.17857143 3880:0.05952381 3881:0.23809524 3882:0.17857143 3883:0.53571427 3884:0.35714287 3885:0.29761904 3888:0.41666666 3889:1.6071428 3890:0.29761904 3892:0.17857143 3893:0.11904762 3894:0.41666666 3896:0.23809524 3897:0.17857143 3898:0.77380955 3899:0.17857143 3902:0.05952381 3903:0.05952381 3915:0.23809524 3919:0.05952381 3921:0.051129609 3922:0.0047562402 3923:0.03686088 3924:0.10225922 3925:0.030915581 3926:0.032104641 3927:0.0083234198 3928:0.073721759 3929:0.051129609 3930:0.059453029 3931:0.0071343598 3932:0.04756242 3933:0.057074908 3934:0.02378121 3935:0.01783591 3936:0.19143876 3937:0.079667062 3938:0.10820452 3939:0.0023781201 3940:0.01426873 3941:0.052195001 3942:0.0030110001 3943:0.005657 3944:0.00072100002 3945:0.33531499 #
