SVM-light Version V6.02
2 # kernel type
3 # kernel parameter -d 
0.01 # kernel parameter -g 
1 # kernel parameter -s 
1 # kernel parameter -r 
empty# kernel parameter -u 
3945 # highest feature index 
1830 # number of training documents 
139 # number of support vectors plus 1 
3.0173078 # threshold b, each following line is a SV (starting with alpha*y)
-1.5529065393831658070666890125722 1:0.02764977 2:0.0092165899 3:0.01843318 7:0.0092165899 11:0.0092165899 15:0.01843318 16:0.01843318 26:0.15503876 32:0.15503876 55:0.15503876 61:0.15503876 70:0.15503876 77:0.15503876 90:0.15503876 150:0.15503876 153:0.15503876 176:0.15503876 184:0.15503876 185:0.15503876 270:0.15503876 395:0.15503876 417:0.15503876 441:0.15503876 449:0.15503876 502:0.15503876 529:0.15503876 543:0.15503876 552:0.15503876 578:0.15503876 678:0.15503876 705:0.15503876 709:0.15503876 815:0.15503876 822:0.15503876 907:0.15503876 921:0.15503876 995:0.15503876 1037:0.15503876 1041:0.15503876 1087:0.15503876 1228:0.15503876 1244:0.15503876 1253:0.15503876 1276:0.15503876 1291:0.15503876 1305:0.15503876 1364:0.15503876 1375:0.15503876 1386:0.15503876 1405:0.15503876 1421:0.15503876 1437:0.15503876 1463:0.15503876 1541:0.15503876 1544:0.15503876 1547:0.15503876 1550:0.15503876 1570:0.15503876 1659:0.15503876 1738:0.15503876 1754:0.15503876 1755:0.15503876 1788:0.15503876 1803:0.15503876 1809:0.15503876 1917:0.15503876 2071:0.15503876 2122:0.15503876 2239:0.15503876 2263:0.15503876 2292:0.15503876 2307:0.15503876 2367:0.15503876 2441:0.15503876 2482:0.15503876 2492:0.15503876 2524:0.15503876 2568:0.15503876 2647:0.15503876 2687:0.31007752 2696:0.15503876 2755:0.15503876 2764:0.15503876 2789:0.15503876 2803:0.15503876 2829:0.15503876 2857:0.15503876 2869:0.31007752 2877:0.15503876 2899:0.15503876 2923:0.15503876 2943:0.15503876 2965:0.15503876 2993:0.15503876 3015:0.15503876 3056:0.15503876 3113:0.15503876 3162:0.15503876 3193:0.15503876 3215:0.15503876 3251:0.15503876 3443:0.15503876 3599:0.15503876 3674:0.69444442 3675:0.69444442 3678:0.23148148 3679:0.23148148 3682:0.46296296 3683:0.23148148 3684:0.23148148 3691:0.23148148 3696:0.23148148 3697:0.23148148 3698:0.23148148 3700:0.23148148 3701:0.23148148 3702:0.46296296 3703:0.23148148 3705:0.23148148 3706:0.46296296 3707:0.23148148 3709:0.69444442 3710:0.23148148 3712:0.23148148 3717:0.23148148 3718:0.23148148 3719:0.23148148 3724:0.23148148 3729:0.23148148 3730:0.23148148 3732:0.23148148 3736:0.23148148 3737:0.23148148 3738:0.23148148 3739:0.69444442 3745:0.23148148 3752:0.23148148 3754:0.23148148 3755:0.23148148 3762:0.23148148 3763:0.92592591 3765:0.23148148 3766:0.23148148 3769:0.23148148 3776:0.69444442 3777:0.23148148 3781:0.23148148 3787:0.23148148 3790:0.23148148 3791:0.46296296 3799:0.23148148 3802:0.23148148 3810:0.23148148 3811:0.46296296 3812:0.23148148 3814:0.46296296 3818:0.23148148 3822:0.23148148 3823:0.23148148 3824:0.23148148 3825:0.46296296 3826:0.46296296 3827:0.46296296 3830:0.23148148 3831:0.23148148 3834:0.23148148 3837:0.23148148 3838:0.23148148 3840:0.23148148 3842:0.23148148 3843:0.23148148 3846:0.23148148 3848:0.23148148 3850:0.46296296 3851:0.23148148 3852:0.23148148 3855:0.46296296 3857:0.23148148 3858:0.23148148 3860:0.23148148 3862:0.23148148 3863:0.23148148 3864:0.23148148 3867:0.46296296 3869:0.46296296 3870:0.46296296 3871:0.23148148 3872:0.23148148 3875:0.23148148 3877:0.46296296 3878:0.23148148 3883:0.23148148 3887:0.23148148 3888:0.23148148 3889:0.23148148 3890:0.46296296 3892:0.23148148 3894:0.46296296 3895:0.23148148 3896:0.23148148 3899:0.23148148 3901:0.23148148 3906:0.23148148 3912:0.23148148 3916:0.46296296 3921:0.092165902 3922:0.0092165899 3923:0.046082951 3924:0.064516127 3925:0.023041479 3926:0.064516127 3927:0.023041479 3928:0.055299539 3929:0.041474659 3930:0.069124423 3931:0.01382488 3932:0.064516127 3933:0.078341007 3934:0.055299539 3935:0.055299539 3936:0.10138249 3937:0.036866359 3938:0.059907831 3939:0.01382488 3940:0.03225806 3941:0.0043159998 3942:5.3e-05 3943:3.3e-05 3944:1e-06 3945:0.32258099 #
-5.0635308892753725373836459766608 1:0.01639344 2:0.00409836 3:0.0081967199 4:0.0136612 7:0.021857919 8:0.0027322399 10:0.0081967199 11:0.01639344 12:0.01912568 15:0.0027322399 16:0.0081967199 17:0.0081967199 18:0.0027322399 20:0.0081967199 22:0.045662101 27:0.045662101 32:0.045662101 33:0.091324203 43:0.045662101 47:0.045662101 63:0.045662101 77:0.045662101 99:0.045662101 121:0.045662101 123:0.045662101 126:0.045662101 154:0.045662101 157:0.045662101 181:0.045662101 186:0.045662101 191:0.045662101 193:0.045662101 201:0.045662101 202:0.045662101 266:0.045662101 271:0.045662101 273:0.045662101 322:0.045662101 324:0.045662101 343:0.045662101 349:0.045662101 367:0.091324203 368:0.045662101 374:0.045662101 375:0.045662101 377:0.045662101 379:0.045662101 380:0.091324203 388:0.045662101 400:0.045662101 405:0.045662101 406:0.045662101 412:0.045662101 413:0.045662101 415:0.045662101 417:0.091324203 424:0.045662101 433:0.045662101 466:0.045662101 468:0.045662101 479:0.045662101 486:0.045662101 501:0.045662101 518:0.045662101 519:0.091324203 521:0.045662101 527:0.091324203 528:0.18264841 531:0.045662101 544:0.045662101 549:0.045662101 569:0.045662101 595:0.045662101 596:0.091324203 598:0.045662101 600:0.045662101 616:0.045662101 623:0.091324203 644:0.045662101 666:0.045662101 671:0.045662101 677:0.045662101 685:0.045662101 737:0.045662101 750:0.045662101 756:0.045662101 760:0.045662101 776:0.091324203 784:0.045662101 787:0.045662101 790:0.045662101 792:0.045662101 813:0.045662101 824:0.045662101 868:0.045662101 909:0.045662101 914:0.045662101 923:0.045662101 953:0.045662101 955:0.045662101 961:0.045662101 990:0.045662101 1033:0.045662101 1037:0.045662101 1040:0.045662101 1042:0.045662101 1081:0.045662101 1129:0.045662101 1188:0.045662101 1209:0.045662101 1211:0.045662101 1226:0.045662101 1251:0.045662101 1272:0.091324203 1284:0.045662101 1292:0.045662101 1293:0.045662101 1297:0.045662101 1300:0.091324203 1314:0.045662101 1318:0.045662101 1324:0.091324203 1330:0.045662101 1338:0.045662101 1355:0.045662101 1360:0.045662101 1387:0.045662101 1393:0.045662101 1398:0.091324203 1402:0.045662101 1409:0.045662101 1410:0.045662101 1419:0.045662101 1421:0.045662101 1425:0.045662101 1433:0.045662101 1434:0.045662101 1437:0.045662101 1439:0.045662101 1469:0.045662101 1485:0.045662101 1486:0.045662101 1492:0.091324203 1494:0.045662101 1498:0.045662101 1503:0.045662101 1505:0.045662101 1506:0.091324203 1507:0.045662101 1543:0.045662101 1566:0.045662101 1577:0.045662101 1581:0.045662101 1591:0.045662101 1601:0.045662101 1605:0.045662101 1611:0.045662101 1623:0.045662101 1631:0.045662101 1632:0.045662101 1633:0.045662101 1634:0.045662101 1648:0.091324203 1658:0.045662101 1663:0.045662101 1691:0.045662101 1709:0.045662101 1710:0.045662101 1723:0.045662101 1734:0.091324203 1737:0.045662101 1738:0.045662101 1739:0.045662101 1743:0.045662101 1745:0.045662101 1755:0.045662101 1758:0.045662101 1759:0.045662101 1765:0.045662101 1775:0.045662101 1783:0.045662101 1796:0.045662101 1801:0.045662101 1808:0.045662101 1813:0.045662101 1815:0.045662101 1820:0.045662101 1821:0.045662101 1825:0.045662101 1826:0.045662101 1853:0.045662101 1865:0.045662101 1869:0.045662101 1891:0.045662101 1904:0.045662101 1939:0.045662101 1983:0.045662101 1990:0.045662101 2008:0.045662101 2025:0.045662101 2046:0.045662101 2083:0.045662101 2087:0.045662101 2105:0.045662101 2111:0.045662101 2123:0.045662101 2153:0.045662101 2163:0.045662101 2166:0.045662101 2167:0.045662101 2171:0.091324203 2176:0.045662101 2214:0.045662101 2217:0.045662101 2268:0.045662101 2274:0.045662101 2294:0.045662101 2301:0.045662101 2325:0.045662101 2328:0.045662101 2356:0.045662101 2362:0.045662101 2364:0.045662101 2370:0.045662101 2384:0.045662101 2391:0.091324203 2402:0.045662101 2406:0.045662101 2436:0.045662101 2448:0.045662101 2475:0.045662101 2550:0.045662101 2569:0.045662101 2578:0.045662101 2595:0.045662101 2597:0.045662101 2609:0.045662101 2640:0.045662101 2652:0.045662101 2738:0.045662101 2739:0.045662101 2783:0.045662101 2793:0.045662101 2798:0.045662101 2804:0.045662101 2812:0.091324203 2819:0.045662101 2823:0.045662101 2827:0.045662101 2871:0.045662101 2907:0.045662101 2908:0.045662101 2911:0.045662101 2912:0.045662101 2915:0.091324203 2928:0.045662101 2936:0.045662101 2938:0.045662101 2941:0.045662101 2942:0.045662101 2943:0.045662101 2967:0.045662101 2974:0.091324203 2984:0.045662101 2990:0.091324203 2995:0.045662101 2996:0.091324203 3003:0.045662101 3007:0.045662101 3013:0.045662101 3027:0.045662101 3044:0.045662101 3048:0.045662101 3058:0.045662101 3061:0.045662101 3068:0.045662101 3069:0.045662101 3070:0.045662101 3077:0.045662101 3078:0.045662101 3084:0.045662101 3088:0.045662101 3091:0.045662101 3096:0.045662101 3099:0.045662101 3118:0.045662101 3121:0.045662101 3127:0.045662101 3128:0.045662101 3131:0.045662101 3142:0.045662101 3159:0.045662101 3191:0.091324203 3192:0.091324203 3210:0.045662101 3228:0.045662101 3235:0.045662101 3238:0.045662101 3247:0.091324203 3251:0.091324203 3270:0.045662101 3275:0.045662101 3276:0.045662101 3280:0.045662101 3318:0.091324203 3326:0.045662101 3441:0.045662101 3448:0.045662101 3457:0.045662101 3520:0.045662101 3529:0.045662101 3545:0.045662101 3551:0.045662101 3584:0.045662101 3597:0.045662101 3599:0.045662101 3623:0.045662101 3674:0.41039672 3676:0.1367989 3677:0.068399452 3678:0.20519836 3679:0.068399452 3680:0.20519836 3682:0.20519836 3683:0.1367989 3684:0.27359781 3685:0.27359781 3687:0.20519836 3689:0.068399452 3690:0.1367989 3691:0.068399452 3692:0.1367989 3693:0.68399453 3694:0.47879618 3695:0.068399452 3696:0.20519836 3697:0.34199727 3698:0.068399452 3700:0.41039672 3701:0.1367989 3702:0.20519836 3703:0.1367989 3704:0.6155951 3705:0.68399453 3706:0.27359781 3708:0.068399452 3709:0.068399452 3710:0.34199727 3714:0.068399452 3715:0.41039672 3716:0.27359781 3717:0.27359781 3718:0.1367989 3719:0.1367989 3720:0.068399452 3721:0.068399452 3722:0.27359781 3723:0.068399452 3724:0.20519836 3726:0.20519836 3727:0.068399452 3729:0.068399452 3730:0.1367989 3732:0.1367989 3733:0.20519836 3734:0.1367989 3737:0.1367989 3738:0.27359781 3739:0.27359781 3740:0.068399452 3743:0.068399452 3744:0.068399452 3747:0.068399452 3749:0.1367989 3752:0.20519836 3753:0.068399452 3754:0.41039672 3755:0.20519836 3756:0.47879618 3757:0.20519836 3758:0.1367989 3759:0.20519836 3760:0.1367989 3762:0.068399452 3763:0.27359781 3764:0.1367989 3765:0.068399452 3766:0.20519836 3767:0.1367989 3768:0.068399452 3769:0.1367989 3770:0.068399452 3771:0.34199727 3772:0.47879618 3775:0.1367989 3776:0.1367989 3777:0.068399452 3778:0.1367989 3779:0.47879618 3780:0.20519836 3781:0.20519836 3782:0.068399452 3783:0.068399452 3784:0.068399452 3785:0.20519836 3786:0.20519836 3787:0.41039672 3788:0.068399452 3789:0.068399452 3790:0.20519836 3791:0.1367989 3792:0.41039672 3794:0.068399452 3795:0.068399452 3796:0.068399452 3797:0.068399452 3798:0.068399452 3800:0.068399452 3805:0.068399452 3806:0.1367989 3807:0.068399452 3810:0.20519836 3811:0.1367989 3812:0.068399452 3813:0.068399452 3814:0.20519836 3816:0.1367989 3817:0.20519836 3818:0.68399453 3819:0.068399452 3822:0.068399452 3823:0.34199727 3825:0.068399452 3826:0.068399452 3830:0.27359781 3831:0.1367989 3832:0.068399452 3834:0.41039672 3835:0.068399452 3837:0.068399452 3840:0.20519836 3841:0.1367989 3843:0.068399452 3844:0.068399452 3845:0.1367989 3846:0.068399452 3847:0.1367989 3848:0.068399452 3852:0.068399452 3853:0.068399452 3854:0.20519836 3856:0.068399452 3857:0.1367989 3858:0.34199727 3859:0.1367989 3860:0.068399452 3861:0.068399452 3863:0.41039672 3864:0.27359781 3865:0.1367989 3866:0.41039672 3867:0.20519836 3868:0.1367989 3869:0.068399452 3870:0.20519836 3871:0.1367989 3872:0.6155951 3873:0.068399452 3874:0.20519836 3875:0.1367989 3876:0.068399452 3877:0.068399452 3878:0.068399452 3880:0.1367989 3881:0.20519836 3882:0.1367989 3883:0.20519836 3884:0.20519836 3885:0.068399452 3886:0.068399452 3887:0.20519836 3888:0.068399452 3889:0.47879618 3890:0.27359781 3891:0.068399452 3892:0.41039672 3893:0.27359781 3894:0.54719561 3897:0.20519836 3898:0.27359781 3899:0.47879618 3901:0.068399452 3904:0.068399452 3906:0.068399452 3907:0.068399452 3910:0.068399452 3913:0.068399452 3914:0.1367989 3915:0.20519836 3916:0.1367989 3919:0.068399452 3921:0.057377052 3922:0.01229508 3923:0.084699452 3924:0.086065583 3925:0.03825137 3926:0.051912569 3927:0.01639344 3928:0.073770493 3929:0.058743171 3930:0.07240437 3931:0.020491799 3932:0.064207651 3933:0.02868852 3934:0.035519131 3935:0.03278688 3936:0.088797823 3937:0.054644808 3938:0.081967212 3939:0.01092896 3940:0.030054649 3941:0.045770999 3942:0.000688 3943:0.0036220001 3944:0.000116 3945:0.35655701 #
-7.0968255659833348047982326534111 1:0.0063291099 4:0.0063291099 8:0.0063291099 10:0.0063291099 11:0.0063291099 12:0.01265823 16:0.03164557 17:0.01265823 33:0.10615711 57:0.10615711 78:0.10615711 125:0.10615711 126:0.10615711 183:0.10615711 190:0.10615711 208:0.10615711 219:0.10615711 223:0.10615711 271:0.10615711 317:0.10615711 335:0.10615711 338:0.10615711 369:0.10615711 370:0.10615711 388:0.10615711 408:0.10615711 411:0.21231422 427:0.10615711 463:0.10615711 484:0.10615711 546:0.10615711 571:0.10615711 582:0.10615711 588:0.10615711 594:0.10615711 620:0.10615711 626:0.10615711 636:0.10615711 662:0.10615711 695:0.10615711 710:0.10615711 733:0.10615711 847:0.10615711 865:0.10615711 896:0.10615711 937:0.10615711 950:0.10615711 955:0.10615711 1006:0.10615711 1026:0.10615711 1027:0.10615711 1033:0.10615711 1035:0.10615711 1068:0.10615711 1109:0.10615711 1158:0.10615711 1171:0.10615711 1217:0.10615711 1296:0.10615711 1369:0.10615711 1388:0.10615711 1406:0.10615711 1462:0.10615711 1464:0.10615711 1474:0.10615711 1491:0.10615711 1505:0.21231422 1519:0.10615711 1576:0.10615711 1582:0.21231422 1597:0.10615711 1633:0.21231422 1659:0.10615711 1662:0.10615711 1670:0.10615711 1679:0.10615711 1699:0.10615711 1772:0.10615711 1795:0.10615711 1804:0.10615711 1814:0.10615711 1822:0.10615711 1823:0.10615711 1831:0.10615711 1848:0.10615711 1964:0.10615711 2097:0.10615711 2122:0.10615711 2161:0.10615711 2172:0.10615711 2213:0.10615711 2263:0.10615711 2286:0.10615711 2534:0.10615711 2588:0.10615711 2612:0.10615711 2627:0.10615711 2641:0.10615711 2657:0.10615711 2685:0.10615711 2723:0.10615711 2774:0.10615711 2808:0.10615711 2817:0.10615711 2896:0.10615711 2901:0.10615711 2910:0.10615711 2918:0.21231422 2919:0.10615711 2945:0.21231422 2955:0.21231422 2962:0.10615711 2966:0.10615711 2969:0.10615711 2972:0.21231422 2975:0.10615711 2995:0.10615711 3024:0.10615711 3026:0.10615711 3032:0.10615711 3041:0.10615711 3051:0.10615711 3059:0.10615711 3070:0.10615711 3071:0.10615711 3115:0.10615711 3120:0.10615711 3132:0.10615711 3142:0.10615711 3193:0.10615711 3226:0.10615711 3232:0.10615711 3254:0.10615711 3295:0.10615711 3306:0.10615711 3317:0.10615711 3329:0.10615711 3459:0.10615711 3494:0.10615711 3514:0.10615711 3531:0.10615711 3663:0.10615711 3674:0.15873016 3675:0.15873016 3680:0.31746033 3684:0.47619048 3686:0.31746033 3687:0.31746033 3693:0.31746033 3695:0.15873016 3697:0.31746033 3699:0.15873016 3701:0.15873016 3702:0.15873016 3706:0.15873016 3708:0.15873016 3709:0.31746033 3710:0.47619048 3712:0.15873016 3713:0.15873016 3715:0.15873016 3726:0.47619048 3727:0.15873016 3729:0.15873016 3731:0.79365081 3733:0.31746033 3736:0.15873016 3738:0.31746033 3739:0.15873016 3740:0.15873016 3742:0.15873016 3743:0.31746033 3745:0.15873016 3749:0.15873016 3750:0.47619048 3755:0.15873016 3756:0.15873016 3757:0.15873016 3758:0.15873016 3761:0.15873016 3762:0.15873016 3763:0.47619048 3764:0.31746033 3765:0.15873016 3768:0.15873016 3769:0.31746033 3770:0.15873016 3771:0.15873016 3772:0.31746033 3773:0.31746033 3777:0.15873016 3778:0.31746033 3779:0.47619048 3781:0.47619048 3782:0.15873016 3783:0.15873016 3784:0.15873016 3785:0.15873016 3786:0.15873016 3787:0.15873016 3790:0.15873016 3791:0.15873016 3792:0.47619048 3793:0.15873016 3794:0.15873016 3802:0.31746033 3806:0.15873016 3811:0.15873016 3812:0.15873016 3815:0.47619048 3817:0.31746033 3819:0.47619048 3824:0.31746033 3830:0.15873016 3834:0.15873016 3836:0.15873016 3838:0.15873016 3844:0.15873016 3846:0.47619048 3847:0.15873016 3848:0.15873016 3850:0.15873016 3852:0.15873016 3856:0.15873016 3858:0.15873016 3859:0.47619048 3862:0.15873016 3863:0.31746033 3865:0.15873016 3866:0.15873016 3869:0.63492066 3870:0.95238096 3872:0.15873016 3873:0.15873016 3875:0.15873016 3877:0.47619048 3878:0.15873016 3879:0.15873016 3880:0.31746033 3881:0.63492066 3882:0.15873016 3883:0.47619048 3884:0.31746033 3885:0.15873016 3889:0.15873016 3890:0.15873016 3891:0.15873016 3892:0.31746033 3893:0.15873016 3894:0.15873016 3895:0.15873016 3897:0.15873016 3898:0.79365081 3899:0.31746033 3900:0.15873016 3904:0.15873016 3906:0.15873016 3910:0.15873016 3912:0.31746033 3914:0.15873016 3915:0.15873016 3919:0.15873016 3920:0.15873016 3921:0.056962021 3922:0.0221519 3923:0.069620252 3924:0.044303801 3925:0.02531646 3926:0.072784811 3927:0.03481013 3928:0.053797469 3929:0.056962021 3930:0.091772147 3931:0.01265823 3932:0.041139241 3933:0.02848101 3934:0.018987341 3935:0.047468349 3936:0.11392405 3937:0.088607587 3938:0.06012658 3939:0.037974682 3940:0.0221519 3941:0.0085319998 3942:-3.7000002e-05 3943:0.00013 3944:-1e-06 3945:0.32278499 #
-0.30438194267884127741652378063009 1:0.00954198 3:0.01526718 4:0.00954198 8:0.01335878 9:0.0038167899 10:0.0038167899 11:0.01145038 12:0.0076335901 14:0.0076335901 16:0.01717557 17:0.01145038 19:0.0038167899 20:0.0076335901 22:0.064977258 49:0.12995452 62:0.064977258 92:0.064977258 98:0.064977258 101:0.064977258 119:0.064977258 121:0.064977258 123:0.064977258 179:0.064977258 185:0.064977258 186:0.064977258 199:0.064977258 224:0.064977258 231:0.064977258 286:0.064977258 323:0.064977258 332:0.064977258 349:0.064977258 362:0.064977258 370:0.064977258 372:0.064977258 388:0.064977258 408:0.12995452 413:0.064977258 422:0.12995452 448:0.064977258 468:0.064977258 481:0.064977258 483:0.064977258 484:0.12995452 554:0.064977258 568:0.064977258 595:0.064977258 596:0.064977258 601:0.064977258 618:0.064977258 626:0.064977258 660:0.064977258 663:0.064977258 665:0.064977258 669:0.064977258 670:0.064977258 712:0.064977258 717:0.064977258 727:0.064977258 751:0.064977258 779:0.064977258 785:0.064977258 793:0.064977258 831:0.064977258 916:0.064977258 927:0.064977258 941:0.064977258 975:0.064977258 980:0.064977258 1022:0.064977258 1027:0.064977258 1033:0.064977258 1131:0.064977258 1157:0.064977258 1231:0.064977258 1254:0.064977258 1275:0.064977258 1292:0.064977258 1297:0.064977258 1309:0.064977258 1318:0.064977258 1328:0.064977258 1361:0.064977258 1391:0.064977258 1396:0.064977258 1397:0.064977258 1414:0.064977258 1419:0.064977258 1453:0.064977258 1455:0.064977258 1456:0.064977258 1465:0.064977258 1479:0.064977258 1482:0.064977258 1500:0.064977258 1501:0.064977258 1513:0.064977258 1515:0.064977258 1519:0.064977258 1524:0.064977258 1533:0.064977258 1548:0.064977258 1576:0.064977258 1617:0.064977258 1648:0.12995452 1649:0.064977258 1658:0.064977258 1667:0.064977258 1694:0.064977258 1712:0.12995452 1713:0.064977258 1717:0.064977258 1723:0.064977258 1724:0.19493178 1738:0.064977258 1756:0.064977258 1766:0.064977258 1772:0.064977258 1780:0.064977258 1783:0.064977258 1791:0.064977258 1803:0.12995452 1812:0.064977258 1814:0.064977258 1816:0.064977258 1821:0.064977258 1823:0.12995452 1826:0.064977258 1843:0.064977258 1875:0.064977258 1914:0.064977258 1928:0.064977258 1947:0.064977258 2028:0.064977258 2084:0.064977258 2092:0.064977258 2119:0.064977258 2122:0.064977258 2147:0.064977258 2166:0.064977258 2176:0.064977258 2193:0.064977258 2209:0.064977258 2216:0.064977258 2225:0.064977258 2238:0.064977258 2252:0.064977258 2260:0.064977258 2275:0.064977258 2283:0.064977258 2325:0.064977258 2374:0.064977258 2393:0.064977258 2397:0.064977258 2417:0.064977258 2427:0.064977258 2460:0.12995452 2502:0.064977258 2524:0.064977258 2537:0.064977258 2579:0.064977258 2658:0.064977258 2688:0.12995452 2810:0.064977258 2831:0.064977258 2833:0.064977258 2837:0.064977258 2862:0.064977258 2869:0.064977258 2892:0.064977258 2907:0.064977258 2911:0.064977258 2923:0.12995452 2936:0.064977258 2938:0.064977258 2948:0.064977258 2951:0.064977258 2964:0.064977258 2965:0.064977258 2970:0.064977258 2971:0.12995452 2972:0.064977258 2985:0.064977258 2993:0.064977258 3015:0.064977258 3027:0.064977258 3041:0.064977258 3043:0.12995452 3066:0.064977258 3069:0.064977258 3073:0.064977258 3089:0.064977258 3092:0.064977258 3110:0.064977258 3120:0.12995452 3129:0.064977258 3130:0.064977258 3131:0.064977258 3143:0.064977258 3167:0.064977258 3170:0.064977258 3194:0.064977258 3195:0.064977258 3232:0.064977258 3235:0.064977258 3236:0.12995452 3238:0.064977258 3247:0.064977258 3249:0.064977258 3252:0.064977258 3255:0.064977258 3260:0.064977258 3273:0.064977258 3279:0.12995452 3318:0.064977258 3321:0.064977258 3341:0.064977258 3362:0.064977258 3396:0.064977258 3563:0.064977258 3596:0.064977258 3625:0.064977258 3653:0.064977258 3674:0.19455253 3676:0.097276263 3678:0.48638132 3679:0.19455253 3680:0.29182878 3683:0.097276263 3685:0.19455253 3687:0.097276263 3689:0.097276263 3690:0.097276263 3692:0.19455253 3693:0.38910505 3694:0.097276263 3695:0.097276263 3696:0.19455253 3697:0.38910505 3698:0.38910505 3700:0.38910505 3702:0.38910505 3706:0.097276263 3707:0.097276263 3708:0.29182878 3710:0.38910505 3711:0.097276263 3712:0.19455253 3713:0.097276263 3715:0.29182878 3716:0.38910505 3718:0.097276263 3719:0.097276263 3721:0.38910505 3722:0.19455253 3723:0.097276263 3724:0.097276263 3729:0.097276263 3730:0.097276263 3732:0.097276263 3733:0.097276263 3734:0.19455253 3735:0.19455253 3736:0.097276263 3737:0.097276263 3738:0.19455253 3739:0.29182878 3740:0.097276263 3743:0.097276263 3745:0.097276263 3750:0.097276263 3752:0.29182878 3753:0.097276263 3755:0.097276263 3756:0.29182878 3757:0.097276263 3758:0.19455253 3759:0.097276263 3762:0.19455253 3763:0.097276263 3764:0.48638132 3766:0.19455253 3767:0.097276263 3768:0.38910505 3769:0.19455253 3770:0.19455253 3771:0.097276263 3772:0.19455253 3773:0.87548637 3774:0.097276263 3775:0.19455253 3776:0.097276263 3779:0.097276263 3780:0.48638132 3781:0.19455253 3783:0.097276263 3784:0.097276263 3785:0.58365756 3786:0.58365756 3787:0.29182878 3788:0.097276263 3789:0.097276263 3790:0.38910505 3791:0.29182878 3792:0.38910505 3793:0.097276263 3794:0.19455253 3796:0.19455253 3800:0.097276263 3801:0.097276263 3806:0.097276263 3810:0.097276263 3811:0.19455253 3812:0.48638132 3814:0.48638132 3816:0.19455253 3818:0.19455253 3819:0.19455253 3821:0.29182878 3822:0.097276263 3823:0.097276263 3824:0.097276263 3827:0.19455253 3828:0.19455253 3830:0.097276263 3831:0.097276263 3832:0.097276263 3833:0.097276263 3836:0.38910505 3838:0.19455253 3839:0.097276263 3840:0.29182878 3841:0.097276263 3844:0.097276263 3848:0.097276263 3850:0.19455253 3858:0.097276263 3860:0.29182878 3862:0.097276263 3863:0.097276263 3865:0.19455253 3866:0.38910505 3867:0.58365756 3868:0.19455253 3869:0.19455253 3870:0.48638132 3871:0.19455253 3872:0.19455253 3873:0.097276263 3874:0.097276263 3875:0.097276263 3876:0.097276263 3877:0.097276263 3878:0.19455253 3879:0.29182878 3880:0.29182878 3881:0.097276263 3882:0.19455253 3883:0.19455253 3884:0.29182878 3885:0.29182878 3888:0.29182878 3889:0.38910505 3890:0.19455253 3891:0.097276263 3892:0.29182878 3893:0.38910505 3894:0.48638132 3895:0.097276263 3898:0.097276263 3899:0.097276263 3901:0.19455253 3902:0.097276263 3904:0.097276263 3916:0.29182878 3919:0.097276263 3921:0.054368932 3922:0.01553398 3923:0.07184466 3924:0.044660199 3925:0.04660194 3926:0.058252431 3927:0.01941748 3928:0.066019423 3929:0.073786408 3930:0.10873786 3931:0.01747573 3932:0.07184466 3933:0.033009712 3934:0.044660199 3935:0.01747573 3936:0.0815534 3937:0.06213592 3938:0.075728163 3939:0.0058252402 3940:0.03106796 3941:0.021399001 3942:0.00034200001 3943:0.00086799997 3944:3.3e-05 3945:0.38446599 #
26.861073806939252506253978936002 1:0.0028551 2:0.0071377601 3:0.02498216 4:0.02284083 5:0.00142755 6:0.00142755 7:0.00642398 8:0.053533189 10:0.01498929 11:0.0028551 12:0.00142755 13:0.00142755 15:0.0071377601 16:0.047109209 17:0.022127051 19:0.0028551 20:0.0028551 28:0.02382654 47:0.02382654 59:0.02382654 63:0.02382654 106:0.02382654 182:0.02382654 184:0.16678581 195:0.02382654 197:0.02382654 278:0.02382654 298:0.02382654 326:0.02382654 333:0.02382654 363:0.02382654 364:0.02382654 368:0.04765309 369:0.02382654 374:0.04765309 379:0.02382654 384:0.02382654 408:0.02382654 412:0.02382654 422:0.02382654 437:0.04765309 443:0.04765309 463:0.02382654 466:0.02382654 476:0.071479633 483:0.02382654 486:0.02382654 511:0.02382654 521:0.02382654 527:0.02382654 528:0.02382654 529:0.02382654 542:0.04765309 544:0.02382654 551:0.02382654 552:0.02382654 586:0.02382654 588:0.02382654 590:0.02382654 594:0.02382654 615:0.02382654 618:0.02382654 620:0.02382654 633:0.02382654 656:0.04765309 665:0.095306173 667:0.02382654 672:0.02382654 679:0.02382654 681:0.02382654 682:0.02382654 711:0.02382654 731:0.02382654 781:0.02382654 788:0.02382654 802:0.02382654 846:0.02382654 857:0.02382654 860:0.02382654 889:0.02382654 891:0.04765309 894:0.02382654 902:0.02382654 905:0.02382654 909:0.02382654 914:0.04765309 923:0.04765309 925:0.02382654 930:0.04765309 940:0.02382654 942:0.02382654 947:0.02382654 972:0.02382654 990:0.02382654 998:0.02382654 1000:0.02382654 1006:0.02382654 1007:0.02382654 1028:0.04765309 1038:0.02382654 1042:0.02382654 1043:0.02382654 1045:0.02382654 1056:0.02382654 1058:0.02382654 1250:0.02382654 1269:0.071479633 1317:0.02382654 1325:0.02382654 1326:0.04765309 1327:0.071479633 1349:0.02382654 1351:0.02382654 1358:0.04765309 1392:0.04765309 1393:0.02382654 1414:0.02382654 1432:0.02382654 1438:0.04765309 1439:0.02382654 1440:0.02382654 1454:0.02382654 1465:0.02382654 1485:0.02382654 1507:0.02382654 1510:0.02382654 1556:0.02382654 1557:0.02382654 1589:0.02382654 1596:0.02382654 1623:0.02382654 1629:0.02382654 1646:0.02382654 1659:0.02382654 1668:0.02382654 1672:0.04765309 1679:0.095306173 1688:0.02382654 1710:0.02382654 1718:0.02382654 1735:0.02382654 1755:0.02382654 1765:0.02382654 1769:0.02382654 1795:0.02382654 1815:0.02382654 1821:0.04765309 1957:0.02382654 2046:0.02382654 2095:0.095306173 2096:0.19061235 2104:0.02382654 2115:0.02382654 2124:0.02382654 2138:0.11913271 2148:0.02382654 2162:0.04765309 2168:0.04765309 2170:0.02382654 2171:0.02382654 2207:0.02382654 2211:0.02382654 2214:0.02382654 2233:0.04765309 2235:0.02382654 2273:0.02382654 2286:0.02382654 2291:0.04765309 2292:0.02382654 2304:0.02382654 2313:0.04765309 2315:0.02382654 2322:0.04765309 2325:0.02382654 2352:0.02382654 2356:0.02382654 2358:0.02382654 2367:0.02382654 2397:0.02382654 2419:0.02382654 2493:0.04765309 2567:0.02382654 2585:0.02382654 2587:0.04765309 2605:0.02382654 2618:0.02382654 2687:0.02382654 2754:0.02382654 2785:0.02382654 2800:0.095306173 2805:0.02382654 2811:0.02382654 2823:0.095306173 2862:0.02382654 2867:0.02382654 2883:0.04765309 2885:0.02382654 2888:0.30974504 2902:0.02382654 2907:0.02382654 2908:0.04765309 2921:0.02382654 2935:0.04765309 2938:0.04765309 2945:0.02382654 2951:0.02382654 2961:0.071479633 2962:0.02382654 2967:0.21443889 2970:0.02382654 2971:0.02382654 2972:0.47653085 2973:0.11913271 2974:0.02382654 2976:0.02382654 2979:0.02382654 2981:0.04765309 2982:0.02382654 2984:0.071479633 2985:0.04765309 2989:0.02382654 2993:0.071479633 2995:0.02382654 3010:0.02382654 3031:0.02382654 3039:0.02382654 3043:0.02382654 3057:0.02382654 3059:0.095306173 3061:0.02382654 3092:0.02382654 3094:0.02382654 3098:0.02382654 3115:0.04765309 3117:0.071479633 3118:0.071479633 3119:0.02382654 3120:0.095306173 3121:0.071479633 3128:0.04765309 3130:0.02382654 3133:0.04765309 3134:0.071479633 3135:0.02382654 3136:0.02382654 3142:0.02382654 3162:0.04765309 3190:0.02382654 3192:0.04765309 3200:0.02382654 3206:0.02382654 3210:0.04765309 3241:0.02382654 3251:0.02382654 3254:0.02382654 3280:0.02382654 3302:0.02382654 3309:0.04765309 3311:0.02382654 3581:0.02382654 3589:0.02382654 3616:0.04765309 3644:0.04765309 3656:0.02382654 3670:0.02382654 3674:0.071428567 3675:0.035714291 3676:0.035714291 3677:0.035714291 3678:0.035714291 3679:0.035714291 3680:0.071428567 3681:0.035714291 3685:0.14285715 3687:0.035714291 3689:0.035714291 3690:0.035714291 3692:0.071428567 3693:0.64285713 3694:0.10714286 3695:0.14285715 3696:0.071428567 3697:0.071428567 3698:0.25 3699:0.071428567 3700:0.53571427 3701:0.5 3702:0.071428567 3703:0.10714286 3704:0.5 3705:0.17857143 3706:0.42857143 3708:0.2857143 3709:0.071428567 3710:0.10714286 3712:0.035714291 3713:0.10714286 3714:0.071428567 3715:0.9285714 3716:0.14285715 3717:0.14285715 3718:0.21428572 3719:0.14285715 3721:0.071428567 3722:0.071428567 3723:0.071428567 3725:0.035714291 3726:0.035714291 3727:0.17857143 3729:0.32142857 3730:0.10714286 3732:0.42857143 3733:0.21428572 3734:0.071428567 3735:0.14285715 3736:0.5 3737:0.035714291 3738:0.17857143 3739:0.17857143 3746:0.035714291 3752:0.14285715 3753:0.035714291 3754:0.2857143 3755:0.035714291 3756:0.035714291 3757:0.42857143 3758:0.035714291 3759:0.35714287 3761:0.071428567 3762:0.035714291 3763:0.071428567 3764:0.2857143 3766:0.035714291 3767:0.17857143 3768:0.071428567 3769:0.035714291 3771:0.071428567 3772:0.035714291 3773:0.2857143 3775:0.071428567 3776:0.035714291 3777:0.035714291 3778:0.071428567 3779:0.10714286 3780:0.35714287 3781:0.2857143 3782:0.21428572 3783:0.17857143 3784:0.035714291 3785:0.035714291 3786:0.035714291 3787:0.071428567 3788:0.035714291 3789:0.10714286 3791:0.035714291 3792:0.17857143 3793:0.071428567 3795:0.035714291 3796:0.035714291 3798:0.035714291 3801:0.035714291 3802:0.14285715 3803:0.035714291 3806:0.035714291 3807:0.10714286 3808:0.035714291 3810:0.10714286 3811:0.96428573 3812:0.17857143 3814:0.89285713 3815:0.32142857 3816:0.071428567 3817:0.071428567 3818:0.2857143 3819:0.17857143 3821:0.10714286 3822:0.25 3823:0.071428567 3824:0.21428572 3825:0.17857143 3826:0.10714286 3827:0.10714286 3828:0.2857143 3830:0.10714286 3831:0.10714286 3832:0.17857143 3834:0.10714286 3836:0.14285715 3837:0.035714291 3840:0.10714286 3841:0.035714291 3842:0.035714291 3843:0.035714291 3844:0.17857143 3846:0.39285713 3847:0.035714291 3850:0.035714291 3852:0.035714291 3853:0.035714291 3855:0.035714291 3857:0.17857143 3858:0.10714286 3859:0.39285713 3862:0.10714286 3863:0.32142857 3864:0.8214286 3866:0.25 3867:0.25 3868:0.10714286 3869:0.21428572 3870:1.6071428 3871:0.4642857 3872:0.21428572 3873:0.035714291 3874:0.071428567 3876:0.32142857 3877:0.14285715 3878:0.14285715 3879:0.071428567 3880:0.25 3881:0.21428572 3882:0.10714286 3883:0.9285714 3884:0.60714287 3885:0.071428567 3886:0.035714291 3887:0.035714291 3888:0.21428572 3889:0.14285715 3890:0.17857143 3892:0.071428567 3893:0.035714291 3894:0.14285715 3895:0.035714291 3897:0.071428567 3898:0.14285715 3899:0.035714291 3901:0.071428567 3914:0.035714291 3915:0.035714291 3916:0.14285715 3918:0.035714291 3920:0.035714291 3921:0.034261242 3922:0.045681659 3923:0.10278372 3924:0.079942897 3925:0.024268379 3926:0.11848679 3927:0.0057102102 3928:0.052105639 3929:0.02640971 3930:0.042826548 3931:0.01213419 3932:0.085653096 3933:0.05424697 3934:0.02498216 3935:0.031406142 3936:0.11777302 3937:0.068522483 3938:0.042826548 3939:0.0042826599 3940:0.025695929 3941:0.169065 3942:0.017982 3943:0.055686999 3944:0.013863 3945:0.25410399 #
-0.61980035210732731254523741881712 3:0.00892857 4:0.01785714 6:0.015625 8:0.01339286 10:0.0044642901 11:0.022321429 12:0.0044642901 13:0.0044642901 14:0.0044642901 15:0.03125 16:0.0044642901 20:0.0044642901 54:0.074738413 65:0.074738413 70:0.074738413 74:0.074738413 94:0.074738413 112:0.074738413 121:0.074738413 128:0.074738413 139:0.074738413 176:0.074738413 190:0.14947683 219:0.074738413 318:0.074738413 349:0.14947683 351:0.074738413 353:0.074738413 375:0.074738413 417:0.074738413 419:0.074738413 434:0.074738413 578:0.074738413 599:0.074738413 625:0.074738413 632:0.074738413 680:0.074738413 705:0.074738413 747:0.074738413 756:0.074738413 766:0.074738413 769:0.074738413 796:0.074738413 818:0.074738413 908:0.074738413 933:0.074738413 949:0.074738413 966:0.074738413 968:0.074738413 989:0.074738413 990:0.074738413 992:0.074738413 1000:0.074738413 1001:0.074738413 1006:0.074738413 1013:0.074738413 1014:0.074738413 1032:0.074738413 1040:0.074738413 1042:0.074738413 1057:0.074738413 1108:0.074738413 1117:0.074738413 1184:0.074738413 1268:0.074738413 1325:0.074738413 1333:0.074738413 1357:0.074738413 1367:0.074738413 1415:0.074738413 1419:0.074738413 1420:0.074738413 1431:0.074738413 1438:0.074738413 1447:0.074738413 1469:0.074738413 1494:0.074738413 1541:0.074738413 1554:0.074738413 1579:0.074738413 1582:0.074738413 1649:0.074738413 1671:0.074738413 1681:0.074738413 1712:0.074738413 1720:0.074738413 1736:0.074738413 1740:0.14947683 1771:0.074738413 1780:0.074738413 1791:0.074738413 1804:0.14947683 1823:0.074738413 1860:0.074738413 1919:0.074738413 2009:0.074738413 2027:0.074738413 2029:0.074738413 2045:0.074738413 2084:0.074738413 2105:0.074738413 2121:0.074738413 2129:0.074738413 2148:0.22421524 2174:0.074738413 2190:0.074738413 2191:0.074738413 2207:0.074738413 2266:0.074738413 2284:0.074738413 2291:0.29895365 2296:0.074738413 2321:0.074738413 2353:0.074738413 2402:0.074738413 2411:0.074738413 2416:0.074738413 2420:0.074738413 2423:0.29895365 2451:0.074738413 2485:0.074738413 2502:0.074738413 2518:0.074738413 2521:0.074738413 2524:0.074738413 2527:0.074738413 2529:0.074738413 2536:0.074738413 2537:0.074738413 2557:0.074738413 2567:0.074738413 2578:0.074738413 2622:0.074738413 2656:0.074738413 2673:0.074738413 2699:0.074738413 2721:0.074738413 2730:0.074738413 2761:0.074738413 2764:0.29895365 2777:0.074738413 2811:0.074738413 2835:0.074738413 2873:0.074738413 2875:0.074738413 2898:0.074738413 2899:0.29895365 2900:0.074738413 2901:0.074738413 2906:0.074738413 2921:0.074738413 2951:0.074738413 2966:0.074738413 2982:0.074738413 3005:0.074738413 3013:0.074738413 3015:0.074738413 3017:0.074738413 3027:0.074738413 3075:0.074738413 3083:0.074738413 3093:0.074738413 3108:0.074738413 3195:0.074738413 3235:0.074738413 3239:0.074738413 3244:0.14947683 3247:0.074738413 3249:0.074738413 3264:0.074738413 3291:0.074738413 3323:0.074738413 3444:0.074738413 3534:0.074738413 3546:0.074738413 3611:0.074738413 3616:0.074738413 3643:0.074738413 3644:0.074738413 3675:0.11185683 3676:0.11185683 3678:0.33557048 3679:0.11185683 3680:0.33557048 3681:0.22371365 3683:0.11185683 3684:0.22371365 3687:0.22371365 3690:0.11185683 3692:0.4474273 3693:0.33557048 3694:0.11185683 3697:0.22371365 3698:0.4474273 3699:0.22371365 3700:0.33557048 3701:0.11185683 3702:0.11185683 3703:0.11185683 3704:0.22371365 3708:0.11185683 3709:0.11185683 3710:0.11185683 3712:0.11185683 3713:0.22371365 3716:0.11185683 3717:0.11185683 3718:0.11185683 3719:0.11185683 3720:0.11185683 3722:0.22371365 3729:0.22371365 3730:0.11185683 3731:0.22371365 3732:0.11185683 3733:0.11185683 3734:0.22371365 3736:1.230425 3737:0.22371365 3738:0.22371365 3739:0.33557048 3742:0.22371365 3747:0.11185683 3750:0.22371365 3755:0.11185683 3756:0.22371365 3757:0.11185683 3759:0.22371365 3761:0.22371365 3762:0.11185683 3763:0.11185683 3766:0.33557048 3767:0.33557048 3769:0.11185683 3772:0.11185683 3773:0.11185683 3775:0.11185683 3776:0.11185683 3779:0.11185683 3780:0.33557048 3782:0.22371365 3783:0.11185683 3784:0.11185683 3785:0.11185683 3786:0.11185683 3787:0.55928409 3789:0.22371365 3790:0.33557048 3791:0.11185683 3792:0.11185683 3794:0.11185683 3798:0.11185683 3799:0.11185683 3801:0.11185683 3802:0.11185683 3803:0.11185683 3805:0.11185683 3806:0.22371365 3807:0.11185683 3809:0.11185683 3811:0.33557048 3812:0.11185683 3813:0.22371365 3814:0.22371365 3815:0.11185683 3816:0.67114097 3817:0.33557048 3819:0.11185683 3821:0.67114097 3822:0.55928409 3823:0.11185683 3824:0.33557048 3825:1.230425 3827:0.55928409 3828:0.22371365 3830:0.11185683 3832:1.1185682 3835:0.11185683 3836:0.11185683 3838:0.4474273 3839:0.22371365 3840:0.4474273 3842:0.11185683 3843:0.55928409 3844:0.11185683 3848:0.22371365 3849:0.11185683 3851:0.11185683 3852:0.11185683 3853:0.11185683 3855:0.67114097 3856:0.11185683 3858:0.11185683 3860:0.11185683 3863:0.11185683 3865:0.11185683 3867:0.33557048 3868:0.4474273 3869:0.22371365 3870:0.11185683 3871:0.11185683 3872:0.11185683 3874:0.22371365 3875:0.33557048 3877:0.22371365 3878:0.11185683 3879:0.11185683 3880:0.22371365 3882:0.33557048 3883:0.11185683 3885:0.11185683 3887:0.11185683 3889:0.22371365 3892:0.11185683 3893:0.4474273 3894:0.22371365 3895:0.22371365 3896:0.11185683 3906:0.11185683 3914:0.22371365 3915:0.11185683 3916:0.11185683 3917:0.11185683 3921:0.051339291 3922:0.01116071 3923:0.060267858 3924:0.035714291 3925:0.026785711 3926:0.11607143 3927:0.01785714 3928:0.033482142 3929:0.037946429 3930:0.066964284 3931:0.026785711 3932:0.078125 3933:0.075892858 3934:0.091517858 3935:0.037946429 3936:0.082589284 3937:0.046875 3938:0.03125 3939:0.0022321399 3940:0.069196433 3941:0.010291 3942:-0.00040200001 3943:0.00028400001 3944:-3.7999998e-05 3945:0.247768 #
17.674030761310145720699438243173 1:0.0017452 3:0.0017452 4:0.0017452 9:0.0052355998 11:0.0043629999 12:0.0017452 15:0.0017452 16:0.049738221 17:0.0017452 19:0.0017452 25:0.029137529 74:0.029137529 78:0.029137529 83:0.029137529 85:0.029137529 145:0.029137529 326:0.029137529 386:0.029137529 399:0.029137529 417:0.029137529 484:0.029137529 490:0.029137529 557:0.029137529 581:0.029137529 589:0.058275059 661:0.029137529 736:0.029137529 785:0.029137529 818:0.029137529 891:0.029137529 893:0.029137529 933:0.029137529 935:0.029137529 965:0.029137529 973:0.029137529 1013:0.029137529 1058:0.029137529 1085:0.029137529 1116:0.029137529 1158:0.029137529 1182:0.029137529 1186:0.029137529 1189:0.029137529 1190:0.029137529 1321:0.029137529 1453:0.029137529 1474:0.029137529 1533:0.029137529 1573:0.029137529 1652:0.029137529 1674:0.029137529 1696:0.029137529 1731:0.029137529 1732:0.029137529 1743:0.029137529 1762:0.029137529 1811:0.029137529 1818:0.029137529 1985:0.029137529 2086:0.029137529 2094:0.029137529 2095:0.029137529 2164:0.029137529 2228:0.029137529 2236:0.029137529 2291:0.029137529 2302:0.029137529 2322:0.029137529 2349:0.029137529 2662:0.029137529 2718:0.029137529 2723:0.029137529 2865:0.029137529 2969:0.029137529 2970:0.029137529 2972:0.029137529 2976:0.029137529 2995:0.029137529 3006:0.029137529 3007:0.029137529 3010:0.029137529 3054:0.029137529 3089:0.029137529 3133:0.029137529 3159:0.029137529 3246:0.029137529 3256:0.029137529 3273:0.029137529 3309:0.058275059 3365:0.029137529 3397:0.058275059 3544:0.029137529 3595:0.029137529 3616:0.029137529 3635:0.029137529 3674:0.043668121 3677:0.087336242 3683:0.043668121 3688:0.13100436 3690:0.17467248 3691:0.087336242 3692:0.043668121 3693:0.087336242 3694:0.34934497 3695:0.087336242 3696:0.043668121 3697:0.30567685 3698:0.043668121 3700:1.3973799 3701:0.043668121 3702:0.087336242 3704:0.043668121 3707:0.087336242 3709:1.441048 3710:1.0480349 3712:0.043668121 3715:0.043668121 3717:0.043668121 3720:0.39301309 3721:0.087336242 3722:0.043668121 3725:0.043668121 3727:0.043668121 3729:0.087336242 3731:0.21834061 3733:0.043668121 3734:0.13100436 3737:0.043668121 3738:0.087336242 3741:0.17467248 3742:0.043668121 3744:0.21834061 3745:0.17467248 3747:0.26200873 3751:0.043668121 3756:0.043668121 3758:0.043668121 3759:0.043668121 3768:0.34934497 3770:0.17467248 3772:0.043668121 3773:0.21834061 3775:0.043668121 3778:0.087336242 3780:0.087336242 3782:0.043668121 3784:0.043668121 3786:0.043668121 3787:0.13100436 3789:0.043668121 3792:0.13100436 3793:0.043668121 3811:0.13100436 3814:0.043668121 3815:0.043668121 3816:0.043668121 3817:0.087336242 3818:0.043668121 3821:0.13100436 3822:0.21834061 3823:0.13100436 3824:0.043668121 3825:0.043668121 3826:0.043668121 3828:0.087336242 3829:0.043668121 3836:0.043668121 3842:0.043668121 3843:0.043668121 3844:0.043668121 3845:0.043668121 3846:0.043668121 3849:0.043668121 3852:0.087336242 3861:0.043668121 3862:0.043668121 3864:0.087336242 3865:0.043668121 3866:0.043668121 3870:1.3537118 3872:0.043668121 3873:0.087336242 3874:0.39301309 3878:0.043668121 3880:0.087336242 3882:0.043668121 3883:0.087336242 3884:0.043668121 3888:0.043668121 3891:0.087336242 3893:0.087336242 3894:0.087336242 3898:0.17467248 3903:0.043668121 3904:0.087336242 3905:0.21834061 3908:0.043668121 3910:0.043668121 3912:0.043668121 3916:0.087336242 3918:0.043668121 3920:0.087336242 3921:0.0069808001 3922:0.080279231 3923:0.14485165 3924:0.076788828 3925:0.023560209 3926:0.02094241 3927:0.059336819 3928:0.0026177999 3929:0.11343805 3930:0.05322862 3931:0.00087260001 3932:0.055846419 3933:0.03839441 3934:0.0026177999 3935:0.0069808001 3936:0.075043634 3937:0.0095985997 3938:0.01221641 3939:0.13176265 3940:0.084642231 3941:0.133928 3942:0.001952 3943:0.029957 3944:0.00098699995 3945:0.179756 #
0.16797973961319079272414001025027 3:0.0088495603 7:0.0088495603 10:0.017699109 16:0.0088495603 17:0.12831858 192:0.59523809 466:0.14880952 471:0.74404764 660:0.74404764 665:0.14880952 669:0.29761904 718:0.59523809 879:0.89285713 1030:0.89285713 1175:0.74404764 1391:0.14880952 1393:0.14880952 1397:0.14880952 1447:0.29761904 2143:0.89285713 2286:0.14880952 2322:0.14880952 2323:0.89285713 2548:0.14880952 2627:0.44642857 2888:0.74404764 2889:0.59523809 2901:0.14880952 2911:0.14880952 2945:0.14880952 2990:0.74404764 2993:0.14880952 3027:0.89285713 3031:0.89285713 3059:0.29761904 3089:0.14880952 3125:1.6369047 3127:0.29761904 3131:0.14880952 3134:0.89285713 3142:1.4880953 3228:0.29761904 3232:0.44642857 3278:0.14880952 3279:0.14880952 3318:1.1904762 3497:0.74404764 3684:0.8888889 3700:1.3333334 3705:0.22222222 3706:0.8888889 3712:1.1111112 3715:1.3333334 3716:1.3333334 3728:1.3333334 3738:1.3333334 3757:0.44444445 3758:0.44444445 3764:0.44444445 3767:0.44444445 3781:0.22222222 3783:0.22222222 3814:0.22222222 3815:1.5555556 3821:0.66666669 3823:0.44444445 3824:0.22222222 3827:0.22222222 3828:1.5555556 3832:0.22222222 3841:0.22222222 3864:1.1111112 3865:1.1111112 3866:0.22222222 3870:0.22222222 3872:1.3333334 3877:1.3333334 3878:2.4444444 3880:0.44444445 3881:0.44444445 3882:0.8888889 3884:4.4444447 3885:2.2222223 3892:1.3333334 3896:0.22222222 3897:0.66666669 3899:2.4444444 3910:1.3333334 3921:0.017699109 3922:0 3923:0.030973449 3924:0.11946902 3925:0.048672572 3926:0.039823011 3927:0.026548671 3928:0.048672572 3929:0.0088495603 3930:0.0088495603 3931:0 3932:0.048672572 3933:0.092920363 3934:0.01327434 3935:0.01327434 3936:0.092920363 3937:0.24778761 3938:0.10176991 3939:0.026548671 3940:0.01327434 3941:0.0043819998 3942:-1.8000001e-05 3943:3.5000001e-05 3944:-0 3945:0.225664 #
-8.644931925540102923832819215022 2:0.0069930102 3:0.020979021 4:0.01398601 7:0.017482519 8:0.0069930102 11:0.01048951 12:0.020979021 15:0.0069930102 16:0.05244755 17:0.062937073 106:0.11737089 172:0.11737089 249:0.11737089 313:0.11737089 367:0.11737089 417:0.11737089 468:0.35211268 528:0.11737089 529:0.11737089 530:0.11737089 552:0.11737089 562:0.11737089 582:0.11737089 623:0.11737089 675:0.11737089 856:0.11737089 861:0.11737089 940:0.11737089 955:0.11737089 988:0.11737089 1027:0.11737089 1032:0.11737089 1067:0.11737089 1076:0.11737089 1157:0.11737089 1172:0.11737089 1195:0.11737089 1199:0.11737089 1307:0.11737089 1375:0.11737089 1391:0.11737089 1392:0.11737089 1488:0.11737089 1499:0.11737089 1503:0.11737089 1504:0.11737089 1514:0.11737089 1559:0.11737089 1562:0.11737089 1584:0.11737089 1642:0.11737089 1652:0.11737089 1723:0.11737089 1741:0.11737089 1766:0.11737089 1792:0.11737089 1808:0.11737089 1814:0.11737089 2026:0.11737089 2028:0.11737089 2083:0.11737089 2113:0.11737089 2118:0.11737089 2132:0.11737089 2165:0.11737089 2174:0.11737089 2281:0.11737089 2296:0.11737089 2314:0.11737089 2315:0.11737089 2328:0.11737089 2392:0.11737089 2460:0.11737089 2502:0.11737089 2577:0.11737089 2609:0.11737089 2618:0.11737089 2660:0.11737089 2673:0.11737089 2686:0.11737089 2706:0.11737089 2715:0.11737089 2755:0.11737089 2804:0.11737089 2808:0.11737089 2883:0.35211268 2901:0.11737089 2906:0.11737089 2909:0.11737089 2910:0.23474178 2939:0.35211268 2961:0.11737089 2969:0.11737089 2970:0.11737089 2972:0.11737089 2973:0.23474178 2983:0.11737089 2984:0.46948355 2985:0.46948355 2993:0.11737089 3067:0.11737089 3077:0.11737089 3089:0.11737089 3092:0.11737089 3109:0.11737089 3118:0.11737089 3120:0.23474178 3121:0.58685446 3133:0.23474178 3134:0.93896711 3135:0.11737089 3170:0.11737089 3190:0.11737089 3271:0.11737089 3278:0.11737089 3279:0.11737089 3308:0.11737089 3564:0.11737089 3585:0.11737089 3676:0.1754386 3678:0.1754386 3679:0.1754386 3683:0.1754386 3685:0.1754386 3688:0.1754386 3690:0.1754386 3691:0.1754386 3693:0.3508772 3697:0.1754386 3700:1.0526316 3701:0.3508772 3704:0.52631581 3705:0.52631581 3706:0.1754386 3707:0.1754386 3709:0.1754386 3713:0.1754386 3717:0.1754386 3723:0.1754386 3726:0.1754386 3727:0.3508772 3729:0.1754386 3732:0.1754386 3733:0.1754386 3738:0.1754386 3740:0.3508772 3743:0.1754386 3745:0.1754386 3747:0.1754386 3748:0.3508772 3750:0.1754386 3753:0.1754386 3754:0.1754386 3755:0.1754386 3756:0.1754386 3759:0.1754386 3761:0.1754386 3763:0.1754386 3764:0.3508772 3770:0.1754386 3771:0.1754386 3772:0.52631581 3773:0.1754386 3774:0.1754386 3775:0.3508772 3776:0.1754386 3777:0.3508772 3780:0.1754386 3784:0.1754386 3786:0.52631581 3787:0.3508772 3789:0.1754386 3791:0.1754386 3792:0.1754386 3802:0.1754386 3806:0.52631581 3810:0.1754386 3811:0.3508772 3812:0.1754386 3813:0.1754386 3814:0.52631581 3818:0.70175439 3819:0.70175439 3821:0.3508772 3823:0.3508772 3825:0.1754386 3827:0.52631581 3828:0.1754386 3832:0.1754386 3836:0.1754386 3839:0.3508772 3844:0.1754386 3846:0.1754386 3847:0.1754386 3849:0.3508772 3850:0.3508772 3851:0.1754386 3852:0.1754386 3855:0.1754386 3857:0.1754386 3858:0.3508772 3863:0.52631581 3864:0.1754386 3866:0.70175439 3867:0.87719297 3869:0.70175439 3870:1.4035088 3871:1.7543859 3872:0.3508772 3874:0.1754386 3875:0.1754386 3876:0.1754386 3882:1.0526316 3883:1.7543859 3884:2.2807016 3885:0.1754386 3888:0.1754386 3889:0.1754386 3898:0.52631581 3921:0.02447552 3922:0.017482519 3923:0.05244755 3924:0.041958041 3925:0.017482519 3926:0.045454551 3927:0.034965031 3928:0.03846154 3929:0.062937073 3930:0.059440561 3931:0.01398601 3932:0.094405591 3933:0.048951048 3934:0.020979021 3935:0.048951048 3936:0.18881118 3937:0.14335664 3938:0.031468529 3939:0 3940:0.01398601 3941:0.0076120002 3942:0.000126 3943:0.000106 3944:3.0000001e-06 3945:0.202797 #
-9.8204233701341028250908493646421 1:0.0058027101 2:0.00386847 3:0.038684718 6:0.058027081 7:0.01160542 8:0.00386847 11:0.0077369399 12:0.01160542 13:0.00386847 16:0.04255319 17:0.044487432 19:0.01740812 21:0.064724922 22:0.064724922 103:0.064724922 109:0.064724922 125:0.064724922 160:0.064724922 179:0.12944984 184:0.064724922 185:0.064724922 192:0.064724922 250:0.064724922 270:0.064724922 305:0.064724922 351:0.064724922 407:0.064724922 466:0.064724922 470:0.064724922 506:0.064724922 526:0.064724922 528:0.12944984 534:0.064724922 572:0.064724922 583:0.064724922 595:0.064724922 634:0.064724922 717:0.12944984 770:0.064724922 784:0.064724922 827:0.064724922 843:0.064724922 859:0.064724922 894:0.064724922 899:0.064724922 930:0.064724922 988:0.064724922 990:0.064724922 1035:0.12944984 1038:0.064724922 1076:0.064724922 1162:0.064724922 1175:0.064724922 1195:0.064724922 1261:0.064724922 1275:0.064724922 1317:0.064724922 1349:0.064724922 1351:0.064724922 1378:0.064724922 1389:0.064724922 1429:0.064724922 1500:0.064724922 1504:0.064724922 1505:0.064724922 1515:0.064724922 1516:0.064724922 1533:0.064724922 1559:0.064724922 1561:0.064724922 1562:0.064724922 1567:0.064724922 1573:0.064724922 1579:0.064724922 1580:0.064724922 1589:0.064724922 1655:0.064724922 1716:0.064724922 1727:0.064724922 1728:0.064724922 1736:0.064724922 1740:0.064724922 1767:0.064724922 1785:0.064724922 1808:0.064724922 1809:0.064724922 1937:0.064724922 1969:0.064724922 2035:0.064724922 2076:0.064724922 2114:0.064724922 2119:0.064724922 2138:0.064724922 2166:0.12944984 2168:0.12944984 2170:0.064724922 2171:0.064724922 2175:0.12944984 2196:0.064724922 2209:0.064724922 2244:0.064724922 2286:0.064724922 2296:0.064724922 2314:0.064724922 2325:0.064724922 2368:0.064724922 2421:0.064724922 2423:0.064724922 2451:0.12944984 2494:0.064724922 2498:0.064724922 2500:0.064724922 2515:0.064724922 2524:0.064724922 2529:0.064724922 2548:0.064724922 2549:0.064724922 2569:0.064724922 2573:0.12944984 2631:0.064724922 2661:0.064724922 2662:0.064724922 2705:0.064724922 2711:0.064724922 2759:0.064724922 2779:0.064724922 2800:0.064724922 2804:0.064724922 2814:0.064724922 2877:0.064724922 2901:0.064724922 2905:0.064724922 2922:0.064724922 2932:0.064724922 2936:0.064724922 2938:0.25889969 2939:0.12944984 2951:0.064724922 2965:0.064724922 2969:0.064724922 2970:0.12944984 2972:0.12944984 2973:0.25889969 2976:0.064724922 2983:0.12944984 2984:0.3883495 2985:0.25889969 2986:0.064724922 2988:0.064724922 2996:0.064724922 2998:0.064724922 3007:0.064724922 3008:0.064724922 3017:0.12944984 3031:0.064724922 3048:0.064724922 3050:0.064724922 3075:0.064724922 3089:0.19417475 3092:0.064724922 3120:0.19417475 3121:0.32362458 3124:0.25889969 3127:0.064724922 3132:0.064724922 3133:0.12944984 3134:0.19417475 3135:0.064724922 3141:0.12944984 3159:0.064724922 3162:0.064724922 3207:0.064724922 3240:0.064724922 3255:0.064724922 3273:0.064724922 3286:0.064724922 3309:0.064724922 3317:0.064724922 3608:0.064724922 3643:0.064724922 3650:0.064724922 3668:0.064724922 3673:0.064724922 3674:0.19379845 3679:0.19379845 3680:0.096899226 3682:0.19379845 3683:0.19379845 3684:0.29069766 3685:0.096899226 3688:0.096899226 3692:0.096899226 3693:0.096899226 3700:0.29069766 3703:0.096899226 3705:0.38759691 3708:0.096899226 3709:0.19379845 3710:0.096899226 3713:0.19379845 3716:0.096899226 3721:0.19379845 3723:0.096899226 3724:0.096899226 3725:0.096899226 3727:0.19379845 3729:0.096899226 3732:0.096899226 3733:0.096899226 3738:0.29069766 3739:0.38759691 3741:0.096899226 3745:0.096899226 3746:0.096899226 3748:0.096899226 3750:0.096899226 3753:0.096899226 3756:0.19379845 3758:0.19379845 3761:0.29069766 3762:0.096899226 3763:0.19379845 3768:0.096899226 3772:0.29069766 3773:0.19379845 3775:0.096899226 3777:0.48449612 3778:0.096899226 3780:0.096899226 3781:0.096899226 3784:0.096899226 3785:0.096899226 3786:0.19379845 3787:0.19379845 3788:0.19379845 3789:0.38759691 3790:0.29069766 3792:0.19379845 3797:0.096899226 3800:0.096899226 3801:0.096899226 3802:0.096899226 3803:0.096899226 3804:0.096899226 3806:0.096899226 3810:0.096899226 3811:0.19379845 3812:0.19379845 3814:1.1627907 3815:0.29069766 3816:0.29069766 3817:0.096899226 3818:0.6782946 3819:0.87209302 3821:0.29069766 3823:0.096899226 3824:0.29069766 3827:0.48449612 3830:0.096899226 3831:0.096899226 3832:0.19379845 3834:0.19379845 3835:0.19379845 3836:0.29069766 3838:0.096899226 3839:0.096899226 3840:0.38759691 3841:0.29069766 3843:0.58139533 3847:0.096899226 3849:0.19379845 3851:0.096899226 3852:0.096899226 3855:0.096899226 3856:0.096899226 3857:0.096899226 3858:0.38759691 3859:0.19379845 3863:0.096899226 3864:0.096899226 3865:0.096899226 3866:0.29069766 3867:0.96899223 3868:0.29069766 3869:0.096899226 3870:1.1627907 3871:1.3565892 3872:0.29069766 3873:0.096899226 3874:0.38759691 3875:0.48449612 3878:0.19379845 3879:0.096899226 3880:0.29069766 3882:0.58139533 3883:1.4534883 3884:1.2596899 3885:0.29069766 3887:0.19379845 3888:0.19379845 3890:0.19379845 3893:0.096899226 3894:0.19379845 3896:0.096899226 3898:0.48449612 3899:0.29069766 3904:0.096899226 3906:0.096899226 3916:0.19379845 3917:0.096899226 3919:0.29069766 3921:0.04061896 3922:0.01353965 3923:0.025145071 3924:0.025145071 3925:0.021276601 3926:0.038684718 3927:0.023210829 3928:0.03094778 3929:0.046421658 3930:0.054158609 3931:0.019342359 3932:0.11218569 3933:0.054158609 3934:0.098646037 3935:0.027079299 3936:0.15087041 3937:0.11218569 3938:0.04255319 3939:0.00386847 3940:0.059961319 3941:0.023608999 3942:-0.001106 3943:0.001051 3944:-0.000107 3945:0.22243699 #
-0.96262600735347469971259215526516 1:0.0047058798 3:0.0094117597 4:0.01411765 7:0.037647061 8:0.037647061 10:0.0047058798 12:0.047058821 16:0.13176471 17:0.0047058798 20:0.0047058798 32:0.078802213 48:0.078802213 51:0.078802213 54:0.078802213 98:0.078802213 103:0.15760441 110:0.078802213 116:0.078802213 123:0.078802213 148:0.078802213 181:0.078802213 193:0.078802213 202:0.078802213 350:0.078802213 361:0.078802213 367:0.23640662 376:0.078802213 407:0.15760441 416:0.078802213 434:0.078802213 454:0.078802213 461:0.078802213 475:0.078802213 506:0.078802213 507:0.078802213 518:0.078802213 521:0.23640662 524:0.078802213 526:0.078802213 528:0.31520882 531:0.078802213 560:0.078802213 568:0.078802213 578:0.078802213 579:0.078802213 645:0.078802213 662:0.15760441 665:0.63041764 678:0.078802213 690:0.078802213 710:0.078802213 750:0.078802213 751:0.078802213 752:0.078802213 790:0.078802213 837:0.15760441 839:0.078802213 891:0.078802213 918:0.078802213 922:0.23640662 925:0.23640662 929:0.15760441 951:0.078802213 952:0.078802213 990:0.078802213 1002:0.078802213 1012:0.15760441 1015:0.078802213 1017:0.078802213 1027:0.078802213 1030:0.078802213 1057:0.078802213 1061:0.15760441 1111:0.078802213 1180:0.078802213 1268:0.15760441 1288:0.078802213 1295:0.078802213 1357:0.078802213 1415:0.078802213 1418:0.078802213 1419:0.078802213 1423:0.078802213 1434:0.078802213 1439:0.15760441 1440:0.078802213 1443:0.078802213 1446:0.078802213 1450:0.078802213 1494:0.15760441 1495:0.078802213 1496:0.23640662 1504:0.078802213 1506:0.15760441 1507:0.078802213 1509:0.078802213 1542:0.078802213 1559:0.078802213 1561:0.078802213 1578:0.078802213 1579:0.078802213 1628:0.078802213 1655:0.078802213 1656:0.078802213 1684:0.078802213 1724:0.078802213 1726:0.078802213 1776:0.078802213 1810:0.078802213 1919:0.078802213 2060:0.078802213 2138:0.15760441 2142:0.078802213 2153:0.078802213 2257:0.078802213 2303:0.078802213 2312:0.078802213 2317:0.078802213 2323:0.078802213 2327:0.078802213 2367:0.078802213 2448:0.078802213 2648:0.47281325 2657:0.078802213 2684:0.078802213 2692:0.078802213 2710:0.078802213 2757:0.078802213 2764:0.078802213 2765:0.078802213 2775:0.078802213 2811:0.078802213 2814:0.078802213 2832:0.078802213 2883:1.0244287 2884:0.078802213 2888:0.55161542 2894:0.078802213 2901:0.078802213 2907:0.15760441 2915:0.15760441 2956:0.15760441 2966:0.70921987 2967:0.23640662 2972:2.679275 2984:0.078802213 2985:0.078802213 2994:0.078802213 3003:0.078802213 3005:0.078802213 3012:0.078802213 3054:0.078802213 3062:0.078802213 3063:0.078802213 3118:0.078802213 3129:0.078802213 3159:0.078802213 3184:0.078802213 3215:0.078802213 3297:0.078802213 3299:0.078802213 3320:0.078802213 3438:0.078802213 3499:0.078802213 3553:0.078802213 3644:0.078802213 3674:0.11792453 3675:0.23584905 3676:0.11792453 3679:0.58962262 3680:0.23584905 3683:0.11792453 3684:0.11792453 3685:0.11792453 3692:0.11792453 3693:0.47169811 3694:0.11792453 3696:0.11792453 3697:0.11792453 3699:0.35377359 3700:1.6509434 3701:0.11792453 3703:0.23584905 3704:0.58962262 3705:1.1792452 3707:0.11792453 3708:0.35377359 3709:0.23584905 3711:0.11792453 3712:0.35377359 3713:0.11792453 3714:0.11792453 3715:1.6509434 3716:0.11792453 3717:0.11792453 3718:0.23584905 3719:0.47169811 3722:0.11792453 3723:0.11792453 3725:0.35377359 3729:0.11792453 3730:0.47169811 3733:0.35377359 3736:0.11792453 3737:0.47169811 3738:0.11792453 3739:0.11792453 3742:0.11792453 3743:0.11792453 3747:0.11792453 3755:0.11792453 3756:0.11792453 3757:0.11792453 3761:0.11792453 3763:0.11792453 3766:0.47169811 3767:1.0613208 3768:0.11792453 3769:0.11792453 3772:1.1792452 3773:0.11792453 3776:0.11792453 3777:0.23584905 3778:0.11792453 3779:0.11792453 3780:0.11792453 3781:0.11792453 3782:0.11792453 3783:0.23584905 3786:0.23584905 3790:0.11792453 3794:0.11792453 3799:0.11792453 3806:0.11792453 3809:0.11792453 3810:0.11792453 3811:0.47169811 3812:0.11792453 3814:0.23584905 3815:0.11792453 3816:0.11792453 3817:0.23584905 3818:0.11792453 3823:0.11792453 3824:0.11792453 3826:0.23584905 3827:0.35377359 3828:0.23584905 3830:0.11792453 3832:0.11792453 3835:0.23584905 3843:0.11792453 3846:0.11792453 3847:0.11792453 3848:0.94339621 3850:0.11792453 3851:0.11792453 3852:0.23584905 3855:0.35377359 3856:0.11792453 3858:0.11792453 3859:0.11792453 3860:0.11792453 3863:1.8867924 3864:1.1792452 3865:0.11792453 3866:0.23584905 3869:0.23584905 3870:5.5424528 3871:0.35377359 3872:0.11792453 3873:0.11792453 3874:0.11792453 3875:0.11792453 3877:0.23584905 3878:0.11792453 3879:0.11792453 3883:0.23584905 3884:0.11792453 3885:0.23584905 3888:0.11792453 3889:0.11792453 3890:0.11792453 3893:0.11792453 3895:0.11792453 3896:0.11792453 3897:0.23584905 3898:0.11792453 3906:0.11792453 3910:0.11792453 3914:0.11792453 3915:0.11792453 3919:0.11792453 3921:0.042352941 3922:0 3923:0.091764703 3924:0.11294118 3925:0.032941181 3926:0.098823532 3927:0.0070588202 3928:0.02823529 3929:0.094117649 3930:0.02588235 3931:0.0094117597 3932:0.035294119 3933:0.039999999 3934:0.016470591 3935:0.051764701 3936:0.21882352 3937:0.035294119 3938:0.032941181 3939:0.0047058798 3940:0.02117647 3941:0.011358 3942:-0.00083999999 3943:0.00042 3944:-6.7000001e-05 3945:0.171765 #
32.808156893397764974906749557704 1:0.022831051 4:0.0091324197 7:0.01141553 8:0.01369863 10:0.0091324197 11:0.0068493201 12:0.025114151 16:0.0045662099 19:0.0045662099 20:0.015981739 23:0.076452598 24:0.076452598 26:0.076452598 27:0.076452598 43:0.076452598 49:0.076452598 51:0.076452598 54:0.076452598 70:0.076452598 78:0.076452598 92:0.076452598 96:0.076452598 103:0.076452598 104:0.076452598 113:0.076452598 115:0.1529052 121:0.076452598 124:0.076452598 147:0.076452598 179:0.1529052 184:0.076452598 185:0.076452598 202:0.076452598 205:0.076452598 368:0.076452598 394:0.076452598 413:0.076452598 415:0.076452598 420:0.076452598 505:0.076452598 507:0.1529052 525:0.076452598 526:0.076452598 528:0.076452598 532:0.076452598 582:0.076452598 592:0.076452598 594:0.076452598 599:0.076452598 636:0.076452598 649:0.076452598 677:0.076452598 709:0.076452598 887:0.076452598 891:0.076452598 914:0.076452598 929:0.076452598 953:0.076452598 971:0.076452598 1005:0.076452598 1015:0.076452598 1032:0.076452598 1033:0.076452598 1038:0.076452598 1042:0.076452598 1201:0.076452598 1210:0.076452598 1249:0.076452598 1253:0.076452598 1254:0.076452598 1278:0.076452598 1299:0.076452598 1317:0.076452598 1327:0.076452598 1332:0.076452598 1359:0.076452598 1414:0.076452598 1416:0.076452598 1417:0.076452598 1419:0.076452598 1469:0.1529052 1481:0.076452598 1494:0.076452598 1500:0.076452598 1502:0.076452598 1509:0.076452598 1511:0.076452598 1514:0.076452598 1577:0.076452598 1624:0.076452598 1626:0.076452598 1628:0.1529052 1647:0.076452598 1649:0.076452598 1678:0.076452598 1684:0.076452598 1690:0.076452598 1691:0.076452598 1718:0.076452598 1728:0.076452598 1730:0.076452598 1737:0.076452598 1754:0.076452598 1769:0.076452598 1783:0.076452598 1786:0.076452598 1788:0.076452598 1793:0.076452598 1799:0.076452598 1841:0.076452598 2074:0.076452598 2143:0.076452598 2165:0.076452598 2175:0.076452598 2197:0.076452598 2214:0.076452598 2323:0.076452598 2356:0.076452598 2437:0.076452598 2457:0.076452598 2574:0.076452598 2578:0.076452598 2678:0.076452598 2681:0.076452598 2708:0.1529052 2772:0.076452598 2805:0.076452598 2812:0.076452598 2896:0.076452598 2916:0.076452598 2918:0.076452598 2956:0.076452598 2967:0.076452598 3005:0.076452598 3010:0.076452598 3011:0.076452598 3030:0.076452598 3031:0.076452598 3045:0.076452598 3063:0.076452598 3078:0.076452598 3090:0.076452598 3142:0.076452598 3210:0.076452598 3235:0.076452598 3240:0.076452598 3251:0.1529052 3252:0.076452598 3272:0.076452598 3276:0.076452598 3278:0.076452598 3279:0.076452598 3320:0.076452598 3326:0.076452598 3339:0.076452598 3529:0.076452598 3544:0.076452598 3674:0.5720824 3675:0.22883295 3676:0.11441647 3677:0.11441647 3678:1.0297483 3679:0.45766589 3680:0.5720824 3683:0.22883295 3685:0.22883295 3686:0.11441647 3693:0.34324944 3694:0.11441647 3696:0.22883295 3697:0.68649888 3698:0.11441647 3700:0.34324944 3702:0.45766589 3703:0.5720824 3704:0.34324944 3705:0.34324944 3706:0.11441647 3709:0.22883295 3710:0.34324944 3713:0.22883295 3714:0.11441647 3715:0.11441647 3716:0.22883295 3717:0.22883295 3721:0.22883295 3722:0.11441647 3724:0.22883295 3725:0.11441647 3726:0.11441647 3729:0.45766589 3733:0.11441647 3734:0.22883295 3736:0.45766589 3737:0.11441647 3738:0.34324944 3739:0.5720824 3740:0.22883295 3744:0.11441647 3749:0.22883295 3752:0.45766589 3754:0.45766589 3756:0.22883295 3757:0.22883295 3758:0.34324944 3759:0.22883295 3761:0.11441647 3762:0.22883295 3764:0.22883295 3766:0.45766589 3767:0.11441647 3768:0.11441647 3769:0.22883295 3771:0.22883295 3772:0.68649888 3773:0.5720824 3775:0.22883295 3778:0.22883295 3779:0.80091536 3780:0.45766589 3783:0.45766589 3784:0.11441647 3785:0.11441647 3786:0.34324944 3787:0.22883295 3789:0.11441647 3790:0.11441647 3791:0.45766589 3793:0.22883295 3794:0.11441647 3800:0.11441647 3807:0.11441647 3810:0.45766589 3811:0.11441647 3813:0.11441647 3815:0.34324944 3816:0.22883295 3818:0.11441647 3823:0.11441647 3824:0.11441647 3827:0.22883295 3828:0.22883295 3830:0.22883295 3832:0.11441647 3833:0.11441647 3834:0.34324944 3836:0.11441647 3838:0.11441647 3840:0.22883295 3841:0.22883295 3844:0.34324944 3846:0.11441647 3848:0.11441647 3850:0.22883295 3852:0.22883295 3856:0.11441647 3858:0.34324944 3863:0.22883295 3864:0.45766589 3865:0.11441647 3866:0.34324944 3867:0.11441647 3869:0.11441647 3870:0.11441647 3871:0.11441647 3872:0.11441647 3874:0.22883295 3875:0.11441647 3876:0.11441647 3878:0.45766589 3880:0.45766589 3881:0.11441647 3882:0.11441647 3885:0.22883295 3887:0.11441647 3888:0.22883295 3889:0.11441647 3890:0.22883295 3893:0.34324944 3894:0.34324944 3895:0.11441647 3898:0.45766589 3899:0.34324944 3901:0.34324944 3904:0.11441647 3906:0.22883295 3910:0.11441647 3914:0.45766589 3919:0.11441647 3921:0.11872146 3922:0.0068493201 3923:0.066210046 3924:0.066210046 3925:0.022831051 3926:0.079908676 3927:0.015981739 3928:0.063926943 3929:0.089041099 3930:0.084474877 3931:0.0091324197 3932:0.04109589 3933:0.036529679 3934:0.034246579 3935:0.029680369 3936:0.066210046 3937:0.045662101 3938:0.077625573 3939:0.01141553 3940:0.034246579 3941:0.016443999 3942:-9.9999997e-06 3943:0.000478 3944:-3.0000001e-06 3945:0.383562 #
40.880196588099288135254028020427 1:0.01142857 6:0.0057142898 7:0.0057142898 8:0.031428572 11:0.0057142898 12:0.0057142898 14:0.0057142898 20:0.031428572 24:0.095785439 27:0.095785439 77:0.19157088 102:0.095785439 120:0.095785439 165:0.095785439 202:0.095785439 422:0.095785439 505:0.095785439 511:0.095785439 529:0.095785439 548:0.095785439 572:0.095785439 578:0.095785439 595:0.095785439 597:0.095785439 600:0.095785439 634:0.095785439 710:0.095785439 926:0.095785439 927:0.095785439 928:0.095785439 945:0.095785439 954:0.095785439 959:0.095785439 966:0.095785439 969:0.095785439 971:0.095785439 977:0.095785439 1024:0.095785439 1026:0.095785439 1030:0.095785439 1315:0.095785439 1327:0.095785439 1386:0.095785439 1395:0.095785439 1417:0.095785439 1419:0.095785439 1423:0.095785439 1467:0.095785439 1485:0.095785439 1488:0.095785439 1492:0.095785439 1494:0.095785439 1516:0.095785439 1573:0.095785439 1596:0.095785439 1623:0.095785439 1633:0.095785439 1634:0.095785439 1678:0.095785439 1684:0.095785439 1689:0.095785439 1690:0.095785439 1694:0.095785439 1713:0.095785439 1715:0.095785439 1729:0.095785439 1760:0.095785439 1765:0.095785439 1803:0.095785439 1823:0.095785439 2220:0.095785439 2274:0.095785439 2356:0.095785439 2443:0.095785439 2652:0.095785439 2759:0.095785439 2837:0.095785439 2886:0.095785439 2887:0.095785439 2902:0.095785439 2918:0.095785439 2920:0.095785439 2956:0.095785439 2989:0.095785439 2995:0.095785439 3009:0.095785439 3015:0.095785439 3188:0.095785439 3203:0.095785439 3238:0.095785439 3246:0.095785439 3247:0.095785439 3255:0.095785439 3279:0.095785439 3311:0.095785439 3312:0.095785439 3320:0.095785439 3323:0.095785439 3324:0.095785439 3534:0.095785439 3653:0.095785439 3674:0.28653294 3675:0.42979944 3677:0.14326647 3678:0.71633238 3679:0.28653294 3680:0.14326647 3681:0.14326647 3683:0.14326647 3684:0.42979944 3685:0.71633238 3686:0.14326647 3687:0.14326647 3688:0.14326647 3692:0.28653294 3693:0.14326647 3694:0.42979944 3696:0.14326647 3697:0.57306588 3698:0.14326647 3701:0.42979944 3703:0.57306588 3705:0.14326647 3706:0.28653294 3708:0.14326647 3709:0.28653294 3710:0.42979944 3712:0.14326647 3713:0.28653294 3717:0.14326647 3718:0.14326647 3721:0.14326647 3726:0.14326647 3727:0.14326647 3729:0.71633238 3731:0.14326647 3732:0.14326647 3733:0.28653294 3734:0.71633238 3735:0.14326647 3736:0.28653294 3737:0.14326647 3738:0.14326647 3739:0.42979944 3740:0.28653294 3742:0.14326647 3750:0.14326647 3754:0.14326647 3756:0.14326647 3758:0.57306588 3759:0.28653294 3761:0.28653294 3763:0.14326647 3766:0.57306588 3769:0.57306588 3771:0.57306588 3772:0.14326647 3773:0.28653294 3778:0.28653294 3779:0.57306588 3780:0.14326647 3783:0.57306588 3784:0.14326647 3785:0.28653294 3786:0.14326647 3787:0.14326647 3788:0.14326647 3789:0.42979944 3791:0.14326647 3792:0.57306588 3797:0.14326647 3806:0.28653294 3811:0.28653294 3817:0.14326647 3823:0.42979944 3824:0.28653294 3828:0.14326647 3830:0.14326647 3832:0.14326647 3834:0.14326647 3835:0.14326647 3836:0.14326647 3840:0.14326647 3842:0.14326647 3843:0.28653294 3844:0.14326647 3848:0.14326647 3851:0.14326647 3855:0.14326647 3860:0.14326647 3862:0.14326647 3864:0.42979944 3865:0.14326647 3866:0.14326647 3869:0.14326647 3872:0.28653294 3874:0.14326647 3875:0.57306588 3877:0.42979944 3882:0.14326647 3883:0.14326647 3885:0.14326647 3888:0.42979944 3889:0.28653294 3890:0.71633238 3893:0.71633238 3894:0.28653294 3896:0.28653294 3897:0.14326647 3898:0.28653294 3899:0.28653294 3901:0.28653294 3905:0.28653294 3906:0.14326647 3912:0.14326647 3914:0.28653294 3919:0.14326647 3921:0.10857143 3922:0.02 3923:0.059999999 3924:0.057142861 3925:0.025714289 3926:0.12 3927:0.01714286 3928:0.051428571 3929:0.085714288 3930:0.077142857 3931:0.01428571 3932:0.025714289 3933:0.045714289 3934:0.028571431 3935:0.01714286 3936:0.04857143 3937:0.04285714 3938:0.10857143 3939:0.01428571 3940:0.031428572 3941:0.0093860002 3942:-8.1999999e-05 3943:0.000168 3944:-4e-06 3945:0.40571401 #
29.892331778843587386518265702762 1:0.024096381 2:0.0080321301 4:0.0080321301 7:0.01606426 8:0.032128509 10:0.01606426 11:0.0080321301 14:0.0080321301 15:0.0080321301 17:0.0080321301 20:0.01606426 23:0.13495277 26:0.13495277 31:0.13495277 52:0.13495277 73:0.13495277 104:0.13495277 110:0.13495277 149:0.13495277 173:0.13495277 174:0.13495277 177:0.13495277 192:0.13495277 195:0.13495277 501:0.13495277 535:0.13495277 636:0.13495277 643:0.13495277 654:0.13495277 663:0.13495277 923:0.13495277 927:0.13495277 959:0.13495277 1375:0.13495277 1391:0.13495277 1397:0.13495277 1413:0.13495277 1581:0.13495277 1587:0.13495277 1596:0.13495277 1623:0.13495277 1626:0.13495277 1632:0.13495277 1741:0.13495277 1788:0.13495277 1789:0.13495277 1824:0.13495277 2315:0.13495277 2368:0.13495277 2457:0.13495277 2609:0.13495277 2616:0.13495277 2695:0.13495277 2801:0.13495277 2831:0.13495277 2873:0.13495277 2910:0.13495277 2919:0.13495277 2941:0.13495277 2979:0.13495277 2989:0.13495277 2996:0.13495277 3030:0.13495277 3044:0.13495277 3069:0.13495277 3125:0.13495277 3154:0.13495277 3160:0.13495277 3169:0.13495277 3170:0.13495277 3306:0.13495277 3326:0.13495277 3674:0.60483873 3675:0.60483873 3676:0.40322581 3678:0.60483873 3679:0.40322581 3682:0.60483873 3683:0.60483873 3684:0.2016129 3685:0.40322581 3687:0.2016129 3692:0.2016129 3693:0.40322581 3696:0.2016129 3697:0.2016129 3702:0.40322581 3703:0.40322581 3704:0.2016129 3705:0.40322581 3708:0.2016129 3709:0.40322581 3710:0.2016129 3712:0.2016129 3713:0.40322581 3714:0.40322581 3715:0.40322581 3717:0.40322581 3721:0.2016129 3722:0.2016129 3727:0.2016129 3729:0.40322581 3730:0.2016129 3731:0.2016129 3733:0.40322581 3734:0.2016129 3736:0.2016129 3738:0.40322581 3740:0.2016129 3743:0.2016129 3752:0.40322581 3756:0.40322581 3757:0.40322581 3759:0.2016129 3761:0.40322581 3763:0.2016129 3764:0.60483873 3765:0.2016129 3766:0.2016129 3768:0.2016129 3771:0.40322581 3773:0.2016129 3774:0.2016129 3778:0.40322581 3779:0.80645162 3780:0.40322581 3781:0.2016129 3786:0.2016129 3787:0.2016129 3791:0.40322581 3792:0.40322581 3810:0.2016129 3811:0.80645162 3812:0.2016129 3818:0.2016129 3819:0.2016129 3824:0.2016129 3825:0.2016129 3826:0.2016129 3827:0.2016129 3830:0.2016129 3836:0.60483873 3838:0.2016129 3841:0.2016129 3846:0.40322581 3851:0.60483873 3852:0.2016129 3856:0.40322581 3857:0.2016129 3860:0.40322581 3864:0.2016129 3866:0.40322581 3867:0.2016129 3871:0.2016129 3872:0.40322581 3875:0.2016129 3878:0.60483873 3880:0.40322581 3881:0.2016129 3882:0.2016129 3884:0.2016129 3886:0.2016129 3888:0.80645162 3889:0.2016129 3890:0.40322581 3891:0.2016129 3892:0.80645162 3894:0.40322581 3898:0.40322581 3899:0.40322581 3902:0.2016129 3906:0.2016129 3911:0.2016129 3916:0.2016129 3921:0.11646587 3922:0.0080321301 3923:0.044176709 3924:0.084337354 3925:0.032128509 3926:0.072289146 3927:0.01204819 3928:0.076305218 3929:0.056224901 3930:0.076305218 3931:0.0080321301 3932:0.056224901 3933:0.040160641 3934:0.032128509 3935:0.052208841 3936:0.052208841 3937:0.060240969 3938:0.092369467 3939:0.01606426 3940:0.01204819 3941:0.0054580001 3942:2.6e-05 3943:5.3e-05 3944:1e-06 3945:0.409639 #
5.4132255969220111069262202363461 1:0.0098887496 3:0.0037082799 4:0.0086526601 6:0.00432633 7:0.00123609 8:0.02843016 10:0.0098887496 11:0.00123609 12:0.00185414 14:0.00123609 15:0.00309023 16:0.017305311 17:0.063658841 19:0.00123609 20:0.01236094 24:0.020627061 30:0.1650165 31:0.020627061 34:0.020627061 72:0.020627061 73:0.020627061 77:0.020627061 88:0.020627061 106:0.020627061 132:0.020627061 154:0.020627061 182:0.020627061 184:0.020627061 195:0.041254129 346:0.020627061 411:0.12376238 437:0.020627061 439:0.020627061 451:0.020627061 463:0.041254129 468:0.020627061 473:0.020627061 476:0.020627061 483:0.020627061 493:0.020627061 541:0.020627061 546:0.020627061 577:0.020627061 604:0.020627061 630:0.020627061 667:0.020627061 713:0.020627061 754:0.020627061 756:0.020627061 773:0.020627061 790:0.020627061 796:0.020627061 837:0.020627061 852:0.020627061 859:0.020627061 887:0.020627061 894:0.020627061 950:0.14438944 954:0.020627061 990:0.020627061 1003:0.020627061 1007:0.020627061 1009:0.020627061 1025:0.041254129 1026:0.020627061 1032:0.020627061 1034:0.020627061 1036:0.020627061 1037:0.020627061 1038:0.020627061 1039:0.020627061 1056:0.020627061 1219:0.041254129 1268:0.020627061 1297:0.020627061 1300:0.020627061 1311:0.020627061 1329:0.041254129 1357:0.020627061 1388:0.041254129 1389:0.020627061 1392:0.061881188 1393:0.35066006 1394:0.020627061 1414:0.020627061 1436:0.041254129 1460:0.020627061 1461:0.020627061 1484:0.020627061 1485:0.020627061 1506:0.020627061 1516:0.020627061 1541:0.020627061 1554:0.020627061 1581:0.041254129 1582:0.041254129 1642:0.020627061 1662:0.020627061 1677:0.020627061 1709:0.020627061 1710:0.020627061 1715:0.020627061 1760:0.020627061 1793:0.020627061 1811:0.020627061 1814:0.020627061 1821:0.020627061 1823:0.020627061 1899:0.020627061 1949:0.020627061 2039:0.020627061 2069:0.020627061 2072:0.020627061 2084:0.020627061 2096:0.020627061 2105:0.020627061 2116:0.020627061 2138:0.020627061 2143:0.020627061 2165:0.020627061 2168:0.020627061 2175:0.020627061 2255:0.041254129 2273:0.020627061 2285:0.041254129 2314:0.020627061 2322:0.082508251 2323:0.12376238 2329:0.020627061 2382:0.020627061 2389:0.020627061 2405:0.020627061 2408:0.020627061 2439:0.020627061 2497:0.020627061 2498:0.020627061 2533:0.041254129 2572:0.020627061 2578:0.020627061 2623:0.020627061 2675:0.020627061 2746:0.020627061 2865:0.020627061 2869:0.041254129 2872:0.020627061 2875:0.020627061 2878:0.020627061 2884:0.020627061 2900:0.020627061 2901:0.90759075 2908:0.020627061 2909:0.020627061 2910:0.020627061 2924:0.020627061 2935:0.22689769 2938:0.041254129 2965:0.061881188 2969:0.041254129 2972:0.35066006 2981:0.020627061 2985:0.041254129 2988:0.020627061 2995:0.020627061 3003:0.020627061 3011:0.020627061 3025:0.14438944 3027:0.041254129 3033:0.020627061 3044:0.020627061 3047:0.041254129 3049:0.020627061 3059:0.20627062 3067:0.020627061 3075:0.020627061 3078:0.041254129 3087:0.020627061 3092:0.020627061 3095:0.020627061 3118:0.020627061 3120:0.020627061 3121:0.041254129 3127:0.020627061 3128:0.12376238 3129:0.041254129 3130:0.041254129 3131:0.041254129 3133:0.041254129 3134:0.51567656 3135:0.24752475 3136:0.061881188 3137:0.020627061 3138:0.020627061 3139:0.10313531 3142:0.061881188 3143:0.12376238 3157:0.10313531 3162:0.061881188 3230:0.020627061 3232:0.020627061 3278:0.041254129 3279:0.020627061 3290:0.020627061 3306:0.020627061 3310:0.020627061 3311:0.020627061 3313:0.10313531 3318:0.041254129 3322:0.020627061 3326:0.10313531 3501:0.020627061 3582:0.020627061 3612:0.020627061 3617:0.020627061 3646:0.020627061 3674:0.43290043 3675:0.061842918 3676:0.030921459 3677:0.030921459 3678:0.061842918 3679:0.030921459 3680:0.030921459 3681:0.030921459 3682:0.030921459 3685:0.12368584 3687:0.092764378 3688:0.030921459 3692:0.092764378 3693:0.030921459 3694:0.030921459 3696:0.21645021 3698:0.030921459 3699:0.061842918 3700:0.092764378 3701:0.092764378 3702:0.092764378 3705:0.030921459 3706:1.7316017 3708:0.061842918 3709:0.061842918 3711:0.030921459 3712:0.061842918 3713:0.030921459 3716:0.1546073 3717:0.030921459 3719:0.061842918 3721:0.061842918 3722:0.061842918 3725:0.030921459 3726:0.12368584 3727:0.030921459 3728:0.030921459 3729:0.34013605 3730:0.030921459 3731:0.21645021 3733:0.52566481 3734:0.030921459 3735:0.030921459 3736:0.092764378 3737:0.092764378 3738:1.2368584 3739:0.21645021 3743:0.30921459 3744:0.030921459 3750:0.30921459 3752:0.030921459 3754:0.1546073 3755:0.030921459 3756:0.092764378 3757:0.24737167 3759:0.30921459 3761:0.092764378 3762:0.030921459 3763:0.34013605 3764:0.77303648 3765:0.030921459 3766:0.061842918 3767:0.030921459 3769:0.061842918 3771:0.061842918 3772:0.061842918 3773:0.092764378 3775:0.092764378 3776:0.030921459 3778:0.030921459 3780:0.061842918 3781:0.030921459 3782:0.12368584 3783:0.030921459 3785:0.092764378 3787:0.030921459 3789:0.061842918 3790:0.030921459 3791:0.030921459 3792:0.061842918 3793:0.030921459 3797:0.030921459 3798:0.092764378 3801:0.030921459 3806:0.092764378 3807:0.030921459 3810:0.40197897 3811:0.49474335 3812:0.061842918 3814:0.092764378 3815:1.3296227 3816:0.030921459 3817:0.030921459 3818:0.092764378 3822:1.2677798 3823:0.030921459 3824:0.061842918 3825:0.092764378 3827:0.30921459 3828:0.61842918 3831:0.092764378 3834:0.030921459 3836:0.030921459 3838:0.030921459 3840:0.18552876 3841:0.030921459 3843:0.21645021 3844:0.030921459 3846:0.030921459 3848:0.030921459 3850:0.030921459 3854:0.030921459 3859:0.061842918 3862:0.030921459 3863:0.1546073 3864:0.34013605 3865:0.061842918 3866:0.24737167 3867:1.7006803 3870:0.80395794 3871:0.18552876 3872:0.061842918 3873:0.030921459 3875:0.12368584 3877:0.64935064 3878:0.092764378 3879:0.030921459 3880:1.1750154 3881:0.49474335 3882:0.24737167 3883:0.18552876 3884:1.9789734 3885:0.71119356 3887:0.18552876 3888:0.1546073 3889:0.030921459 3890:0.092764378 3891:0.18552876 3892:0.40197897 3893:0.030921459 3894:0.061842918 3896:0.030921459 3898:0.24737167 3899:0.30921459 3901:0.030921459 3906:0.030921459 3910:0.030921459 3911:0.030921459 3915:0.061842918 3916:0.030921459 3917:0.030921459 3919:0.21645021 3921:0.046971571 3922:0.00432633 3923:0.051297899 3924:0.046353519 3925:0.01421508 3926:0.20086527 3927:0.018541411 3928:0.0500618 3929:0.03831891 3930:0.022249689 3931:0.0061804699 3932:0.060568601 3933:0.069839314 3934:0.01915946 3935:0.00556242 3936:0.13658838 3937:0.13844252 3938:0.049443759 3939:0.0037082799 3940:0.017305311 3941:0.341672 3942:-0.010727 3943:0.15459999 3944:-0.0074379998 3945:0.19344901 #
-2.7604804873605131021463421348017 4:0.020134229 7:0.0067114099 8:0.016778519 9:0.0067114099 10:0.0067114099 11:0.01342282 12:0.020134229 14:0.01006711 15:0.01006711 70:0.11261261 106:0.11261261 120:0.11261261 169:0.11261261 176:0.11261261 195:0.11261261 380:0.11261261 400:0.11261261 411:0.11261261 420:0.11261261 422:0.11261261 451:0.11261261 458:0.11261261 471:0.11261261 475:0.11261261 521:0.11261261 589:0.11261261 590:0.11261261 620:0.11261261 633:0.11261261 636:0.11261261 661:0.11261261 717:0.22522523 748:0.11261261 767:0.11261261 776:0.11261261 779:0.11261261 787:0.11261261 824:0.11261261 828:0.11261261 864:0.11261261 890:0.22522523 894:0.11261261 908:0.11261261 930:0.11261261 952:0.11261261 956:0.11261261 988:0.11261261 995:0.11261261 1002:0.11261261 1050:0.11261261 1124:0.11261261 1278:0.11261261 1311:0.11261261 1316:0.11261261 1318:0.11261261 1350:0.11261261 1368:0.11261261 1378:0.11261261 1434:0.11261261 1439:0.11261261 1444:0.11261261 1445:0.11261261 1453:0.11261261 1480:0.11261261 1486:0.11261261 1496:0.11261261 1505:0.11261261 1516:0.11261261 1529:0.11261261 1559:0.11261261 1584:0.11261261 1589:0.11261261 1603:0.11261261 1608:0.11261261 1628:0.11261261 1646:0.11261261 1662:0.11261261 1663:0.11261261 1681:0.11261261 1693:0.11261261 1719:0.11261261 1723:0.11261261 1735:0.11261261 1737:0.11261261 1755:0.11261261 1762:0.11261261 1812:0.11261261 1822:0.11261261 1843:0.11261261 2097:0.11261261 2108:0.11261261 2110:0.11261261 2117:0.11261261 2140:0.11261261 2164:0.11261261 2227:0.11261261 2253:0.11261261 2257:0.11261261 2264:0.11261261 2290:0.11261261 2328:0.11261261 2387:0.11261261 2412:0.11261261 2419:0.11261261 2448:0.22522523 2460:0.11261261 2462:0.11261261 2506:0.11261261 2566:0.11261261 2631:0.11261261 2634:0.11261261 2637:0.11261261 2767:0.11261261 2878:0.11261261 2886:0.11261261 2898:0.11261261 2944:0.11261261 2995:0.11261261 3024:0.11261261 3044:0.11261261 3059:0.11261261 3065:0.11261261 3069:0.22522523 3104:0.11261261 3105:0.11261261 3170:0.11261261 3174:0.11261261 3203:0.11261261 3222:0.11261261 3231:0.11261261 3312:0.11261261 3410:0.11261261 3427:0.11261261 3548:0.11261261 3563:0.11261261 3676:0.33670035 3678:0.16835018 3679:0.16835018 3680:0.33670035 3683:0.33670035 3685:0.50505048 3688:0.16835018 3694:0.16835018 3695:0.16835018 3696:0.16835018 3697:0.84175086 3698:0.16835018 3699:0.16835018 3700:0.33670035 3701:0.6734007 3704:0.16835018 3705:0.16835018 3706:0.16835018 3709:0.50505048 3710:0.33670035 3713:0.33670035 3715:0.16835018 3721:0.33670035 3722:0.33670035 3724:0.33670035 3729:0.50505048 3730:0.16835018 3732:0.16835018 3733:0.33670035 3734:0.16835018 3736:0.16835018 3738:0.16835018 3743:0.16835018 3745:0.16835018 3754:0.33670035 3756:0.33670035 3757:0.16835018 3758:0.33670035 3759:0.16835018 3761:0.16835018 3762:0.16835018 3764:0.6734007 3767:0.50505048 3768:0.50505048 3769:0.50505048 3770:0.16835018 3771:0.33670035 3772:0.50505048 3773:0.16835018 3774:0.16835018 3775:0.33670035 3777:0.16835018 3778:0.16835018 3779:0.50505048 3780:0.16835018 3781:0.33670035 3782:0.33670035 3783:0.33670035 3786:0.50505048 3787:0.33670035 3789:0.33670035 3790:0.16835018 3792:0.16835018 3793:0.33670035 3794:0.16835018 3796:0.16835018 3797:0.16835018 3810:0.16835018 3811:0.16835018 3812:0.16835018 3815:0.33670035 3818:0.16835018 3819:0.16835018 3822:0.16835018 3823:0.16835018 3824:0.16835018 3825:0.33670035 3827:0.16835018 3828:0.33670035 3831:0.16835018 3832:0.33670035 3835:0.33670035 3836:0.50505048 3838:0.16835018 3839:0.16835018 3841:0.33670035 3842:0.16835018 3843:0.16835018 3847:0.50505048 3851:0.16835018 3855:0.33670035 3863:0.33670035 3864:0.16835018 3865:0.16835018 3868:0.16835018 3872:0.16835018 3875:0.16835018 3877:0.33670035 3880:0.50505048 3881:0.33670035 3888:0.16835018 3891:0.16835018 3892:0.33670035 3894:0.16835018 3898:0.33670035 3899:0.16835018 3905:0.16835018 3908:0.16835018 3915:0.16835018 3916:0.16835018 3919:0.16835018 3921:0.046979871 3922:0.0033557001 3923:0.073825501 3924:0.043624159 3925:0.073825501 3926:0.080536909 3927:0.016778519 3928:0.05704698 3929:0.11409396 3930:0.093959726 3931:0.016778519 3932:0.03691275 3933:0.070469797 3934:0.046979871 3935:0.020134229 3936:0.043624159 3937:0.073825501 3938:0.043624159 3939:0.01342282 3940:0.03020134 3941:0.0083149998 3942:0.000137 3943:0.00012 3944:4.9999999e-06 3945:0.33557001 #
-0.70535353073625184361361561968806 1:0.02214022 8:0.01476015 9:0.0073800702 11:0.036900371 14:0.0073800702 15:0.01476015 16:0.02583026 17:0.0073800702 23:0.12391574 34:0.24783148 61:0.12391574 78:0.12391574 98:0.12391574 99:0.12391574 110:0.12391574 113:0.24783148 118:0.12391574 135:0.12391574 149:0.12391574 173:0.12391574 174:0.12391574 185:0.24783148 190:0.12391574 197:0.12391574 198:0.12391574 372:0.12391574 420:0.12391574 470:0.12391574 509:0.12391574 553:0.12391574 572:0.12391574 627:0.12391574 706:0.12391574 733:0.12391574 738:0.12391574 858:0.12391574 890:0.12391574 894:0.12391574 931:0.12391574 949:0.24783148 1002:0.12391574 1012:0.12391574 1018:0.12391574 1026:0.12391574 1041:0.12391574 1042:0.12391574 1054:0.12391574 1063:0.12391574 1097:0.12391574 1139:0.12391574 1228:0.12391574 1251:0.12391574 1254:0.12391574 1255:0.12391574 1300:0.12391574 1364:0.12391574 1386:0.12391574 1418:0.12391574 1438:0.12391574 1443:0.12391574 1459:0.12391574 1460:0.12391574 1469:0.12391574 1515:0.12391574 1623:0.12391574 1633:0.12391574 1634:0.12391574 1672:0.12391574 1684:0.12391574 1700:0.12391574 1705:0.12391574 1736:0.12391574 1739:0.12391574 1742:0.12391574 1760:0.12391574 1767:0.12391574 1768:0.12391574 1772:0.12391574 1945:0.12391574 1989:0.12391574 2211:0.12391574 2226:0.12391574 2255:0.12391574 2257:0.24783148 2271:0.12391574 2284:0.12391574 2310:0.12391574 2314:0.24783148 2316:0.12391574 2322:0.12391574 2337:0.12391574 2358:0.12391574 2449:0.12391574 2526:0.12391574 2542:0.12391574 2584:0.12391574 2650:0.12391574 2697:0.12391574 2718:0.12391574 2781:0.12391574 2824:0.12391574 2829:0.12391574 2881:0.12391574 2918:0.12391574 2920:0.12391574 2953:0.12391574 2972:0.37174723 2973:0.12391574 2977:0.12391574 2978:0.12391574 2986:0.12391574 2989:0.12391574 2998:0.12391574 3035:0.12391574 3049:0.12391574 3137:0.12391574 3164:0.12391574 3165:0.12391574 3193:0.12391574 3215:0.12391574 3254:0.12391574 3278:0.12391574 3280:0.12391574 3281:0.12391574 3345:0.12391574 3392:0.12391574 3529:0.12391574 3567:0.12391574 3592:0.12391574 3618:0.12391574 3641:0.12391574 3644:0.12391574 3645:0.12391574 3674:0.55555558 3675:0.18518518 3679:0.55555558 3680:0.74074072 3681:0.18518518 3683:0.37037036 3684:0.37037036 3685:0.92592591 3689:0.18518518 3693:0.18518518 3697:0.18518518 3700:0.18518518 3701:0.18518518 3703:0.37037036 3706:0.18518518 3708:0.18518518 3709:0.18518518 3712:0.18518518 3718:0.18518518 3719:0.18518518 3722:0.37037036 3727:0.18518518 3729:0.55555558 3731:0.18518518 3732:0.37037036 3733:0.37037036 3736:0.18518518 3737:0.37037036 3738:0.18518518 3739:0.74074072 3740:0.18518518 3741:0.18518518 3743:0.18518518 3744:0.18518518 3752:0.55555558 3756:0.18518518 3758:0.18518518 3762:0.18518518 3763:0.37037036 3766:0.55555558 3767:0.37037036 3768:0.18518518 3769:0.74074072 3770:0.18518518 3771:0.18518518 3773:0.18518518 3775:0.18518518 3779:1.1111112 3782:0.18518518 3783:0.18518518 3784:0.37037036 3787:1.1111112 3789:0.74074072 3790:0.18518518 3793:0.18518518 3801:0.18518518 3804:0.18518518 3806:0.18518518 3815:0.37037036 3818:0.18518518 3821:0.18518518 3822:0.18518518 3823:0.18518518 3824:0.37037036 3825:0.37037036 3826:0.18518518 3827:0.55555558 3828:0.37037036 3829:0.18518518 3830:0.18518518 3835:0.18518518 3838:0.37037036 3840:0.18518518 3841:0.18518518 3844:0.18518518 3848:0.18518518 3851:0.18518518 3852:0.18518518 3856:0.18518518 3860:0.37037036 3866:0.18518518 3868:0.18518518 3869:0.18518518 3870:0.92592591 3871:0.92592591 3872:0.37037036 3873:0.18518518 3875:0.55555558 3876:0.37037036 3877:0.37037036 3879:0.18518518 3880:0.37037036 3881:0.18518518 3884:0.18518518 3885:0.18518518 3887:0.18518518 3888:0.37037036 3889:0.37037036 3890:0.55555558 3894:0.18518518 3899:0.18518518 3901:0.18518518 3903:0.18518518 3904:0.18518518 3905:0.18518518 3906:0.18518518 3910:0.18518518 3914:0.18518518 3916:0.18518518 3918:0.18518518 3919:0.18518518 3920:0.18518518 3921:0.11808118 3922:0.01476015 3923:0.040590409 3924:0.029520299 3925:0.036900371 3926:0.099630997 3927:0.02214022 3928:0.029520299 3929:0.062730633 3930:0.088560887 3931:0.01476015 3932:0.02583026 3933:0.095940962 3934:0.02583026 3935:0.02583026 3936:0.092250921 3937:0.059040591 3938:0.062730633 3939:0.01845018 3940:0.036900371 3941:0.0063809999 3942:-2e-06 3943:7.3000003e-05 3944:0 3945:0.36531401 #
-3.1728105681652531977476883184863 1:0.00711744 2:0.00711744 7:0.00711744 8:0.00711744 11:0.01423488 12:0.00711744 14:0.00711744 15:0.028469751 17:0.02135231 20:0.02135231 26:0.11947431 49:0.11947431 80:0.11947431 92:0.11947431 123:0.11947431 189:0.11947431 190:0.11947431 206:0.11947431 272:0.11947431 354:0.11947431 370:0.11947431 384:0.11947431 397:0.11947431 412:0.11947431 416:0.11947431 419:0.11947431 435:0.11947431 466:0.11947431 476:0.11947431 477:0.11947431 522:0.11947431 524:0.11947431 535:0.11947431 551:0.11947431 570:0.11947431 584:0.11947431 599:0.11947431 644:0.11947431 666:0.11947431 667:0.11947431 698:0.11947431 731:0.11947431 746:0.11947431 756:0.11947431 796:0.11947431 819:0.11947431 857:0.23894863 862:0.11947431 909:0.11947431 955:0.11947431 957:0.11947431 959:0.11947431 971:0.11947431 1014:0.11947431 1019:0.11947431 1039:0.11947431 1082:0.11947431 1085:0.11947431 1104:0.11947431 1139:0.11947431 1269:0.11947431 1295:0.11947431 1297:0.11947431 1315:0.11947431 1326:0.11947431 1393:0.11947431 1468:0.11947431 1508:0.11947431 1515:0.11947431 1521:0.11947431 1543:0.11947431 1545:0.11947431 1589:0.23894863 1596:0.23894863 1602:0.11947431 1667:0.11947431 1696:0.11947431 1718:0.11947431 1733:0.11947431 1755:0.11947431 1756:0.11947431 1778:0.11947431 1789:0.11947431 1798:0.23894863 1806:0.11947431 1814:0.11947431 1823:0.11947431 1825:0.11947431 1871:0.11947431 1872:0.11947431 1938:0.11947431 2026:0.11947431 2116:0.11947431 2198:0.11947431 2201:0.11947431 2239:0.23894863 2244:0.11947431 2252:0.11947431 2283:0.11947431 2341:0.11947431 2419:0.11947431 2459:0.11947431 2608:0.11947431 2622:0.11947431 2688:0.11947431 2700:0.11947431 2756:0.11947431 2763:0.11947431 2766:0.11947431 2801:0.11947431 2828:0.11947431 2869:0.11947431 2908:0.11947431 2924:0.11947431 3017:0.11947431 3027:0.11947431 3033:0.11947431 3044:0.11947431 3048:0.11947431 3080:0.23894863 3124:0.11947431 3142:0.23894863 3251:0.11947431 3263:0.11947431 3270:0.11947431 3312:0.11947431 3327:0.11947431 3336:0.11947431 3342:0.11947431 3352:0.11947431 3372:0.11947431 3480:0.11947431 3508:0.11947431 3557:0.11947431 3674:0.17857143 3676:0.17857143 3677:0.17857143 3678:0.35714287 3680:0.17857143 3684:0.53571427 3685:0.53571427 3686:0.17857143 3692:0.35714287 3693:0.17857143 3694:0.17857143 3695:0.17857143 3696:0.17857143 3697:0.53571427 3699:0.17857143 3700:0.35714287 3701:0.35714287 3702:0.17857143 3704:0.53571427 3705:0.17857143 3706:0.17857143 3708:0.17857143 3709:0.17857143 3710:0.17857143 3714:0.17857143 3715:0.17857143 3716:0.17857143 3717:0.17857143 3718:0.17857143 3719:0.53571427 3722:0.17857143 3725:0.17857143 3726:0.17857143 3727:0.53571427 3729:0.35714287 3730:0.35714287 3732:0.17857143 3733:0.71428573 3734:0.17857143 3737:0.35714287 3738:0.35714287 3739:0.53571427 3741:0.53571427 3743:0.35714287 3745:0.35714287 3756:0.53571427 3758:0.17857143 3759:0.35714287 3761:0.17857143 3762:0.17857143 3763:0.17857143 3764:0.53571427 3766:0.17857143 3769:0.17857143 3770:0.17857143 3772:0.17857143 3773:0.17857143 3774:0.17857143 3776:0.35714287 3778:0.71428573 3780:0.53571427 3781:0.17857143 3783:0.17857143 3784:0.17857143 3786:0.17857143 3787:0.35714287 3789:0.17857143 3790:0.17857143 3791:0.53571427 3792:0.35714287 3796:0.71428573 3800:0.17857143 3806:0.17857143 3810:0.53571427 3812:0.53571427 3822:0.35714287 3824:0.17857143 3825:0.89285713 3826:0.17857143 3827:0.17857143 3828:0.17857143 3829:0.17857143 3830:0.17857143 3832:0.17857143 3834:0.17857143 3836:0.35714287 3846:0.17857143 3847:0.17857143 3850:0.17857143 3851:0.17857143 3855:0.53571427 3857:0.17857143 3860:0.17857143 3865:0.17857143 3866:0.35714287 3867:0.17857143 3873:0.17857143 3875:0.35714287 3877:0.35714287 3878:0.53571427 3879:0.17857143 3880:0.71428573 3881:0.17857143 3884:0.53571427 3885:0.71428573 3890:0.35714287 3893:0.17857143 3894:0.35714287 3895:0.17857143 3896:0.17857143 3899:0.53571427 3900:0.17857143 3901:0.35714287 3902:0.17857143 3908:0.17857143 3911:0.17857143 3915:0.17857143 3921:0.056939501 3922:0.00355872 3923:0.081850544 3924:0.046263341 3925:0.060498219 3926:0.085409246 3927:0.03202847 3928:0.067615658 3929:0.049822059 3930:0.078291818 3931:0.02135231 3932:0.03202847 3933:0.081850544 3934:0.02135231 3935:0.039145909 3936:0.035587192 3937:0.092526689 3938:0.081850544 3939:0.01779359 3940:0.01423488 3941:0.0068839998 3942:-4.6000001e-05 3943:8.2999999e-05 3944:-1e-06 3945:0.370107 #
1.9620787371575680868573954285239 3:0.01149425 4:0.00164204 5:0.00164204 7:0.00164204 8:0.0090311999 10:0.0049261102 11:0.0049261102 14:0.0065681399 15:0.01231527 16:0.14532019 17:0.022167491 19:0.00164204 20:0.00164204 49:0.054824561 59:0.02741228 96:0.02741228 104:0.02741228 182:0.02741228 185:0.02741228 201:0.02741228 324:0.02741228 356:0.02741228 417:0.02741228 437:0.02741228 473:0.02741228 535:0.02741228 538:0.02741228 570:0.02741228 627:0.02741228 648:0.02741228 657:0.02741228 663:0.02741228 667:0.19188596 729:0.02741228 793:0.02741228 831:0.02741228 847:0.02741228 860:0.02741228 862:0.02741228 902:0.02741228 905:0.02741228 912:0.02741228 954:0.02741228 961:0.02741228 990:0.43859649 1028:0.02741228 1035:0.19188596 1045:0.02741228 1056:0.02741228 1058:0.02741228 1370:0.02741228 1376:0.02741228 1378:0.02741228 1389:0.02741228 1393:0.02741228 1397:0.02741228 1398:0.02741228 1420:0.02741228 1440:0.02741228 1492:0.02741228 1509:0.02741228 1515:0.02741228 1544:0.02741228 1575:0.02741228 1581:0.02741228 1624:0.02741228 1634:0.02741228 1656:0.02741228 1678:0.054824561 1729:0.02741228 1754:0.02741228 1772:0.02741228 1815:0.02741228 2071:0.02741228 2095:0.16447368 2096:0.3015351 2138:0.46600878 2162:0.02741228 2168:0.02741228 2175:0.02741228 2194:0.02741228 2271:0.02741228 2292:0.02741228 2307:0.02741228 2313:0.02741228 2314:0.24671052 2315:0.19188596 2319:0.02741228 2321:0.02741228 2364:0.02741228 2382:0.02741228 2384:0.02741228 2493:0.02741228 2527:0.02741228 2545:0.02741228 2614:0.02741228 2639:0.02741228 2700:0.02741228 2831:0.02741228 2833:0.02741228 2883:0.21929824 2896:0.19188596 2897:0.02741228 2901:0.054824561 2902:0.02741228 2924:0.02741228 2935:0.054824561 2938:0.02741228 2945:0.32894737 2969:0.02741228 2972:3.9747808 2973:0.054824561 2974:0.10964912 2978:0.19188596 2981:0.082236841 2982:0.02741228 2985:0.21929824 2993:0.02741228 2995:0.054824561 3007:0.02741228 3025:0.19188596 3027:0.19188596 3029:0.02741228 3031:0.19188596 3037:0.02741228 3040:0.02741228 3047:0.19188596 3048:0.19188596 3051:0.02741228 3059:0.24671052 3061:0.02741228 3067:0.054824561 3077:0.054824561 3078:0.19188596 3087:0.02741228 3089:0.02741228 3098:0.054824561 3115:0.21929824 3120:0.054824561 3123:0.02741228 3125:0.21929824 3128:0.24671052 3134:0.6030702 3135:0.19188596 3136:0.02741228 3141:0.19188596 3142:0.1370614 3157:0.02741228 3204:0.02741228 3218:0.02741228 3249:0.02741228 3308:0.02741228 3310:0.054824561 3314:0.02741228 3530:0.02741228 3571:0.02741228 3584:0.02741228 3616:0.054824561 3619:0.02741228 3648:0.02741228 3650:0.21929824 3658:0.02741228 3670:0.02741228 3675:0.04108464 3676:0.04108464 3679:0.082169272 3680:0.04108464 3681:0.04108464 3682:0.04108464 3685:0.082169272 3687:0.04108464 3690:0.04108464 3692:0.04108464 3694:0.1232539 3696:0.32867709 3697:0.04108464 3698:0.04108464 3700:0.86277729 3701:0.082169272 3702:0.1232539 3703:0.04108464 3705:0.04108464 3708:0.04108464 3711:0.04108464 3712:0.04108464 3713:0.04108464 3714:0.082169272 3715:0.082169272 3716:0.28759244 3719:0.04108464 3722:0.082169272 3723:0.082169272 3724:0.082169272 3726:0.36976171 3727:0.16433854 3729:0.082169272 3731:0.32867709 3732:0.082169272 3733:0.04108464 3734:0.04108464 3738:0.32867709 3739:0.082169272 3747:0.04108464 3750:0.32867709 3755:0.04108464 3756:0.082169272 3757:0.1232539 3759:0.082169272 3761:0.082169272 3762:0.04108464 3763:0.082169272 3764:0.49301562 3766:0.04108464 3767:0.04108464 3769:0.04108464 3771:0.082169272 3773:0.082169272 3776:0.04108464 3778:0.04108464 3779:0.082169272 3780:0.04108464 3781:0.04108464 3782:0.1232539 3783:0.082169272 3786:0.04108464 3787:0.1232539 3788:0.082169272 3789:0.41084635 3790:0.04108464 3792:0.04108464 3793:0.082169272 3800:0.04108464 3802:0.082169272 3804:0.04108464 3810:0.16433854 3811:1.3557929 3812:0.20542318 3814:0.82169271 3815:0.28759244 3817:0.04108464 3818:0.16433854 3819:0.41084635 3820:0.04108464 3821:0.16433854 3822:0.41084635 3823:0.04108464 3824:0.53410023 3825:0.78060806 3826:0.082169272 3827:1.7666392 3828:0.24650781 3830:0.04108464 3831:0.1232539 3835:0.04108464 3836:0.04108464 3838:0.082169272 3840:0.082169272 3841:0.04108464 3846:0.082169272 3847:0.04108464 3851:0.04108464 3852:0.082169272 3855:0.04108464 3858:0.082169272 3859:0.32867709 3860:0.1232539 3863:0.73952341 3865:0.65735418 3866:0.1232539 3867:0.20542318 3868:0.082169272 3869:0.082169272 3870:6.6557107 3871:0.94494659 3872:0.24650781 3874:0.1232539 3877:0.57518488 3878:0.41084635 3879:0.16433854 3880:0.65735418 3881:0.53410023 3882:0.1232539 3883:0.16433854 3884:1.9309778 3885:0.53410023 3887:0.1232539 3890:0.082169272 3891:0.04108464 3892:0.082169272 3893:0.04108464 3894:0.1232539 3896:0.04108464 3898:0.73952341 3899:0.24650781 3901:0.04108464 3904:0.04108464 3905:0.04108464 3911:0.04108464 3914:0.04108464 3919:0.36976171 3921:0.01477833 3922:0.0090311999 3923:0.049261078 3924:0.01559934 3925:0.03858785 3926:0.096059106 3927:0.0090311999 3928:0.035303779 3929:0.02545156 3930:0.036945809 3931:0.0057471301 3932:0.079638749 3933:0.096059106 3934:0.01395731 3935:0.016420361 3936:0.25369459 3937:0.136289 3938:0.04022989 3939:0.00246305 3940:0.02545156 3941:0.145492 3942:0.020994 3943:0.037887 3944:0.01333 3945:0.18062399 #
