SVM-light Version V6.02
1 # kernel type
2 # kernel parameter -d 
1 # kernel parameter -g 
1 # kernel parameter -s 
1 # kernel parameter -r 
empty# kernel parameter -u 
3945 # highest feature index 
1831 # number of training documents 
184 # number of support vectors plus 1 
-0.10908463 # threshold b, each following line is a SV (starting with alpha*y)
-0.0085138550829188686802639907114099 2:0.0029806299 3:0.019374071 4:0.017883761 6:0.00596125 7:0.0029806299 8:0.0029806299 10:0.0029806299 11:0.0089418804 12:0.01639344 15:0.01043219 16:0.073025338 17:0.049180329 19:0.0029806299 63:0.049825609 103:0.049825609 149:0.049825609 161:0.049825609 176:0.049825609 179:0.049825609 183:0.049825609 184:0.099651217 185:0.099651217 192:0.099651217 230:0.049825609 239:0.049825609 322:0.049825609 354:0.099651217 362:0.099651217 365:0.049825609 415:0.049825609 417:0.049825609 437:0.049825609 446:0.049825609 458:0.049825609 466:0.049825609 469:0.049825609 473:0.049825609 525:0.049825609 532:0.049825609 580:0.049825609 582:0.049825609 596:0.049825609 600:0.049825609 663:0.049825609 669:0.049825609 704:0.049825609 706:0.049825609 739:0.049825609 744:0.049825609 752:0.049825609 779:0.049825609 781:0.049825609 785:0.049825609 792:0.099651217 807:0.049825609 812:0.049825609 828:0.049825609 851:0.099651217 855:0.049825609 893:0.049825609 916:0.099651217 972:0.049825609 988:0.049825609 1005:0.049825609 1028:0.099651217 1035:0.049825609 1117:0.049825609 1199:0.049825609 1205:0.049825609 1213:0.049825609 1257:0.049825609 1273:0.049825609 1288:0.049825609 1317:0.049825609 1323:0.049825609 1351:0.049825609 1375:0.049825609 1378:0.049825609 1387:0.049825609 1388:0.14947683 1389:0.049825609 1393:0.049825609 1399:0.049825609 1431:0.049825609 1455:0.049825609 1467:0.049825609 1471:0.049825609 1483:0.049825609 1490:0.049825609 1495:0.049825609 1499:0.049825609 1505:0.049825609 1506:0.049825609 1507:0.049825609 1524:0.049825609 1534:0.049825609 1578:0.049825609 1579:0.099651217 1581:0.049825609 1589:0.049825609 1646:0.049825609 1652:0.049825609 1721:0.049825609 1724:0.099651217 1725:0.049825609 1729:0.049825609 1738:0.049825609 1740:0.049825609 1767:0.049825609 1779:0.049825609 1781:0.049825609 1801:0.049825609 1809:0.049825609 1813:0.049825609 1814:0.049825609 1815:0.049825609 1816:0.049825609 1825:0.049825609 1863:0.049825609 1910:0.049825609 1937:0.049825609 1960:0.049825609 2020:0.049825609 2084:0.049825609 2109:0.049825609 2110:0.049825609 2115:0.049825609 2120:0.049825609 2139:0.049825609 2159:0.049825609 2166:0.049825609 2168:0.049825609 2169:0.049825609 2177:0.099651217 2180:0.049825609 2193:0.049825609 2226:0.049825609 2261:0.049825609 2262:0.049825609 2274:0.049825609 2288:0.049825609 2296:0.049825609 2311:0.049825609 2315:0.049825609 2316:0.049825609 2409:0.049825609 2464:0.049825609 2495:0.049825609 2500:0.049825609 2508:0.049825609 2514:0.049825609 2547:0.049825609 2549:0.099651217 2550:0.049825609 2631:0.049825609 2670:0.049825609 2677:0.049825609 2699:0.099651217 2706:0.049825609 2707:0.049825609 2708:0.049825609 2720:0.049825609 2721:0.049825609 2755:0.049825609 2759:0.049825609 2763:0.049825609 2764:0.049825609 2793:0.049825609 2806:0.049825609 2808:0.049825609 2877:0.049825609 2883:0.049825609 2888:0.049825609 2896:0.14947683 2907:0.049825609 2909:0.099651217 2910:0.049825609 2911:0.049825609 2916:0.049825609 2918:0.049825609 2921:0.049825609 2924:0.049825609 2938:0.049825609 2939:0.049825609 2958:0.049825609 2966:0.099651217 2967:0.049825609 2969:0.049825609 2970:0.19930243 2971:0.14947683 2972:0.44843048 2973:0.34877926 2974:0.049825609 2977:0.049825609 2980:0.049825609 2981:0.049825609 2984:0.19930243 2985:0.19930243 2986:0.099651217 2990:0.099651217 2994:0.049825609 2995:0.049825609 3005:0.049825609 3008:0.049825609 3017:0.049825609 3030:0.049825609 3031:0.049825609 3033:0.049825609 3036:0.099651217 3059:0.099651217 3089:0.049825609 3093:0.14947683 3096:0.049825609 3098:0.049825609 3110:0.049825609 3111:0.049825609 3119:0.049825609 3120:0.14947683 3122:0.099651217 3124:0.14947683 3125:0.049825609 3127:0.049825609 3128:0.049825609 3133:0.14947683 3134:0.5480817 3137:0.049825609 3141:0.099651217 3168:0.049825609 3204:0.049825609 3210:0.049825609 3227:0.049825609 3230:0.099651217 3244:0.049825609 3249:0.049825609 3273:0.049825609 3288:0.049825609 3289:0.049825609 3295:0.049825609 3298:0.049825609 3309:0.099651217 3310:0.049825609 3333:0.049825609 3440:0.049825609 3462:0.049825609 3535:0.049825609 3596:0.049825609 3626:0.049825609 3635:0.049825609 3648:0.049825609 3666:0.049825609 3676:0.074626863 3679:0.14925373 3682:0.074626863 3683:0.14925373 3684:0.37313432 3685:0.074626863 3687:0.074626863 3690:0.074626863 3691:0.074626863 3692:0.14925373 3693:0.14925373 3694:0.074626863 3696:0.074626863 3697:0.14925373 3698:0.074626863 3699:0.074626863 3700:0.29850745 3701:0.14925373 3702:0.2238806 3704:0.14925373 3705:0.074626863 3708:0.074626863 3709:0.14925373 3710:0.14925373 3715:0.29850745 3716:0.14925373 3718:0.37313432 3719:0.14925373 3720:0.074626863 3721:0.2238806 3722:0.37313432 3723:0.2238806 3724:0.074626863 3726:0.37313432 3727:0.074626863 3729:0.074626863 3730:0.29850745 3733:0.2238806 3734:0.074626863 3736:0.074626863 3738:0.074626863 3739:0.074626863 3742:0.074626863 3743:0.074626863 3748:0.14925373 3749:0.074626863 3752:0.14925373 3755:0.074626863 3756:0.074626863 3757:0.074626863 3758:0.2238806 3759:0.074626863 3761:0.29850745 3762:0.074626863 3763:0.52238804 3764:0.2238806 3767:0.14925373 3768:0.2238806 3769:0.074626863 3770:0.074626863 3771:0.2238806 3772:0.44776121 3773:0.2238806 3774:0.074626863 3775:0.2238806 3776:0.074626863 3778:0.2238806 3779:0.29850745 3780:0.14925373 3784:0.074626863 3785:0.14925373 3786:0.37313432 3787:0.2238806 3788:0.074626863 3789:0.14925373 3790:0.14925373 3791:0.074626863 3792:0.2238806 3793:0.074626863 3795:0.074626863 3800:0.074626863 3802:0.074626863 3806:0.074626863 3810:0.074626863 3812:0.2238806 3814:0.52238804 3815:0.074626863 3817:0.074626863 3818:0.74626863 3819:0.37313432 3820:0.14925373 3821:0.37313432 3823:0.14925373 3824:0.37313432 3825:0.29850745 3826:0.14925373 3827:0.44776121 3828:0.14925373 3831:0.074626863 3834:0.14925373 3836:0.2238806 3837:0.074626863 3838:0.074626863 3839:0.37313432 3840:0.29850745 3841:0.37313432 3847:0.074626863 3849:0.074626863 3850:0.074626863 3851:0.37313432 3852:0.2238806 3855:0.37313432 3857:0.074626863 3858:0.37313432 3862:0.074626863 3863:0.2238806 3864:0.074626863 3865:0.2238806 3866:0.5970149 3867:0.52238804 3868:0.37313432 3869:0.2238806 3870:2.1641791 3871:1.3432835 3872:0.44776121 3874:0.14925373 3875:0.44776121 3876:0.074626863 3877:0.074626863 3878:0.29850745 3879:0.29850745 3880:0.074626863 3881:0.44776121 3882:0.37313432 3883:0.89552242 3884:1.641791 3885:0.2238806 3888:0.2238806 3890:0.14925373 3892:0.2238806 3893:0.14925373 3894:0.074626863 3896:0.29850745 3897:0.14925373 3898:0.5970149 3900:0.074626863 3901:0.074626863 3905:0.074626863 3906:0.074626863 3910:0.074626863 3914:0.074626863 3916:0.074626863 3918:0.074626863 3919:0.14925373 3920:0.14925373 3921:0.038748141 3922:0.0089418804 3923:0.049180329 3924:0.02980626 3925:0.046199702 3926:0.02980626 3927:0.01043219 3928:0.052160949 3929:0.068554386 3930:0.064083457 3931:0.0074515701 3932:0.078986593 3933:0.056631889 3934:0.044709388 3935:0.035767511 3936:0.17883755 3937:0.1147541 3938:0.052160949 3939:0.0089418804 3940:0.02384501 3941:0.035785999 3942:0.000203 3943:0.002451 3944:5.6000001e-05 3945:0.26974699 #
0.0044857970492826306288525195498096 1:0.0027972001 3:0.01258741 4:0.01398601 5:0.0027972001 6:0.0027972001 7:0.0027972001 10:0.01118881 11:0.01538462 14:0.0069930102 16:0.090909094 17:0.02937063 19:0.01118881 74:0.046750821 96:0.046750821 125:0.046750821 186:0.046750821 192:0.093501627 193:0.046750821 324:0.046750821 326:0.046750821 346:0.046750821 356:0.046750821 377:0.046750821 417:0.046750821 437:0.046750821 468:0.046750821 470:0.093501627 475:0.046750821 503:0.046750821 526:0.046750821 665:0.23375408 669:0.046750821 670:0.046750821 672:0.046750821 712:0.046750821 718:0.046750821 729:0.046750821 812:0.046750821 851:0.046750821 852:0.046750821 860:0.046750821 862:0.046750821 890:0.046750821 902:0.046750821 972:0.046750821 992:0.046750821 1025:0.046750821 1028:0.046750821 1035:0.046750821 1039:0.046750821 1056:0.046750821 1058:0.046750821 1365:0.046750821 1388:0.14025246 1391:0.14025246 1392:0.093501627 1509:0.046750821 1515:0.046750821 1588:0.046750821 1624:0.093501627 1628:0.093501627 1647:0.046750821 1671:0.046750821 1683:0.046750821 1692:0.046750821 1716:0.046750821 1728:0.046750821 1729:0.046750821 1826:0.046750821 2022:0.046750821 2123:0.046750821 2163:0.093501627 2170:0.14025246 2171:0.046750821 2175:0.046750821 2269:0.046750821 2313:0.046750821 2314:0.14025246 2322:0.093501627 2521:0.046750821 2537:0.046750821 2716:0.046750821 2808:0.046750821 2810:0.046750821 2821:0.046750821 2883:0.046750821 2888:0.093501627 2896:0.046750821 2897:0.093501627 2901:0.14025246 2909:0.046750821 2910:0.093501627 2919:0.046750821 2923:0.046750821 2924:0.046750821 2945:0.046750821 2965:0.046750821 2966:0.093501627 2967:0.14025246 2968:0.14025246 2969:0.14025246 2970:0.046750821 2972:0.51425898 2973:0.046750821 2974:0.23375408 2978:0.046750821 2980:0.046750821 2981:0.046750821 2982:0.093501627 2983:0.046750821 2984:0.093501627 2985:0.093501627 2988:0.046750821 2990:0.046750821 2993:0.093501627 2995:0.046750821 3006:0.093501627 3007:0.046750821 3030:0.093501627 3031:0.093501627 3040:0.046750821 3044:0.046750821 3049:0.046750821 3051:0.093501627 3061:0.046750821 3066:0.046750821 3073:0.046750821 3075:0.093501627 3077:0.046750821 3087:0.046750821 3092:0.18700327 3115:0.046750821 3117:0.046750821 3118:0.046750821 3120:0.18700327 3121:0.093501627 3122:0.046750821 3125:0.093501627 3127:0.046750821 3129:0.093501627 3130:0.046750821 3133:0.093501627 3134:0.046750821 3135:0.046750821 3141:0.046750821 3157:0.046750821 3162:0.046750821 3195:0.046750821 3279:0.093501627 3318:0.046750821 3534:0.046750821 3571:0.046750821 3596:0.046750821 3616:0.046750821 3619:0.046750821 3643:0.14025246 3650:0.046750821 3670:0.046750821 3674:0.070028007 3676:0.21008404 3679:0.28011206 3680:0.070028007 3684:0.28011206 3685:0.070028007 3687:0.21008404 3690:0.28011206 3691:0.14005603 3692:0.14005603 3694:0.14005603 3695:0.070028007 3696:0.14005603 3697:0.21008404 3700:0.35014006 3701:0.21008404 3702:0.070028007 3703:0.14005603 3705:0.070028007 3707:0.070028007 3710:0.070028007 3712:0.070028007 3715:0.49019608 3716:0.35014006 3719:0.28011206 3720:0.070028007 3721:0.14005603 3723:0.14005603 3724:0.070028007 3726:0.28011206 3727:0.35014006 3729:0.21008404 3730:0.14005603 3732:0.14005603 3733:0.070028007 3734:0.21008404 3735:0.070028007 3738:0.070028007 3739:0.14005603 3740:0.070028007 3743:0.070028007 3745:0.14005603 3748:0.070028007 3749:0.070028007 3750:0.21008404 3754:0.14005603 3755:0.070028007 3756:0.14005603 3757:0.28011206 3759:0.14005603 3760:0.070028007 3761:0.14005603 3762:0.21008404 3763:0.42016807 3764:0.42016807 3765:0.070028007 3766:0.070028007 3768:0.21008404 3771:0.070028007 3773:0.28011206 3775:0.28011206 3777:0.070028007 3778:0.14005603 3779:0.28011206 3780:0.21008404 3781:0.070028007 3782:0.35014006 3783:0.21008404 3785:0.21008404 3786:0.14005603 3787:0.42016807 3789:0.14005603 3790:0.14005603 3791:0.070028007 3792:0.21008404 3793:0.28011206 3796:0.070028007 3797:0.070028007 3798:0.070028007 3802:0.070028007 3806:0.28011206 3807:0.070028007 3810:0.070028007 3811:0.070028007 3812:0.28011206 3814:0.35014006 3815:0.28011206 3817:0.14005603 3818:0.49019608 3819:0.14005603 3821:0.28011206 3822:0.070028007 3823:0.28011206 3824:0.21008404 3826:0.070028007 3827:0.49019608 3828:0.28011206 3830:0.14005603 3832:0.070028007 3834:0.28011206 3835:0.070028007 3836:0.070028007 3837:0.070028007 3840:0.21008404 3843:0.070028007 3846:0.070028007 3850:0.070028007 3852:0.070028007 3853:0.070028007 3854:0.070028007 3858:0.28011206 3859:0.28011206 3861:0.070028007 3863:0.35014006 3864:0.56022412 3865:0.35014006 3866:0.49019608 3867:0.28011206 3868:0.21008404 3869:0.35014006 3870:2.6610644 3871:1.0504202 3872:0.63025212 3874:0.28011206 3875:0.070028007 3877:0.14005603 3878:0.42016807 3879:0.14005603 3880:0.35014006 3881:0.28011206 3882:0.63025212 3883:0.98039216 3884:0.77030814 3885:0.21008404 3887:0.14005603 3888:0.070028007 3889:0.070028007 3890:0.070028007 3891:0.070028007 3892:0.14005603 3893:0.070028007 3894:0.070028007 3895:0.070028007 3896:0.14005603 3898:0.28011206 3899:0.21008404 3900:0.070028007 3901:0.14005603 3904:0.070028007 3906:0.070028007 3911:0.14005603 3914:0.14005603 3916:0.21008404 3917:0.070028007 3918:0.070028007 3919:0.21008404 3921:0.03916084 3922:0.018181819 3923:0.05174825 3924:0.030769231 3925:0.048951048 3926:0.04475525 3927:0.01538462 3928:0.05314685 3929:0.041958041 3930:0.074125871 3931:0.016783221 3932:0.060139861 3933:0.048951048 3934:0.025174821 3935:0.020979021 3936:0.19300699 3937:0.11748252 3938:0.041958041 3939:0.0069930102 3940:0.050349649 3941:0.049380001 3942:0.001596 3943:0.004061 3944:0.00023999999 3945:0.292308 #
-0.0016293137924348998889917394805593 1:0.01118012 2:0.0024844699 4:0.0173913 7:0.01242236 8:0.01614907 11:0.01490683 14:0.0049689398 15:0.0086956499 16:0.03602485 17:0.0099378899 20:0.0049689398 30:0.042194091 31:0.042194091 32:0.042194091 68:0.042194091 70:0.042194091 74:0.042194091 80:0.042194091 100:0.12658228 106:0.042194091 110:0.042194091 111:0.042194091 124:0.042194091 125:0.042194091 142:0.084388189 149:0.042194091 162:0.042194091 175:0.042194091 184:0.084388189 185:0.042194091 186:0.042194091 195:0.12658228 201:0.084388189 204:0.084388189 208:0.042194091 227:0.042194091 278:0.042194091 323:0.042194091 347:0.084388189 350:0.042194091 355:0.084388189 361:0.042194091 370:0.042194091 373:0.042194091 380:0.042194091 394:0.084388189 395:0.042194091 400:0.042194091 405:0.042194091 406:0.042194091 414:0.042194091 435:0.042194091 446:0.042194091 453:0.042194091 463:0.042194091 464:0.042194091 466:0.042194091 476:0.042194091 490:0.042194091 507:0.042194091 517:0.12658228 519:0.042194091 527:0.084388189 528:0.084388189 537:0.042194091 544:0.042194091 556:0.042194091 569:0.042194091 583:0.042194091 589:0.042194091 595:0.084388189 626:0.042194091 629:0.042194091 633:0.042194091 642:0.042194091 647:0.042194091 663:0.042194091 667:0.042194091 669:0.084388189 689:0.042194091 705:0.042194091 710:0.042194091 732:0.084388189 743:0.042194091 745:0.042194091 748:0.042194091 750:0.042194091 772:0.084388189 789:0.042194091 792:0.042194091 808:0.042194091 816:0.042194091 821:0.042194091 847:0.042194091 857:0.042194091 858:0.042194091 867:0.042194091 894:0.042194091 901:0.042194091 905:0.042194091 908:0.042194091 913:0.042194091 915:0.042194091 917:0.042194091 924:0.042194091 925:0.084388189 928:0.042194091 946:0.042194091 958:0.042194091 965:0.042194091 967:0.042194091 968:0.042194091 995:0.042194091 1005:0.042194091 1006:0.042194091 1021:0.042194091 1026:0.042194091 1028:0.084388189 1032:0.084388189 1046:0.042194091 1086:0.042194091 1100:0.042194091 1171:0.042194091 1182:0.042194091 1211:0.042194091 1220:0.042194091 1253:0.042194091 1257:0.042194091 1268:0.042194091 1270:0.042194091 1281:0.042194091 1287:0.042194091 1291:0.042194091 1293:0.042194091 1297:0.042194091 1320:0.042194091 1330:0.042194091 1333:0.042194091 1348:0.084388189 1358:0.042194091 1375:0.042194091 1376:0.042194091 1382:0.042194091 1388:0.042194091 1392:0.042194091 1408:0.042194091 1418:0.042194091 1423:0.042194091 1439:0.084388189 1444:0.042194091 1461:0.042194091 1466:0.042194091 1467:0.084388189 1478:0.042194091 1485:0.042194091 1492:0.042194091 1510:0.042194091 1511:0.042194091 1513:0.042194091 1515:0.042194091 1518:0.042194091 1519:0.042194091 1525:0.042194091 1542:0.042194091 1562:0.042194091 1564:0.042194091 1565:0.042194091 1567:0.042194091 1571:0.042194091 1572:0.042194091 1581:0.042194091 1582:0.042194091 1587:0.042194091 1589:0.042194091 1592:0.12658228 1601:0.042194091 1623:0.042194091 1628:0.084388189 1629:0.042194091 1634:0.042194091 1648:0.042194091 1649:0.084388189 1665:0.042194091 1667:0.042194091 1670:0.042194091 1677:0.042194091 1678:0.042194091 1681:0.042194091 1685:0.042194091 1688:0.042194091 1689:0.042194091 1703:0.042194091 1711:0.042194091 1716:0.042194091 1722:0.042194091 1728:0.12658228 1733:0.084388189 1737:0.042194091 1739:0.042194091 1741:0.042194091 1748:0.042194091 1760:0.12658228 1764:0.042194091 1765:0.084388189 1781:0.042194091 1788:0.042194091 1792:0.042194091 1795:0.084388189 1804:0.042194091 1805:0.042194091 1807:0.042194091 1810:0.042194091 1815:0.042194091 1828:0.042194091 1869:0.042194091 1925:0.042194091 1930:0.042194091 1952:0.042194091 1985:0.084388189 1988:0.042194091 2140:0.042194091 2176:0.042194091 2194:0.042194091 2196:0.042194091 2210:0.042194091 2211:0.042194091 2215:0.042194091 2216:0.042194091 2217:0.042194091 2235:0.042194091 2239:0.042194091 2257:0.042194091 2260:0.042194091 2271:0.084388189 2284:0.042194091 2286:0.042194091 2289:0.042194091 2294:0.042194091 2295:0.042194091 2297:0.042194091 2307:0.042194091 2314:0.042194091 2322:0.042194091 2329:0.042194091 2366:0.042194091 2384:0.042194091 2416:0.042194091 2447:0.042194091 2477:0.042194091 2509:0.042194091 2527:0.042194091 2537:0.042194091 2547:0.042194091 2579:0.042194091 2585:0.042194091 2611:0.042194091 2669:0.042194091 2675:0.042194091 2686:0.042194091 2688:0.042194091 2695:0.042194091 2697:0.042194091 2712:0.042194091 2717:0.042194091 2718:0.042194091 2721:0.084388189 2727:0.042194091 2744:0.042194091 2746:0.042194091 2759:0.042194091 2799:0.042194091 2808:0.084388189 2819:0.042194091 2825:0.042194091 2826:0.042194091 2855:0.042194091 2862:0.042194091 2872:0.042194091 2873:0.042194091 2877:0.042194091 2878:0.084388189 2888:0.042194091 2897:0.042194091 2912:0.084388189 2916:0.084388189 2917:0.042194091 2920:0.042194091 2921:0.042194091 2922:0.042194091 2923:0.042194091 2935:0.042194091 2951:0.042194091 2953:0.042194091 2962:0.042194091 2964:0.042194091 2967:0.042194091 2968:0.084388189 2969:0.042194091 2972:0.042194091 2974:0.084388189 2983:0.042194091 2984:0.042194091 2987:0.042194091 2989:0.042194091 2991:0.042194091 2993:0.042194091 3011:0.042194091 3025:0.042194091 3027:0.042194091 3029:0.042194091 3056:0.042194091 3057:0.042194091 3065:0.042194091 3072:0.042194091 3073:0.042194091 3075:0.042194091 3093:0.084388189 3094:0.042194091 3101:0.042194091 3112:0.042194091 3117:0.084388189 3120:0.042194091 3121:0.084388189 3128:0.042194091 3130:0.042194091 3133:0.084388189 3159:0.042194091 3162:0.042194091 3163:0.042194091 3170:0.042194091 3198:0.042194091 3221:0.042194091 3232:0.042194091 3234:0.042194091 3243:0.042194091 3252:0.042194091 3270:0.042194091 3278:0.042194091 3294:0.042194091 3298:0.042194091 3299:0.042194091 3303:0.042194091 3309:0.042194091 3323:0.042194091 3392:0.042194091 3393:0.042194091 3397:0.042194091 3433:0.042194091 3469:0.042194091 3532:0.042194091 3563:0.042194091 3582:0.042194091 3590:0.042194091 3592:0.042194091 3643:0.042194091 3674:0.25284451 3676:0.18963337 3677:0.063211128 3678:0.31605563 3679:0.56890011 3680:0.12642226 3681:0.063211128 3682:0.18963337 3683:0.18963337 3684:0.31605563 3685:0.50568902 3686:0.12642226 3689:0.18963337 3690:0.063211128 3692:0.50568902 3693:0.18963337 3694:0.25284451 3695:0.063211128 3696:0.25284451 3697:0.12642226 3698:0.18963337 3699:0.18963337 3700:0.25284451 3701:0.18963337 3703:0.063211128 3704:0.63211125 3705:0.37926674 3706:0.063211128 3707:0.063211128 3708:0.12642226 3709:0.063211128 3710:0.25284451 3712:0.25284451 3713:0.18963337 3714:0.12642226 3715:0.12642226 3716:0.37926674 3717:0.063211128 3718:0.12642226 3719:0.25284451 3721:0.063211128 3722:0.12642226 3723:0.063211128 3726:0.12642226 3727:0.25284451 3729:0.25284451 3730:0.18963337 3732:0.063211128 3733:0.12642226 3734:0.25284451 3736:0.12642226 3737:0.12642226 3738:0.18963337 3739:0.063211128 3740:0.063211128 3741:0.063211128 3742:0.063211128 3745:0.063211128 3747:0.063211128 3748:0.063211128 3749:0.063211128 3750:0.12642226 3752:0.31605563 3753:0.12642226 3754:0.18963337 3755:0.18963337 3756:0.12642226 3758:0.063211128 3759:0.12642226 3761:0.18963337 3763:0.12642226 3764:0.18963337 3765:0.063211128 3766:0.18963337 3767:0.18963337 3768:0.12642226 3769:0.37926674 3770:0.063211128 3771:0.25284451 3773:0.50568902 3774:0.063211128 3775:0.063211128 3777:0.37926674 3778:0.31605563 3779:0.31605563 3780:0.31605563 3781:0.18963337 3782:0.18963337 3783:0.31605563 3784:0.063211128 3785:0.18963337 3786:0.31605563 3787:0.37926674 3788:0.18963337 3789:0.56890011 3790:0.063211128 3791:0.31605563 3792:0.063211128 3793:0.063211128 3796:0.063211128 3799:0.063211128 3800:0.063211128 3801:0.12642226 3805:0.063211128 3807:0.063211128 3810:0.12642226 3811:0.25284451 3812:0.18963337 3815:0.25284451 3819:0.12642226 3822:0.12642226 3823:0.37926674 3824:0.12642226 3825:0.25284451 3826:0.063211128 3827:0.37926674 3828:0.12642226 3830:0.12642226 3831:0.063211128 3832:0.063211128 3834:0.063211128 3835:0.063211128 3837:0.063211128 3838:0.063211128 3839:0.063211128 3840:0.25284451 3841:0.063211128 3844:0.18963337 3846:0.18963337 3848:0.063211128 3849:0.063211128 3850:0.18963337 3851:0.12642226 3852:0.44247788 3853:0.063211128 3854:0.18963337 3855:0.063211128 3857:0.063211128 3858:0.25284451 3859:0.31605563 3860:0.18963337 3862:0.12642226 3863:0.12642226 3864:0.44247788 3865:0.18963337 3866:0.25284451 3867:0.12642226 3868:0.12642226 3869:0.25284451 3870:1.011378 3871:0.25284451 3872:0.31605563 3873:0.12642226 3874:0.18963337 3875:0.18963337 3877:0.25284451 3878:0.12642226 3879:0.063211128 3880:0.063211128 3881:0.31605563 3882:0.18963337 3883:0.63211125 3884:0.25284451 3885:0.12642226 3887:0.063211128 3888:0.37926674 3889:0.063211128 3891:0.12642226 3892:0.18963337 3893:0.25284451 3894:0.25284451 3897:0.37926674 3898:0.063211128 3899:0.12642226 3902:0.12642226 3904:0.18963337 3905:0.063211128 3906:0.063211128 3911:0.063211128 3914:0.063211128 3915:0.063211128 3916:0.12642226 3918:0.063211128 3919:0.12642226 3921:0.083333343 3922:0.0075757601 3923:0.069444448 3924:0.059343431 3925:0.04040404 3926:0.065656573 3927:0.01515152 3928:0.05050505 3929:0.06818182 3930:0.087121211 3931:0.016414139 3932:0.037878789 3933:0.064393938 3934:0.023989899 3935:0.053030301 3936:0.10606061 3937:0.071969703 3938:0.049242429 3939:0.01388889 3940:0.016414139 3941:0.04513 3942:3.8999999e-05 3943:0.0040699998 3944:8.7e-05 3945:0.33459601 #
-0.00026632987371429122811991585528801 1:0.02201258 2:0.0062893098 7:0.0062893098 8:0.031446539 10:0.01257862 12:0.0062893098 15:0.0062893098 19:0.0062893098 21:0.10548523 24:0.10548523 26:0.21097046 43:0.10548523 54:0.10548523 60:0.10548523 98:0.10548523 103:0.10548523 107:0.10548523 111:0.10548523 141:0.10548523 147:0.10548523 163:0.10548523 170:0.10548523 182:0.10548523 195:0.10548523 227:0.10548523 265:0.10548523 392:0.10548523 420:0.10548523 435:0.10548523 438:0.10548523 443:0.10548523 444:0.10548523 479:0.21097046 501:0.10548523 502:0.21097046 525:0.10548523 526:0.10548523 547:0.10548523 550:0.10548523 568:0.21097046 579:0.10548523 596:0.10548523 670:0.10548523 677:0.10548523 680:0.10548523 683:0.10548523 692:0.10548523 698:0.10548523 737:0.10548523 795:0.10548523 892:0.10548523 916:0.10548523 918:0.10548523 923:0.21097046 925:0.10548523 929:0.10548523 941:0.10548523 1006:0.10548523 1021:0.31645569 1171:0.10548523 1225:0.10548523 1250:0.10548523 1253:0.21097046 1255:0.10548523 1264:0.10548523 1310:0.10548523 1321:0.10548523 1330:0.10548523 1370:0.10548523 1371:0.10548523 1387:0.10548523 1418:0.10548523 1433:0.10548523 1439:0.10548523 1463:0.10548523 1477:0.10548523 1509:0.10548523 1511:0.10548523 1514:0.10548523 1518:0.10548523 1532:0.10548523 1609:0.10548523 1623:0.10548523 1624:0.10548523 1634:0.10548523 1679:0.10548523 1685:0.10548523 1708:0.10548523 1716:0.10548523 1721:0.10548523 1725:0.10548523 1778:0.10548523 1782:0.10548523 1794:0.10548523 1806:0.10548523 1821:0.10548523 1983:0.10548523 2016:0.10548523 2023:0.10548523 2079:0.10548523 2108:0.10548523 2122:0.10548523 2167:0.10548523 2233:0.10548523 2274:0.10548523 2292:0.10548523 2315:0.10548523 2319:0.10548523 2339:0.10548523 2369:0.10548523 2397:0.10548523 2450:0.10548523 2533:0.10548523 2556:0.10548523 2606:0.10548523 2611:0.10548523 2616:0.10548523 2697:0.10548523 2712:0.10548523 2800:0.10548523 2821:0.10548523 2913:0.10548523 2916:0.10548523 2924:0.10548523 2931:0.10548523 2955:0.10548523 2996:0.21097046 3011:0.10548523 3030:0.10548523 3033:0.21097046 3069:0.10548523 3076:0.21097046 3122:0.10548523 3123:0.10548523 3138:0.10548523 3158:0.10548523 3167:0.10548523 3228:0.10548523 3231:0.10548523 3279:0.10548523 3562:0.21097046 3674:0.63091481 3675:0.63091481 3678:0.47318611 3679:0.63091481 3682:0.1577287 3683:0.1577287 3684:0.1577287 3685:0.1577287 3690:0.3154574 3691:0.1577287 3692:0.1577287 3693:0.1577287 3695:0.1577287 3697:0.47318611 3700:0.3154574 3702:0.47318611 3703:0.78864354 3704:0.1577287 3705:0.1577287 3706:0.3154574 3707:0.1577287 3708:0.3154574 3709:0.1577287 3710:0.3154574 3715:0.1577287 3716:0.3154574 3717:0.63091481 3718:0.1577287 3719:0.1577287 3722:0.1577287 3727:0.1577287 3729:0.3154574 3730:0.47318611 3732:0.3154574 3734:0.1577287 3736:0.1577287 3737:0.47318611 3740:0.1577287 3748:0.1577287 3749:0.1577287 3750:0.1577287 3752:0.63091481 3753:0.1577287 3754:0.3154574 3756:0.1577287 3757:0.3154574 3758:0.1577287 3759:0.1577287 3763:0.1577287 3766:0.1577287 3767:0.3154574 3769:0.1577287 3770:0.3154574 3772:0.1577287 3773:0.63091481 3774:0.1577287 3775:0.3154574 3779:0.63091481 3783:0.3154574 3785:0.47318611 3786:0.3154574 3789:0.1577287 3790:0.47318611 3791:0.1577287 3792:0.3154574 3797:0.1577287 3805:0.1577287 3806:0.1577287 3811:0.1577287 3812:0.3154574 3818:0.1577287 3819:0.1577287 3821:0.1577287 3822:0.1577287 3823:0.3154574 3824:0.1577287 3825:0.1577287 3827:0.3154574 3828:0.3154574 3829:0.1577287 3830:0.1577287 3835:0.1577287 3836:0.1577287 3842:0.1577287 3846:0.3154574 3848:0.1577287 3851:0.1577287 3852:0.1577287 3857:0.1577287 3859:0.63091481 3863:0.1577287 3864:0.1577287 3866:0.3154574 3869:0.1577287 3871:0.3154574 3872:0.47318611 3874:0.1577287 3875:0.1577287 3876:0.3154574 3877:0.1577287 3878:0.47318611 3881:0.3154574 3883:0.3154574 3885:0.1577287 3887:0.3154574 3888:0.1577287 3889:0.47318611 3890:0.1577287 3892:0.3154574 3894:0.1577287 3898:0.1577287 3899:0.3154574 3901:0.1577287 3904:0.1577287 3910:0.1577287 3914:0.1577287 3920:0.1577287 3921:0.084905662 3922:0.02515723 3923:0.069182388 3924:0.084905662 3925:0.02201258 3926:0.075471699 3927:0.02201258 3928:0.062893093 3929:0.062893093 3930:0.072327048 3931:0.01257862 3932:0.047169808 3933:0.053459119 3934:0.02201258 3935:0.034591191 3936:0.066037737 3937:0.066037737 3938:0.056603771 3939:0.018867919 3940:0.040880501 3941:0.0075719999 3942:0.00018 3943:0.000105 3944:6.0000002e-06 3945:0.33647799 #
-0.0042484875514530850287853169788832 1:0.00347826 3:0.019130429 7:0.01565217 8:0.00695652 9:0.00347826 10:0.019130429 11:0.0173913 12:0.01043478 13:0.00347826 16:0.01043478 17:0.00695652 19:0.00347826 20:0.01043478 26:0.058173358 52:0.058173358 74:0.058173358 125:0.058173358 135:0.058173358 151:0.058173358 156:0.058173358 184:0.058173358 222:0.058173358 263:0.058173358 369:0.058173358 397:0.058173358 413:0.058173358 417:0.058173358 422:0.058173358 437:0.058173358 446:0.058173358 466:0.058173358 467:0.058173358 477:0.058173358 485:0.058173358 500:0.058173358 508:0.058173358 513:0.058173358 521:0.058173358 528:0.058173358 529:0.058173358 544:0.058173358 548:0.058173358 568:0.058173358 569:0.058173358 574:0.058173358 577:0.058173358 578:0.058173358 586:0.058173358 587:0.058173358 617:0.058173358 667:0.058173358 669:0.058173358 677:0.058173358 679:0.058173358 681:0.058173358 685:0.058173358 702:0.058173358 733:0.058173358 736:0.058173358 739:0.058173358 772:0.058173358 774:0.058173358 789:0.058173358 791:0.058173358 809:0.058173358 815:0.058173358 823:0.058173358 862:0.058173358 885:0.058173358 896:0.058173358 904:0.058173358 927:0.058173358 943:0.058173358 951:0.058173358 955:0.058173358 967:0.058173358 968:0.11634672 972:0.11634672 988:0.058173358 1026:0.058173358 1081:0.058173358 1092:0.058173358 1093:0.058173358 1133:0.058173358 1142:0.058173358 1243:0.058173358 1244:0.058173358 1250:0.058173358 1262:0.058173358 1269:0.058173358 1275:0.058173358 1279:0.058173358 1289:0.058173358 1292:0.058173358 1295:0.058173358 1304:0.058173358 1310:0.058173358 1311:0.058173358 1313:0.058173358 1320:0.058173358 1327:0.058173358 1336:0.058173358 1343:0.058173358 1352:0.058173358 1354:0.11634672 1357:0.058173358 1361:0.058173358 1364:0.11634672 1379:0.058173358 1389:0.058173358 1391:0.058173358 1393:0.058173358 1394:0.058173358 1398:0.058173358 1415:0.058173358 1419:0.058173358 1431:0.058173358 1441:0.058173358 1443:0.058173358 1445:0.058173358 1456:0.058173358 1480:0.058173358 1500:0.058173358 1503:0.058173358 1511:0.058173358 1514:0.058173358 1519:0.058173358 1522:0.058173358 1533:0.058173358 1539:0.058173358 1547:0.058173358 1548:0.058173358 1552:0.058173358 1553:0.058173358 1559:0.058173358 1565:0.058173358 1588:0.058173358 1596:0.058173358 1607:0.058173358 1629:0.058173358 1631:0.058173358 1649:0.058173358 1652:0.058173358 1668:0.058173358 1679:0.058173358 1683:0.11634672 1693:0.058173358 1700:0.058173358 1708:0.058173358 1725:0.058173358 1726:0.058173358 1735:0.058173358 1738:0.058173358 1741:0.058173358 1743:0.058173358 1749:0.058173358 1791:0.058173358 1804:0.058173358 1806:0.058173358 1807:0.058173358 1812:0.058173358 1825:0.058173358 1826:0.058173358 1843:0.058173358 1908:0.058173358 1943:0.058173358 1967:0.058173358 2087:0.058173358 2099:0.058173358 2105:0.058173358 2111:0.058173358 2126:0.058173358 2140:0.058173358 2160:0.058173358 2165:0.058173358 2166:0.058173358 2186:0.058173358 2256:0.11634672 2266:0.058173358 2300:0.058173358 2317:0.058173358 2334:0.058173358 2366:0.058173358 2385:0.058173358 2393:0.058173358 2395:0.058173358 2404:0.058173358 2439:0.058173358 2452:0.058173358 2460:0.058173358 2482:0.058173358 2509:0.058173358 2512:0.058173358 2527:0.058173358 2637:0.058173358 2648:0.058173358 2651:0.058173358 2682:0.11634672 2689:0.058173358 2710:0.058173358 2740:0.058173358 2763:0.058173358 2780:0.058173358 2804:0.058173358 2807:0.058173358 2808:0.058173358 2831:0.058173358 2841:0.058173358 2872:0.058173358 2883:0.058173358 2921:0.058173358 2937:0.058173358 2958:0.058173358 2965:0.058173358 2990:0.058173358 3008:0.058173358 3025:0.058173358 3057:0.058173358 3078:0.058173358 3091:0.058173358 3110:0.058173358 3125:0.058173358 3130:0.058173358 3143:0.11634672 3200:0.058173358 3208:0.058173358 3210:0.058173358 3234:0.058173358 3238:0.058173358 3272:0.058173358 3274:0.058173358 3279:0.11634672 3296:0.058173358 3297:0.058173358 3311:0.058173358 3377:0.058173358 3431:0.058173358 3441:0.058173358 3468:0.058173358 3550:0.058173358 3559:0.058173358 3574:0.058173358 3594:0.058173358 3614:0.058173358 3619:0.058173358 3622:0.058173358 3635:0.058173358 3646:0.058173358 3656:0.11634672 3670:0.058173358 3674:0.087108023 3675:0.26132405 3678:0.17421603 3680:0.17421603 3681:0.087108023 3682:0.17421603 3687:0.26132405 3688:0.087108023 3692:0.17421603 3693:0.34843206 3694:0.087108023 3696:0.34843206 3697:0.5226481 3698:0.17421603 3700:0.34843206 3701:0.17421603 3702:0.087108023 3703:0.17421603 3704:0.17421603 3705:0.43554008 3706:0.17421603 3708:0.78397214 3709:0.43554008 3710:0.087108023 3712:0.087108023 3715:0.17421603 3716:0.17421603 3717:0.69686413 3718:0.17421603 3721:0.17421603 3722:0.26132405 3723:0.087108023 3724:0.17421603 3725:0.087108023 3727:0.087108023 3729:0.087108023 3731:0.17421603 3732:0.34843206 3733:0.26132405 3734:0.43554008 3743:0.087108023 3744:0.26132405 3750:0.087108023 3752:0.26132405 3753:0.17421603 3754:0.43554008 3755:0.17421603 3756:0.17421603 3757:0.5226481 3758:0.17421603 3759:0.17421603 3760:0.17421603 3761:0.34843206 3762:0.26132405 3763:0.43554008 3764:0.26132405 3766:0.17421603 3767:0.26132405 3768:0.34843206 3769:0.087108023 3770:0.087108023 3771:0.17421603 3772:0.26132405 3773:0.43554008 3774:0.087108023 3775:0.26132405 3776:0.5226481 3777:0.17421603 3778:0.17421603 3779:0.17421603 3780:0.26132405 3781:0.26132405 3783:0.43554008 3784:0.087108023 3785:0.34843206 3786:0.26132405 3787:0.43554008 3788:0.087108023 3790:0.087108023 3791:0.087108023 3792:0.34843206 3793:0.087108023 3796:0.17421603 3797:0.087108023 3800:0.087108023 3801:0.17421603 3803:0.087108023 3813:0.087108023 3814:0.60975611 3815:0.17421603 3816:0.26132405 3817:0.43554008 3818:0.34843206 3820:0.087108023 3821:0.087108023 3823:0.26132405 3826:0.26132405 3827:0.087108023 3828:0.26132405 3829:0.087108023 3830:0.087108023 3831:0.17421603 3832:0.087108023 3834:0.26132405 3835:0.087108023 3836:0.17421603 3838:0.17421603 3839:0.17421603 3840:0.17421603 3843:0.087108023 3844:0.087108023 3846:0.087108023 3847:0.087108023 3848:0.26132405 3850:0.34843206 3852:0.17421603 3853:0.087108023 3854:0.087108023 3855:0.087108023 3856:0.087108023 3858:0.34843206 3860:0.087108023 3861:0.087108023 3863:0.17421603 3864:0.17421603 3865:0.087108023 3866:0.34843206 3867:0.34843206 3868:0.087108023 3869:0.26132405 3870:0.26132405 3871:0.17421603 3872:0.087108023 3873:0.087108023 3874:0.34843206 3875:0.087108023 3877:0.17421603 3878:0.17421603 3879:0.087108023 3881:0.087108023 3882:0.17421603 3883:0.087108023 3884:0.17421603 3885:0.34843206 3887:0.17421603 3889:0.17421603 3890:0.26132405 3892:0.087108023 3893:0.17421603 3894:0.26132405 3897:0.17421603 3898:0.34843206 3899:0.17421603 3905:0.17421603 3906:0.087108023 3910:0.087108023 3915:0.17421603 3916:0.26132405 3918:0.087108023 3919:0.087108023 3921:0.033043481 3922:0.01043478 3923:0.06086956 3924:0.079999998 3925:0.034782611 3926:0.050434779 3927:0.024347831 3928:0.09565217 3929:0.079999998 3930:0.086956523 3931:0.019130429 3932:0.076521739 3933:0.03826087 3934:0.039999999 3935:0.03826087 3936:0.079999998 3937:0.041739129 3938:0.052173909 3939:0.01391304 3940:0.043478262 3941:0.026707999 3942:0.00012 3943:0.001335 3944:2.4000001e-05 3945:0.332174 #
0.004332617085377165819237710309153 1:0.027439021 4:0.024390239 10:0.01219512 12:0.01829268 15:0.073170729 16:0.0060975598 21:0.10224949 24:0.10224949 113:0.10224949 165:0.10224949 184:0.10224949 185:0.10224949 629:0.30674848 887:0.10224949 1058:0.10224949 1413:0.10224949 1584:0.10224949 2527:0.10224949 2650:0.10224949 2705:0.10224949 2752:0.10224949 2872:0.10224949 2877:0.10224949 2901:0.10224949 2978:0.10224949 3098:0.10224949 3118:0.10224949 3165:0.10224949 3674:0.76452601 3676:0.1529052 3677:0.1529052 3678:0.45871559 3680:0.1529052 3683:0.1529052 3684:0.30581039 3693:0.1529052 3699:0.1529052 3701:0.1529052 3704:0.61162078 3706:0.1529052 3707:0.1529052 3709:0.1529052 3712:0.61162078 3716:0.1529052 3718:0.1529052 3725:0.1529052 3729:0.30581039 3732:0.30581039 3744:0.1529052 3750:0.1529052 3752:0.30581039 3755:0.1529052 3756:0.1529052 3757:0.45871559 3758:0.1529052 3759:0.1529052 3763:0.30581039 3766:0.1529052 3767:0.30581039 3769:0.1529052 3771:0.1529052 3772:0.61162078 3774:0.1529052 3775:0.1529052 3777:0.1529052 3779:0.1529052 3790:0.1529052 3797:0.1529052 3801:0.45871559 3805:0.1529052 3821:0.1529052 3825:3.3639145 3826:0.1529052 3827:0.76452601 3828:0.76452601 3840:0.1529052 3844:0.1529052 3848:0.30581039 3850:0.1529052 3851:0.1529052 3855:0.1529052 3865:0.1529052 3866:0.1529052 3870:0.1529052 3871:0.30581039 3874:0.30581039 3877:0.76452601 3883:0.61162078 3887:0.1529052 3888:0.1529052 3891:0.1529052 3914:0.1529052 3921:0.054878049 3922:0.064024389 3923:0.13414635 3924:0.042682931 3925:0.0152439 3926:0.10060976 3927:0.02134146 3928:0.033536591 3929:0.085365847 3930:0.0060975598 3931:0.0152439 3932:0.0060975598 3933:0.15548781 3934:0.0091463402 3935:0.01829268 3936:0.067073166 3937:0.04878049 3938:0.0091463402 3939:0 3940:0.11280487 3941:0.015195 3942:-0.000121 3943:0.00031900001 3944:-6.0000002e-06 3945:0.198171 #
0.0074560432605752322704484313931061 1:0.00280112 3:0.01260504 4:0.0140056 5:0.00280112 6:0.00280112 7:0.00280112 10:0.01120448 11:0.01540616 14:0.0070027998 16:0.092436977 17:0.030812319 19:0.01120448 55:0.046816479 74:0.046816479 186:0.046816479 192:0.093632959 193:0.046816479 324:0.046816479 326:0.046816479 346:0.046816479 356:0.046816479 377:0.046816479 417:0.046816479 421:0.046816479 437:0.046816479 463:0.046816479 468:0.046816479 470:0.046816479 503:0.046816479 526:0.046816479 589:0.046816479 665:0.18726592 669:0.046816479 670:0.046816479 672:0.046816479 698:0.046816479 718:0.046816479 729:0.046816479 795:0.046816479 812:0.046816479 831:0.046816479 852:0.046816479 860:0.046816479 862:0.046816479 902:0.046816479 972:0.046816479 992:0.046816479 1028:0.093632959 1033:0.046816479 1035:0.046816479 1039:0.046816479 1056:0.046816479 1058:0.046816479 1388:0.14044943 1391:0.14044943 1392:0.093632959 1509:0.046816479 1515:0.046816479 1539:0.046816479 1581:0.046816479 1624:0.093632959 1628:0.093632959 1647:0.046816479 1683:0.046816479 1692:0.046816479 1716:0.046816479 1729:0.046816479 1760:0.046816479 1783:0.046816479 1794:0.046816479 1826:0.046816479 2031:0.046816479 2123:0.046816479 2162:0.046816479 2163:0.046816479 2170:0.14044943 2171:0.046816479 2175:0.046816479 2217:0.046816479 2269:0.046816479 2313:0.046816479 2314:0.14044943 2322:0.093632959 2521:0.046816479 2537:0.046816479 2549:0.046816479 2612:0.046816479 2702:0.046816479 2716:0.046816479 2808:0.046816479 2810:0.046816479 2883:0.093632959 2888:0.046816479 2892:0.046816479 2896:0.046816479 2897:0.093632959 2901:0.093632959 2909:0.046816479 2910:0.093632959 2916:0.046816479 2919:0.046816479 2923:0.046816479 2924:0.046816479 2945:0.046816479 2965:0.046816479 2966:0.093632959 2967:0.14044943 2968:0.18726592 2969:0.093632959 2971:0.046816479 2972:0.4681648 2973:0.046816479 2974:0.2340824 2976:0.046816479 2978:0.046816479 2980:0.046816479 2981:0.046816479 2982:0.093632959 2984:0.093632959 2985:0.093632959 2988:0.046816479 2990:0.046816479 2993:0.093632959 2995:0.046816479 3006:0.093632959 3007:0.093632959 3030:0.093632959 3031:0.093632959 3040:0.046816479 3048:0.046816479 3049:0.046816479 3051:0.093632959 3061:0.046816479 3066:0.046816479 3067:0.046816479 3073:0.046816479 3075:0.046816479 3077:0.046816479 3087:0.046816479 3092:0.18726592 3117:0.046816479 3118:0.046816479 3120:0.18726592 3121:0.093632959 3122:0.046816479 3125:0.093632959 3127:0.046816479 3129:0.046816479 3130:0.046816479 3133:0.093632959 3134:0.093632959 3135:0.093632959 3141:0.093632959 3157:0.046816479 3272:0.046816479 3279:0.093632959 3310:0.046816479 3318:0.046816479 3534:0.046816479 3544:0.046816479 3571:0.046816479 3616:0.046816479 3619:0.046816479 3643:0.093632959 3650:0.046816479 3670:0.046816479 3674:0.070126228 3675:0.070126228 3676:0.21037868 3679:0.21037868 3684:0.35063115 3685:0.070126228 3687:0.14025246 3690:0.28050491 3691:0.14025246 3692:0.21037868 3694:0.14025246 3695:0.14025246 3696:0.14025246 3697:0.28050491 3699:0.070126228 3700:0.42075735 3701:0.14025246 3702:0.070126228 3703:0.14025246 3705:0.070126228 3707:0.070126228 3710:0.21037868 3712:0.070126228 3715:0.42075735 3716:0.35063115 3719:0.28050491 3721:0.070126228 3722:0.070126228 3723:0.14025246 3724:0.14025246 3726:0.28050491 3727:0.35063115 3729:0.14025246 3730:0.14025246 3732:0.14025246 3734:0.21037868 3735:0.070126228 3738:0.14025246 3739:0.21037868 3740:0.070126228 3743:0.070126228 3745:0.21037868 3748:0.070126228 3749:0.070126228 3750:0.21037868 3754:0.14025246 3755:0.070126228 3756:0.14025246 3757:0.28050491 3759:0.14025246 3760:0.070126228 3761:0.14025246 3762:0.14025246 3763:0.42075735 3764:0.42075735 3765:0.070126228 3766:0.070126228 3768:0.14025246 3769:0.070126228 3771:0.070126228 3773:0.14025246 3775:0.28050491 3777:0.070126228 3778:0.14025246 3779:0.28050491 3780:0.28050491 3781:0.070126228 3782:0.28050491 3783:0.21037868 3785:0.21037868 3786:0.070126228 3787:0.42075735 3789:0.14025246 3790:0.14025246 3791:0.14025246 3792:0.21037868 3793:0.28050491 3796:0.070126228 3797:0.070126228 3798:0.070126228 3802:0.070126228 3806:0.21037868 3807:0.070126228 3810:0.070126228 3811:0.14025246 3812:0.28050491 3814:0.35063115 3815:0.14025246 3817:0.070126228 3818:0.56100982 3819:0.21037868 3821:0.28050491 3822:0.070126228 3823:0.28050491 3824:0.21037868 3826:0.070126228 3827:0.42075735 3828:0.28050491 3830:0.070126228 3832:0.070126228 3834:0.21037868 3835:0.070126228 3836:0.070126228 3837:0.070126228 3840:0.35063115 3841:0.070126228 3843:0.070126228 3846:0.070126228 3850:0.070126228 3851:0.070126228 3852:0.070126228 3853:0.070126228 3858:0.35063115 3859:0.14025246 3861:0.070126228 3863:0.42075735 3864:0.49088359 3865:0.42075735 3866:0.49088359 3867:0.21037868 3868:0.21037868 3869:0.42075735 3870:2.6647966 3871:0.98176718 3872:0.63113606 3874:0.49088359 3875:0.070126228 3877:0.14025246 3878:0.42075735 3879:0.14025246 3880:0.49088359 3881:0.28050491 3882:0.63113606 3883:0.91164094 3884:0.84151471 3885:0.28050491 3887:0.14025246 3890:0.070126228 3891:0.070126228 3892:0.14025246 3893:0.070126228 3894:0.070126228 3895:0.070126228 3896:0.21037868 3898:0.35063115 3899:0.28050491 3900:0.070126228 3901:0.14025246 3904:0.070126228 3906:0.070126228 3911:0.14025246 3914:0.14025246 3916:0.14025246 3917:0.070126228 3919:0.21037868 3921:0.036414571 3922:0.01820728 3923:0.056022409 3924:0.032212891 3925:0.047619049 3926:0.044817928 3927:0.0140056 3928:0.051820729 3929:0.042016812 3930:0.072829127 3931:0.01540616 3932:0.056022409 3933:0.047619049 3934:0.026610641 3935:0.0210084 3936:0.19187675 3937:0.12184874 3938:0.044817928 3939:0.0070027998 3940:0.051820729 3941:0.049371 3942:0.001571 3943:0.0040970002 3944:0.000235 3945:0.28711501 #
0.0046452456178746378417931950366437 1:0.00193424 2:0.00193424 3:0.01740812 4:0.00386847 5:0.00193424 7:0.00386847 8:0.00386847 10:0.01740812 11:0.01450677 12:0.0058027101 13:0.00193424 14:0.00193424 16:0.08510638 17:0.033849131 19:0.00386847 68:0.032299738 77:0.032299738 95:0.032299738 125:0.032299738 142:0.032299738 173:0.032299738 184:0.096899226 185:0.064599477 186:0.032299738 198:0.064599477 281:0.032299738 324:0.032299738 326:0.032299738 346:0.032299738 356:0.032299738 370:0.032299738 381:0.032299738 406:0.032299738 417:0.032299738 473:0.032299738 475:0.032299738 483:0.032299738 529:0.032299738 535:0.032299738 544:0.032299738 572:0.032299738 603:0.032299738 618:0.032299738 625:0.032299738 651:0.032299738 663:0.032299738 665:0.064599477 670:0.032299738 672:0.12919897 698:0.032299738 699:0.032299738 729:0.032299738 789:0.032299738 812:0.032299738 839:0.032299738 851:0.12919897 852:0.064599477 858:0.032299738 860:0.032299738 890:0.032299738 902:0.032299738 930:0.032299738 936:0.032299738 941:0.032299738 992:0.032299738 1035:0.064599477 1039:0.032299738 1045:0.032299738 1056:0.032299738 1058:0.032299738 1216:0.032299738 1219:0.064599477 1275:0.032299738 1298:0.032299738 1310:0.032299738 1321:0.032299738 1330:0.032299738 1357:0.064599477 1376:0.032299738 1385:0.032299738 1388:0.19379845 1389:0.12919897 1392:0.064599477 1393:0.064599477 1431:0.032299738 1432:0.032299738 1450:0.032299738 1467:0.032299738 1486:0.032299738 1498:0.032299738 1514:0.032299738 1539:0.032299738 1571:0.032299738 1575:0.032299738 1576:0.032299738 1581:0.064599477 1582:0.032299738 1598:0.032299738 1628:0.032299738 1646:0.032299738 1661:0.064599477 1676:0.032299738 1681:0.032299738 1682:0.032299738 1683:0.032299738 1712:0.032299738 1714:0.032299738 1716:0.032299738 1722:0.032299738 1725:0.032299738 1729:0.032299738 1742:0.064599477 1757:0.032299738 1760:0.032299738 1762:0.032299738 1790:0.032299738 1807:0.032299738 1815:0.096899226 1816:0.032299738 1826:0.032299738 2123:0.032299738 2143:0.032299738 2165:0.064599477 2168:0.032299738 2170:0.032299738 2172:0.032299738 2176:0.096899226 2226:0.032299738 2296:0.032299738 2313:0.032299738 2314:0.096899226 2319:0.032299738 2322:0.032299738 2415:0.032299738 2458:0.032299738 2461:0.032299738 2513:0.032299738 2537:0.032299738 2569:0.032299738 2638:0.032299738 2699:0.032299738 2706:0.032299738 2707:0.032299738 2716:0.032299738 2727:0.032299738 2748:0.032299738 2758:0.032299738 2881:0.032299738 2885:0.032299738 2891:0.032299738 2897:0.032299738 2908:0.064599477 2909:0.19379845 2910:0.064599477 2913:0.032299738 2914:0.032299738 2918:0.032299738 2920:0.032299738 2924:0.032299738 2936:0.032299738 2938:0.22609819 2939:0.064599477 2945:0.032299738 2947:0.032299738 2951:0.064599477 2957:0.032299738 2962:0.032299738 2965:0.19379845 2966:0.064599477 2967:0.064599477 2968:0.032299738 2969:0.096899226 2970:0.032299738 2971:0.16149871 2972:0.25839794 2973:0.32299742 2974:0.064599477 2976:0.096899226 2977:0.064599477 2978:0.032299738 2979:0.16149871 2980:0.032299738 2981:0.032299738 2982:0.032299738 2983:0.064599477 2984:0.35529715 2985:0.064599477 2986:0.032299738 2990:0.032299738 2991:0.032299738 2996:0.064599477 3005:0.032299738 3006:0.064599477 3007:0.032299738 3008:0.064599477 3016:0.064599477 3017:0.032299738 3030:0.12919897 3031:0.064599477 3040:0.032299738 3048:0.032299738 3051:0.032299738 3059:0.064599477 3061:0.032299738 3063:0.032299738 3066:0.032299738 3067:0.064599477 3070:0.032299738 3073:0.032299738 3075:0.12919897 3077:0.032299738 3078:0.064599477 3087:0.032299738 3089:0.032299738 3093:0.032299738 3094:0.032299738 3103:0.032299738 3117:0.032299738 3118:0.12919897 3120:0.35529715 3121:0.19379845 3122:0.032299738 3123:0.032299738 3126:0.032299738 3128:0.12919897 3129:0.032299738 3130:0.064599477 3133:0.12919897 3134:0.16149871 3135:0.032299738 3139:0.032299738 3141:0.032299738 3195:0.032299738 3244:0.032299738 3252:0.032299738 3253:0.032299738 3310:0.032299738 3315:0.032299738 3318:0.032299738 3534:0.032299738 3571:0.032299738 3616:0.032299738 3619:0.032299738 3647:0.032299738 3650:0.064599477 3670:0.032299738 3674:0.048402712 3676:0.096805423 3678:0.096805423 3679:0.096805423 3680:0.096805423 3683:0.096805423 3684:0.19361085 3685:0.096805423 3687:0.096805423 3688:0.048402712 3689:0.096805423 3690:0.19361085 3691:0.096805423 3692:0.14520814 3693:0.048402712 3694:0.096805423 3695:0.048402712 3696:0.14520814 3697:0.096805423 3700:0.14520814 3701:0.19361085 3702:0.048402712 3705:0.096805423 3706:0.19361085 3708:0.19361085 3710:0.096805423 3711:0.048402712 3713:0.048402712 3714:0.048402712 3715:0.38722169 3716:0.33881897 3717:0.096805423 3718:0.048402712 3719:0.096805423 3720:0.14520814 3721:0.096805423 3722:0.096805423 3723:0.048402712 3725:0.096805423 3726:0.48402712 3727:0.14520814 3729:0.096805423 3730:0.096805423 3731:0.048402712 3732:0.24201356 3734:0.14520814 3738:0.14520814 3739:0.14520814 3740:0.048402712 3741:0.096805423 3745:0.14520814 3747:0.048402712 3748:0.048402712 3749:0.048402712 3750:0.24201356 3751:0.048402712 3752:0.096805423 3753:0.048402712 3755:0.048402712 3756:0.24201356 3757:0.48402712 3758:0.19361085 3759:0.19361085 3760:0.048402712 3761:0.29041627 3763:0.82284606 3764:0.33881897 3765:0.048402712 3767:0.096805423 3768:0.048402712 3769:0.14520814 3770:0.14520814 3771:0.14520814 3772:0.14520814 3773:0.048402712 3774:0.048402712 3775:0.048402712 3778:0.19361085 3779:0.14520814 3780:0.14520814 3781:0.096805423 3782:0.19361085 3783:0.19361085 3784:0.048402712 3785:0.19361085 3786:0.19361085 3787:0.43562439 3788:0.048402712 3789:0.29041627 3791:0.048402712 3792:0.096805423 3793:0.096805423 3797:0.096805423 3799:0.048402712 3800:0.048402712 3802:0.096805423 3803:0.048402712 3804:0.048402712 3806:0.048402712 3810:0.19361085 3811:0.048402712 3812:0.048402712 3814:0.43562439 3815:0.19361085 3817:0.048402712 3818:0.53242981 3819:0.43562439 3821:0.19361085 3822:0.096805423 3823:0.19361085 3824:0.14520814 3826:0.048402712 3827:0.43562439 3828:0.24201356 3830:0.048402712 3832:0.048402712 3835:0.048402712 3836:0.096805423 3838:0.096805423 3839:0.048402712 3840:0.14520814 3843:0.048402712 3846:0.048402712 3847:0.048402712 3851:0.19361085 3852:0.096805423 3853:0.048402712 3854:0.14520814 3855:0.048402712 3857:0.048402712 3858:0.19361085 3859:0.096805423 3863:0.24201356 3864:0.29041627 3865:0.14520814 3866:0.77444339 3867:0.96805423 3868:0.24201356 3869:0.096805423 3870:2.3717327 3871:1.5972894 3872:0.24201356 3874:0.58083254 3875:0.33881897 3877:0.048402712 3878:0.48402712 3879:0.19361085 3880:0.19361085 3881:0.58083254 3882:0.33881897 3883:1.7909003 3884:0.96805423 3885:0.38722169 3889:0.096805423 3891:0.096805423 3892:0.14520814 3893:0.048402712 3894:0.096805423 3895:0.048402712 3897:0.19361085 3898:0.19361085 3899:0.24201356 3901:0.096805423 3904:0.048402712 3910:0.048402712 3914:0.19361085 3915:0.048402712 3916:0.14520814 3919:0.29041627 3921:0.038684718 3922:0.019342359 3923:0.033849131 3924:0.037717599 3925:0.03191489 3926:0.04061896 3927:0.02417795 3928:0.070599623 3929:0.055125721 3930:0.064796902 3931:0.01257253 3932:0.072533853 3933:0.046421658 3934:0.01450677 3935:0.02030948 3936:0.19632494 3937:0.13926499 3938:0.035783369 3939:0.0029013499 3940:0.04255319 3941:0.10499 3942:0.0050149998 3943:0.018609 3944:0.001911 3945:0.27369401 #
0.055192094581548813148064169809004 1:0.0019900501 2:0.0079602003 3:0.0119403 4:0.01393035 5:0.0039801002 6:0.0019900501 7:0.0119403 8:0.0039801002 10:0.0039801002 11:0.0079602003 12:0.02487562 14:0.0079602003 15:0.0039801002 16:0.02686567 17:0.0069651701 19:0.0039801002 20:0.0019900501 54:0.066467263 91:0.033233631 98:0.033233631 102:0.033233631 120:0.033233631 125:0.033233631 135:0.033233631 157:0.033233631 173:0.033233631 184:0.033233631 201:0.033233631 285:0.033233631 349:0.066467263 365:0.033233631 366:0.033233631 367:0.033233631 368:0.033233631 379:0.033233631 384:0.033233631 397:0.033233631 399:0.066467263 404:0.066467263 408:0.033233631 411:0.066467263 412:0.033233631 416:0.066467263 419:0.033233631 422:0.033233631 430:0.033233631 448:0.033233631 450:0.033233631 458:0.033233631 466:0.033233631 468:0.099700898 469:0.033233631 485:0.066467263 505:0.033233631 507:0.033233631 518:0.099700898 521:0.033233631 525:0.066467263 531:0.066467263 542:0.033233631 543:0.033233631 545:0.033233631 548:0.033233631 552:0.033233631 569:0.033233631 578:0.066467263 579:0.033233631 582:0.099700898 583:0.033233631 585:0.066467263 586:0.033233631 587:0.033233631 589:0.033233631 596:0.033233631 600:0.033233631 617:0.033233631 618:0.066467263 640:0.033233631 659:0.033233631 663:0.033233631 665:0.099700898 685:0.033233631 695:0.033233631 704:0.033233631 730:0.033233631 755:0.033233631 775:0.033233631 778:0.033233631 785:0.033233631 789:0.033233631 792:0.033233631 808:0.033233631 813:0.033233631 851:0.033233631 859:0.033233631 881:0.033233631 890:0.033233631 893:0.033233631 907:0.033233631 945:0.033233631 953:0.033233631 955:0.033233631 967:0.033233631 968:0.066467263 990:0.033233631 1000:0.033233631 1013:0.033233631 1014:0.033233631 1020:0.033233631 1045:0.033233631 1108:0.033233631 1243:0.033233631 1268:0.033233631 1271:0.033233631 1278:0.033233631 1287:0.066467263 1297:0.033233631 1317:0.033233631 1318:0.066467263 1321:0.066467263 1330:0.033233631 1348:0.033233631 1350:0.033233631 1365:0.033233631 1375:0.033233631 1380:0.033233631 1381:0.033233631 1387:0.033233631 1388:0.033233631 1389:0.033233631 1392:0.033233631 1393:0.033233631 1397:0.033233631 1410:0.033233631 1414:0.033233631 1420:0.033233631 1422:0.033233631 1423:0.033233631 1432:0.033233631 1433:0.033233631 1437:0.033233631 1439:0.033233631 1443:0.033233631 1453:0.033233631 1460:0.033233631 1466:0.033233631 1467:0.033233631 1483:0.033233631 1494:0.033233631 1495:0.033233631 1499:0.033233631 1500:0.033233631 1501:0.033233631 1502:0.033233631 1503:0.033233631 1504:0.033233631 1505:0.066467263 1512:0.033233631 1514:0.033233631 1525:0.033233631 1529:0.033233631 1534:0.066467263 1545:0.033233631 1553:0.033233631 1559:0.066467263 1566:0.033233631 1567:0.066467263 1571:0.066467263 1573:0.066467263 1574:0.033233631 1581:0.033233631 1582:0.033233631 1587:0.033233631 1591:0.066467263 1616:0.066467263 1619:0.033233631 1628:0.033233631 1646:0.033233631 1649:0.066467263 1655:0.066467263 1658:0.033233631 1659:0.033233631 1663:0.033233631 1679:0.033233631 1681:0.033233631 1707:0.033233631 1718:0.033233631 1722:0.033233631 1723:0.033233631 1724:0.033233631 1725:0.033233631 1728:0.033233631 1729:0.066467263 1730:0.033233631 1731:0.033233631 1735:0.033233631 1756:0.033233631 1765:0.066467263 1789:0.033233631 1790:0.033233631 1794:0.033233631 1795:0.033233631 1801:0.033233631 1804:0.066467263 1805:0.066467263 1807:0.033233631 1812:0.033233631 1815:0.033233631 1818:0.033233631 1844:0.033233631 1950:0.033233631 2011:0.033233631 2024:0.033233631 2037:0.033233631 2071:0.066467263 2073:0.033233631 2076:0.033233631 2089:0.033233631 2095:0.033233631 2115:0.033233631 2116:0.033233631 2119:0.033233631 2138:0.033233631 2155:0.033233631 2158:0.033233631 2159:0.033233631 2163:0.033233631 2174:0.033233631 2259:0.033233631 2263:0.033233631 2269:0.033233631 2270:0.033233631 2271:0.033233631 2292:0.033233631 2323:0.033233631 2325:0.033233631 2349:0.033233631 2363:0.033233631 2368:0.033233631 2395:0.033233631 2426:0.033233631 2436:0.033233631 2437:0.033233631 2443:0.033233631 2452:0.033233631 2460:0.033233631 2461:0.033233631 2491:0.033233631 2498:0.033233631 2511:0.033233631 2539:0.033233631 2581:0.033233631 2587:0.033233631 2609:0.033233631 2610:0.033233631 2620:0.033233631 2628:0.033233631 2637:0.033233631 2639:0.033233631 2645:0.033233631 2656:0.033233631 2686:0.033233631 2699:0.033233631 2705:0.066467263 2706:0.066467263 2707:0.033233631 2710:0.033233631 2718:0.033233631 2744:0.033233631 2749:0.033233631 2774:0.033233631 2789:0.033233631 2831:0.033233631 2855:0.033233631 2858:0.033233631 2859:0.033233631 2869:0.033233631 2870:0.033233631 2874:0.033233631 2883:0.033233631 2886:0.033233631 2892:0.033233631 2894:0.033233631 2896:0.033233631 2898:0.066467263 2907:0.033233631 2909:0.066467263 2911:0.033233631 2914:0.033233631 2915:0.099700898 2916:0.033233631 2917:0.033233631 2923:0.033233631 2939:0.033233631 2943:0.066467263 2959:0.033233631 2962:0.033233631 2968:0.066467263 2971:0.066467263 2972:0.099700898 2973:0.033233631 2974:0.066467263 2976:0.033233631 2979:0.033233631 2982:0.033233631 2986:0.033233631 2988:0.033233631 2989:0.033233631 2991:0.033233631 3030:0.033233631 3047:0.033233631 3062:0.033233631 3065:0.033233631 3066:0.033233631 3070:0.033233631 3078:0.033233631 3118:0.033233631 3123:0.033233631 3134:0.033233631 3135:0.066467263 3141:0.033233631 3167:0.033233631 3183:0.033233631 3191:0.033233631 3193:0.033233631 3203:0.033233631 3230:0.033233631 3235:0.033233631 3241:0.033233631 3244:0.066467263 3247:0.033233631 3249:0.066467263 3273:0.033233631 3298:0.033233631 3303:0.033233631 3323:0.033233631 3340:0.033233631 3513:0.033233631 3548:0.033233631 3550:0.033233631 3565:0.033233631 3575:0.033233631 3576:0.033233631 3588:0.033233631 3624:0.033233631 3631:0.033233631 3634:0.033233631 3650:0.033233631 3668:0.033233631 3674:0.049800798 3675:0.14940239 3676:0.19920319 3678:0.14940239 3679:0.14940239 3680:0.14940239 3681:0.049800798 3682:0.049800798 3683:0.099601597 3685:0.14940239 3686:0.049800798 3687:0.049800798 3689:0.19920319 3690:0.049800798 3691:0.049800798 3692:0.19920319 3693:0.24900399 3694:0.19920319 3695:0.099601597 3696:0.29880479 3697:0.24900399 3698:0.14940239 3699:0.049800798 3700:0.54780877 3701:0.049800798 3702:0.24900399 3703:0.099601597 3704:0.29880479 3705:0.29880479 3706:0.19920319 3708:0.29880479 3709:0.74701196 3710:0.14940239 3713:0.049800798 3714:0.099601597 3715:0.34860557 3716:0.099601597 3717:0.19920319 3718:0.24900399 3719:0.099601597 3721:0.14940239 3722:0.19920319 3723:0.34860557 3725:0.049800798 3726:0.29880479 3727:0.099601597 3729:0.099601597 3730:0.099601597 3732:0.049800798 3733:0.14940239 3734:0.14940239 3735:0.049800798 3736:0.099601597 3737:0.14940239 3739:0.099601597 3740:0.14940239 3742:0.049800798 3744:0.049800798 3746:0.049800798 3747:0.049800798 3750:0.049800798 3753:0.049800798 3754:0.24900399 3755:0.29880479 3756:0.099601597 3757:0.099601597 3758:0.44820717 3759:0.099601597 3761:0.29880479 3762:0.099601597 3763:0.39840639 3764:0.099601597 3766:0.29880479 3767:0.24900399 3768:0.099601597 3769:0.14940239 3770:0.099601597 3771:0.24900399 3772:0.69721115 3773:0.34860557 3774:0.14940239 3775:0.64741033 3776:0.14940239 3777:0.39840639 3778:0.39840639 3779:0.099601597 3780:0.39840639 3781:0.19920319 3782:0.099601597 3783:0.099601597 3784:0.049800798 3785:0.19920319 3786:0.64741033 3787:0.19920319 3789:0.19920319 3790:0.099601597 3791:0.24900399 3792:0.049800798 3793:0.14940239 3798:0.099601597 3800:0.049800798 3801:0.099601597 3805:0.049800798 3806:0.099601597 3810:0.24900399 3811:0.24900399 3812:0.44820717 3814:0.29880479 3815:0.049800798 3816:0.14940239 3817:0.14940239 3818:0.14940239 3819:0.099601597 3821:0.049800798 3822:0.049800798 3823:0.24900399 3824:0.049800798 3825:0.099601597 3827:0.099601597 3828:0.099601597 3829:0.099601597 3830:0.099601597 3831:0.049800798 3832:0.049800798 3833:0.049800798 3834:0.14940239 3835:0.14940239 3836:0.14940239 3838:0.049800798 3839:0.049800798 3840:0.14940239 3841:0.049800798 3844:0.099601597 3846:0.14940239 3847:0.14940239 3848:0.099601597 3849:0.049800798 3850:0.099601597 3851:0.34860557 3852:0.14940239 3854:0.099601597 3856:0.049800798 3857:0.19920319 3858:0.14940239 3859:0.049800798 3860:0.099601597 3861:0.049800798 3862:0.14940239 3863:0.39840639 3864:0.29880479 3865:0.24900399 3866:0.29880479 3867:0.64741033 3868:0.099601597 3869:0.14940239 3870:0.74701196 3871:0.24900399 3872:0.19920319 3874:0.34860557 3878:0.29880479 3880:0.049800798 3881:0.099601597 3882:0.049800798 3883:0.14940239 3884:0.19920319 3885:0.29880479 3887:0.049800798 3888:0.099601597 3889:0.14940239 3891:0.049800798 3892:0.24900399 3893:0.29880479 3894:0.29880479 3897:0.099601597 3898:0.34860557 3899:0.049800798 3901:0.14940239 3906:0.049800798 3911:0.049800798 3912:0.099601597 3914:0.099601597 3915:0.14940239 3916:0.049800798 3917:0.049800798 3918:0.099601597 3919:0.049800798 3921:0.036815919 3922:0.017910451 3923:0.073631838 3924:0.074626863 3925:0.046766169 3926:0.03781094 3927:0.01393035 3928:0.061691541 3929:0.11442786 3930:0.076616913 3931:0.0119403 3932:0.084577113 3933:0.028855721 3934:0.02686567 3935:0.042786069 3936:0.10845771 3937:0.03980099 3938:0.053731341 3939:0.0059701502 3940:0.042786069 3941:0.084763996 3942:-0.0047010002 3943:0.013199 3944:-0.00157 3945:0.305473 #
0.0020502274121606961498898158424709 3027:0.66666669 3310:0.66666669 3690:0.98039216 3700:0.98039216 3702:0.98039216 3730:0.98039216 3732:0.98039216 3738:0.98039216 3778:0.98039216 3782:0.98039216 3811:0.98039216 3819:0.98039216 3827:0.98039216 3834:0.98039216 3860:0.98039216 3867:0.98039216 3869:0.98039216 3871:0.98039216 3877:0.98039216 3883:0.98039216 3887:0.98039216 3888:0.98039216 3890:0.98039216 3896:0.98039216 3898:0.98039216 3899:0.98039216 3916:0.98039216 3919:0.98039216 3921:0.057692312 3922:0.03846154 3923:0.057692312 3924:0 3925:0.03846154 3926:0.096153848 3927:0.01923077 3928:0.057692312 3929:0.01923077 3930:0.057692312 3931:0.01923077 3932:0.07692308 3933:0.03846154 3934:0.03846154 3935:0.01923077 3936:0.096153848 3937:0.11538462 3938:0.096153848 3939:0 3940:0.057692312 3941:0.000224 3942:0 3943:0 3944:-0 3945:0.365385 #
-0.00088974258041070897629759572922126 1:0.02531646 4:0.050632909 5:0.02531646 16:0.1392405 28:0.43290043 57:0.43290043 59:0.43290043 72:0.43290043 183:0.43290043 184:0.43290043 289:0.43290043 320:0.43290043 358:0.43290043 363:0.43290043 578:0.43290043 665:0.43290043 781:0.43290043 918:0.43290043 919:0.43290043 1028:0.43290043 1387:0.43290043 1432:0.43290043 1676:0.43290043 1821:0.43290043 1849:0.43290043 2274:0.43290043 2759:0.43290043 2869:0.43290043 2909:0.43290043 2955:0.43290043 2965:0.43290043 2969:0.43290043 2972:0.43290043 2973:0.86580086 2984:1.2987013 3121:0.43290043 3175:0.43290043 3674:0.64102566 3675:1.2820513 3680:0.64102566 3693:0.64102566 3709:0.64102566 3713:1.2820513 3715:0.64102566 3719:0.64102566 3721:0.64102566 3726:0.64102566 3730:1.2820513 3756:0.64102566 3763:0.64102566 3766:0.64102566 3771:0.64102566 3782:0.64102566 3792:0.64102566 3794:0.64102566 3802:0.64102566 3806:0.64102566 3818:0.64102566 3823:0.64102566 3843:0.64102566 3846:0.64102566 3855:0.64102566 3863:0.64102566 3866:1.2820513 3869:0.64102566 3870:3.8461537 3871:1.9230769 3883:1.9230769 3889:0.64102566 3921:0.088607587 3922:0.075949363 3923:0.06329114 3924:0.06329114 3925:0.037974682 3926:0.037974682 3927:0 3928:0.037974682 3929:0.088607587 3930:0.037974682 3931:0.037974682 3932:0.01265823 3933:0.050632909 3934:0.02531646 3935:0.02531646 3936:0.24050634 3937:0.037974682 3938:0.02531646 3939:0 3940:0.01265823 3941:0.00057899999 3942:-2e-06 3943:1e-06 3944:-0 3945:0.34177199 #
0.0080576795727887624842811220560179 1:0.01492537 2:0.0059701502 3:0.0119403 7:0.04179104 10:0.0059701502 11:0.03582089 12:0.080597013 15:0.0119403 21:0.1001001 23:0.1001001 31:0.1001001 51:0.2002002 52:0.2002002 116:0.1001001 119:0.1001001 120:0.1001001 121:0.2002002 124:0.1001001 156:0.1001001 165:0.2002002 168:0.1001001 195:0.1001001 202:0.1001001 229:0.1001001 250:0.1001001 277:0.1001001 282:0.1001001 302:0.1001001 354:0.1001001 367:0.1001001 370:0.2002002 397:0.1001001 406:0.2002002 408:0.1001001 415:0.1001001 447:0.1001001 464:0.1001001 507:0.1001001 512:0.1001001 520:0.1001001 525:0.1001001 527:0.1001001 531:0.2002002 532:0.1001001 556:0.1001001 580:0.1001001 582:0.6006006 583:0.2002002 588:0.1001001 617:0.1001001 653:0.1001001 681:0.1001001 765:0.1001001 782:0.1001001 789:0.1001001 887:0.1001001 955:0.1001001 964:0.2002002 967:0.1001001 1001:0.1001001 1091:0.1001001 1182:0.1001001 1279:0.1001001 1297:0.1001001 1298:0.1001001 1302:0.1001001 1314:0.1001001 1330:0.1001001 1364:0.1001001 1408:0.1001001 1413:0.1001001 1419:0.1001001 1428:0.1001001 1437:0.1001001 1439:0.1001001 1444:0.1001001 1463:0.1001001 1484:0.1001001 1485:0.1001001 1487:0.1001001 1494:0.3003003 1495:0.1001001 1499:0.1001001 1500:0.1001001 1504:0.1001001 1506:0.1001001 1510:0.2002002 1514:0.2002002 1518:0.1001001 1567:0.1001001 1570:0.1001001 1577:0.1001001 1625:0.1001001 1629:0.2002002 1632:0.1001001 1639:0.1001001 1650:0.1001001 1659:0.1001001 1662:0.2002002 1665:0.1001001 1684:0.1001001 1710:0.1001001 1714:0.1001001 1719:0.2002002 1720:0.1001001 1725:0.1001001 1727:0.1001001 1732:0.1001001 1734:0.1001001 1735:0.1001001 1741:0.1001001 1764:0.1001001 1765:0.1001001 1786:0.1001001 1791:0.1001001 1797:0.1001001 1841:0.1001001 2085:0.1001001 2089:0.1001001 2096:0.1001001 2120:0.1001001 2138:0.1001001 2259:0.1001001 2269:0.1001001 2292:0.1001001 2318:0.1001001 2323:0.1001001 2327:0.1001001 2374:0.1001001 2378:0.1001001 2448:0.2002002 2580:0.1001001 2587:0.2002002 2605:0.1001001 2612:0.1001001 2623:0.1001001 2645:0.2002002 2789:0.1001001 2824:0.1001001 2856:0.1001001 3013:0.1001001 3016:0.1001001 3078:0.1001001 3090:0.1001001 3122:0.1001001 3137:0.1001001 3160:0.2002002 3169:0.1001001 3178:0.1001001 3238:0.1001001 3243:0.1001001 3294:0.1001001 3343:0.1001001 3556:0.1001001 3574:0.1001001 3598:0.1001001 3613:0.1001001 3674:0.44910181 3675:0.59880239 3680:0.89820361 3682:0.1497006 3683:0.44910181 3684:0.1497006 3685:0.29940119 3688:0.1497006 3689:0.44910181 3692:0.1497006 3693:0.44910181 3694:0.44910181 3696:0.1497006 3697:0.29940119 3698:0.1497006 3699:0.1497006 3702:0.29940119 3703:0.1497006 3704:0.74850297 3705:1.0479041 3706:0.1497006 3707:0.1497006 3708:0.1497006 3709:1.3473054 3710:0.44910181 3712:0.1497006 3713:0.1497006 3714:0.1497006 3715:0.1497006 3716:0.1497006 3717:0.1497006 3720:0.1497006 3721:0.1497006 3722:0.1497006 3729:0.29940119 3732:0.1497006 3733:0.44910181 3734:0.44910181 3736:0.1497006 3738:0.1497006 3739:0.1497006 3743:0.1497006 3747:0.1497006 3749:0.1497006 3754:0.29940119 3756:0.44910181 3757:0.1497006 3758:0.1497006 3759:0.29940119 3762:0.1497006 3764:0.1497006 3766:0.44910181 3767:0.59880239 3769:0.29940119 3771:0.59880239 3772:2.0958083 3773:0.89820361 3775:0.29940119 3777:0.44910181 3779:0.59880239 3780:0.1497006 3781:1.1976048 3782:0.1497006 3783:0.1497006 3785:0.59880239 3786:0.74850297 3787:1.0479041 3789:0.29940119 3791:0.44910181 3793:0.1497006 3811:0.1497006 3812:0.29940119 3814:0.29940119 3815:0.29940119 3822:0.1497006 3823:0.1497006 3824:0.1497006 3825:0.29940119 3827:0.29940119 3828:0.29940119 3832:0.1497006 3835:0.29940119 3838:0.1497006 3844:0.44910181 3846:0.29940119 3848:0.44910181 3854:0.1497006 3856:0.1497006 3857:0.1497006 3860:0.1497006 3862:0.1497006 3863:0.44910181 3868:0.1497006 3872:0.1497006 3875:0.44910181 3876:0.1497006 3878:0.1497006 3882:0.1497006 3883:0.1497006 3885:0.1497006 3888:0.44910181 3891:0.1497006 3893:0.29940119 3894:0.1497006 3897:0.1497006 3899:0.1497006 3901:0.1497006 3915:0.1497006 3916:0.1497006 3921:0.068656713 3922:0.065671653 3923:0.077611938 3924:0.11343284 3925:0.01492537 3926:0.047761191 3927:0.01492537 3928:0.04179104 3929:0.16119403 3930:0.12238806 3931:0.00298507 3932:0.053731341 3933:0.047761191 3934:0.023880601 3935:0.04179104 3936:0.01492537 3937:0.032835819 3938:0.032835819 3939:0 3940:0.02089552 3941:0.010254 3942:-7.0000001e-06 3943:0.00018800001 3944:0 3945:0.34925401 #
0.021724901794197878923675659734727 1:0.01142857 6:0.0057142898 7:0.0057142898 8:0.031428572 11:0.0057142898 12:0.0057142898 14:0.0057142898 20:0.031428572 24:0.095785439 27:0.095785439 77:0.19157088 102:0.095785439 120:0.095785439 165:0.095785439 202:0.095785439 422:0.095785439 505:0.095785439 511:0.095785439 529:0.095785439 548:0.095785439 572:0.095785439 578:0.095785439 595:0.095785439 597:0.095785439 600:0.095785439 634:0.095785439 710:0.095785439 926:0.095785439 927:0.095785439 928:0.095785439 945:0.095785439 954:0.095785439 959:0.095785439 966:0.095785439 969:0.095785439 971:0.095785439 977:0.095785439 1024:0.095785439 1026:0.095785439 1030:0.095785439 1315:0.095785439 1327:0.095785439 1386:0.095785439 1395:0.095785439 1417:0.095785439 1419:0.095785439 1423:0.095785439 1467:0.095785439 1485:0.095785439 1488:0.095785439 1492:0.095785439 1494:0.095785439 1516:0.095785439 1573:0.095785439 1596:0.095785439 1623:0.095785439 1633:0.095785439 1634:0.095785439 1678:0.095785439 1684:0.095785439 1689:0.095785439 1690:0.095785439 1694:0.095785439 1713:0.095785439 1715:0.095785439 1729:0.095785439 1760:0.095785439 1765:0.095785439 1803:0.095785439 1823:0.095785439 2220:0.095785439 2274:0.095785439 2356:0.095785439 2443:0.095785439 2652:0.095785439 2759:0.095785439 2837:0.095785439 2886:0.095785439 2887:0.095785439 2902:0.095785439 2918:0.095785439 2920:0.095785439 2956:0.095785439 2989:0.095785439 2995:0.095785439 3009:0.095785439 3015:0.095785439 3188:0.095785439 3203:0.095785439 3238:0.095785439 3246:0.095785439 3247:0.095785439 3255:0.095785439 3279:0.095785439 3311:0.095785439 3312:0.095785439 3320:0.095785439 3323:0.095785439 3324:0.095785439 3534:0.095785439 3653:0.095785439 3674:0.28653294 3675:0.42979944 3677:0.14326647 3678:0.71633238 3679:0.28653294 3680:0.14326647 3681:0.14326647 3683:0.14326647 3684:0.42979944 3685:0.71633238 3686:0.14326647 3687:0.14326647 3688:0.14326647 3692:0.28653294 3693:0.14326647 3694:0.42979944 3696:0.14326647 3697:0.57306588 3698:0.14326647 3701:0.42979944 3703:0.57306588 3705:0.14326647 3706:0.28653294 3708:0.14326647 3709:0.28653294 3710:0.42979944 3712:0.14326647 3713:0.28653294 3717:0.14326647 3718:0.14326647 3721:0.14326647 3726:0.14326647 3727:0.14326647 3729:0.71633238 3731:0.14326647 3732:0.14326647 3733:0.28653294 3734:0.71633238 3735:0.14326647 3736:0.28653294 3737:0.14326647 3738:0.14326647 3739:0.42979944 3740:0.28653294 3742:0.14326647 3750:0.14326647 3754:0.14326647 3756:0.14326647 3758:0.57306588 3759:0.28653294 3761:0.28653294 3763:0.14326647 3766:0.57306588 3769:0.57306588 3771:0.57306588 3772:0.14326647 3773:0.28653294 3778:0.28653294 3779:0.57306588 3780:0.14326647 3783:0.57306588 3784:0.14326647 3785:0.28653294 3786:0.14326647 3787:0.14326647 3788:0.14326647 3789:0.42979944 3791:0.14326647 3792:0.57306588 3797:0.14326647 3806:0.28653294 3811:0.28653294 3817:0.14326647 3823:0.42979944 3824:0.28653294 3828:0.14326647 3830:0.14326647 3832:0.14326647 3834:0.14326647 3835:0.14326647 3836:0.14326647 3840:0.14326647 3842:0.14326647 3843:0.28653294 3844:0.14326647 3848:0.14326647 3851:0.14326647 3855:0.14326647 3860:0.14326647 3862:0.14326647 3864:0.42979944 3865:0.14326647 3866:0.14326647 3869:0.14326647 3872:0.28653294 3874:0.14326647 3875:0.57306588 3877:0.42979944 3882:0.14326647 3883:0.14326647 3885:0.14326647 3888:0.42979944 3889:0.28653294 3890:0.71633238 3893:0.71633238 3894:0.28653294 3896:0.28653294 3897:0.14326647 3898:0.28653294 3899:0.28653294 3901:0.28653294 3905:0.28653294 3906:0.14326647 3912:0.14326647 3914:0.28653294 3919:0.14326647 3921:0.10857143 3922:0.02 3923:0.059999999 3924:0.057142861 3925:0.025714289 3926:0.12 3927:0.01714286 3928:0.051428571 3929:0.085714288 3930:0.077142857 3931:0.01428571 3932:0.025714289 3933:0.045714289 3934:0.028571431 3935:0.01714286 3936:0.04857143 3937:0.04285714 3938:0.10857143 3939:0.01428571 3940:0.031428572 3941:0.0093860002 3942:-8.1999999e-05 3943:0.000168 3944:-4e-06 3945:0.40571401 #
0.031680623070013819164714163889585 1:0.0220339 2:0.01016949 6:0.0050847498 7:0.01016949 8:0.02033898 10:0.01016949 11:0.01355932 12:0.00677966 15:0.00338983 16:0.016949151 17:0.02372881 20:0.01016949 21:0.056689341 24:0.056689341 28:0.056689341 30:0.056689341 34:0.17006803 46:0.056689341 51:0.056689341 71:0.056689341 74:0.11337868 83:0.056689341 96:0.11337868 100:0.056689341 104:0.056689341 113:0.056689341 116:0.056689341 121:0.11337868 125:0.056689341 126:0.056689341 131:0.056689341 142:0.056689341 158:0.056689341 161:0.056689341 162:0.056689341 165:0.056689341 174:0.056689341 180:0.056689341 182:0.056689341 185:0.056689341 186:0.11337868 193:0.11337868 196:0.11337868 198:0.11337868 201:0.056689341 202:0.056689341 234:0.056689341 269:0.056689341 351:0.056689341 370:0.11337868 395:0.056689341 397:0.056689341 421:0.056689341 426:0.056689341 427:0.056689341 448:0.056689341 455:0.056689341 464:0.056689341 466:0.056689341 475:0.056689341 478:0.056689341 507:0.056689341 511:0.056689341 518:0.056689341 520:0.056689341 529:0.056689341 531:0.056689341 544:0.056689341 547:0.056689341 551:0.056689341 552:0.056689341 567:0.056689341 578:0.056689341 580:0.056689341 582:0.11337868 583:0.056689341 587:0.056689341 589:0.056689341 590:0.056689341 594:0.056689341 615:0.056689341 618:0.056689341 634:0.056689341 649:0.056689341 665:0.056689341 675:0.11337868 678:0.056689341 679:0.056689341 702:0.056689341 711:0.056689341 735:0.056689341 750:0.056689341 756:0.056689341 776:0.056689341 842:0.056689341 893:0.056689341 909:0.056689341 918:0.056689341 923:0.056689341 930:0.056689341 941:0.056689341 947:0.056689341 951:0.056689341 961:0.056689341 964:0.056689341 977:0.17006803 984:0.056689341 995:0.056689341 1007:0.056689341 1035:0.11337868 1038:0.11337868 1040:0.056689341 1061:0.056689341 1249:0.056689341 1250:0.056689341 1256:0.11337868 1310:0.056689341 1322:0.056689341 1327:0.056689341 1359:0.056689341 1373:0.056689341 1388:0.056689341 1393:0.056689341 1395:0.056689341 1398:0.056689341 1413:0.056689341 1421:0.056689341 1423:0.11337868 1436:0.056689341 1439:0.056689341 1442:0.056689341 1444:0.056689341 1445:0.056689341 1454:0.056689341 1463:0.056689341 1466:0.056689341 1495:0.056689341 1499:0.056689341 1510:0.056689341 1513:0.056689341 1517:0.056689341 1518:0.056689341 1539:0.056689341 1581:0.056689341 1588:0.056689341 1590:0.11337868 1596:0.056689341 1628:0.11337868 1632:0.056689341 1634:0.056689341 1656:0.056689341 1659:0.056689341 1662:0.056689341 1668:0.056689341 1678:0.056689341 1679:0.056689341 1687:0.056689341 1690:0.056689341 1710:0.056689341 1717:0.056689341 1718:0.056689341 1730:0.056689341 1735:0.056689341 1737:0.11337868 1740:0.056689341 1754:0.056689341 1763:0.056689341 1772:0.056689341 1774:0.11337868 1775:0.056689341 1783:0.056689341 1791:0.056689341 1800:0.17006803 1820:0.056689341 1872:0.056689341 1905:0.17006803 1928:0.056689341 1947:0.056689341 1959:0.056689341 2003:0.056689341 2010:0.056689341 2075:0.056689341 2095:0.11337868 2113:0.056689341 2141:0.056689341 2153:0.056689341 2197:0.056689341 2214:0.056689341 2232:0.056689341 2233:0.11337868 2257:0.056689341 2259:0.056689341 2274:0.056689341 2291:0.056689341 2321:0.056689341 2322:0.056689341 2328:0.056689341 2350:0.056689341 2356:0.056689341 2366:0.056689341 2384:0.056689341 2389:0.056689341 2399:0.056689341 2440:0.056689341 2454:0.056689341 2464:0.056689341 2500:0.056689341 2502:0.056689341 2503:0.056689341 2506:0.056689341 2574:0.11337868 2578:0.056689341 2580:0.056689341 2582:0.056689341 2585:0.056689341 2592:0.056689341 2608:0.056689341 2631:0.056689341 2632:0.056689341 2647:0.056689341 2650:0.056689341 2654:0.056689341 2658:0.056689341 2687:0.056689341 2706:0.056689341 2708:0.056689341 2716:0.056689341 2749:0.056689341 2752:0.056689341 2759:0.056689341 2789:0.056689341 2791:0.056689341 2796:0.056689341 2803:0.056689341 2814:0.056689341 2837:0.056689341 2872:0.056689341 2873:0.056689341 2878:0.056689341 2886:0.056689341 2910:0.056689341 2921:0.056689341 2953:0.056689341 2965:0.056689341 2966:0.056689341 2970:0.056689341 2973:0.056689341 2976:0.056689341 2984:0.056689341 2985:0.056689341 2990:0.056689341 2991:0.056689341 3013:0.11337868 3017:0.056689341 3028:0.056689341 3047:0.056689341 3056:0.056689341 3057:0.056689341 3059:0.056689341 3062:0.056689341 3069:0.056689341 3071:0.056689341 3076:0.056689341 3086:0.056689341 3113:0.056689341 3120:0.056689341 3124:0.056689341 3125:0.11337868 3130:0.11337868 3133:0.056689341 3134:0.11337868 3137:0.056689341 3159:0.11337868 3162:0.056689341 3164:0.056689341 3170:0.056689341 3184:0.056689341 3188:0.11337868 3191:0.056689341 3192:0.056689341 3195:0.056689341 3212:0.17006803 3228:0.056689341 3232:0.056689341 3235:0.056689341 3240:0.056689341 3241:0.056689341 3254:0.11337868 3282:0.056689341 3306:0.056689341 3308:0.056689341 3550:0.056689341 3563:0.056689341 3674:0.59422749 3675:0.084889643 3677:0.084889643 3678:0.25466892 3679:0.33955857 3680:0.59422749 3681:0.084889643 3682:0.25466892 3683:0.25466892 3684:0.42444822 3685:0.76400679 3691:0.084889643 3692:0.16977929 3693:0.25466892 3694:0.084889643 3696:0.33955857 3697:0.084889643 3698:0.084889643 3699:0.16977929 3700:0.16977929 3701:0.33955857 3702:0.084889643 3703:0.33955857 3704:0.25466892 3705:0.25466892 3706:0.50933784 3707:0.084889643 3708:0.084889643 3709:0.67911714 3710:0.25466892 3713:0.084889643 3714:0.084889643 3715:0.084889643 3716:0.084889643 3717:0.42444822 3718:0.16977929 3719:0.16977929 3723:0.084889643 3725:0.084889643 3726:0.084889643 3727:0.084889643 3729:0.16977929 3730:0.16977929 3732:0.42444822 3733:0.33955857 3734:0.25466892 3735:0.42444822 3736:0.084889643 3737:0.16977929 3738:0.25466892 3739:0.50933784 3740:0.084889643 3744:0.084889643 3752:0.42444822 3754:0.25466892 3755:0.084889643 3756:0.084889643 3757:0.25466892 3758:0.084889643 3759:0.42444822 3762:0.084889643 3763:0.33955857 3764:0.59422749 3766:0.42444822 3767:0.33955857 3768:0.16977929 3769:0.33955857 3771:0.16977929 3772:0.16977929 3773:0.50933784 3775:0.084889643 3777:0.084889643 3778:0.42444822 3779:0.42444822 3780:0.084889643 3781:0.33955857 3783:0.42444822 3785:0.25466892 3786:0.33955857 3787:0.33955857 3789:0.084889643 3790:0.50933784 3791:0.33955857 3792:0.25466892 3796:0.084889643 3797:0.084889643 3798:0.084889643 3800:0.084889643 3801:0.084889643 3802:0.084889643 3804:0.084889643 3805:0.084889643 3810:0.33955857 3811:0.25466892 3812:0.084889643 3815:0.084889643 3817:0.16977929 3822:0.25466892 3823:0.25466892 3825:0.084889643 3828:0.25466892 3830:0.16977929 3831:0.25466892 3834:0.084889643 3835:0.084889643 3836:0.16977929 3839:0.25466892 3841:0.16977929 3844:0.50933784 3845:0.084889643 3846:0.084889643 3847:0.25466892 3848:0.42444822 3850:0.084889643 3851:0.084889643 3852:0.16977929 3854:0.084889643 3855:0.16977929 3857:0.25466892 3858:0.084889643 3859:0.16977929 3860:0.084889643 3863:0.25466892 3864:0.25466892 3866:0.25466892 3867:0.084889643 3869:0.16977929 3870:0.42444822 3871:0.25466892 3872:0.25466892 3874:0.084889643 3875:0.33955857 3877:0.25466892 3878:0.25466892 3880:0.084889643 3881:0.42444822 3882:0.16977929 3883:0.25466892 3884:0.67911714 3885:0.42444822 3888:0.76400679 3889:0.67911714 3890:0.42444822 3892:0.42444822 3893:0.33955857 3894:0.33955857 3896:0.084889643 3897:0.084889643 3898:0.25466892 3899:0.25466892 3916:0.084889643 3921:0.11186441 3922:0.00677966 3923:0.055932209 3924:0.072881363 3925:0.0220339 3926:0.10169491 3927:0.0050847498 3928:0.066101693 3929:0.069491528 3930:0.084745757 3931:0.01864407 3932:0.02711864 3933:0.032203391 3934:0.02881356 3935:0.05084746 3936:0.06779661 3937:0.076271176 3938:0.091525421 3939:0 3940:0.01016949 3941:0.028712999 3942:3.2e-05 3943:0.001488 3944:1e-06 3945:0.40169501 #
-0.00022756922285885788958051390018511 1:0.040816329 7:0.020408159 8:0.020408159 12:0.071428567 20:0.040816329 23:0.34722221 33:0.34722221 113:0.34722221 168:0.34722221 459:0.34722221 507:0.34722221 531:0.34722221 583:0.34722221 955:0.34722221 959:0.34722221 1026:0.34722221 1071:0.34722221 1317:0.34722221 1437:0.34722221 1464:0.34722221 1503:0.34722221 1507:0.34722221 1508:0.34722221 1574:0.34722221 1591:0.34722221 1596:0.34722221 1609:0.34722221 1624:0.34722221 1632:0.34722221 1648:0.34722221 1722:0.34722221 1820:0.34722221 1841:0.34722221 1853:0.34722221 2448:0.34722221 2527:0.34722221 2587:0.34722221 2616:0.34722221 2714:0.34722221 2715:0.34722221 2886:0.34722221 2918:0.34722221 3011:0.34722221 3117:0.34722221 3137:0.34722221 3186:0.34722221 3235:0.34722221 3247:0.34722221 3312:0.34722221 3324:0.34722221 3635:0.34722221 3649:0.34722221 3674:1.0309278 3675:0.51546389 3680:0.51546389 3683:0.51546389 3684:1.5463917 3685:1.0309278 3697:0.51546389 3699:0.51546389 3702:0.51546389 3703:0.51546389 3705:0.51546389 3709:1.0309278 3731:0.51546389 3733:1.0309278 3736:0.51546389 3740:0.51546389 3758:0.51546389 3761:0.51546389 3764:0.51546389 3766:0.51546389 3769:1.0309278 3771:0.51546389 3772:2.0618556 3773:0.51546389 3774:0.51546389 3776:0.51546389 3778:1.0309278 3779:1.0309278 3780:0.51546389 3781:0.51546389 3785:0.51546389 3786:0.51546389 3792:0.51546389 3793:0.51546389 3794:0.51546389 3811:0.51546389 3834:0.51546389 3835:0.51546389 3840:0.51546389 3844:0.51546389 3852:1.0309278 3864:0.51546389 3867:0.51546389 3874:0.51546389 3875:0.51546389 3883:1.0309278 3885:0.51546389 3888:0.51546389 3890:0.51546389 3893:0.51546389 3894:0.51546389 3896:0.51546389 3899:0.51546389 3910:0.51546389 3918:0.51546389 3919:0.51546389 3921:0.12244898 3922:0 3923:0.05102041 3924:0.05102041 3925:0 3926:0.06122449 3927:0.020408159 3928:0.040816329 3929:0.17346939 3930:0.081632651 3931:0.020408159 3932:0.030612251 3933:0.01020408 3934:0.030612251 3935:0.040816329 3936:0.071428567 3937:0.06122449 3938:0.091836743 3939:0.01020408 3940:0.030612251 3941:0.00077500002 3942:-7.0000001e-06 3943:1e-06 3944:-0 3945:0.35714301 #
0.010260352768589404287569166740468 2:0.0042462801 3:0.0042462801 4:0.01061571 7:0.0042462801 8:0.0042462801 9:0.0042462801 10:0.0084925704 11:0.0042462801 12:0.0042462801 14:0.01273885 15:0.0042462801 16:0.02123142 17:0.057324842 19:0.0042462801 20:0.0042462801 78:0.071073197 96:0.071073197 113:0.071073197 115:0.071073197 188:0.071073197 192:0.14214641 193:0.071073197 326:0.071073197 331:0.071073197 349:0.071073197 362:0.071073197 366:0.071073197 370:0.071073197 471:0.071073197 474:0.071073197 477:0.071073197 485:0.071073197 507:0.071073197 568:0.071073197 588:0.071073197 629:0.071073197 665:0.071073197 672:0.071073197 753:0.071073197 812:0.071073197 813:0.071073197 851:0.14214641 859:0.071073197 862:0.071073197 879:0.071073197 909:0.14214641 972:0.071073197 990:0.071073197 1030:0.071073197 1060:0.071073197 1357:0.14214641 1389:0.071073197 1391:0.071073197 1393:0.071073197 1421:0.071073197 1426:0.071073197 1447:0.14214641 1450:0.071073197 1494:0.071073197 1511:0.071073197 1581:0.14214641 1617:0.071073197 1762:0.071073197 1768:0.071073197 1816:0.14214641 1820:0.071073197 1824:0.071073197 1828:0.071073197 1829:0.071073197 1984:0.071073197 2088:0.071073197 2143:0.071073197 2165:0.071073197 2166:0.071073197 2172:0.071073197 2175:0.071073197 2204:0.071073197 2253:0.071073197 2286:0.071073197 2322:0.14214641 2328:0.071073197 2490:0.071073197 2511:0.071073197 2580:0.071073197 2584:0.071073197 2624:0.071073197 2719:0.071073197 2755:0.071073197 2787:0.071073197 2896:0.071073197 2897:0.071073197 2901:0.071073197 2902:0.071073197 2908:0.071073197 2910:0.071073197 2913:0.071073197 2953:0.071073197 2958:0.071073197 2969:0.071073197 2970:0.071073197 2973:0.071073197 2974:0.071073197 2977:0.071073197 2981:0.071073197 2985:0.071073197 2986:0.071073197 2990:0.14214641 2993:0.071073197 3008:0.071073197 3017:0.21321961 3027:0.14214641 3031:0.071073197 3040:0.071073197 3049:0.071073197 3059:0.071073197 3063:0.071073197 3066:0.071073197 3067:0.071073197 3075:0.071073197 3078:0.14214641 3087:0.071073197 3115:0.071073197 3118:0.071073197 3121:0.071073197 3122:0.14214641 3124:0.071073197 3125:0.14214641 3130:0.14214641 3131:0.071073197 3133:0.14214641 3134:0.21321961 3135:0.14214641 3136:0.14214641 3139:0.21321961 3142:0.21321961 3228:0.071073197 3232:0.071073197 3246:0.071073197 3309:0.071073197 3313:0.071073197 3314:0.071073197 3318:0.071073197 3534:0.071073197 3628:0.071073197 3637:0.071073197 3647:0.071073197 3648:0.071073197 3665:0.071073197 3676:0.21276596 3678:0.21276596 3679:0.10638298 3680:0.31914893 3682:0.10638298 3683:0.10638298 3684:0.53191489 3687:0.10638298 3690:0.10638298 3691:0.21276596 3692:0.21276596 3693:0.21276596 3694:0.21276596 3695:0.10638298 3696:0.10638298 3697:0.21276596 3700:0.21276596 3701:0.74468082 3702:0.10638298 3703:0.10638298 3704:0.21276596 3705:0.10638298 3708:0.31914893 3710:0.21276596 3712:0.42553192 3715:0.10638298 3716:0.21276596 3717:0.10638298 3718:0.10638298 3719:0.21276596 3721:0.10638298 3722:0.10638298 3723:0.31914893 3726:0.31914893 3727:0.42553192 3728:0.10638298 3729:0.10638298 3730:0.21276596 3732:0.21276596 3733:0.21276596 3734:0.10638298 3738:0.21276596 3739:0.10638298 3742:0.10638298 3744:0.10638298 3750:0.21276596 3752:0.31914893 3754:0.10638298 3756:0.31914893 3757:0.21276596 3758:0.10638298 3759:0.31914893 3761:0.10638298 3763:0.31914893 3764:0.42553192 3765:0.10638298 3766:0.21276596 3767:0.31914893 3768:0.10638298 3771:0.10638298 3772:0.10638298 3773:0.21276596 3779:0.31914893 3780:0.21276596 3781:0.21276596 3783:0.21276596 3785:0.10638298 3786:0.10638298 3787:0.21276596 3789:0.31914893 3790:0.10638298 3792:0.53191489 3793:0.42553192 3806:0.21276596 3811:0.10638298 3814:0.10638298 3815:0.10638298 3816:0.21276596 3818:0.21276596 3819:0.10638298 3822:0.10638298 3823:0.10638298 3824:0.10638298 3825:0.10638298 3826:0.10638298 3828:0.31914893 3833:0.10638298 3834:0.10638298 3835:0.10638298 3836:0.31914893 3839:0.10638298 3840:0.10638298 3844:0.21276596 3845:0.10638298 3852:0.21276596 3855:0.10638298 3857:0.10638298 3859:0.21276596 3862:0.10638298 3865:0.31914893 3866:0.42553192 3867:0.10638298 3868:0.21276596 3869:0.21276596 3870:0.53191489 3871:0.63829786 3872:0.53191489 3874:0.10638298 3875:0.63829786 3876:0.10638298 3877:0.31914893 3878:0.31914893 3879:0.21276596 3880:0.10638298 3881:0.74468082 3882:0.31914893 3883:0.85106385 3884:1.5957447 3885:0.74468082 3886:0.10638298 3887:0.42553192 3890:0.21276596 3892:0.53191489 3893:0.21276596 3894:0.10638298 3895:0.21276596 3896:0.21276596 3897:0.10638298 3898:0.21276596 3899:0.42553192 3901:0.10638298 3902:0.10638298 3908:0.10638298 3910:0.31914893 3914:0.10638298 3915:0.10638298 3916:0.31914893 3918:0.21276596 3919:0.42553192 3920:0.10638298 3921:0.050955411 3922:0.016985141 3923:0.057324842 3924:0.042462841 3925:0.067940563 3926:0.048832271 3927:0.01273885 3928:0.074309982 3929:0.040339701 3930:0.070063703 3931:0.016985141 3932:0.033970281 3933:0.048832271 3934:0.025477709 3935:0.02335456 3936:0.091295123 3937:0.15498939 3938:0.065817408 3939:0.01273885 3940:0.044585992 3941:0.017602 3942:0.00012700001 3943:0.00057899999 3944:1.3e-05 3945:0.36305699 #
0.0303872596149944960985944675258 1:0.01201923 4:0.0096153803 6:0.0048076902 8:0.01923077 11:0.01682692 12:0.0048076902 15:0.0048076902 16:0.02403846 19:0.0048076902 20:0.0096153803 21:0.080515303 24:0.16103059 63:0.080515303 74:0.080515303 90:0.080515303 95:0.080515303 106:0.080515303 109:0.080515303 113:0.080515303 126:0.080515303 145:0.080515303 160:0.080515303 173:0.080515303 179:0.080515303 184:0.080515303 347:0.080515303 350:0.080515303 396:0.080515303 417:0.080515303 459:0.080515303 466:0.080515303 470:0.080515303 474:0.080515303 475:0.080515303 544:0.080515303 600:0.080515303 675:0.080515303 738:0.080515303 743:0.080515303 776:0.080515303 787:0.080515303 843:0.080515303 851:0.080515303 893:0.080515303 909:0.080515303 943:0.080515303 1009:0.080515303 1012:0.080515303 1025:0.080515303 1027:0.080515303 1028:0.16103059 1038:0.080515303 1276:0.080515303 1295:0.080515303 1319:0.080515303 1419:0.080515303 1467:0.080515303 1495:0.080515303 1509:0.080515303 1539:0.080515303 1554:0.080515303 1629:0.080515303 1648:0.080515303 1655:0.080515303 1689:0.080515303 1699:0.080515303 1717:0.080515303 1720:0.080515303 1734:0.080515303 1737:0.080515303 1738:0.080515303 1756:0.080515303 1791:0.080515303 1803:0.080515303 1804:0.080515303 1807:0.16103059 1825:0.080515303 2115:0.080515303 2168:0.080515303 2233:0.080515303 2293:0.080515303 2385:0.080515303 2446:0.080515303 2448:0.080515303 2449:0.080515303 2490:0.080515303 2534:0.080515303 2605:0.080515303 2608:0.080515303 2632:0.080515303 2650:0.080515303 2666:0.080515303 2684:0.080515303 2720:0.080515303 2768:0.080515303 2807:0.080515303 2816:0.080515303 2817:0.080515303 2837:0.080515303 2855:0.080515303 2872:0.080515303 2887:0.080515303 2908:0.080515303 2921:0.080515303 2967:0.080515303 2970:0.080515303 2972:0.16103059 2974:0.080515303 2986:0.080515303 2988:0.080515303 3040:0.080515303 3069:0.080515303 3077:0.080515303 3138:0.080515303 3151:0.080515303 3159:0.080515303 3200:0.080515303 3239:0.080515303 3270:0.080515303 3277:0.080515303 3285:0.080515303 3294:0.080515303 3297:0.080515303 3565:0.080515303 3674:0.36144578 3676:0.12048193 3678:0.60240966 3679:0.24096386 3680:0.24096386 3681:0.24096386 3682:0.24096386 3683:0.24096386 3685:0.12048193 3686:0.12048193 3688:0.12048193 3689:0.12048193 3690:0.12048193 3692:0.36144578 3693:0.12048193 3694:0.12048193 3696:0.24096386 3697:0.24096386 3698:0.12048193 3699:0.12048193 3700:0.24096386 3701:0.48192772 3702:0.12048193 3703:0.24096386 3704:0.24096386 3706:0.24096386 3710:0.24096386 3712:0.24096386 3717:0.12048193 3718:0.24096386 3721:0.12048193 3722:0.12048193 3725:0.12048193 3726:0.12048193 3727:0.12048193 3728:0.12048193 3729:0.72289157 3730:0.24096386 3731:0.12048193 3732:0.12048193 3733:0.12048193 3734:0.12048193 3736:0.12048193 3737:0.24096386 3739:0.48192772 3742:0.12048193 3743:0.24096386 3745:0.12048193 3749:0.12048193 3750:0.12048193 3751:0.12048193 3752:0.24096386 3754:0.36144578 3755:0.12048193 3756:0.36144578 3758:0.12048193 3761:0.12048193 3763:0.24096386 3764:0.12048193 3765:0.12048193 3766:0.12048193 3767:0.24096386 3769:0.24096386 3770:0.12048193 3772:0.12048193 3773:0.24096386 3775:0.48192772 3776:0.12048193 3777:0.12048193 3779:0.84337348 3780:0.48192772 3781:0.12048193 3782:0.12048193 3783:0.12048193 3784:0.12048193 3785:0.24096386 3786:0.12048193 3787:0.48192772 3789:0.24096386 3791:0.36144578 3792:0.24096386 3804:0.12048193 3809:0.12048193 3811:0.36144578 3812:0.36144578 3815:0.12048193 3816:0.24096386 3817:0.12048193 3818:0.24096386 3820:0.12048193 3822:0.36144578 3823:0.12048193 3825:0.12048193 3826:0.24096386 3827:0.48192772 3829:0.12048193 3830:0.12048193 3831:0.12048193 3832:0.12048193 3833:0.12048193 3835:0.36144578 3836:0.24096386 3838:0.12048193 3841:0.24096386 3846:0.24096386 3847:0.12048193 3848:0.36144578 3849:0.12048193 3850:0.12048193 3851:0.12048193 3852:0.12048193 3856:0.12048193 3858:0.12048193 3859:0.36144578 3860:0.12048193 3862:0.24096386 3863:0.12048193 3864:0.12048193 3865:0.12048193 3866:0.24096386 3867:0.12048193 3868:0.12048193 3869:0.12048193 3870:0.72289157 3871:0.12048193 3872:0.24096386 3877:0.24096386 3878:0.24096386 3879:0.24096386 3881:0.24096386 3885:0.12048193 3886:0.24096386 3887:0.24096386 3888:0.36144578 3890:0.12048193 3892:0.12048193 3893:0.24096386 3894:0.12048193 3896:0.24096386 3897:0.24096386 3898:0.12048193 3900:0.12048193 3901:0.12048193 3902:0.36144578 3905:0.12048193 3906:0.12048193 3908:0.12048193 3910:0.12048193 3911:0.12048193 3912:0.12048193 3914:0.12048193 3915:0.12048193 3916:0.36144578 3919:0.12048193 3920:0.12048193 3921:0.086538456 3922:0.01442308 3923:0.067307703 3924:0.033653852 3925:0.033653852 3926:0.088942297 3927:0.02884615 3928:0.0625 3929:0.05288462 3930:0.086538456 3931:0.0096153803 3932:0.04567308 3933:0.04567308 3934:0.036057688 3935:0.04567308 3936:0.084134623 3937:0.04086538 3938:0.064903848 3939:0.033653852 3940:0.03846154 3941:0.015196 3942:0.000128 3943:0.00041199999 3944:9.9999997e-06 3945:0.35817301 #
-0.0029442460626637740987721070240468 1:0.01025641 2:0.02564103 3:0.02564103 4:0.020512819 6:0.01025641 12:0.041025639 16:0.05641026 17:0.02564103 182:0.17271157 348:0.17271157 370:0.17271157 372:0.17271157 386:0.17271157 395:0.17271157 413:0.34542313 447:0.17271157 484:0.17271157 519:0.17271157 522:0.17271157 580:0.17271157 599:0.17271157 623:0.17271157 626:0.17271157 665:0.17271157 732:0.17271157 750:0.17271157 792:0.17271157 851:0.17271157 857:0.17271157 862:0.17271157 988:0.17271157 1085:0.17271157 1268:0.17271157 1271:0.17271157 1318:0.17271157 1324:0.17271157 1348:0.17271157 1360:0.17271157 1391:0.17271157 1443:0.17271157 1489:0.17271157 1502:0.17271157 1504:0.34542313 1506:0.17271157 1513:0.17271157 1544:0.17271157 1551:0.17271157 1567:0.17271157 1573:0.17271157 1582:0.17271157 1628:0.17271157 1650:0.17271157 1716:0.17271157 1722:0.17271157 1794:0.17271157 1846:0.17271157 1895:0.17271157 2111:0.17271157 2116:0.17271157 2127:0.17271157 2159:0.17271157 2384:0.17271157 2448:0.17271157 2462:0.17271157 2498:0.17271157 2699:0.34542313 2792:0.17271157 2798:0.17271157 2800:0.17271157 2874:0.17271157 2882:0.17271157 2888:0.34542313 2909:0.17271157 2910:0.17271157 2967:0.34542313 2972:1.208981 2986:0.17271157 3076:0.17271157 3103:0.17271157 3118:0.17271157 3125:0.17271157 3133:0.17271157 3134:0.17271157 3251:0.17271157 3271:0.17271157 3674:0.25773194 3677:0.25773194 3679:0.25773194 3680:0.25773194 3692:0.25773194 3693:0.51546389 3694:0.51546389 3695:0.25773194 3696:1.0309278 3697:0.51546389 3698:0.25773194 3702:0.25773194 3704:0.51546389 3708:0.51546389 3709:0.77319586 3710:0.25773194 3712:0.25773194 3715:1.0309278 3719:0.25773194 3722:0.25773194 3726:0.25773194 3727:0.51546389 3734:0.25773194 3739:0.25773194 3754:0.25773194 3758:0.25773194 3759:0.25773194 3760:0.25773194 3761:0.51546389 3762:0.25773194 3763:0.77319586 3764:0.51546389 3767:0.25773194 3769:0.25773194 3771:0.25773194 3772:1.0309278 3773:0.25773194 3775:0.51546389 3776:0.51546389 3777:0.51546389 3779:0.25773194 3780:0.77319586 3785:0.51546389 3786:0.25773194 3790:0.25773194 3791:0.25773194 3792:0.25773194 3794:0.25773194 3798:0.25773194 3811:0.25773194 3812:0.51546389 3813:0.25773194 3814:0.77319586 3816:0.51546389 3817:0.25773194 3818:0.25773194 3819:0.25773194 3824:0.25773194 3831:0.25773194 3834:0.25773194 3835:0.25773194 3836:0.51546389 3838:0.25773194 3840:0.25773194 3851:0.51546389 3857:0.77319586 3858:0.25773194 3859:0.25773194 3863:0.77319586 3864:0.51546389 3866:0.51546389 3867:0.77319586 3870:2.3195877 3871:0.25773194 3878:1.0309278 3882:0.51546389 3883:0.51546389 3884:0.77319586 3885:0.25773194 3892:0.25773194 3894:0.25773194 3921:0.02564103 3922:0 3923:0.097435899 3924:0.082051277 3925:0.030769231 3926:0.02564103 3927:0.01025641 3928:0.087179489 3929:0.092307687 3930:0.07692308 3931:0.01538462 3932:0.11794872 3933:0.02564103 3934:0.051282048 3935:0.035897441 3936:0.13333334 3937:0.071794868 3938:0.020512819 3939:0 3940:0 3941:0.0029 3942:-7.9999998e-05 3943:1.8999999e-05 3944:-1e-06 3945:0.25641 #
-0.00078266750455015276274201019290899 6:0.01398601 7:0.055944059 10:0.01398601 11:0.02797203 20:0.069930069 74:0.23640662 104:0.23640662 114:0.23640662 120:0.23640662 125:0.23640662 170:0.23640662 173:0.23640662 230:0.23640662 350:0.23640662 351:0.23640662 374:0.23640662 454:0.23640662 471:0.23640662 479:0.23640662 507:0.23640662 517:0.23640662 531:0.23640662 534:0.23640662 557:0.23640662 626:0.23640662 634:0.23640662 651:0.23640662 915:0.23640662 961:0.23640662 962:0.23640662 971:0.23640662 1103:0.23640662 1322:0.23640662 1419:0.23640662 1515:0.23640662 1519:0.23640662 1537:0.23640662 1596:0.47281325 1632:0.23640662 1641:0.23640662 1642:0.23640662 1651:0.23640662 1660:0.23640662 1680:0.23640662 1713:0.23640662 1730:0.23640662 1734:0.23640662 1735:0.23640662 1789:0.23640662 1802:0.23640662 1807:0.23640662 1821:0.23640662 1822:0.23640662 2105:0.23640662 2182:0.23640662 2214:0.23640662 2616:0.47281325 2652:0.23640662 2707:0.23640662 2743:0.23640662 2885:0.23640662 2912:0.23640662 2917:0.23640662 2996:0.23640662 3057:0.23640662 3188:0.23640662 3191:0.47281325 3208:0.23640662 3218:0.23640662 3240:0.23640662 3253:0.23640662 3323:0.23640662 3324:0.23640662 3392:0.23640662 3678:0.35211268 3679:0.35211268 3680:1.0563381 3682:0.35211268 3683:0.70422536 3692:0.70422536 3693:0.35211268 3699:0.35211268 3700:0.70422536 3702:0.35211268 3703:1.0563381 3704:0.35211268 3705:1.4084507 3707:0.35211268 3709:0.35211268 3712:0.35211268 3713:1.0563381 3714:0.35211268 3715:0.35211268 3717:0.35211268 3726:0.35211268 3729:1.0563381 3734:1.0563381 3741:0.35211268 3754:0.35211268 3757:0.35211268 3758:0.70422536 3759:0.35211268 3764:0.35211268 3766:0.35211268 3771:0.35211268 3773:0.70422536 3775:0.35211268 3777:0.35211268 3778:1.0563381 3779:0.35211268 3780:0.35211268 3781:0.35211268 3783:0.35211268 3785:0.35211268 3786:0.35211268 3787:0.70422536 3791:0.70422536 3792:0.70422536 3806:0.35211268 3810:0.35211268 3820:0.35211268 3823:0.35211268 3834:0.35211268 3836:0.70422536 3840:0.35211268 3846:0.35211268 3848:0.35211268 3851:0.35211268 3854:0.35211268 3859:0.35211268 3863:1.0563381 3866:0.35211268 3868:0.35211268 3872:0.35211268 3878:0.35211268 3881:0.35211268 3883:0.35211268 3889:1.4084507 3890:0.35211268 3891:0.35211268 3893:0.35211268 3894:0.70422536 3898:0.35211268 3899:0.35211268 3902:0.35211268 3904:0.35211268 3921:0.083916083 3922:0.034965031 3923:0.062937073 3924:0.12587413 3925:0.0069930102 3926:0.055944059 3927:0.01398601 3928:0.055944059 3929:0.062937073 3930:0.11888112 3931:0.0069930102 3932:0.02797203 3933:0.01398601 3934:0.048951048 3935:0.048951048 3936:0.07692308 3937:0.020979021 3938:0.11888112 3939:0.01398601 3940:0 3941:0.001563 3942:3.0000001e-06 3943:4.9999999e-06 3944:0 3945:0.42657301 #
