SVM-light Version V6.02
2 # kernel type
3 # kernel parameter -d 
0.01 # kernel parameter -g 
1 # kernel parameter -s 
1 # kernel parameter -r 
empty# kernel parameter -u 
3945 # highest feature index 
1831 # number of training documents 
137 # number of support vectors plus 1 
2.1935773 # threshold b, each following line is a SV (starting with alpha*y)
-17.97242520636124396560262539424 2:0.0029806299 3:0.019374071 4:0.017883761 6:0.00596125 7:0.0029806299 8:0.0029806299 10:0.0029806299 11:0.0089418804 12:0.01639344 15:0.01043219 16:0.073025338 17:0.049180329 19:0.0029806299 63:0.049825609 103:0.049825609 149:0.049825609 161:0.049825609 176:0.049825609 179:0.049825609 183:0.049825609 184:0.099651217 185:0.099651217 192:0.099651217 230:0.049825609 239:0.049825609 322:0.049825609 354:0.099651217 362:0.099651217 365:0.049825609 415:0.049825609 417:0.049825609 437:0.049825609 446:0.049825609 458:0.049825609 466:0.049825609 469:0.049825609 473:0.049825609 525:0.049825609 532:0.049825609 580:0.049825609 582:0.049825609 596:0.049825609 600:0.049825609 663:0.049825609 669:0.049825609 704:0.049825609 706:0.049825609 739:0.049825609 744:0.049825609 752:0.049825609 779:0.049825609 781:0.049825609 785:0.049825609 792:0.099651217 807:0.049825609 812:0.049825609 828:0.049825609 851:0.099651217 855:0.049825609 893:0.049825609 916:0.099651217 972:0.049825609 988:0.049825609 1005:0.049825609 1028:0.099651217 1035:0.049825609 1117:0.049825609 1199:0.049825609 1205:0.049825609 1213:0.049825609 1257:0.049825609 1273:0.049825609 1288:0.049825609 1317:0.049825609 1323:0.049825609 1351:0.049825609 1375:0.049825609 1378:0.049825609 1387:0.049825609 1388:0.14947683 1389:0.049825609 1393:0.049825609 1399:0.049825609 1431:0.049825609 1455:0.049825609 1467:0.049825609 1471:0.049825609 1483:0.049825609 1490:0.049825609 1495:0.049825609 1499:0.049825609 1505:0.049825609 1506:0.049825609 1507:0.049825609 1524:0.049825609 1534:0.049825609 1578:0.049825609 1579:0.099651217 1581:0.049825609 1589:0.049825609 1646:0.049825609 1652:0.049825609 1721:0.049825609 1724:0.099651217 1725:0.049825609 1729:0.049825609 1738:0.049825609 1740:0.049825609 1767:0.049825609 1779:0.049825609 1781:0.049825609 1801:0.049825609 1809:0.049825609 1813:0.049825609 1814:0.049825609 1815:0.049825609 1816:0.049825609 1825:0.049825609 1863:0.049825609 1910:0.049825609 1937:0.049825609 1960:0.049825609 2020:0.049825609 2084:0.049825609 2109:0.049825609 2110:0.049825609 2115:0.049825609 2120:0.049825609 2139:0.049825609 2159:0.049825609 2166:0.049825609 2168:0.049825609 2169:0.049825609 2177:0.099651217 2180:0.049825609 2193:0.049825609 2226:0.049825609 2261:0.049825609 2262:0.049825609 2274:0.049825609 2288:0.049825609 2296:0.049825609 2311:0.049825609 2315:0.049825609 2316:0.049825609 2409:0.049825609 2464:0.049825609 2495:0.049825609 2500:0.049825609 2508:0.049825609 2514:0.049825609 2547:0.049825609 2549:0.099651217 2550:0.049825609 2631:0.049825609 2670:0.049825609 2677:0.049825609 2699:0.099651217 2706:0.049825609 2707:0.049825609 2708:0.049825609 2720:0.049825609 2721:0.049825609 2755:0.049825609 2759:0.049825609 2763:0.049825609 2764:0.049825609 2793:0.049825609 2806:0.049825609 2808:0.049825609 2877:0.049825609 2883:0.049825609 2888:0.049825609 2896:0.14947683 2907:0.049825609 2909:0.099651217 2910:0.049825609 2911:0.049825609 2916:0.049825609 2918:0.049825609 2921:0.049825609 2924:0.049825609 2938:0.049825609 2939:0.049825609 2958:0.049825609 2966:0.099651217 2967:0.049825609 2969:0.049825609 2970:0.19930243 2971:0.14947683 2972:0.44843048 2973:0.34877926 2974:0.049825609 2977:0.049825609 2980:0.049825609 2981:0.049825609 2984:0.19930243 2985:0.19930243 2986:0.099651217 2990:0.099651217 2994:0.049825609 2995:0.049825609 3005:0.049825609 3008:0.049825609 3017:0.049825609 3030:0.049825609 3031:0.049825609 3033:0.049825609 3036:0.099651217 3059:0.099651217 3089:0.049825609 3093:0.14947683 3096:0.049825609 3098:0.049825609 3110:0.049825609 3111:0.049825609 3119:0.049825609 3120:0.14947683 3122:0.099651217 3124:0.14947683 3125:0.049825609 3127:0.049825609 3128:0.049825609 3133:0.14947683 3134:0.5480817 3137:0.049825609 3141:0.099651217 3168:0.049825609 3204:0.049825609 3210:0.049825609 3227:0.049825609 3230:0.099651217 3244:0.049825609 3249:0.049825609 3273:0.049825609 3288:0.049825609 3289:0.049825609 3295:0.049825609 3298:0.049825609 3309:0.099651217 3310:0.049825609 3333:0.049825609 3440:0.049825609 3462:0.049825609 3535:0.049825609 3596:0.049825609 3626:0.049825609 3635:0.049825609 3648:0.049825609 3666:0.049825609 3676:0.074626863 3679:0.14925373 3682:0.074626863 3683:0.14925373 3684:0.37313432 3685:0.074626863 3687:0.074626863 3690:0.074626863 3691:0.074626863 3692:0.14925373 3693:0.14925373 3694:0.074626863 3696:0.074626863 3697:0.14925373 3698:0.074626863 3699:0.074626863 3700:0.29850745 3701:0.14925373 3702:0.2238806 3704:0.14925373 3705:0.074626863 3708:0.074626863 3709:0.14925373 3710:0.14925373 3715:0.29850745 3716:0.14925373 3718:0.37313432 3719:0.14925373 3720:0.074626863 3721:0.2238806 3722:0.37313432 3723:0.2238806 3724:0.074626863 3726:0.37313432 3727:0.074626863 3729:0.074626863 3730:0.29850745 3733:0.2238806 3734:0.074626863 3736:0.074626863 3738:0.074626863 3739:0.074626863 3742:0.074626863 3743:0.074626863 3748:0.14925373 3749:0.074626863 3752:0.14925373 3755:0.074626863 3756:0.074626863 3757:0.074626863 3758:0.2238806 3759:0.074626863 3761:0.29850745 3762:0.074626863 3763:0.52238804 3764:0.2238806 3767:0.14925373 3768:0.2238806 3769:0.074626863 3770:0.074626863 3771:0.2238806 3772:0.44776121 3773:0.2238806 3774:0.074626863 3775:0.2238806 3776:0.074626863 3778:0.2238806 3779:0.29850745 3780:0.14925373 3784:0.074626863 3785:0.14925373 3786:0.37313432 3787:0.2238806 3788:0.074626863 3789:0.14925373 3790:0.14925373 3791:0.074626863 3792:0.2238806 3793:0.074626863 3795:0.074626863 3800:0.074626863 3802:0.074626863 3806:0.074626863 3810:0.074626863 3812:0.2238806 3814:0.52238804 3815:0.074626863 3817:0.074626863 3818:0.74626863 3819:0.37313432 3820:0.14925373 3821:0.37313432 3823:0.14925373 3824:0.37313432 3825:0.29850745 3826:0.14925373 3827:0.44776121 3828:0.14925373 3831:0.074626863 3834:0.14925373 3836:0.2238806 3837:0.074626863 3838:0.074626863 3839:0.37313432 3840:0.29850745 3841:0.37313432 3847:0.074626863 3849:0.074626863 3850:0.074626863 3851:0.37313432 3852:0.2238806 3855:0.37313432 3857:0.074626863 3858:0.37313432 3862:0.074626863 3863:0.2238806 3864:0.074626863 3865:0.2238806 3866:0.5970149 3867:0.52238804 3868:0.37313432 3869:0.2238806 3870:2.1641791 3871:1.3432835 3872:0.44776121 3874:0.14925373 3875:0.44776121 3876:0.074626863 3877:0.074626863 3878:0.29850745 3879:0.29850745 3880:0.074626863 3881:0.44776121 3882:0.37313432 3883:0.89552242 3884:1.641791 3885:0.2238806 3888:0.2238806 3890:0.14925373 3892:0.2238806 3893:0.14925373 3894:0.074626863 3896:0.29850745 3897:0.14925373 3898:0.5970149 3900:0.074626863 3901:0.074626863 3905:0.074626863 3906:0.074626863 3910:0.074626863 3914:0.074626863 3916:0.074626863 3918:0.074626863 3919:0.14925373 3920:0.14925373 3921:0.038748141 3922:0.0089418804 3923:0.049180329 3924:0.02980626 3925:0.046199702 3926:0.02980626 3927:0.01043219 3928:0.052160949 3929:0.068554386 3930:0.064083457 3931:0.0074515701 3932:0.078986593 3933:0.056631889 3934:0.044709388 3935:0.035767511 3936:0.17883755 3937:0.1147541 3938:0.052160949 3939:0.0089418804 3940:0.02384501 3941:0.035785999 3942:0.000203 3943:0.002451 3944:5.6000001e-05 3945:0.26974699 #
-13.375632568156655466395932307933 1:0.00492005 2:0.00492005 3:0.0024600199 4:0.0098401001 5:0.0024600199 6:0.0024600199 7:0.01230012 9:0.0073800702 10:0.0024600199 11:0.01476015 12:0.023370231 14:0.0024600199 15:0.00492005 16:0.035670351 17:0.0098401001 19:0.0024600199 20:0.0024600199 34:0.041101519 42:0.041101519 62:0.041101519 79:0.041101519 80:0.041101519 83:0.041101519 91:0.041101519 123:0.041101519 126:0.041101519 139:0.041101519 149:0.041101519 161:0.041101519 184:0.16440608 186:0.082203038 200:0.041101519 206:0.041101519 249:0.041101519 303:0.041101519 306:0.041101519 335:0.041101519 340:0.041101519 357:0.041101519 360:0.041101519 373:0.041101519 377:0.041101519 406:0.082203038 407:0.041101519 409:0.041101519 410:0.041101519 416:0.041101519 418:0.041101519 442:0.041101519 443:0.041101519 470:0.041101519 471:0.041101519 473:0.041101519 476:0.082203038 503:0.041101519 515:0.041101519 530:0.082203038 532:0.082203038 540:0.041101519 547:0.041101519 556:0.041101519 559:0.082203038 581:0.041101519 586:0.041101519 594:0.041101519 595:0.041101519 599:0.041101519 617:0.041101519 618:0.041101519 621:0.041101519 627:0.041101519 636:0.041101519 660:0.041101519 677:0.041101519 678:0.041101519 680:0.041101519 682:0.041101519 739:0.041101519 752:0.041101519 754:0.041101519 763:0.041101519 769:0.041101519 782:0.041101519 786:0.041101519 795:0.041101519 801:0.041101519 815:0.041101519 828:0.041101519 852:0.041101519 869:0.041101519 933:0.041101519 942:0.041101519 947:0.041101519 950:0.041101519 955:0.041101519 957:0.041101519 965:0.041101519 967:0.041101519 968:0.041101519 1005:0.041101519 1025:0.041101519 1026:0.041101519 1037:0.041101519 1068:0.082203038 1085:0.041101519 1088:0.041101519 1099:0.041101519 1102:0.041101519 1110:0.041101519 1118:0.041101519 1121:0.041101519 1125:0.082203038 1141:0.082203038 1155:0.041101519 1186:0.041101519 1216:0.041101519 1225:0.041101519 1252:0.041101519 1268:0.041101519 1278:0.041101519 1289:0.041101519 1296:0.082203038 1315:0.041101519 1317:0.082203038 1322:0.041101519 1328:0.041101519 1332:0.041101519 1333:0.041101519 1354:0.041101519 1381:0.041101519 1385:0.082203038 1388:0.082203038 1393:0.041101519 1400:0.041101519 1421:0.041101519 1432:0.041101519 1438:0.041101519 1450:0.041101519 1468:0.041101519 1479:0.041101519 1481:0.041101519 1482:0.041101519 1483:0.041101519 1487:0.041101519 1488:0.041101519 1492:0.041101519 1495:0.041101519 1496:0.041101519 1499:0.082203038 1500:0.041101519 1505:0.041101519 1506:0.041101519 1513:0.041101519 1518:0.041101519 1534:0.082203038 1535:0.041101519 1548:0.041101519 1553:0.041101519 1560:0.041101519 1562:0.041101519 1564:0.041101519 1576:0.041101519 1578:0.041101519 1592:0.041101519 1593:0.041101519 1598:0.041101519 1627:0.041101519 1654:0.041101519 1656:0.041101519 1662:0.041101519 1665:0.041101519 1672:0.041101519 1673:0.041101519 1679:0.041101519 1684:0.041101519 1702:0.041101519 1704:0.041101519 1709:0.041101519 1722:0.041101519 1723:0.082203038 1724:0.041101519 1725:0.041101519 1733:0.041101519 1737:0.041101519 1741:0.041101519 1743:0.041101519 1769:0.041101519 1780:0.041101519 1791:0.041101519 1792:0.041101519 1794:0.041101519 1803:0.041101519 1804:0.082203038 1805:0.041101519 1807:0.041101519 1808:0.041101519 1809:0.041101519 1823:0.041101519 1901:0.041101519 1916:0.041101519 1931:0.041101519 1943:0.041101519 1946:0.041101519 1949:0.041101519 2072:0.041101519 2075:0.041101519 2089:0.041101519 2095:0.041101519 2104:0.041101519 2105:0.041101519 2120:0.041101519 2127:0.041101519 2163:0.041101519 2165:0.12330456 2168:0.041101519 2218:0.041101519 2220:0.041101519 2228:0.041101519 2259:0.041101519 2269:0.041101519 2307:0.041101519 2311:0.041101519 2313:0.041101519 2314:0.041101519 2318:0.041101519 2347:0.041101519 2400:0.041101519 2409:0.041101519 2439:0.041101519 2453:0.041101519 2454:0.041101519 2458:0.041101519 2461:0.041101519 2472:0.041101519 2510:0.041101519 2520:0.041101519 2525:0.082203038 2569:0.041101519 2570:0.041101519 2583:0.041101519 2647:0.041101519 2656:0.041101519 2658:0.041101519 2665:0.041101519 2674:0.041101519 2688:0.041101519 2692:0.041101519 2700:0.041101519 2702:0.082203038 2708:0.041101519 2714:0.041101519 2759:0.041101519 2775:0.041101519 2789:0.041101519 2790:0.041101519 2808:0.041101519 2810:0.041101519 2811:0.041101519 2825:0.041101519 2861:0.041101519 2864:0.041101519 2880:0.041101519 2883:0.041101519 2884:0.041101519 2886:0.041101519 2896:0.041101519 2901:0.12330456 2909:0.16440608 2911:0.041101519 2917:0.041101519 2921:0.041101519 2922:0.041101519 2924:0.041101519 2925:0.041101519 2928:0.041101519 2938:0.041101519 2939:0.041101519 2943:0.041101519 2950:0.041101519 2951:0.082203038 2953:0.041101519 2957:0.082203038 2961:0.082203038 2966:0.041101519 2968:0.041101519 2970:0.12330456 2971:0.041101519 2972:0.041101519 2973:0.082203038 2974:0.041101519 2975:0.041101519 2977:0.041101519 2978:0.041101519 2984:0.082203038 2986:0.041101519 2988:0.041101519 2993:0.082203038 2994:0.041101519 2996:0.041101519 3000:0.041101519 3007:0.041101519 3011:0.041101519 3018:0.041101519 3026:0.041101519 3027:0.041101519 3073:0.041101519 3077:0.041101519 3089:0.041101519 3090:0.041101519 3103:0.041101519 3107:0.041101519 3108:0.041101519 3117:0.041101519 3118:0.041101519 3120:0.082203038 3128:0.041101519 3130:0.041101519 3136:0.041101519 3141:0.041101519 3158:0.041101519 3178:0.041101519 3207:0.082203038 3220:0.041101519 3230:0.041101519 3249:0.041101519 3257:0.041101519 3303:0.041101519 3308:0.041101519 3317:0.082203038 3338:0.041101519 3340:0.041101519 3372:0.041101519 3450:0.041101519 3495:0.041101519 3529:0.041101519 3538:0.041101519 3565:0.041101519 3596:0.041101519 3600:0.041101519 3604:0.041101519 3668:0.041101519 3674:0.12315271 3676:0.12315271 3677:0.24630542 3678:0.18472907 3680:0.12315271 3681:0.061576359 3682:0.12315271 3684:0.061576359 3685:0.061576359 3686:0.061576359 3688:0.061576359 3690:0.12315271 3691:0.061576359 3693:0.12315271 3694:0.061576359 3695:0.061576359 3696:0.061576359 3697:0.30788177 3698:0.061576359 3700:0.36945814 3701:0.30788177 3703:0.12315271 3704:0.18472907 3705:0.30788177 3706:0.061576359 3707:0.18472907 3708:0.12315271 3709:0.24630542 3710:0.24630542 3712:0.18472907 3713:0.12315271 3715:0.18472907 3716:0.12315271 3717:0.30788177 3718:0.061576359 3719:0.24630542 3720:0.18472907 3721:0.12315271 3722:0.061576359 3724:0.24630542 3726:0.18472907 3727:0.061576359 3730:0.18472907 3731:0.12315271 3732:0.24630542 3733:0.24630542 3734:0.18472907 3736:0.12315271 3738:0.24630542 3739:0.24630542 3740:0.12315271 3741:0.18472907 3742:0.12315271 3744:0.18472907 3745:0.18472907 3747:0.12315271 3750:0.12315271 3752:0.18472907 3753:0.061576359 3754:0.24630542 3755:0.061576359 3756:0.24630542 3757:0.061576359 3758:0.24630542 3759:0.18472907 3761:0.24630542 3762:0.061576359 3763:0.55418718 3764:0.18472907 3766:0.30788177 3767:0.12315271 3768:0.12315271 3769:0.24630542 3770:0.18472907 3771:0.43103448 3772:0.61576355 3773:0.24630542 3774:0.061576359 3775:0.43103448 3776:0.12315271 3777:0.18472907 3778:0.24630542 3779:0.061576359 3780:0.12315271 3781:0.18472907 3782:0.24630542 3783:0.12315271 3784:0.30788177 3785:0.18472907 3786:0.49261084 3787:0.36945814 3788:0.12315271 3789:0.061576359 3790:0.061576359 3791:0.24630542 3792:0.18472907 3793:0.12315271 3797:0.12315271 3798:0.061576359 3799:0.061576359 3800:0.061576359 3801:0.18472907 3806:0.061576359 3807:0.061576359 3810:0.30788177 3811:0.36945814 3812:0.12315271 3813:0.061576359 3814:0.061576359 3815:0.18472907 3816:0.18472907 3817:0.061576359 3818:0.49261084 3819:0.18472907 3822:0.061576359 3823:0.24630542 3824:0.12315271 3825:0.12315271 3826:0.12315271 3827:0.30788177 3828:0.061576359 3834:0.061576359 3835:0.12315271 3836:0.24630542 3837:0.061576359 3838:0.18472907 3839:0.12315271 3840:0.43103448 3843:0.12315271 3844:0.061576359 3845:0.061576359 3848:0.18472907 3849:0.12315271 3850:0.061576359 3851:0.24630542 3852:0.12315271 3854:0.061576359 3855:0.061576359 3856:0.061576359 3857:0.12315271 3858:0.43103448 3860:0.18472907 3862:0.12315271 3863:0.24630542 3864:0.43103448 3865:0.18472907 3866:0.55418718 3867:0.30788177 3868:0.24630542 3869:0.67733991 3870:0.92364532 3871:0.43103448 3872:0.49261084 3873:0.061576359 3874:0.24630542 3875:0.18472907 3876:0.061576359 3877:0.12315271 3878:0.12315271 3879:0.061576359 3880:0.061576359 3881:0.061576359 3882:0.18472907 3883:0.36945814 3884:0.24630542 3885:0.12315271 3887:0.12315271 3888:0.12315271 3889:0.061576359 3890:0.12315271 3891:0.061576359 3892:0.36945814 3893:0.061576359 3894:0.18472907 3895:0.12315271 3896:0.12315271 3897:0.12315271 3898:0.24630542 3899:0.18472907 3901:0.12315271 3905:0.061576359 3907:0.061576359 3910:0.061576359 3914:0.12315271 3916:0.12315271 3917:0.061576359 3921:0.04428044 3922:0.0196802 3923:0.05535055 3924:0.05535055 3925:0.036900371 3926:0.05658057 3927:0.036900371 3928:0.0602706 3929:0.088560887 3930:0.07626076 3931:0.017220169 3932:0.0602706 3933:0.043050431 3934:0.03444035 3935:0.039360389 3936:0.13899139 3937:0.051660519 3938:0.05535055 3939:0.0061500599 3940:0.023370231 3941:0.053130001 3942:-0.0036309999 3943:0.0054139998 3944:-0.00082900003 3945:0.30996299 #
-0.882300834915113796341756824404 1:0.0125 2:0.0125 8:0.075000003 10:0.0125 12:0.0125 13:0.0125 14:0.0125 15:0.037500001 16:0.018750001 20:0.0125 32:0.21097046 68:0.21097046 72:0.21097046 91:0.21097046 93:0.21097046 95:0.21097046 113:0.21097046 125:0.21097046 165:0.21097046 201:0.21097046 202:0.21097046 228:0.21097046 377:0.21097046 485:0.21097046 654:0.21097046 729:0.21097046 756:0.21097046 787:0.21097046 830:0.21097046 850:0.21097046 852:0.21097046 890:0.42194092 894:0.21097046 898:0.21097046 913:0.21097046 917:0.21097046 921:0.21097046 922:0.21097046 923:0.63291138 943:0.21097046 946:0.21097046 984:0.21097046 1041:0.21097046 1044:0.21097046 1251:0.21097046 1295:0.21097046 1310:0.21097046 1373:0.21097046 1375:0.21097046 1422:0.21097046 1439:0.21097046 1463:0.21097046 1496:0.21097046 1634:0.21097046 1653:0.21097046 1805:0.21097046 1848:0.21097046 1862:0.21097046 1903:0.21097046 1955:0.21097046 2006:0.21097046 2278:0.21097046 2329:0.21097046 2512:0.21097046 2574:0.21097046 2582:0.21097046 2611:0.21097046 2648:0.21097046 2679:0.21097046 2699:0.21097046 2710:0.21097046 2731:0.21097046 2791:0.21097046 2872:0.21097046 2965:0.21097046 2972:0.21097046 2980:0.21097046 3043:0.21097046 3112:0.21097046 3165:0.21097046 3330:0.21097046 3396:0.21097046 3405:0.21097046 3612:0.21097046 3674:0.3144654 3675:0.3144654 3676:0.3144654 3678:1.572327 3680:0.94339621 3683:0.62893081 3684:0.3144654 3685:0.94339621 3688:0.3144654 3694:0.3144654 3695:0.3144654 3702:0.3144654 3704:0.3144654 3706:0.3144654 3714:0.3144654 3719:0.62893081 3722:0.3144654 3724:0.3144654 3725:0.3144654 3726:0.62893081 3727:0.3144654 3729:1.572327 3730:0.94339621 3732:0.62893081 3735:0.62893081 3739:0.94339621 3742:0.3144654 3750:0.3144654 3752:0.3144654 3754:0.3144654 3756:0.94339621 3757:0.3144654 3758:0.3144654 3760:0.3144654 3766:0.3144654 3767:0.3144654 3769:0.62893081 3772:0.3144654 3779:0.94339621 3780:0.3144654 3794:0.3144654 3795:0.3144654 3796:0.3144654 3798:0.3144654 3802:0.3144654 3803:0.3144654 3805:0.3144654 3810:0.3144654 3818:0.62893081 3819:0.3144654 3825:1.572327 3829:0.3144654 3839:0.3144654 3844:0.62893081 3846:0.3144654 3848:0.3144654 3850:0.3144654 3851:0.3144654 3852:0.3144654 3853:0.3144654 3854:0.62893081 3857:0.3144654 3863:0.3144654 3870:0.62893081 3871:0.3144654 3875:0.3144654 3877:0.3144654 3879:0.3144654 3880:0.3144654 3888:0.3144654 3890:0.62893081 3892:0.3144654 3893:0.62893081 3900:0.62893081 3904:0.3144654 3912:0.3144654 3921:0.13124999 3922:0.025 3923:0.043749999 3924:0.025 3925:0.0625 3926:0.15000001 3927:0.0125 3928:0.0625 3929:0.037500001 3930:0.037500001 3931:0.050000001 3932:0.03125 3933:0.075000003 3934:0.0062500001 3935:0.068750001 3936:0.050000001 3937:0.037500001 3938:0.0625 3939:0.018750001 3940:0.0125 3941:0.001952 3942:-1.1e-05 3943:7.0000001e-06 3944:-0 3945:0.43125001 #
-1.7547659674885058844751029027975 1:0.02325581 4:0.01162791 7:0.02325581 8:0.01162791 10:0.01162791 11:0.05813954 12:0.046511631 15:0.01162791 20:0.02906977 22:0.19607843 26:0.19607843 60:0.19607843 67:0.19607843 155:0.19607843 405:0.19607843 407:0.19607843 466:0.19607843 479:0.19607843 531:0.19607843 582:0.19607843 595:0.39215687 597:0.19607843 616:0.19607843 622:0.19607843 647:0.19607843 649:0.19607843 677:0.19607843 685:0.19607843 836:0.19607843 861:0.19607843 911:0.19607843 969:0.19607843 1038:0.19607843 1195:0.19607843 1249:0.19607843 1304:0.19607843 1332:0.19607843 1348:0.19607843 1413:0.19607843 1421:0.19607843 1440:0.19607843 1443:0.19607843 1450:0.19607843 1473:0.19607843 1494:0.19607843 1495:0.19607843 1500:0.19607843 1505:0.19607843 1515:0.19607843 1534:0.19607843 1623:0.19607843 1652:0.19607843 1666:0.19607843 1713:0.19607843 1734:0.19607843 1741:0.19607843 1756:0.19607843 1769:0.19607843 1794:0.19607843 1803:0.19607843 2089:0.19607843 2111:0.19607843 2120:0.19607843 2166:0.19607843 2217:0.19607843 2312:0.19607843 2329:0.19607843 2384:0.19607843 2397:0.19607843 2628:0.19607843 2629:0.19607843 2641:0.19607843 2657:0.19607843 2680:0.19607843 2705:0.19607843 2714:0.19607843 2837:0.19607843 2886:0.19607843 2916:0.19607843 2984:0.19607843 3160:0.19607843 3161:0.19607843 3195:0.19607843 3294:0.19607843 3310:0.19607843 3320:0.19607843 3575:0.19607843 3674:0.5847953 3675:0.29239765 3676:0.29239765 3678:0.29239765 3682:0.29239765 3684:0.29239765 3696:0.29239765 3700:0.87719297 3702:0.29239765 3705:0.5847953 3707:0.29239765 3708:0.29239765 3709:0.5847953 3710:0.87719297 3714:0.5847953 3717:0.87719297 3721:0.29239765 3725:0.29239765 3726:0.29239765 3727:0.29239765 3729:0.29239765 3734:0.29239765 3738:0.29239765 3739:0.29239765 3744:0.5847953 3745:0.29239765 3748:0.29239765 3750:0.29239765 3752:0.5847953 3757:0.29239765 3758:0.29239765 3759:0.29239765 3761:0.29239765 3762:0.29239765 3764:0.29239765 3766:0.5847953 3767:0.87719297 3770:0.29239765 3772:1.1695906 3773:0.87719297 3775:0.29239765 3777:0.29239765 3779:0.29239765 3780:0.29239765 3781:0.29239765 3785:0.5847953 3787:1.4619883 3789:0.87719297 3791:0.5847953 3793:0.29239765 3812:0.29239765 3817:0.29239765 3818:0.29239765 3821:0.29239765 3822:0.29239765 3824:0.29239765 3825:0.29239765 3827:0.29239765 3831:0.29239765 3832:0.29239765 3846:0.29239765 3847:0.29239765 3848:0.5847953 3850:0.29239765 3851:0.29239765 3852:0.29239765 3854:0.29239765 3860:0.29239765 3864:0.5847953 3866:0.29239765 3871:0.5847953 3874:0.29239765 3876:0.29239765 3877:0.29239765 3878:0.29239765 3880:0.29239765 3881:0.29239765 3883:0.29239765 3888:0.5847953 3889:0.29239765 3893:0.29239765 3897:0.5847953 3898:0.29239765 3915:0.29239765 3918:0.29239765 3919:0.29239765 3921:0.05813954 3922:0.0058139502 3923:0.063953489 3924:0.098837212 3925:0.02325581 3926:0.046511631 3927:0.02906977 3928:0.05813954 3929:0.11046512 3930:0.11046512 3931:0 3932:0.046511631 3933:0.040697679 3934:0.02325581 3935:0.063953489 3936:0.075581387 3937:0.046511631 3938:0.063953489 3939:0 3940:0.034883719 3941:0.001884 3942:-6.0000002e-06 3943:7.0000001e-06 3944:-0 3945:0.319767 #
-16.747182567606262892923041363247 1:0.01387283 2:0.01560694 3:0.0046242801 4:0.021387281 6:0.00578035 7:0.00578035 8:0.01560694 9:0.00115607 10:0.0034682101 11:0.0046242801 12:0.00867052 14:0.0017341 15:0.01156069 16:0.036994219 17:0.00924855 20:0.00809249 22:0.019290119 23:0.03858025 28:0.019290119 32:0.019290119 34:0.03858025 46:0.019290119 50:0.019290119 51:0.03858025 56:0.019290119 58:0.019290119 59:0.019290119 63:0.019290119 68:0.019290119 70:0.019290119 73:0.019290119 74:0.019290119 75:0.019290119 76:0.019290119 90:0.019290119 96:0.019290119 97:0.019290119 100:0.019290119 101:0.019290119 103:0.03858025 106:0.03858025 109:0.019290119 110:0.03858025 113:0.019290119 120:0.019290119 123:0.03858025 124:0.019290119 126:0.03858025 136:0.019290119 142:0.019290119 143:0.03858025 145:0.019290119 146:0.019290119 148:0.019290119 149:0.019290119 150:0.019290119 165:0.019290119 167:0.019290119 170:0.057870369 178:0.03858025 179:0.019290119 181:0.03858025 182:0.03858025 183:0.096450619 184:0.057870369 186:0.03858025 193:0.019290119 194:0.019290119 195:0.019290119 197:0.019290119 200:0.019290119 202:0.019290119 206:0.019290119 217:0.019290119 222:0.019290119 249:0.019290119 277:0.019290119 300:0.019290119 306:0.019290119 316:0.019290119 324:0.019290119 338:0.019290119 339:0.019290119 342:0.019290119 350:0.03858025 351:0.057870369 355:0.03858025 361:0.057870369 362:0.13503087 364:0.019290119 365:0.019290119 366:0.019290119 368:0.03858025 369:0.019290119 370:0.019290119 373:0.019290119 394:0.019290119 397:0.019290119 400:0.03858025 406:0.019290119 411:0.019290119 412:0.019290119 413:0.03858025 414:0.019290119 415:0.019290119 420:0.019290119 430:0.019290119 431:0.03858025 439:0.019290119 445:0.019290119 450:0.019290119 453:0.019290119 461:0.03858025 466:0.019290119 467:0.019290119 469:0.019290119 470:0.019290119 471:0.03858025 476:0.03858025 477:0.019290119 479:0.019290119 483:0.019290119 485:0.019290119 493:0.019290119 514:0.019290119 517:0.03858025 518:0.057870369 519:0.019290119 522:0.019290119 526:0.019290119 529:0.019290119 532:0.019290119 534:0.019290119 542:0.019290119 543:0.019290119 544:0.019290119 545:0.019290119 547:0.019290119 548:0.019290119 549:0.03858025 552:0.019290119 565:0.019290119 570:0.019290119 572:0.019290119 577:0.03858025 578:0.019290119 587:0.019290119 589:0.019290119 590:0.019290119 595:0.019290119 596:0.03858025 599:0.019290119 605:0.03858025 607:0.03858025 615:0.019290119 616:0.03858025 618:0.019290119 632:0.019290119 634:0.019290119 638:0.019290119 648:0.019290119 652:0.019290119 665:0.019290119 678:0.019290119 681:0.019290119 688:0.019290119 704:0.019290119 705:0.019290119 708:0.019290119 710:0.03858025 715:0.019290119 730:0.019290119 735:0.019290119 743:0.03858025 752:0.019290119 772:0.019290119 773:0.03858025 783:0.019290119 788:0.019290119 809:0.019290119 814:0.019290119 834:0.019290119 847:0.019290119 849:0.019290119 851:0.019290119 862:0.019290119 868:0.019290119 886:0.019290119 891:0.019290119 893:0.03858025 894:0.019290119 909:0.019290119 910:0.019290119 912:0.019290119 915:0.019290119 922:0.019290119 924:0.019290119 926:0.019290119 927:0.03858025 928:0.019290119 947:0.019290119 951:0.019290119 954:0.019290119 965:0.019290119 966:0.03858025 970:0.03858025 971:0.03858025 972:0.019290119 975:0.019290119 979:0.019290119 987:0.019290119 997:0.019290119 998:0.03858025 1000:0.019290119 1001:0.019290119 1007:0.019290119 1012:0.019290119 1017:0.03858025 1018:0.019290119 1019:0.03858025 1022:0.03858025 1024:0.019290119 1025:0.03858025 1026:0.019290119 1028:0.077160493 1039:0.019290119 1054:0.019290119 1057:0.019290119 1061:0.019290119 1117:0.019290119 1148:0.019290119 1150:0.019290119 1176:0.019290119 1184:0.019290119 1196:0.019290119 1209:0.019290119 1215:0.019290119 1216:0.019290119 1227:0.019290119 1228:0.019290119 1241:0.019290119 1242:0.019290119 1257:0.019290119 1258:0.019290119 1269:0.019290119 1279:0.019290119 1287:0.019290119 1293:0.019290119 1295:0.019290119 1299:0.019290119 1300:0.019290119 1307:0.019290119 1322:0.019290119 1326:0.019290119 1328:0.019290119 1330:0.019290119 1332:0.03858025 1333:0.019290119 1341:0.019290119 1345:0.019290119 1357:0.019290119 1358:0.019290119 1359:0.019290119 1369:0.019290119 1394:0.019290119 1398:0.03858025 1409:0.03858025 1418:0.019290119 1419:0.03858025 1422:0.03858025 1423:0.019290119 1425:0.019290119 1431:0.019290119 1434:0.019290119 1440:0.019290119 1441:0.019290119 1443:0.019290119 1454:0.019290119 1456:0.019290119 1458:0.019290119 1459:0.019290119 1464:0.019290119 1471:0.019290119 1473:0.019290119 1483:0.019290119 1487:0.019290119 1489:0.019290119 1497:0.03858025 1502:0.03858025 1503:0.019290119 1514:0.019290119 1516:0.019290119 1518:0.019290119 1533:0.019290119 1536:0.019290119 1543:0.03858025 1550:0.019290119 1551:0.019290119 1554:0.019290119 1559:0.019290119 1565:0.019290119 1567:0.019290119 1568:0.019290119 1571:0.019290119 1573:0.019290119 1575:0.019290119 1582:0.019290119 1590:0.019290119 1592:0.03858025 1595:0.019290119 1612:0.019290119 1619:0.019290119 1625:0.019290119 1626:0.019290119 1630:0.019290119 1631:0.019290119 1632:0.019290119 1633:0.03858025 1634:0.019290119 1646:0.057870369 1653:0.019290119 1654:0.019290119 1659:0.03858025 1663:0.019290119 1664:0.019290119 1665:0.019290119 1670:0.03858025 1671:0.019290119 1672:0.019290119 1681:0.077160493 1689:0.019290119 1699:0.019290119 1702:0.019290119 1719:0.03858025 1720:0.019290119 1724:0.019290119 1727:0.019290119 1728:0.019290119 1733:0.019290119 1734:0.019290119 1736:0.019290119 1754:0.019290119 1757:0.03858025 1758:0.019290119 1761:0.03858025 1767:0.019290119 1768:0.019290119 1773:0.019290119 1775:0.03858025 1778:0.019290119 1779:0.019290119 1781:0.019290119 1788:0.019290119 1789:0.019290119 1791:0.03858025 1794:0.019290119 1795:0.019290119 1797:0.057870369 1798:0.03858025 1799:0.019290119 1801:0.019290119 1803:0.019290119 1806:0.019290119 1808:0.019290119 1809:0.03858025 1811:0.019290119 1815:0.019290119 1816:0.019290119 1820:0.03858025 1821:0.019290119 1824:0.03858025 1848:0.019290119 1856:0.019290119 1872:0.019290119 1896:0.019290119 1914:0.019290119 1922:0.019290119 1932:0.019290119 1943:0.019290119 1953:0.019290119 1955:0.019290119 1961:0.019290119 1963:0.019290119 1986:0.019290119 2008:0.019290119 2017:0.019290119 2020:0.019290119 2031:0.019290119 2064:0.019290119 2073:0.019290119 2078:0.019290119 2084:0.019290119 2099:0.019290119 2100:0.019290119 2103:0.019290119 2109:0.019290119 2117:0.019290119 2120:0.019290119 2122:0.03858025 2140:0.03858025 2153:0.019290119 2154:0.019290119 2155:0.019290119 2156:0.03858025 2160:0.019290119 2162:0.019290119 2164:0.019290119 2166:0.03858025 2183:0.019290119 2197:0.03858025 2207:0.019290119 2209:0.019290119 2214:0.019290119 2217:0.019290119 2233:0.019290119 2234:0.019290119 2240:0.019290119 2252:0.019290119 2259:0.019290119 2262:0.019290119 2265:0.019290119 2268:0.019290119 2271:0.019290119 2273:0.019290119 2278:0.019290119 2286:0.019290119 2289:0.019290119 2291:0.019290119 2293:0.019290119 2301:0.019290119 2314:0.077160493 2315:0.019290119 2321:0.019290119 2322:0.03858025 2327:0.019290119 2328:0.019290119 2329:0.019290119 2330:0.019290119 2347:0.019290119 2351:0.019290119 2359:0.019290119 2363:0.03858025 2367:0.019290119 2369:0.019290119 2370:0.019290119 2382:0.019290119 2389:0.019290119 2392:0.03858025 2395:0.019290119 2396:0.019290119 2410:0.019290119 2444:0.03858025 2446:0.019290119 2448:0.019290119 2457:0.019290119 2463:0.019290119 2470:0.019290119 2476:0.019290119 2491:0.019290119 2492:0.03858025 2495:0.019290119 2501:0.019290119 2505:0.03858025 2516:0.03858025 2536:0.019290119 2537:0.03858025 2557:0.019290119 2565:0.019290119 2574:0.019290119 2582:0.019290119 2585:0.057870369 2587:0.019290119 2596:0.019290119 2608:0.019290119 2618:0.019290119 2619:0.019290119 2623:0.019290119 2624:0.019290119 2641:0.019290119 2645:0.019290119 2647:0.019290119 2648:0.019290119 2654:0.019290119 2655:0.03858025 2656:0.019290119 2657:0.019290119 2658:0.019290119 2663:0.019290119 2673:0.019290119 2685:0.019290119 2699:0.03858025 2700:0.03858025 2704:0.03858025 2707:0.057870369 2708:0.03858025 2712:0.019290119 2718:0.019290119 2720:0.019290119 2722:0.019290119 2729:0.019290119 2730:0.019290119 2739:0.019290119 2741:0.019290119 2744:0.019290119 2749:0.03858025 2752:0.03858025 2756:0.019290119 2763:0.03858025 2765:0.019290119 2770:0.019290119 2771:0.019290119 2778:0.019290119 2779:0.019290119 2780:0.019290119 2782:0.019290119 2785:0.057870369 2792:0.077160493 2798:0.096450619 2799:0.03858025 2801:0.03858025 2803:0.077160493 2804:0.019290119 2806:0.019290119 2811:0.019290119 2812:0.019290119 2826:0.03858025 2829:0.03858025 2831:0.019290119 2834:0.019290119 2835:0.019290119 2837:0.019290119 2838:0.019290119 2855:0.019290119 2859:0.019290119 2869:0.077160493 2873:0.03858025 2874:0.057870369 2877:0.057870369 2883:0.11574074 2884:0.03858025 2885:0.019290119 2888:0.019290119 2889:0.019290119 2896:0.03858025 2899:0.019290119 2900:0.019290119 2902:0.019290119 2906:0.019290119 2907:0.03858025 2908:0.019290119 2909:0.019290119 2910:0.019290119 2915:0.019290119 2917:0.019290119 2918:0.057870369 2924:0.019290119 2931:0.019290119 2935:0.019290119 2936:0.03858025 2938:0.019290119 2939:0.019290119 2942:0.019290119 2956:0.019290119 2957:0.019290119 2958:0.057870369 2959:0.019290119 2961:0.019290119 2965:0.096450619 2966:0.077160493 2967:0.019290119 2968:0.019290119 2969:0.019290119 2970:0.03858025 2971:0.03858025 2972:0.11574074 2973:0.057870369 2974:0.019290119 2977:0.057870369 2978:0.03858025 2981:0.019290119 2982:0.019290119 2984:0.019290119 2986:0.03858025 2988:0.019290119 2989:0.03858025 2990:0.019290119 2991:0.019290119 2993:0.019290119 2994:0.019290119 2995:0.019290119 3006:0.019290119 3007:0.019290119 3008:0.019290119 3011:0.077160493 3017:0.019290119 3027:0.019290119 3029:0.019290119 3030:0.019290119 3031:0.019290119 3040:0.019290119 3045:0.019290119 3046:0.019290119 3050:0.019290119 3063:0.019290119 3069:0.019290119 3072:0.019290119 3076:0.019290119 3078:0.019290119 3091:0.019290119 3092:0.019290119 3094:0.019290119 3098:0.019290119 3099:0.019290119 3103:0.019290119 3111:0.019290119 3118:0.019290119 3120:0.077160493 3121:0.077160493 3123:0.019290119 3124:0.019290119 3132:0.019290119 3133:0.077160493 3134:0.03858025 3142:0.019290119 3143:0.03858025 3157:0.03858025 3159:0.019290119 3164:0.019290119 3165:0.019290119 3167:0.019290119 3169:0.019290119 3178:0.019290119 3184:0.019290119 3185:0.03858025 3191:0.019290119 3192:0.019290119 3194:0.019290119 3208:0.019290119 3213:0.019290119 3214:0.019290119 3215:0.019290119 3232:0.019290119 3234:0.019290119 3242:0.019290119 3243:0.019290119 3244:0.019290119 3247:0.03858025 3252:0.019290119 3253:0.03858025 3254:0.03858025 3255:0.019290119 3258:0.019290119 3262:0.019290119 3270:0.019290119 3275:0.019290119 3276:0.03858025 3279:0.03858025 3285:0.019290119 3287:0.019290119 3288:0.019290119 3296:0.019290119 3303:0.03858025 3305:0.019290119 3306:0.019290119 3307:0.019290119 3309:0.03858025 3311:0.019290119 3312:0.03858025 3313:0.019290119 3315:0.019290119 3317:0.019290119 3321:0.019290119 3323:0.019290119 3325:0.019290119 3326:0.03858025 3344:0.019290119 3371:0.019290119 3442:0.019290119 3443:0.019290119 3458:0.019290119 3484:0.019290119 3488:0.019290119 3498:0.019290119 3530:0.019290119 3544:0.019290119 3551:0.019290119 3562:0.019290119 3585:0.019290119 3592:0.019290119 3606:0.019290119 3613:0.019290119 3634:0.019290119 3639:0.019290119 3643:0.03858025 3653:0.019290119 3674:0.3470214 3675:0.20242915 3676:0.057836901 3677:0.028918451 3678:0.1156738 3679:0.31810296 3680:0.28918451 3681:0.028918451 3682:0.028918451 3683:0.31810296 3684:0.20242915 3685:0.26026604 3686:0.057836901 3687:0.1735107 3688:0.028918451 3689:0.028918451 3690:0.028918451 3692:0.31810296 3693:0.31810296 3694:0.08675535 3696:0.1735107 3697:0.28918451 3698:0.14459226 3699:0.14459226 3700:0.66512436 3701:0.20242915 3702:0.20242915 3703:0.057836901 3704:0.46269521 3705:0.14459226 3706:0.28918451 3707:0.057836901 3708:0.20242915 3709:0.08675535 3710:0.26026604 3711:0.1156738 3713:0.1156738 3714:0.057836901 3715:0.1735107 3716:0.028918451 3717:0.057836901 3718:0.1735107 3719:0.1156738 3720:0.028918451 3721:0.028918451 3722:0.057836901 3723:0.057836901 3724:0.028918451 3725:0.028918451 3726:0.1735107 3727:0.08675535 3729:0.28918451 3730:0.057836901 3731:0.057836901 3732:0.14459226 3733:0.1156738 3734:0.31810296 3735:0.1156738 3736:0.1156738 3737:0.28918451 3738:0.08675535 3739:0.08675535 3740:0.057836901 3742:0.08675535 3744:0.028918451 3745:0.08675535 3747:0.028918451 3748:0.057836901 3749:0.028918451 3750:0.028918451 3752:0.057836901 3754:0.057836901 3755:0.14459226 3756:0.14459226 3757:0.08675535 3758:0.08675535 3759:0.20242915 3760:0.057836901 3761:0.028918451 3762:0.057836901 3763:0.1156738 3764:0.14459226 3765:0.028918451 3766:0.20242915 3767:0.14459226 3768:0.1156738 3769:0.057836901 3770:0.057836901 3771:0.1156738 3772:0.23134761 3773:0.08675535 3774:0.028918451 3775:0.1735107 3776:0.1735107 3777:0.1156738 3778:0.23134761 3779:0.31810296 3780:0.26026604 3781:0.23134761 3782:0.20242915 3783:0.1735107 3784:0.1156738 3785:0.1156738 3786:0.1735107 3787:0.1156738 3788:0.028918451 3789:0.20242915 3790:0.20242915 3791:0.40485829 3792:0.23134761 3794:0.057836901 3796:0.028918451 3798:0.028918451 3799:0.028918451 3800:0.057836901 3801:0.08675535 3802:0.1156738 3804:0.028918451 3805:0.057836901 3806:0.1156738 3807:0.057836901 3809:0.028918451 3810:0.1156738 3811:0.14459226 3812:0.20242915 3814:0.1735107 3815:0.23134761 3817:0.20242915 3818:0.28918451 3819:0.08675535 3820:0.028918451 3822:0.26026604 3823:0.26026604 3824:0.028918451 3825:0.28918451 3826:0.1735107 3827:0.40485829 3828:0.26026604 3830:0.1735107 3831:0.08675535 3832:0.057836901 3834:0.057836901 3835:0.1735107 3836:0.14459226 3837:0.057836901 3838:0.1156738 3839:0.1156738 3840:0.028918451 3841:0.028918451 3842:0.028918451 3843:0.028918451 3844:0.20242915 3845:0.028918451 3846:0.14459226 3847:0.028918451 3848:0.31810296 3849:0.057836901 3850:0.057836901 3851:0.28918451 3852:0.1735107 3853:0.057836901 3854:0.1735107 3855:0.23134761 3856:0.20242915 3857:0.46269521 3858:0.31810296 3859:0.028918451 3860:0.28918451 3862:0.057836901 3863:0.49161366 3864:0.26026604 3865:0.23134761 3866:0.20242915 3867:0.3470214 3868:0.20242915 3869:0.40485829 3870:1.0410641 3871:0.46269521 3872:0.28918451 3874:0.08675535 3875:0.40485829 3877:0.1735107 3878:0.08675535 3879:0.028918451 3880:0.14459226 3881:0.14459226 3882:0.08675535 3883:0.52053207 3884:0.26026604 3885:0.1156738 3886:0.057836901 3887:0.057836901 3888:0.14459226 3889:0.1735107 3890:0.20242915 3892:0.057836901 3893:0.1156738 3894:0.28918451 3895:0.08675535 3896:0.1156738 3897:0.14459226 3898:0.23134761 3899:0.3470214 3900:0.057836901 3901:0.028918451 3905:0.028918451 3906:0.08675535 3909:0.057836901 3910:0.08675535 3914:0.1156738 3915:0.028918451 3916:0.057836901 3917:0.028918451 3918:0.057836901 3919:0.1156738 3921:0.083236992 3922:0.00924855 3923:0.085549131 3924:0.053757221 3925:0.02947977 3926:0.07052023 3927:0.016763009 3928:0.03757225 3929:0.050867051 3930:0.068208091 3931:0.018497109 3932:0.04450867 3933:0.065895952 3934:0.035838149 3935:0.066473991 3936:0.11791907 3937:0.057225429 3938:0.055491328 3939:0.00924855 3940:0.02369942 3941:0.22101 3942:-0.0015059999 3943:0.095411003 3944:-0.0038940001 3945:0.301734 #
-12.788864453997799586204564548098 1:0.0067911702 2:0.00339559 4:0.00339559 8:0.00339559 10:0.0067911702 11:0.01697793 12:0.00339559 14:0.00339559 15:0.0067911702 16:0.025466889 17:0.0067911702 20:0.0067911702 22:0.056785919 49:0.056785919 54:0.056785919 57:0.056785919 68:0.056785919 81:0.056785919 90:0.056785919 99:0.056785919 116:0.11357184 120:0.056785919 121:0.056785919 123:0.056785919 179:0.056785919 187:0.056785919 198:0.056785919 201:0.056785919 231:0.056785919 308:0.056785919 309:0.056785919 316:0.056785919 347:0.056785919 354:0.056785919 361:0.056785919 386:0.056785919 394:0.056785919 404:0.056785919 406:0.056785919 414:0.056785919 416:0.056785919 427:0.056785919 439:0.056785919 460:0.056785919 461:0.056785919 473:0.056785919 483:0.056785919 542:0.056785919 552:0.056785919 553:0.056785919 557:0.056785919 562:0.056785919 567:0.056785919 581:0.11357184 585:0.056785919 588:0.056785919 590:0.056785919 595:0.056785919 618:0.056785919 620:0.056785919 636:0.056785919 644:0.056785919 654:0.056785919 665:0.056785919 681:0.056785919 718:0.056785919 735:0.056785919 750:0.056785919 764:0.056785919 773:0.056785919 774:0.056785919 785:0.056785919 789:0.056785919 821:0.11357184 847:0.056785919 851:0.056785919 858:0.056785919 883:0.056785919 885:0.056785919 892:0.056785919 908:0.056785919 949:0.056785919 950:0.056785919 966:0.056785919 967:0.056785919 968:0.056785919 969:0.056785919 976:0.056785919 996:0.056785919 1016:0.056785919 1025:0.056785919 1028:0.056785919 1038:0.056785919 1068:0.056785919 1087:0.056785919 1103:0.056785919 1107:0.056785919 1153:0.056785919 1184:0.056785919 1190:0.056785919 1241:0.056785919 1250:0.056785919 1252:0.056785919 1254:0.056785919 1258:0.056785919 1266:0.056785919 1271:0.056785919 1287:0.056785919 1290:0.056785919 1291:0.11357184 1293:0.056785919 1297:0.056785919 1299:0.056785919 1300:0.056785919 1352:0.056785919 1355:0.056785919 1359:0.056785919 1370:0.056785919 1386:0.056785919 1388:0.056785919 1400:0.056785919 1416:0.056785919 1418:0.056785919 1423:0.11357184 1434:0.056785919 1445:0.056785919 1453:0.11357184 1454:0.056785919 1464:0.056785919 1486:0.056785919 1495:0.056785919 1513:0.056785919 1527:0.056785919 1533:0.056785919 1534:0.056785919 1539:0.056785919 1573:0.056785919 1576:0.056785919 1598:0.056785919 1600:0.056785919 1616:0.056785919 1625:0.11357184 1627:0.056785919 1652:0.056785919 1654:0.056785919 1656:0.056785919 1659:0.056785919 1661:0.056785919 1662:0.056785919 1665:0.056785919 1666:0.056785919 1670:0.056785919 1676:0.056785919 1684:0.056785919 1712:0.056785919 1714:0.056785919 1717:0.056785919 1718:0.056785919 1722:0.056785919 1723:0.056785919 1737:0.056785919 1739:0.056785919 1747:0.056785919 1755:0.056785919 1756:0.056785919 1768:0.056785919 1769:0.056785919 1784:0.056785919 1788:0.056785919 1804:0.11357184 1813:0.056785919 1820:0.056785919 1829:0.056785919 1839:0.056785919 1844:0.056785919 1888:0.056785919 1904:0.056785919 1908:0.056785919 1948:0.056785919 1957:0.056785919 1958:0.056785919 2086:0.056785919 2090:0.056785919 2109:0.056785919 2123:0.056785919 2124:0.056785919 2163:0.056785919 2196:0.056785919 2203:0.056785919 2250:0.056785919 2251:0.056785919 2253:0.056785919 2271:0.056785919 2273:0.056785919 2327:0.056785919 2351:0.056785919 2353:0.056785919 2362:0.11357184 2375:0.056785919 2454:0.056785919 2525:0.056785919 2537:0.056785919 2542:0.056785919 2557:0.056785919 2580:0.056785919 2611:0.056785919 2614:0.056785919 2652:0.056785919 2662:0.056785919 2717:0.056785919 2743:0.056785919 2759:0.056785919 2770:0.056785919 2777:0.056785919 2801:0.056785919 2811:0.056785919 2814:0.056785919 2824:0.056785919 2870:0.056785919 2872:0.056785919 2874:0.056785919 2888:0.056785919 2892:0.056785919 2908:0.056785919 2924:0.056785919 2929:0.056785919 2936:0.056785919 2943:0.056785919 2956:0.056785919 2958:0.056785919 2959:0.056785919 2967:0.056785919 2968:0.056785919 2969:0.056785919 2971:0.056785919 2972:0.17035775 2989:0.056785919 2997:0.056785919 3003:0.056785919 3011:0.056785919 3013:0.056785919 3015:0.056785919 3030:0.11357184 3077:0.056785919 3086:0.056785919 3100:0.056785919 3121:0.056785919 3125:0.056785919 3136:0.056785919 3146:0.056785919 3155:0.056785919 3159:0.056785919 3166:0.056785919 3196:0.056785919 3204:0.056785919 3234:0.056785919 3251:0.056785919 3279:0.056785919 3280:0.056785919 3294:0.056785919 3315:0.056785919 3316:0.056785919 3339:0.056785919 3370:0.056785919 3394:0.056785919 3430:0.056785919 3544:0.056785919 3550:0.056785919 3563:0.056785919 3584:0.056785919 3593:0.11357184 3615:0.056785919 3628:0.056785919 3632:0.056785919 3674:0.17006803 3675:0.34013605 3676:0.17006803 3677:0.25510204 3678:0.34013605 3679:0.085034013 3680:0.42517006 3681:0.085034013 3682:0.17006803 3683:0.085034013 3684:0.17006803 3685:0.34013605 3687:0.085034013 3691:0.085034013 3692:0.17006803 3694:0.25510204 3695:0.17006803 3696:0.34013605 3697:0.25510204 3699:0.17006803 3700:0.17006803 3701:0.34013605 3702:0.34013605 3703:0.17006803 3704:0.085034013 3706:0.25510204 3707:0.17006803 3708:0.17006803 3709:0.51020408 3710:0.34013605 3712:0.25510204 3713:0.17006803 3714:0.17006803 3715:0.34013605 3716:0.085034013 3717:0.085034013 3718:0.25510204 3719:0.17006803 3720:0.17006803 3721:0.085034013 3722:0.25510204 3723:0.085034013 3724:0.085034013 3726:0.34013605 3727:0.25510204 3728:0.085034013 3729:0.085034013 3730:0.085034013 3733:0.34013605 3734:0.42517006 3735:0.085034013 3737:0.085034013 3739:0.17006803 3740:0.17006803 3741:0.17006803 3742:0.085034013 3745:0.085034013 3747:0.17006803 3748:0.085034013 3752:0.51020408 3753:0.085034013 3755:0.42517006 3756:0.34013605 3757:0.17006803 3759:0.085034013 3761:0.085034013 3762:0.085034013 3763:0.25510204 3765:0.085034013 3766:0.34013605 3767:0.085034013 3768:0.51020408 3769:0.34013605 3770:0.085034013 3771:0.17006803 3772:0.085034013 3773:0.085034013 3774:0.17006803 3775:0.17006803 3778:0.25510204 3779:0.42517006 3780:0.25510204 3781:0.59523809 3782:0.34013605 3783:0.085034013 3785:0.42517006 3786:0.34013605 3787:0.42517006 3788:0.085034013 3789:0.34013605 3790:0.085034013 3791:0.085034013 3792:0.25510204 3793:0.17006803 3795:0.085034013 3796:0.085034013 3797:0.085034013 3801:0.085034013 3802:0.17006803 3807:0.085034013 3810:0.085034013 3812:0.25510204 3815:0.17006803 3816:0.085034013 3818:0.085034013 3819:0.085034013 3821:0.085034013 3822:0.085034013 3823:0.42517006 3824:0.085034013 3825:0.17006803 3826:0.17006803 3827:0.17006803 3828:0.17006803 3830:0.17006803 3831:0.085034013 3835:0.17006803 3836:0.17006803 3838:0.17006803 3840:0.085034013 3841:0.085034013 3842:0.085034013 3844:0.085034013 3846:0.25510204 3847:0.085034013 3848:0.17006803 3849:0.085034013 3852:0.085034013 3853:0.085034013 3854:0.17006803 3855:0.085034013 3856:0.17006803 3857:0.085034013 3858:0.17006803 3859:0.085034013 3860:0.17006803 3864:0.34013605 3865:0.25510204 3866:0.25510204 3867:0.25510204 3869:0.34013605 3870:0.76530612 3871:0.085034013 3872:0.085034013 3873:0.17006803 3874:0.085034013 3875:0.34013605 3878:0.25510204 3879:0.085034013 3881:0.085034013 3882:0.085034013 3883:0.17006803 3884:0.17006803 3885:0.085034013 3886:0.085034013 3887:0.085034013 3888:0.17006803 3889:0.25510204 3890:0.085034013 3892:0.25510204 3893:0.25510204 3894:0.25510204 3897:0.17006803 3899:0.25510204 3901:0.17006803 3903:0.085034013 3904:0.085034013 3905:0.085034013 3906:0.17006803 3909:0.085034013 3910:0.085034013 3911:0.085034013 3915:0.085034013 3916:0.25510204 3917:0.085034013 3918:0.17006803 3921:0.074702889 3922:0.0084889596 3923:0.062818334 3924:0.066213921 3925:0.062818334 3926:0.05602717 3927:0.023769099 3928:0.064516127 3929:0.064516127 3930:0.093378611 3931:0.01697793 3932:0.040747032 3933:0.064516127 3934:0.025466889 3935:0.035653651 3936:0.086587436 3937:0.044142619 3938:0.054329369 3939:0.01867572 3940:0.035653651 3941:0.029996 3942:-6.2999999e-05 3943:0.001549 3944:-1.4e-05 3945:0.37521201 #
19.216564286246924808665426098742 1:0.00280112 3:0.01260504 4:0.0140056 5:0.00280112 6:0.00280112 7:0.00280112 10:0.01120448 11:0.01540616 14:0.0070027998 16:0.092436977 17:0.030812319 19:0.01120448 55:0.046816479 74:0.046816479 186:0.046816479 192:0.093632959 193:0.046816479 324:0.046816479 326:0.046816479 346:0.046816479 356:0.046816479 377:0.046816479 417:0.046816479 421:0.046816479 437:0.046816479 463:0.046816479 468:0.046816479 470:0.046816479 503:0.046816479 526:0.046816479 589:0.046816479 665:0.18726592 669:0.046816479 670:0.046816479 672:0.046816479 698:0.046816479 718:0.046816479 729:0.046816479 795:0.046816479 812:0.046816479 831:0.046816479 852:0.046816479 860:0.046816479 862:0.046816479 902:0.046816479 972:0.046816479 992:0.046816479 1028:0.093632959 1033:0.046816479 1035:0.046816479 1039:0.046816479 1056:0.046816479 1058:0.046816479 1388:0.14044943 1391:0.14044943 1392:0.093632959 1509:0.046816479 1515:0.046816479 1539:0.046816479 1581:0.046816479 1624:0.093632959 1628:0.093632959 1647:0.046816479 1683:0.046816479 1692:0.046816479 1716:0.046816479 1729:0.046816479 1760:0.046816479 1783:0.046816479 1794:0.046816479 1826:0.046816479 2031:0.046816479 2123:0.046816479 2162:0.046816479 2163:0.046816479 2170:0.14044943 2171:0.046816479 2175:0.046816479 2217:0.046816479 2269:0.046816479 2313:0.046816479 2314:0.14044943 2322:0.093632959 2521:0.046816479 2537:0.046816479 2549:0.046816479 2612:0.046816479 2702:0.046816479 2716:0.046816479 2808:0.046816479 2810:0.046816479 2883:0.093632959 2888:0.046816479 2892:0.046816479 2896:0.046816479 2897:0.093632959 2901:0.093632959 2909:0.046816479 2910:0.093632959 2916:0.046816479 2919:0.046816479 2923:0.046816479 2924:0.046816479 2945:0.046816479 2965:0.046816479 2966:0.093632959 2967:0.14044943 2968:0.18726592 2969:0.093632959 2971:0.046816479 2972:0.4681648 2973:0.046816479 2974:0.2340824 2976:0.046816479 2978:0.046816479 2980:0.046816479 2981:0.046816479 2982:0.093632959 2984:0.093632959 2985:0.093632959 2988:0.046816479 2990:0.046816479 2993:0.093632959 2995:0.046816479 3006:0.093632959 3007:0.093632959 3030:0.093632959 3031:0.093632959 3040:0.046816479 3048:0.046816479 3049:0.046816479 3051:0.093632959 3061:0.046816479 3066:0.046816479 3067:0.046816479 3073:0.046816479 3075:0.046816479 3077:0.046816479 3087:0.046816479 3092:0.18726592 3117:0.046816479 3118:0.046816479 3120:0.18726592 3121:0.093632959 3122:0.046816479 3125:0.093632959 3127:0.046816479 3129:0.046816479 3130:0.046816479 3133:0.093632959 3134:0.093632959 3135:0.093632959 3141:0.093632959 3157:0.046816479 3272:0.046816479 3279:0.093632959 3310:0.046816479 3318:0.046816479 3534:0.046816479 3544:0.046816479 3571:0.046816479 3616:0.046816479 3619:0.046816479 3643:0.093632959 3650:0.046816479 3670:0.046816479 3674:0.070126228 3675:0.070126228 3676:0.21037868 3679:0.21037868 3684:0.35063115 3685:0.070126228 3687:0.14025246 3690:0.28050491 3691:0.14025246 3692:0.21037868 3694:0.14025246 3695:0.14025246 3696:0.14025246 3697:0.28050491 3699:0.070126228 3700:0.42075735 3701:0.14025246 3702:0.070126228 3703:0.14025246 3705:0.070126228 3707:0.070126228 3710:0.21037868 3712:0.070126228 3715:0.42075735 3716:0.35063115 3719:0.28050491 3721:0.070126228 3722:0.070126228 3723:0.14025246 3724:0.14025246 3726:0.28050491 3727:0.35063115 3729:0.14025246 3730:0.14025246 3732:0.14025246 3734:0.21037868 3735:0.070126228 3738:0.14025246 3739:0.21037868 3740:0.070126228 3743:0.070126228 3745:0.21037868 3748:0.070126228 3749:0.070126228 3750:0.21037868 3754:0.14025246 3755:0.070126228 3756:0.14025246 3757:0.28050491 3759:0.14025246 3760:0.070126228 3761:0.14025246 3762:0.14025246 3763:0.42075735 3764:0.42075735 3765:0.070126228 3766:0.070126228 3768:0.14025246 3769:0.070126228 3771:0.070126228 3773:0.14025246 3775:0.28050491 3777:0.070126228 3778:0.14025246 3779:0.28050491 3780:0.28050491 3781:0.070126228 3782:0.28050491 3783:0.21037868 3785:0.21037868 3786:0.070126228 3787:0.42075735 3789:0.14025246 3790:0.14025246 3791:0.14025246 3792:0.21037868 3793:0.28050491 3796:0.070126228 3797:0.070126228 3798:0.070126228 3802:0.070126228 3806:0.21037868 3807:0.070126228 3810:0.070126228 3811:0.14025246 3812:0.28050491 3814:0.35063115 3815:0.14025246 3817:0.070126228 3818:0.56100982 3819:0.21037868 3821:0.28050491 3822:0.070126228 3823:0.28050491 3824:0.21037868 3826:0.070126228 3827:0.42075735 3828:0.28050491 3830:0.070126228 3832:0.070126228 3834:0.21037868 3835:0.070126228 3836:0.070126228 3837:0.070126228 3840:0.35063115 3841:0.070126228 3843:0.070126228 3846:0.070126228 3850:0.070126228 3851:0.070126228 3852:0.070126228 3853:0.070126228 3858:0.35063115 3859:0.14025246 3861:0.070126228 3863:0.42075735 3864:0.49088359 3865:0.42075735 3866:0.49088359 3867:0.21037868 3868:0.21037868 3869:0.42075735 3870:2.6647966 3871:0.98176718 3872:0.63113606 3874:0.49088359 3875:0.070126228 3877:0.14025246 3878:0.42075735 3879:0.14025246 3880:0.49088359 3881:0.28050491 3882:0.63113606 3883:0.91164094 3884:0.84151471 3885:0.28050491 3887:0.14025246 3890:0.070126228 3891:0.070126228 3892:0.14025246 3893:0.070126228 3894:0.070126228 3895:0.070126228 3896:0.21037868 3898:0.35063115 3899:0.28050491 3900:0.070126228 3901:0.14025246 3904:0.070126228 3906:0.070126228 3911:0.14025246 3914:0.14025246 3916:0.14025246 3917:0.070126228 3919:0.21037868 3921:0.036414571 3922:0.01820728 3923:0.056022409 3924:0.032212891 3925:0.047619049 3926:0.044817928 3927:0.0140056 3928:0.051820729 3929:0.042016812 3930:0.072829127 3931:0.01540616 3932:0.056022409 3933:0.047619049 3934:0.026610641 3935:0.0210084 3936:0.19187675 3937:0.12184874 3938:0.044817928 3939:0.0070027998 3940:0.051820729 3941:0.049371 3942:0.001571 3943:0.0040970002 3944:0.000235 3945:0.28711501 #
18.317782729768296690053830388933 1:0.00193424 2:0.00193424 3:0.01740812 4:0.00386847 5:0.00193424 7:0.00386847 8:0.00386847 10:0.01740812 11:0.01450677 12:0.0058027101 13:0.00193424 14:0.00193424 16:0.08510638 17:0.033849131 19:0.00386847 68:0.032299738 77:0.032299738 95:0.032299738 125:0.032299738 142:0.032299738 173:0.032299738 184:0.096899226 185:0.064599477 186:0.032299738 198:0.064599477 281:0.032299738 324:0.032299738 326:0.032299738 346:0.032299738 356:0.032299738 370:0.032299738 381:0.032299738 406:0.032299738 417:0.032299738 473:0.032299738 475:0.032299738 483:0.032299738 529:0.032299738 535:0.032299738 544:0.032299738 572:0.032299738 603:0.032299738 618:0.032299738 625:0.032299738 651:0.032299738 663:0.032299738 665:0.064599477 670:0.032299738 672:0.12919897 698:0.032299738 699:0.032299738 729:0.032299738 789:0.032299738 812:0.032299738 839:0.032299738 851:0.12919897 852:0.064599477 858:0.032299738 860:0.032299738 890:0.032299738 902:0.032299738 930:0.032299738 936:0.032299738 941:0.032299738 992:0.032299738 1035:0.064599477 1039:0.032299738 1045:0.032299738 1056:0.032299738 1058:0.032299738 1216:0.032299738 1219:0.064599477 1275:0.032299738 1298:0.032299738 1310:0.032299738 1321:0.032299738 1330:0.032299738 1357:0.064599477 1376:0.032299738 1385:0.032299738 1388:0.19379845 1389:0.12919897 1392:0.064599477 1393:0.064599477 1431:0.032299738 1432:0.032299738 1450:0.032299738 1467:0.032299738 1486:0.032299738 1498:0.032299738 1514:0.032299738 1539:0.032299738 1571:0.032299738 1575:0.032299738 1576:0.032299738 1581:0.064599477 1582:0.032299738 1598:0.032299738 1628:0.032299738 1646:0.032299738 1661:0.064599477 1676:0.032299738 1681:0.032299738 1682:0.032299738 1683:0.032299738 1712:0.032299738 1714:0.032299738 1716:0.032299738 1722:0.032299738 1725:0.032299738 1729:0.032299738 1742:0.064599477 1757:0.032299738 1760:0.032299738 1762:0.032299738 1790:0.032299738 1807:0.032299738 1815:0.096899226 1816:0.032299738 1826:0.032299738 2123:0.032299738 2143:0.032299738 2165:0.064599477 2168:0.032299738 2170:0.032299738 2172:0.032299738 2176:0.096899226 2226:0.032299738 2296:0.032299738 2313:0.032299738 2314:0.096899226 2319:0.032299738 2322:0.032299738 2415:0.032299738 2458:0.032299738 2461:0.032299738 2513:0.032299738 2537:0.032299738 2569:0.032299738 2638:0.032299738 2699:0.032299738 2706:0.032299738 2707:0.032299738 2716:0.032299738 2727:0.032299738 2748:0.032299738 2758:0.032299738 2881:0.032299738 2885:0.032299738 2891:0.032299738 2897:0.032299738 2908:0.064599477 2909:0.19379845 2910:0.064599477 2913:0.032299738 2914:0.032299738 2918:0.032299738 2920:0.032299738 2924:0.032299738 2936:0.032299738 2938:0.22609819 2939:0.064599477 2945:0.032299738 2947:0.032299738 2951:0.064599477 2957:0.032299738 2962:0.032299738 2965:0.19379845 2966:0.064599477 2967:0.064599477 2968:0.032299738 2969:0.096899226 2970:0.032299738 2971:0.16149871 2972:0.25839794 2973:0.32299742 2974:0.064599477 2976:0.096899226 2977:0.064599477 2978:0.032299738 2979:0.16149871 2980:0.032299738 2981:0.032299738 2982:0.032299738 2983:0.064599477 2984:0.35529715 2985:0.064599477 2986:0.032299738 2990:0.032299738 2991:0.032299738 2996:0.064599477 3005:0.032299738 3006:0.064599477 3007:0.032299738 3008:0.064599477 3016:0.064599477 3017:0.032299738 3030:0.12919897 3031:0.064599477 3040:0.032299738 3048:0.032299738 3051:0.032299738 3059:0.064599477 3061:0.032299738 3063:0.032299738 3066:0.032299738 3067:0.064599477 3070:0.032299738 3073:0.032299738 3075:0.12919897 3077:0.032299738 3078:0.064599477 3087:0.032299738 3089:0.032299738 3093:0.032299738 3094:0.032299738 3103:0.032299738 3117:0.032299738 3118:0.12919897 3120:0.35529715 3121:0.19379845 3122:0.032299738 3123:0.032299738 3126:0.032299738 3128:0.12919897 3129:0.032299738 3130:0.064599477 3133:0.12919897 3134:0.16149871 3135:0.032299738 3139:0.032299738 3141:0.032299738 3195:0.032299738 3244:0.032299738 3252:0.032299738 3253:0.032299738 3310:0.032299738 3315:0.032299738 3318:0.032299738 3534:0.032299738 3571:0.032299738 3616:0.032299738 3619:0.032299738 3647:0.032299738 3650:0.064599477 3670:0.032299738 3674:0.048402712 3676:0.096805423 3678:0.096805423 3679:0.096805423 3680:0.096805423 3683:0.096805423 3684:0.19361085 3685:0.096805423 3687:0.096805423 3688:0.048402712 3689:0.096805423 3690:0.19361085 3691:0.096805423 3692:0.14520814 3693:0.048402712 3694:0.096805423 3695:0.048402712 3696:0.14520814 3697:0.096805423 3700:0.14520814 3701:0.19361085 3702:0.048402712 3705:0.096805423 3706:0.19361085 3708:0.19361085 3710:0.096805423 3711:0.048402712 3713:0.048402712 3714:0.048402712 3715:0.38722169 3716:0.33881897 3717:0.096805423 3718:0.048402712 3719:0.096805423 3720:0.14520814 3721:0.096805423 3722:0.096805423 3723:0.048402712 3725:0.096805423 3726:0.48402712 3727:0.14520814 3729:0.096805423 3730:0.096805423 3731:0.048402712 3732:0.24201356 3734:0.14520814 3738:0.14520814 3739:0.14520814 3740:0.048402712 3741:0.096805423 3745:0.14520814 3747:0.048402712 3748:0.048402712 3749:0.048402712 3750:0.24201356 3751:0.048402712 3752:0.096805423 3753:0.048402712 3755:0.048402712 3756:0.24201356 3757:0.48402712 3758:0.19361085 3759:0.19361085 3760:0.048402712 3761:0.29041627 3763:0.82284606 3764:0.33881897 3765:0.048402712 3767:0.096805423 3768:0.048402712 3769:0.14520814 3770:0.14520814 3771:0.14520814 3772:0.14520814 3773:0.048402712 3774:0.048402712 3775:0.048402712 3778:0.19361085 3779:0.14520814 3780:0.14520814 3781:0.096805423 3782:0.19361085 3783:0.19361085 3784:0.048402712 3785:0.19361085 3786:0.19361085 3787:0.43562439 3788:0.048402712 3789:0.29041627 3791:0.048402712 3792:0.096805423 3793:0.096805423 3797:0.096805423 3799:0.048402712 3800:0.048402712 3802:0.096805423 3803:0.048402712 3804:0.048402712 3806:0.048402712 3810:0.19361085 3811:0.048402712 3812:0.048402712 3814:0.43562439 3815:0.19361085 3817:0.048402712 3818:0.53242981 3819:0.43562439 3821:0.19361085 3822:0.096805423 3823:0.19361085 3824:0.14520814 3826:0.048402712 3827:0.43562439 3828:0.24201356 3830:0.048402712 3832:0.048402712 3835:0.048402712 3836:0.096805423 3838:0.096805423 3839:0.048402712 3840:0.14520814 3843:0.048402712 3846:0.048402712 3847:0.048402712 3851:0.19361085 3852:0.096805423 3853:0.048402712 3854:0.14520814 3855:0.048402712 3857:0.048402712 3858:0.19361085 3859:0.096805423 3863:0.24201356 3864:0.29041627 3865:0.14520814 3866:0.77444339 3867:0.96805423 3868:0.24201356 3869:0.096805423 3870:2.3717327 3871:1.5972894 3872:0.24201356 3874:0.58083254 3875:0.33881897 3877:0.048402712 3878:0.48402712 3879:0.19361085 3880:0.19361085 3881:0.58083254 3882:0.33881897 3883:1.7909003 3884:0.96805423 3885:0.38722169 3889:0.096805423 3891:0.096805423 3892:0.14520814 3893:0.048402712 3894:0.096805423 3895:0.048402712 3897:0.19361085 3898:0.19361085 3899:0.24201356 3901:0.096805423 3904:0.048402712 3910:0.048402712 3914:0.19361085 3915:0.048402712 3916:0.14520814 3919:0.29041627 3921:0.038684718 3922:0.019342359 3923:0.033849131 3924:0.037717599 3925:0.03191489 3926:0.04061896 3927:0.02417795 3928:0.070599623 3929:0.055125721 3930:0.064796902 3931:0.01257253 3932:0.072533853 3933:0.046421658 3934:0.01450677 3935:0.02030948 3936:0.19632494 3937:0.13926499 3938:0.035783369 3939:0.0029013499 3940:0.04255319 3941:0.10499 3942:0.0050149998 3943:0.018609 3944:0.001911 3945:0.27369401 #
-3.704847056339355848564309781068 1:0.02531646 4:0.050632909 5:0.02531646 16:0.1392405 28:0.43290043 57:0.43290043 59:0.43290043 72:0.43290043 183:0.43290043 184:0.43290043 289:0.43290043 320:0.43290043 358:0.43290043 363:0.43290043 578:0.43290043 665:0.43290043 781:0.43290043 918:0.43290043 919:0.43290043 1028:0.43290043 1387:0.43290043 1432:0.43290043 1676:0.43290043 1821:0.43290043 1849:0.43290043 2274:0.43290043 2759:0.43290043 2869:0.43290043 2909:0.43290043 2955:0.43290043 2965:0.43290043 2969:0.43290043 2972:0.43290043 2973:0.86580086 2984:1.2987013 3121:0.43290043 3175:0.43290043 3674:0.64102566 3675:1.2820513 3680:0.64102566 3693:0.64102566 3709:0.64102566 3713:1.2820513 3715:0.64102566 3719:0.64102566 3721:0.64102566 3726:0.64102566 3730:1.2820513 3756:0.64102566 3763:0.64102566 3766:0.64102566 3771:0.64102566 3782:0.64102566 3792:0.64102566 3794:0.64102566 3802:0.64102566 3806:0.64102566 3818:0.64102566 3823:0.64102566 3843:0.64102566 3846:0.64102566 3855:0.64102566 3863:0.64102566 3866:1.2820513 3869:0.64102566 3870:3.8461537 3871:1.9230769 3883:1.9230769 3889:0.64102566 3921:0.088607587 3922:0.075949363 3923:0.06329114 3924:0.06329114 3925:0.037974682 3926:0.037974682 3927:0 3928:0.037974682 3929:0.088607587 3930:0.037974682 3931:0.037974682 3932:0.01265823 3933:0.050632909 3934:0.02531646 3935:0.02531646 3936:0.24050634 3937:0.037974682 3938:0.02531646 3939:0 3940:0.01265823 3941:0.00057899999 3942:-2e-06 3943:1e-06 3944:-0 3945:0.34177199 #
-1.7621508521903419541843049955787 1:0.0046728998 2:0.0046728998 4:0.01401869 7:0.02803738 8:0.0046728998 10:0.0046728998 11:0.01401869 12:0.02336449 14:0.0070093502 16:0.15186916 24:0.078247257 54:0.078247257 73:0.078247257 105:0.078247257 125:0.078247257 184:0.078247257 303:0.078247257 367:0.15649453 375:0.078247257 399:0.078247257 405:0.15649453 407:0.078247257 466:0.078247257 502:0.078247257 518:0.078247257 521:0.23474178 527:0.15649453 531:0.078247257 532:0.078247257 534:0.078247257 547:0.078247257 578:0.078247257 579:0.078247257 582:0.078247257 583:0.078247257 585:0.078247257 587:0.078247257 594:0.078247257 597:0.078247257 621:0.078247257 623:0.078247257 626:0.078247257 635:0.078247257 662:0.078247257 665:0.5477308 678:0.078247257 747:0.078247257 753:0.078247257 761:0.078247257 787:0.078247257 851:0.078247257 866:0.078247257 887:0.078247257 950:0.078247257 951:0.078247257 964:0.078247257 1004:0.078247257 1103:0.078247257 1144:0.078247257 1153:0.078247257 1253:0.078247257 1269:0.078247257 1273:0.078247257 1322:0.078247257 1419:0.078247257 1438:0.078247257 1439:0.078247257 1440:0.15649453 1445:0.078247257 1454:0.078247257 1455:0.078247257 1460:0.078247257 1461:0.078247257 1494:0.078247257 1497:0.078247257 1504:0.15649453 1505:0.078247257 1514:0.078247257 1515:0.078247257 1525:0.078247257 1533:0.078247257 1534:0.15649453 1542:0.078247257 1548:0.078247257 1550:0.078247257 1561:0.078247257 1565:0.078247257 1567:0.078247257 1575:0.078247257 1588:0.078247257 1626:0.078247257 1635:0.078247257 1662:0.078247257 1723:0.078247257 1728:0.078247257 1737:0.078247257 1739:0.078247257 1740:0.15649453 1764:0.078247257 1774:0.078247257 1778:0.078247257 1783:0.078247257 1807:0.15649453 1824:0.078247257 1950:0.078247257 2089:0.078247257 2112:0.078247257 2147:0.078247257 2171:0.078247257 2217:0.078247257 2304:0.078247257 2309:0.078247257 2385:0.078247257 2396:0.078247257 2452:0.078247257 2461:0.15649453 2488:0.078247257 2510:0.15649453 2550:0.078247257 2586:0.078247257 2651:0.078247257 2656:0.078247257 2677:0.078247257 2697:0.15649453 2699:0.078247257 2740:0.078247257 2763:0.078247257 2785:0.078247257 2807:0.078247257 2883:2.0344288 2886:0.078247257 2888:0.62597811 2901:0.078247257 2908:0.078247257 2910:0.078247257 2916:0.078247257 2939:0.078247257 2949:0.078247257 2959:0.078247257 2965:0.078247257 2966:1.0172144 2967:0.23474178 2971:0.078247257 2972:2.1126761 2973:0.15649453 2978:0.078247257 2984:0.078247257 3007:0.078247257 3027:0.078247257 3069:0.078247257 3101:0.078247257 3120:0.078247257 3147:0.078247257 3178:0.078247257 3191:0.078247257 3195:0.078247257 3238:0.078247257 3296:0.078247257 3308:0.078247257 3394:0.15649453 3674:0.11709602 3675:0.11709602 3679:0.11709602 3680:0.11709602 3684:0.23419204 3687:0.11709602 3688:0.11709602 3693:0.35128805 3694:0.11709602 3696:0.11709602 3697:0.11709602 3699:0.11709602 3700:3.6299765 3701:0.11709602 3703:0.11709602 3704:1.0538641 3705:0.7025761 3706:0.11709602 3709:0.81967211 3710:0.35128805 3712:0.11709602 3713:0.11709602 3715:1.2880563 3717:0.11709602 3718:0.23419204 3719:0.11709602 3720:0.11709602 3721:0.11709602 3722:0.11709602 3723:0.11709602 3726:0.23419204 3727:0.11709602 3729:0.11709602 3732:0.11709602 3733:0.23419204 3734:0.23419204 3736:0.11709602 3738:0.11709602 3741:0.11709602 3744:0.11709602 3745:0.11709602 3750:0.11709602 3752:0.11709602 3755:0.11709602 3757:0.11709602 3758:0.23419204 3761:0.11709602 3763:0.11709602 3764:0.11709602 3766:0.23419204 3767:0.58548009 3768:0.35128805 3769:0.23419204 3770:0.23419204 3772:0.58548009 3773:0.23419204 3774:0.23419204 3775:0.46838409 3776:0.23419204 3777:0.46838409 3778:0.46838409 3779:0.35128805 3781:0.23419204 3785:0.11709602 3786:0.35128805 3787:0.46838409 3789:0.23419204 3790:0.35128805 3792:0.11709602 3801:0.11709602 3806:0.11709602 3811:0.11709602 3816:0.11709602 3818:0.35128805 3819:0.23419204 3822:0.11709602 3824:0.11709602 3826:0.23419204 3831:0.23419204 3835:0.11709602 3836:0.35128805 3839:0.23419204 3841:0.11709602 3844:0.11709602 3847:0.11709602 3848:0.23419204 3850:0.11709602 3851:0.35128805 3854:0.23419204 3855:0.11709602 3857:0.11709602 3858:0.11709602 3863:3.2786884 3864:1.6393442 3866:0.35128805 3867:0.11709602 3868:0.23419204 3869:0.23419204 3870:5.6206088 3871:0.23419204 3872:0.11709602 3874:0.35128805 3877:0.23419204 3881:0.11709602 3883:0.23419204 3886:0.11709602 3887:0.11709602 3889:0.23419204 3893:0.11709602 3894:0.23419204 3897:0.11709602 3898:0.23419204 3904:0.23419204 3915:0.11709602 3921:0.02803738 3922:0.0046728998 3923:0.11915888 3924:0.10514019 3925:0.03504673 3926:0.03738318 3927:0.0093457904 3928:0.025700931 3929:0.10981309 3930:0.053738318 3931:0.0070093502 3932:0.04205608 3933:0.025700931 3934:0.025700931 3935:0.03037383 3936:0.27102804 3937:0.025700931 3938:0.025700931 3939:0.0046728998 3940:0.01401869 3941:0.02172 3942:0.0020270001 3943:0.00077799999 3944:0.000128 3945:0.17990699 #
-0.82019726725537511757835318348953 1:0.0047058798 3:0.0094117597 4:0.01411765 7:0.037647061 8:0.037647061 10:0.0047058798 12:0.047058821 16:0.13176471 17:0.0047058798 20:0.0047058798 32:0.078802213 48:0.078802213 51:0.078802213 54:0.078802213 98:0.078802213 103:0.15760441 110:0.078802213 116:0.078802213 123:0.078802213 148:0.078802213 181:0.078802213 193:0.078802213 202:0.078802213 350:0.078802213 361:0.078802213 367:0.23640662 376:0.078802213 407:0.15760441 416:0.078802213 434:0.078802213 454:0.078802213 461:0.078802213 475:0.078802213 506:0.078802213 507:0.078802213 518:0.078802213 521:0.23640662 524:0.078802213 526:0.078802213 528:0.31520882 531:0.078802213 560:0.078802213 568:0.078802213 578:0.078802213 579:0.078802213 645:0.078802213 662:0.15760441 665:0.63041764 678:0.078802213 690:0.078802213 710:0.078802213 750:0.078802213 751:0.078802213 752:0.078802213 790:0.078802213 837:0.15760441 839:0.078802213 891:0.078802213 918:0.078802213 922:0.23640662 925:0.23640662 929:0.15760441 951:0.078802213 952:0.078802213 990:0.078802213 1002:0.078802213 1012:0.15760441 1015:0.078802213 1017:0.078802213 1027:0.078802213 1030:0.078802213 1057:0.078802213 1061:0.15760441 1111:0.078802213 1180:0.078802213 1268:0.15760441 1288:0.078802213 1295:0.078802213 1357:0.078802213 1415:0.078802213 1418:0.078802213 1419:0.078802213 1423:0.078802213 1434:0.078802213 1439:0.15760441 1440:0.078802213 1443:0.078802213 1446:0.078802213 1450:0.078802213 1494:0.15760441 1495:0.078802213 1496:0.23640662 1504:0.078802213 1506:0.15760441 1507:0.078802213 1509:0.078802213 1542:0.078802213 1559:0.078802213 1561:0.078802213 1578:0.078802213 1579:0.078802213 1628:0.078802213 1655:0.078802213 1656:0.078802213 1684:0.078802213 1724:0.078802213 1726:0.078802213 1776:0.078802213 1810:0.078802213 1919:0.078802213 2060:0.078802213 2138:0.15760441 2142:0.078802213 2153:0.078802213 2257:0.078802213 2303:0.078802213 2312:0.078802213 2317:0.078802213 2323:0.078802213 2327:0.078802213 2367:0.078802213 2448:0.078802213 2648:0.47281325 2657:0.078802213 2684:0.078802213 2692:0.078802213 2710:0.078802213 2757:0.078802213 2764:0.078802213 2765:0.078802213 2775:0.078802213 2811:0.078802213 2814:0.078802213 2832:0.078802213 2883:1.0244287 2884:0.078802213 2888:0.55161542 2894:0.078802213 2901:0.078802213 2907:0.15760441 2915:0.15760441 2956:0.15760441 2966:0.70921987 2967:0.23640662 2972:2.679275 2984:0.078802213 2985:0.078802213 2994:0.078802213 3003:0.078802213 3005:0.078802213 3012:0.078802213 3054:0.078802213 3062:0.078802213 3063:0.078802213 3118:0.078802213 3129:0.078802213 3159:0.078802213 3184:0.078802213 3215:0.078802213 3297:0.078802213 3299:0.078802213 3320:0.078802213 3438:0.078802213 3499:0.078802213 3553:0.078802213 3644:0.078802213 3674:0.11792453 3675:0.23584905 3676:0.11792453 3679:0.58962262 3680:0.23584905 3683:0.11792453 3684:0.11792453 3685:0.11792453 3692:0.11792453 3693:0.47169811 3694:0.11792453 3696:0.11792453 3697:0.11792453 3699:0.35377359 3700:1.6509434 3701:0.11792453 3703:0.23584905 3704:0.58962262 3705:1.1792452 3707:0.11792453 3708:0.35377359 3709:0.23584905 3711:0.11792453 3712:0.35377359 3713:0.11792453 3714:0.11792453 3715:1.6509434 3716:0.11792453 3717:0.11792453 3718:0.23584905 3719:0.47169811 3722:0.11792453 3723:0.11792453 3725:0.35377359 3729:0.11792453 3730:0.47169811 3733:0.35377359 3736:0.11792453 3737:0.47169811 3738:0.11792453 3739:0.11792453 3742:0.11792453 3743:0.11792453 3747:0.11792453 3755:0.11792453 3756:0.11792453 3757:0.11792453 3761:0.11792453 3763:0.11792453 3766:0.47169811 3767:1.0613208 3768:0.11792453 3769:0.11792453 3772:1.1792452 3773:0.11792453 3776:0.11792453 3777:0.23584905 3778:0.11792453 3779:0.11792453 3780:0.11792453 3781:0.11792453 3782:0.11792453 3783:0.23584905 3786:0.23584905 3790:0.11792453 3794:0.11792453 3799:0.11792453 3806:0.11792453 3809:0.11792453 3810:0.11792453 3811:0.47169811 3812:0.11792453 3814:0.23584905 3815:0.11792453 3816:0.11792453 3817:0.23584905 3818:0.11792453 3823:0.11792453 3824:0.11792453 3826:0.23584905 3827:0.35377359 3828:0.23584905 3830:0.11792453 3832:0.11792453 3835:0.23584905 3843:0.11792453 3846:0.11792453 3847:0.11792453 3848:0.94339621 3850:0.11792453 3851:0.11792453 3852:0.23584905 3855:0.35377359 3856:0.11792453 3858:0.11792453 3859:0.11792453 3860:0.11792453 3863:1.8867924 3864:1.1792452 3865:0.11792453 3866:0.23584905 3869:0.23584905 3870:5.5424528 3871:0.35377359 3872:0.11792453 3873:0.11792453 3874:0.11792453 3875:0.11792453 3877:0.23584905 3878:0.11792453 3879:0.11792453 3883:0.23584905 3884:0.11792453 3885:0.23584905 3888:0.11792453 3889:0.11792453 3890:0.11792453 3893:0.11792453 3895:0.11792453 3896:0.11792453 3897:0.23584905 3898:0.11792453 3906:0.11792453 3910:0.11792453 3914:0.11792453 3915:0.11792453 3919:0.11792453 3921:0.042352941 3922:0 3923:0.091764703 3924:0.11294118 3925:0.032941181 3926:0.098823532 3927:0.0070588202 3928:0.02823529 3929:0.094117649 3930:0.02588235 3931:0.0094117597 3932:0.035294119 3933:0.039999999 3934:0.016470591 3935:0.051764701 3936:0.21882352 3937:0.035294119 3938:0.032941181 3939:0.0047058798 3940:0.02117647 3941:0.011358 3942:-0.00083999999 3943:0.00042 3944:-6.7000001e-05 3945:0.171765 #
23.426514206839062381959593039937 1:0.01492537 2:0.0059701502 3:0.0119403 7:0.04179104 10:0.0059701502 11:0.03582089 12:0.080597013 15:0.0119403 21:0.1001001 23:0.1001001 31:0.1001001 51:0.2002002 52:0.2002002 116:0.1001001 119:0.1001001 120:0.1001001 121:0.2002002 124:0.1001001 156:0.1001001 165:0.2002002 168:0.1001001 195:0.1001001 202:0.1001001 229:0.1001001 250:0.1001001 277:0.1001001 282:0.1001001 302:0.1001001 354:0.1001001 367:0.1001001 370:0.2002002 397:0.1001001 406:0.2002002 408:0.1001001 415:0.1001001 447:0.1001001 464:0.1001001 507:0.1001001 512:0.1001001 520:0.1001001 525:0.1001001 527:0.1001001 531:0.2002002 532:0.1001001 556:0.1001001 580:0.1001001 582:0.6006006 583:0.2002002 588:0.1001001 617:0.1001001 653:0.1001001 681:0.1001001 765:0.1001001 782:0.1001001 789:0.1001001 887:0.1001001 955:0.1001001 964:0.2002002 967:0.1001001 1001:0.1001001 1091:0.1001001 1182:0.1001001 1279:0.1001001 1297:0.1001001 1298:0.1001001 1302:0.1001001 1314:0.1001001 1330:0.1001001 1364:0.1001001 1408:0.1001001 1413:0.1001001 1419:0.1001001 1428:0.1001001 1437:0.1001001 1439:0.1001001 1444:0.1001001 1463:0.1001001 1484:0.1001001 1485:0.1001001 1487:0.1001001 1494:0.3003003 1495:0.1001001 1499:0.1001001 1500:0.1001001 1504:0.1001001 1506:0.1001001 1510:0.2002002 1514:0.2002002 1518:0.1001001 1567:0.1001001 1570:0.1001001 1577:0.1001001 1625:0.1001001 1629:0.2002002 1632:0.1001001 1639:0.1001001 1650:0.1001001 1659:0.1001001 1662:0.2002002 1665:0.1001001 1684:0.1001001 1710:0.1001001 1714:0.1001001 1719:0.2002002 1720:0.1001001 1725:0.1001001 1727:0.1001001 1732:0.1001001 1734:0.1001001 1735:0.1001001 1741:0.1001001 1764:0.1001001 1765:0.1001001 1786:0.1001001 1791:0.1001001 1797:0.1001001 1841:0.1001001 2085:0.1001001 2089:0.1001001 2096:0.1001001 2120:0.1001001 2138:0.1001001 2259:0.1001001 2269:0.1001001 2292:0.1001001 2318:0.1001001 2323:0.1001001 2327:0.1001001 2374:0.1001001 2378:0.1001001 2448:0.2002002 2580:0.1001001 2587:0.2002002 2605:0.1001001 2612:0.1001001 2623:0.1001001 2645:0.2002002 2789:0.1001001 2824:0.1001001 2856:0.1001001 3013:0.1001001 3016:0.1001001 3078:0.1001001 3090:0.1001001 3122:0.1001001 3137:0.1001001 3160:0.2002002 3169:0.1001001 3178:0.1001001 3238:0.1001001 3243:0.1001001 3294:0.1001001 3343:0.1001001 3556:0.1001001 3574:0.1001001 3598:0.1001001 3613:0.1001001 3674:0.44910181 3675:0.59880239 3680:0.89820361 3682:0.1497006 3683:0.44910181 3684:0.1497006 3685:0.29940119 3688:0.1497006 3689:0.44910181 3692:0.1497006 3693:0.44910181 3694:0.44910181 3696:0.1497006 3697:0.29940119 3698:0.1497006 3699:0.1497006 3702:0.29940119 3703:0.1497006 3704:0.74850297 3705:1.0479041 3706:0.1497006 3707:0.1497006 3708:0.1497006 3709:1.3473054 3710:0.44910181 3712:0.1497006 3713:0.1497006 3714:0.1497006 3715:0.1497006 3716:0.1497006 3717:0.1497006 3720:0.1497006 3721:0.1497006 3722:0.1497006 3729:0.29940119 3732:0.1497006 3733:0.44910181 3734:0.44910181 3736:0.1497006 3738:0.1497006 3739:0.1497006 3743:0.1497006 3747:0.1497006 3749:0.1497006 3754:0.29940119 3756:0.44910181 3757:0.1497006 3758:0.1497006 3759:0.29940119 3762:0.1497006 3764:0.1497006 3766:0.44910181 3767:0.59880239 3769:0.29940119 3771:0.59880239 3772:2.0958083 3773:0.89820361 3775:0.29940119 3777:0.44910181 3779:0.59880239 3780:0.1497006 3781:1.1976048 3782:0.1497006 3783:0.1497006 3785:0.59880239 3786:0.74850297 3787:1.0479041 3789:0.29940119 3791:0.44910181 3793:0.1497006 3811:0.1497006 3812:0.29940119 3814:0.29940119 3815:0.29940119 3822:0.1497006 3823:0.1497006 3824:0.1497006 3825:0.29940119 3827:0.29940119 3828:0.29940119 3832:0.1497006 3835:0.29940119 3838:0.1497006 3844:0.44910181 3846:0.29940119 3848:0.44910181 3854:0.1497006 3856:0.1497006 3857:0.1497006 3860:0.1497006 3862:0.1497006 3863:0.44910181 3868:0.1497006 3872:0.1497006 3875:0.44910181 3876:0.1497006 3878:0.1497006 3882:0.1497006 3883:0.1497006 3885:0.1497006 3888:0.44910181 3891:0.1497006 3893:0.29940119 3894:0.1497006 3897:0.1497006 3899:0.1497006 3901:0.1497006 3915:0.1497006 3916:0.1497006 3921:0.068656713 3922:0.065671653 3923:0.077611938 3924:0.11343284 3925:0.01492537 3926:0.047761191 3927:0.01492537 3928:0.04179104 3929:0.16119403 3930:0.12238806 3931:0.00298507 3932:0.053731341 3933:0.047761191 3934:0.023880601 3935:0.04179104 3936:0.01492537 3937:0.032835819 3938:0.032835819 3939:0 3940:0.02089552 3941:0.010254 3942:-7.0000001e-06 3943:0.00018800001 3944:0 3945:0.34925401 #
36.977837373363769302159198559821 1:0.01142857 6:0.0057142898 7:0.0057142898 8:0.031428572 11:0.0057142898 12:0.0057142898 14:0.0057142898 20:0.031428572 24:0.095785439 27:0.095785439 77:0.19157088 102:0.095785439 120:0.095785439 165:0.095785439 202:0.095785439 422:0.095785439 505:0.095785439 511:0.095785439 529:0.095785439 548:0.095785439 572:0.095785439 578:0.095785439 595:0.095785439 597:0.095785439 600:0.095785439 634:0.095785439 710:0.095785439 926:0.095785439 927:0.095785439 928:0.095785439 945:0.095785439 954:0.095785439 959:0.095785439 966:0.095785439 969:0.095785439 971:0.095785439 977:0.095785439 1024:0.095785439 1026:0.095785439 1030:0.095785439 1315:0.095785439 1327:0.095785439 1386:0.095785439 1395:0.095785439 1417:0.095785439 1419:0.095785439 1423:0.095785439 1467:0.095785439 1485:0.095785439 1488:0.095785439 1492:0.095785439 1494:0.095785439 1516:0.095785439 1573:0.095785439 1596:0.095785439 1623:0.095785439 1633:0.095785439 1634:0.095785439 1678:0.095785439 1684:0.095785439 1689:0.095785439 1690:0.095785439 1694:0.095785439 1713:0.095785439 1715:0.095785439 1729:0.095785439 1760:0.095785439 1765:0.095785439 1803:0.095785439 1823:0.095785439 2220:0.095785439 2274:0.095785439 2356:0.095785439 2443:0.095785439 2652:0.095785439 2759:0.095785439 2837:0.095785439 2886:0.095785439 2887:0.095785439 2902:0.095785439 2918:0.095785439 2920:0.095785439 2956:0.095785439 2989:0.095785439 2995:0.095785439 3009:0.095785439 3015:0.095785439 3188:0.095785439 3203:0.095785439 3238:0.095785439 3246:0.095785439 3247:0.095785439 3255:0.095785439 3279:0.095785439 3311:0.095785439 3312:0.095785439 3320:0.095785439 3323:0.095785439 3324:0.095785439 3534:0.095785439 3653:0.095785439 3674:0.28653294 3675:0.42979944 3677:0.14326647 3678:0.71633238 3679:0.28653294 3680:0.14326647 3681:0.14326647 3683:0.14326647 3684:0.42979944 3685:0.71633238 3686:0.14326647 3687:0.14326647 3688:0.14326647 3692:0.28653294 3693:0.14326647 3694:0.42979944 3696:0.14326647 3697:0.57306588 3698:0.14326647 3701:0.42979944 3703:0.57306588 3705:0.14326647 3706:0.28653294 3708:0.14326647 3709:0.28653294 3710:0.42979944 3712:0.14326647 3713:0.28653294 3717:0.14326647 3718:0.14326647 3721:0.14326647 3726:0.14326647 3727:0.14326647 3729:0.71633238 3731:0.14326647 3732:0.14326647 3733:0.28653294 3734:0.71633238 3735:0.14326647 3736:0.28653294 3737:0.14326647 3738:0.14326647 3739:0.42979944 3740:0.28653294 3742:0.14326647 3750:0.14326647 3754:0.14326647 3756:0.14326647 3758:0.57306588 3759:0.28653294 3761:0.28653294 3763:0.14326647 3766:0.57306588 3769:0.57306588 3771:0.57306588 3772:0.14326647 3773:0.28653294 3778:0.28653294 3779:0.57306588 3780:0.14326647 3783:0.57306588 3784:0.14326647 3785:0.28653294 3786:0.14326647 3787:0.14326647 3788:0.14326647 3789:0.42979944 3791:0.14326647 3792:0.57306588 3797:0.14326647 3806:0.28653294 3811:0.28653294 3817:0.14326647 3823:0.42979944 3824:0.28653294 3828:0.14326647 3830:0.14326647 3832:0.14326647 3834:0.14326647 3835:0.14326647 3836:0.14326647 3840:0.14326647 3842:0.14326647 3843:0.28653294 3844:0.14326647 3848:0.14326647 3851:0.14326647 3855:0.14326647 3860:0.14326647 3862:0.14326647 3864:0.42979944 3865:0.14326647 3866:0.14326647 3869:0.14326647 3872:0.28653294 3874:0.14326647 3875:0.57306588 3877:0.42979944 3882:0.14326647 3883:0.14326647 3885:0.14326647 3888:0.42979944 3889:0.28653294 3890:0.71633238 3893:0.71633238 3894:0.28653294 3896:0.28653294 3897:0.14326647 3898:0.28653294 3899:0.28653294 3901:0.28653294 3905:0.28653294 3906:0.14326647 3912:0.14326647 3914:0.28653294 3919:0.14326647 3921:0.10857143 3922:0.02 3923:0.059999999 3924:0.057142861 3925:0.025714289 3926:0.12 3927:0.01714286 3928:0.051428571 3929:0.085714288 3930:0.077142857 3931:0.01428571 3932:0.025714289 3933:0.045714289 3934:0.028571431 3935:0.01714286 3936:0.04857143 3937:0.04285714 3938:0.10857143 3939:0.01428571 3940:0.031428572 3941:0.0093860002 3942:-8.1999999e-05 3943:0.000168 3944:-4e-06 3945:0.40571401 #
51.701872855717518007168109761551 1:0.0220339 2:0.01016949 6:0.0050847498 7:0.01016949 8:0.02033898 10:0.01016949 11:0.01355932 12:0.00677966 15:0.00338983 16:0.016949151 17:0.02372881 20:0.01016949 21:0.056689341 24:0.056689341 28:0.056689341 30:0.056689341 34:0.17006803 46:0.056689341 51:0.056689341 71:0.056689341 74:0.11337868 83:0.056689341 96:0.11337868 100:0.056689341 104:0.056689341 113:0.056689341 116:0.056689341 121:0.11337868 125:0.056689341 126:0.056689341 131:0.056689341 142:0.056689341 158:0.056689341 161:0.056689341 162:0.056689341 165:0.056689341 174:0.056689341 180:0.056689341 182:0.056689341 185:0.056689341 186:0.11337868 193:0.11337868 196:0.11337868 198:0.11337868 201:0.056689341 202:0.056689341 234:0.056689341 269:0.056689341 351:0.056689341 370:0.11337868 395:0.056689341 397:0.056689341 421:0.056689341 426:0.056689341 427:0.056689341 448:0.056689341 455:0.056689341 464:0.056689341 466:0.056689341 475:0.056689341 478:0.056689341 507:0.056689341 511:0.056689341 518:0.056689341 520:0.056689341 529:0.056689341 531:0.056689341 544:0.056689341 547:0.056689341 551:0.056689341 552:0.056689341 567:0.056689341 578:0.056689341 580:0.056689341 582:0.11337868 583:0.056689341 587:0.056689341 589:0.056689341 590:0.056689341 594:0.056689341 615:0.056689341 618:0.056689341 634:0.056689341 649:0.056689341 665:0.056689341 675:0.11337868 678:0.056689341 679:0.056689341 702:0.056689341 711:0.056689341 735:0.056689341 750:0.056689341 756:0.056689341 776:0.056689341 842:0.056689341 893:0.056689341 909:0.056689341 918:0.056689341 923:0.056689341 930:0.056689341 941:0.056689341 947:0.056689341 951:0.056689341 961:0.056689341 964:0.056689341 977:0.17006803 984:0.056689341 995:0.056689341 1007:0.056689341 1035:0.11337868 1038:0.11337868 1040:0.056689341 1061:0.056689341 1249:0.056689341 1250:0.056689341 1256:0.11337868 1310:0.056689341 1322:0.056689341 1327:0.056689341 1359:0.056689341 1373:0.056689341 1388:0.056689341 1393:0.056689341 1395:0.056689341 1398:0.056689341 1413:0.056689341 1421:0.056689341 1423:0.11337868 1436:0.056689341 1439:0.056689341 1442:0.056689341 1444:0.056689341 1445:0.056689341 1454:0.056689341 1463:0.056689341 1466:0.056689341 1495:0.056689341 1499:0.056689341 1510:0.056689341 1513:0.056689341 1517:0.056689341 1518:0.056689341 1539:0.056689341 1581:0.056689341 1588:0.056689341 1590:0.11337868 1596:0.056689341 1628:0.11337868 1632:0.056689341 1634:0.056689341 1656:0.056689341 1659:0.056689341 1662:0.056689341 1668:0.056689341 1678:0.056689341 1679:0.056689341 1687:0.056689341 1690:0.056689341 1710:0.056689341 1717:0.056689341 1718:0.056689341 1730:0.056689341 1735:0.056689341 1737:0.11337868 1740:0.056689341 1754:0.056689341 1763:0.056689341 1772:0.056689341 1774:0.11337868 1775:0.056689341 1783:0.056689341 1791:0.056689341 1800:0.17006803 1820:0.056689341 1872:0.056689341 1905:0.17006803 1928:0.056689341 1947:0.056689341 1959:0.056689341 2003:0.056689341 2010:0.056689341 2075:0.056689341 2095:0.11337868 2113:0.056689341 2141:0.056689341 2153:0.056689341 2197:0.056689341 2214:0.056689341 2232:0.056689341 2233:0.11337868 2257:0.056689341 2259:0.056689341 2274:0.056689341 2291:0.056689341 2321:0.056689341 2322:0.056689341 2328:0.056689341 2350:0.056689341 2356:0.056689341 2366:0.056689341 2384:0.056689341 2389:0.056689341 2399:0.056689341 2440:0.056689341 2454:0.056689341 2464:0.056689341 2500:0.056689341 2502:0.056689341 2503:0.056689341 2506:0.056689341 2574:0.11337868 2578:0.056689341 2580:0.056689341 2582:0.056689341 2585:0.056689341 2592:0.056689341 2608:0.056689341 2631:0.056689341 2632:0.056689341 2647:0.056689341 2650:0.056689341 2654:0.056689341 2658:0.056689341 2687:0.056689341 2706:0.056689341 2708:0.056689341 2716:0.056689341 2749:0.056689341 2752:0.056689341 2759:0.056689341 2789:0.056689341 2791:0.056689341 2796:0.056689341 2803:0.056689341 2814:0.056689341 2837:0.056689341 2872:0.056689341 2873:0.056689341 2878:0.056689341 2886:0.056689341 2910:0.056689341 2921:0.056689341 2953:0.056689341 2965:0.056689341 2966:0.056689341 2970:0.056689341 2973:0.056689341 2976:0.056689341 2984:0.056689341 2985:0.056689341 2990:0.056689341 2991:0.056689341 3013:0.11337868 3017:0.056689341 3028:0.056689341 3047:0.056689341 3056:0.056689341 3057:0.056689341 3059:0.056689341 3062:0.056689341 3069:0.056689341 3071:0.056689341 3076:0.056689341 3086:0.056689341 3113:0.056689341 3120:0.056689341 3124:0.056689341 3125:0.11337868 3130:0.11337868 3133:0.056689341 3134:0.11337868 3137:0.056689341 3159:0.11337868 3162:0.056689341 3164:0.056689341 3170:0.056689341 3184:0.056689341 3188:0.11337868 3191:0.056689341 3192:0.056689341 3195:0.056689341 3212:0.17006803 3228:0.056689341 3232:0.056689341 3235:0.056689341 3240:0.056689341 3241:0.056689341 3254:0.11337868 3282:0.056689341 3306:0.056689341 3308:0.056689341 3550:0.056689341 3563:0.056689341 3674:0.59422749 3675:0.084889643 3677:0.084889643 3678:0.25466892 3679:0.33955857 3680:0.59422749 3681:0.084889643 3682:0.25466892 3683:0.25466892 3684:0.42444822 3685:0.76400679 3691:0.084889643 3692:0.16977929 3693:0.25466892 3694:0.084889643 3696:0.33955857 3697:0.084889643 3698:0.084889643 3699:0.16977929 3700:0.16977929 3701:0.33955857 3702:0.084889643 3703:0.33955857 3704:0.25466892 3705:0.25466892 3706:0.50933784 3707:0.084889643 3708:0.084889643 3709:0.67911714 3710:0.25466892 3713:0.084889643 3714:0.084889643 3715:0.084889643 3716:0.084889643 3717:0.42444822 3718:0.16977929 3719:0.16977929 3723:0.084889643 3725:0.084889643 3726:0.084889643 3727:0.084889643 3729:0.16977929 3730:0.16977929 3732:0.42444822 3733:0.33955857 3734:0.25466892 3735:0.42444822 3736:0.084889643 3737:0.16977929 3738:0.25466892 3739:0.50933784 3740:0.084889643 3744:0.084889643 3752:0.42444822 3754:0.25466892 3755:0.084889643 3756:0.084889643 3757:0.25466892 3758:0.084889643 3759:0.42444822 3762:0.084889643 3763:0.33955857 3764:0.59422749 3766:0.42444822 3767:0.33955857 3768:0.16977929 3769:0.33955857 3771:0.16977929 3772:0.16977929 3773:0.50933784 3775:0.084889643 3777:0.084889643 3778:0.42444822 3779:0.42444822 3780:0.084889643 3781:0.33955857 3783:0.42444822 3785:0.25466892 3786:0.33955857 3787:0.33955857 3789:0.084889643 3790:0.50933784 3791:0.33955857 3792:0.25466892 3796:0.084889643 3797:0.084889643 3798:0.084889643 3800:0.084889643 3801:0.084889643 3802:0.084889643 3804:0.084889643 3805:0.084889643 3810:0.33955857 3811:0.25466892 3812:0.084889643 3815:0.084889643 3817:0.16977929 3822:0.25466892 3823:0.25466892 3825:0.084889643 3828:0.25466892 3830:0.16977929 3831:0.25466892 3834:0.084889643 3835:0.084889643 3836:0.16977929 3839:0.25466892 3841:0.16977929 3844:0.50933784 3845:0.084889643 3846:0.084889643 3847:0.25466892 3848:0.42444822 3850:0.084889643 3851:0.084889643 3852:0.16977929 3854:0.084889643 3855:0.16977929 3857:0.25466892 3858:0.084889643 3859:0.16977929 3860:0.084889643 3863:0.25466892 3864:0.25466892 3866:0.25466892 3867:0.084889643 3869:0.16977929 3870:0.42444822 3871:0.25466892 3872:0.25466892 3874:0.084889643 3875:0.33955857 3877:0.25466892 3878:0.25466892 3880:0.084889643 3881:0.42444822 3882:0.16977929 3883:0.25466892 3884:0.67911714 3885:0.42444822 3888:0.76400679 3889:0.67911714 3890:0.42444822 3892:0.42444822 3893:0.33955857 3894:0.33955857 3896:0.084889643 3897:0.084889643 3898:0.25466892 3899:0.25466892 3916:0.084889643 3921:0.11186441 3922:0.00677966 3923:0.055932209 3924:0.072881363 3925:0.0220339 3926:0.10169491 3927:0.0050847498 3928:0.066101693 3929:0.069491528 3930:0.084745757 3931:0.01864407 3932:0.02711864 3933:0.032203391 3934:0.02881356 3935:0.05084746 3936:0.06779661 3937:0.076271176 3938:0.091525421 3939:0 3940:0.01016949 3941:0.028712999 3942:3.2e-05 3943:0.001488 3944:1e-06 3945:0.40169501 #
-4.5995996681482527179696262464859 1:0.00347826 3:0.019130429 7:0.01565217 8:0.00695652 9:0.00347826 10:0.019130429 11:0.0173913 12:0.01043478 13:0.00347826 16:0.01043478 17:0.00695652 19:0.00347826 20:0.01043478 26:0.058173358 52:0.058173358 74:0.058173358 125:0.058173358 135:0.058173358 151:0.058173358 156:0.058173358 184:0.058173358 222:0.058173358 263:0.058173358 369:0.058173358 397:0.058173358 413:0.058173358 417:0.058173358 422:0.058173358 437:0.058173358 446:0.058173358 466:0.058173358 467:0.058173358 477:0.058173358 485:0.058173358 500:0.058173358 508:0.058173358 513:0.058173358 521:0.058173358 528:0.058173358 529:0.058173358 544:0.058173358 548:0.058173358 568:0.058173358 569:0.058173358 574:0.058173358 577:0.058173358 578:0.058173358 586:0.058173358 587:0.058173358 617:0.058173358 667:0.058173358 669:0.058173358 677:0.058173358 679:0.058173358 681:0.058173358 685:0.058173358 702:0.058173358 733:0.058173358 736:0.058173358 739:0.058173358 772:0.058173358 774:0.058173358 789:0.058173358 791:0.058173358 809:0.058173358 815:0.058173358 823:0.058173358 862:0.058173358 885:0.058173358 896:0.058173358 904:0.058173358 927:0.058173358 943:0.058173358 951:0.058173358 955:0.058173358 967:0.058173358 968:0.11634672 972:0.11634672 988:0.058173358 1026:0.058173358 1081:0.058173358 1092:0.058173358 1093:0.058173358 1133:0.058173358 1142:0.058173358 1243:0.058173358 1244:0.058173358 1250:0.058173358 1262:0.058173358 1269:0.058173358 1275:0.058173358 1279:0.058173358 1289:0.058173358 1292:0.058173358 1295:0.058173358 1304:0.058173358 1310:0.058173358 1311:0.058173358 1313:0.058173358 1320:0.058173358 1327:0.058173358 1336:0.058173358 1343:0.058173358 1352:0.058173358 1354:0.11634672 1357:0.058173358 1361:0.058173358 1364:0.11634672 1379:0.058173358 1389:0.058173358 1391:0.058173358 1393:0.058173358 1394:0.058173358 1398:0.058173358 1415:0.058173358 1419:0.058173358 1431:0.058173358 1441:0.058173358 1443:0.058173358 1445:0.058173358 1456:0.058173358 1480:0.058173358 1500:0.058173358 1503:0.058173358 1511:0.058173358 1514:0.058173358 1519:0.058173358 1522:0.058173358 1533:0.058173358 1539:0.058173358 1547:0.058173358 1548:0.058173358 1552:0.058173358 1553:0.058173358 1559:0.058173358 1565:0.058173358 1588:0.058173358 1596:0.058173358 1607:0.058173358 1629:0.058173358 1631:0.058173358 1649:0.058173358 1652:0.058173358 1668:0.058173358 1679:0.058173358 1683:0.11634672 1693:0.058173358 1700:0.058173358 1708:0.058173358 1725:0.058173358 1726:0.058173358 1735:0.058173358 1738:0.058173358 1741:0.058173358 1743:0.058173358 1749:0.058173358 1791:0.058173358 1804:0.058173358 1806:0.058173358 1807:0.058173358 1812:0.058173358 1825:0.058173358 1826:0.058173358 1843:0.058173358 1908:0.058173358 1943:0.058173358 1967:0.058173358 2087:0.058173358 2099:0.058173358 2105:0.058173358 2111:0.058173358 2126:0.058173358 2140:0.058173358 2160:0.058173358 2165:0.058173358 2166:0.058173358 2186:0.058173358 2256:0.11634672 2266:0.058173358 2300:0.058173358 2317:0.058173358 2334:0.058173358 2366:0.058173358 2385:0.058173358 2393:0.058173358 2395:0.058173358 2404:0.058173358 2439:0.058173358 2452:0.058173358 2460:0.058173358 2482:0.058173358 2509:0.058173358 2512:0.058173358 2527:0.058173358 2637:0.058173358 2648:0.058173358 2651:0.058173358 2682:0.11634672 2689:0.058173358 2710:0.058173358 2740:0.058173358 2763:0.058173358 2780:0.058173358 2804:0.058173358 2807:0.058173358 2808:0.058173358 2831:0.058173358 2841:0.058173358 2872:0.058173358 2883:0.058173358 2921:0.058173358 2937:0.058173358 2958:0.058173358 2965:0.058173358 2990:0.058173358 3008:0.058173358 3025:0.058173358 3057:0.058173358 3078:0.058173358 3091:0.058173358 3110:0.058173358 3125:0.058173358 3130:0.058173358 3143:0.11634672 3200:0.058173358 3208:0.058173358 3210:0.058173358 3234:0.058173358 3238:0.058173358 3272:0.058173358 3274:0.058173358 3279:0.11634672 3296:0.058173358 3297:0.058173358 3311:0.058173358 3377:0.058173358 3431:0.058173358 3441:0.058173358 3468:0.058173358 3550:0.058173358 3559:0.058173358 3574:0.058173358 3594:0.058173358 3614:0.058173358 3619:0.058173358 3622:0.058173358 3635:0.058173358 3646:0.058173358 3656:0.11634672 3670:0.058173358 3674:0.087108023 3675:0.26132405 3678:0.17421603 3680:0.17421603 3681:0.087108023 3682:0.17421603 3687:0.26132405 3688:0.087108023 3692:0.17421603 3693:0.34843206 3694:0.087108023 3696:0.34843206 3697:0.5226481 3698:0.17421603 3700:0.34843206 3701:0.17421603 3702:0.087108023 3703:0.17421603 3704:0.17421603 3705:0.43554008 3706:0.17421603 3708:0.78397214 3709:0.43554008 3710:0.087108023 3712:0.087108023 3715:0.17421603 3716:0.17421603 3717:0.69686413 3718:0.17421603 3721:0.17421603 3722:0.26132405 3723:0.087108023 3724:0.17421603 3725:0.087108023 3727:0.087108023 3729:0.087108023 3731:0.17421603 3732:0.34843206 3733:0.26132405 3734:0.43554008 3743:0.087108023 3744:0.26132405 3750:0.087108023 3752:0.26132405 3753:0.17421603 3754:0.43554008 3755:0.17421603 3756:0.17421603 3757:0.5226481 3758:0.17421603 3759:0.17421603 3760:0.17421603 3761:0.34843206 3762:0.26132405 3763:0.43554008 3764:0.26132405 3766:0.17421603 3767:0.26132405 3768:0.34843206 3769:0.087108023 3770:0.087108023 3771:0.17421603 3772:0.26132405 3773:0.43554008 3774:0.087108023 3775:0.26132405 3776:0.5226481 3777:0.17421603 3778:0.17421603 3779:0.17421603 3780:0.26132405 3781:0.26132405 3783:0.43554008 3784:0.087108023 3785:0.34843206 3786:0.26132405 3787:0.43554008 3788:0.087108023 3790:0.087108023 3791:0.087108023 3792:0.34843206 3793:0.087108023 3796:0.17421603 3797:0.087108023 3800:0.087108023 3801:0.17421603 3803:0.087108023 3813:0.087108023 3814:0.60975611 3815:0.17421603 3816:0.26132405 3817:0.43554008 3818:0.34843206 3820:0.087108023 3821:0.087108023 3823:0.26132405 3826:0.26132405 3827:0.087108023 3828:0.26132405 3829:0.087108023 3830:0.087108023 3831:0.17421603 3832:0.087108023 3834:0.26132405 3835:0.087108023 3836:0.17421603 3838:0.17421603 3839:0.17421603 3840:0.17421603 3843:0.087108023 3844:0.087108023 3846:0.087108023 3847:0.087108023 3848:0.26132405 3850:0.34843206 3852:0.17421603 3853:0.087108023 3854:0.087108023 3855:0.087108023 3856:0.087108023 3858:0.34843206 3860:0.087108023 3861:0.087108023 3863:0.17421603 3864:0.17421603 3865:0.087108023 3866:0.34843206 3867:0.34843206 3868:0.087108023 3869:0.26132405 3870:0.26132405 3871:0.17421603 3872:0.087108023 3873:0.087108023 3874:0.34843206 3875:0.087108023 3877:0.17421603 3878:0.17421603 3879:0.087108023 3881:0.087108023 3882:0.17421603 3883:0.087108023 3884:0.17421603 3885:0.34843206 3887:0.17421603 3889:0.17421603 3890:0.26132405 3892:0.087108023 3893:0.17421603 3894:0.26132405 3897:0.17421603 3898:0.34843206 3899:0.17421603 3905:0.17421603 3906:0.087108023 3910:0.087108023 3915:0.17421603 3916:0.26132405 3918:0.087108023 3919:0.087108023 3921:0.033043481 3922:0.01043478 3923:0.06086956 3924:0.079999998 3925:0.034782611 3926:0.050434779 3927:0.024347831 3928:0.09565217 3929:0.079999998 3930:0.086956523 3931:0.019130429 3932:0.076521739 3933:0.03826087 3934:0.039999999 3935:0.03826087 3936:0.079999998 3937:0.041739129 3938:0.052173909 3939:0.01391304 3940:0.043478262 3941:0.026707999 3942:0.00012 3943:0.001335 3944:2.4000001e-05 3945:0.332174 #
-0.38912908476803687030098899413133 1:0.0083681997 6:0.0083681997 11:0.016736399 12:0.0083681997 17:0.016736399 20:0.0083681997 23:0.14064698 65:0.14064698 68:0.14064698 85:0.14064698 103:0.14064698 106:0.14064698 134:0.14064698 177:0.14064698 193:0.14064698 198:0.14064698 214:0.14064698 269:0.14064698 405:0.14064698 479:0.14064698 546:0.14064698 547:0.14064698 575:0.14064698 592:0.14064698 597:0.14064698 669:0.14064698 684:0.14064698 707:0.14064698 852:0.28129396 914:0.14064698 922:0.14064698 941:0.14064698 950:0.14064698 953:0.14064698 1036:0.14064698 1041:0.14064698 1184:0.14064698 1199:0.14064698 1281:0.14064698 1294:0.14064698 1330:0.14064698 1369:0.14064698 1418:0.28129396 1423:0.14064698 1450:0.14064698 1463:0.14064698 1464:0.14064698 1487:0.14064698 1499:0.14064698 1514:0.14064698 1519:0.14064698 1590:0.14064698 1659:0.14064698 1683:0.14064698 1691:0.28129396 1718:0.14064698 1724:0.14064698 1725:0.14064698 1730:0.14064698 1734:0.14064698 1739:0.14064698 1760:0.28129396 1764:0.14064698 1765:0.14064698 1801:0.14064698 1931:0.14064698 2017:0.14064698 2034:0.14064698 2053:0.14064698 2166:0.14064698 2255:0.28129396 2273:0.14064698 2312:0.14064698 2322:0.28129396 2389:0.14064698 2403:0.14064698 2416:0.14064698 2429:0.14064698 2493:0.14064698 2502:0.14064698 2525:0.14064698 2588:0.14064698 2679:0.14064698 2692:0.14064698 2703:0.14064698 2772:0.14064698 2773:0.14064698 2896:0.14064698 2908:0.14064698 2938:0.14064698 2943:0.14064698 2957:0.14064698 2984:0.14064698 2986:0.14064698 3016:0.14064698 3075:0.14064698 3078:0.14064698 3098:0.28129396 3121:0.14064698 3124:0.14064698 3128:0.14064698 3211:0.14064698 3217:0.14064698 3234:0.14064698 3282:0.14064698 3301:0.14064698 3316:0.14064698 3326:0.14064698 3401:0.14064698 3485:0.14064698 3674:0.21008404 3675:0.21008404 3676:0.42016807 3677:0.21008404 3679:0.42016807 3681:0.42016807 3683:0.21008404 3684:0.21008404 3685:0.42016807 3686:0.21008404 3701:0.21008404 3702:0.21008404 3706:0.42016807 3708:0.21008404 3710:0.42016807 3712:0.63025212 3715:0.21008404 3716:0.21008404 3717:1.0504202 3722:0.21008404 3725:0.21008404 3726:0.63025212 3729:0.21008404 3730:0.21008404 3731:0.21008404 3732:0.63025212 3733:0.42016807 3736:0.21008404 3738:0.42016807 3739:0.63025212 3745:0.21008404 3747:0.21008404 3748:0.21008404 3750:0.21008404 3754:0.63025212 3755:0.21008404 3756:0.21008404 3758:0.42016807 3759:0.42016807 3763:0.21008404 3764:0.21008404 3766:1.0504202 3767:0.21008404 3768:0.21008404 3769:0.42016807 3771:0.21008404 3772:0.21008404 3773:0.42016807 3775:0.42016807 3778:0.21008404 3781:0.21008404 3783:0.84033614 3786:1.0504202 3787:0.42016807 3789:1.0504202 3791:0.21008404 3792:0.21008404 3800:0.21008404 3805:0.21008404 3808:0.21008404 3811:0.21008404 3818:0.21008404 3821:0.21008404 3822:0.21008404 3823:0.84033614 3827:0.42016807 3828:0.63025212 3831:0.21008404 3832:0.21008404 3833:0.21008404 3839:0.21008404 3840:0.21008404 3844:0.63025212 3850:0.21008404 3851:0.42016807 3856:0.42016807 3858:0.42016807 3864:0.42016807 3865:0.21008404 3866:0.21008404 3867:0.21008404 3868:0.21008404 3869:0.42016807 3871:0.63025212 3875:0.42016807 3876:0.21008404 3880:0.21008404 3881:0.42016807 3883:0.21008404 3884:0.42016807 3885:0.84033614 3889:0.63025212 3890:0.63025212 3893:0.21008404 3894:0.21008404 3896:0.21008404 3897:0.21008404 3898:0.42016807 3899:0.84033614 3904:0.21008404 3909:0.21008404 3914:0.21008404 3921:0.066945598 3922:0.0041840998 3923:0.0209205 3924:0.062761508 3925:0.041841 3926:0.071129709 3927:0.016736399 3928:0.062761508 3929:0.079497911 3930:0.087866113 3931:0.0209205 3932:0.0209205 3933:0.09205021 3934:0.041841 3935:0.041841 3936:0.071129709 3937:0.087866113 3938:0.083682008 3939:0.0083681997 3940:0.016736399 3941:0.0047709998 3942:-3.3e-05 3943:4.2e-05 3944:-1e-06 3945:0.36820099 #
