SVM-light Version V6.02
1 # kernel type
1 # kernel parameter -d 
1 # kernel parameter -g 
1 # kernel parameter -s 
1 # kernel parameter -r 
empty# kernel parameter -u 
3945 # highest feature index 
1829 # number of training documents 
150 # number of support vectors plus 1 
-0.85579993 # threshold b, each following line is a SV (starting with alpha*y)
-0.022187182275792079882981155947164 2:0.01075269 6:0.01075269 10:0.01075269 11:0.01075269 12:0.053763442 14:0.01075269 16:0.01075269 20:0.01075269 73:0.18115942 85:0.18115942 103:0.18115942 116:0.18115942 121:0.18115942 148:0.18115942 350:0.18115942 517:0.18115942 524:0.18115942 549:0.18115942 582:0.18115942 586:0.18115942 590:0.18115942 645:0.18115942 659:0.18115942 668:0.18115942 770:0.18115942 801:0.18115942 821:0.18115942 942:0.18115942 955:0.36231884 967:0.18115942 1015:0.18115942 1022:0.18115942 1024:0.18115942 1154:0.18115942 1181:0.18115942 1207:0.18115942 1282:0.18115942 1419:0.18115942 1450:0.18115942 1460:0.18115942 1476:0.18115942 1492:0.18115942 1494:0.18115942 1501:0.18115942 1506:0.18115942 1507:0.18115942 1536:0.18115942 1590:0.18115942 1596:0.18115942 1659:0.18115942 1663:0.18115942 1730:0.18115942 1790:0.18115942 1890:0.18115942 1908:0.18115942 1944:0.18115942 1952:0.18115942 2042:0.18115942 2100:0.18115942 2174:0.18115942 2228:0.18115942 2248:0.18115942 2258:0.18115942 2273:0.18115942 2284:0.18115942 2321:0.18115942 2347:0.18115942 2400:0.18115942 2489:0.18115942 2580:0.18115942 2655:0.36231884 2681:0.18115942 2727:0.18115942 2753:0.18115942 2758:0.18115942 2779:0.18115942 2794:0.18115942 2811:0.18115942 2824:0.18115942 2843:0.18115942 2855:0.18115942 2865:0.18115942 2886:0.18115942 2910:0.18115942 2912:0.18115942 2967:0.18115942 3047:0.18115942 3070:0.18115942 3108:0.18115942 3113:0.18115942 3114:0.18115942 3162:0.18115942 3193:0.18115942 3196:0.18115942 3215:0.18115942 3232:0.18115942 3238:0.18115942 3278:0.18115942 3289:0.18115942 3310:0.18115942 3382:0.18115942 3677:0.27027026 3678:0.8108108 3679:0.27027026 3680:0.54054052 3692:0.27027026 3699:0.27027026 3701:0.27027026 3704:0.54054052 3706:0.27027026 3709:0.54054052 3710:0.27027026 3712:0.27027026 3714:0.54054052 3715:0.27027026 3716:0.27027026 3717:0.27027026 3721:0.27027026 3727:0.27027026 3729:0.27027026 3732:0.27027026 3733:0.8108108 3734:0.27027026 3737:0.8108108 3745:0.27027026 3747:0.27027026 3749:0.27027026 3750:0.27027026 3754:0.27027026 3757:0.27027026 3758:0.54054052 3763:0.27027026 3764:0.54054052 3766:0.54054052 3767:0.27027026 3768:0.27027026 3769:0.27027026 3770:0.27027026 3771:0.27027026 3772:1.3513514 3774:0.27027026 3775:0.54054052 3777:0.27027026 3778:0.8108108 3781:0.8108108 3786:0.54054052 3787:0.27027026 3788:0.27027026 3791:0.27027026 3797:0.27027026 3801:0.54054052 3807:0.27027026 3817:0.54054052 3821:0.27027026 3823:0.8108108 3824:0.27027026 3827:0.27027026 3828:0.27027026 3844:0.27027026 3847:0.27027026 3848:0.54054052 3850:0.27027026 3852:0.27027026 3853:0.27027026 3855:0.54054052 3856:0.27027026 3857:0.27027026 3858:0.27027026 3860:0.27027026 3861:0.27027026 3862:1.081081 3864:0.27027026 3866:0.27027026 3868:0.27027026 3869:0.27027026 3870:0.27027026 3871:0.27027026 3872:0.27027026 3879:0.27027026 3880:0.27027026 3881:0.27027026 3883:0.27027026 3885:0.27027026 3888:0.54054052 3889:0.54054052 3890:0.27027026 3891:0.27027026 3892:0.27027026 3893:0.27027026 3896:0.27027026 3898:0.27027026 3899:0.27027026 3903:0.27027026 3914:0.54054052 3919:0.54054052 3921:0.053763442 3922:0.01612903 3923:0.01612903 3924:0.064516127 3925:0.03763441 3926:0.053763442 3927:0.026881721 3928:0.059139781 3929:0.11290322 3930:0.059139781 3931:0.03225806 3932:0.03225806 3933:0.07526882 3934:0.02150538 3935:0.10215054 3936:0.053763442 3937:0.069892474 3938:0.07526882 3939:0.0053763399 3940:0.03225806 3941:0.002746 3942:7.0000001e-06 3943:1.5e-05 3944:0 3945:0.33333299 #
-0.030149654015950658886291435578642 1:0.01118211 2:0.00319489 3:0.00319489 4:0.00638978 5:0.00319489 6:0.025559099 7:0.0047923299 9:0.01597444 10:0.01277955 11:0.017571891 12:0.0095846597 14:0.00319489 15:0.01277955 16:0.017571891 20:0.00638978 24:0.054288819 30:0.054288819 34:0.054288819 44:0.054288819 47:0.054288819 70:0.054288819 73:0.054288819 77:0.054288819 81:0.054288819 92:0.054288819 101:0.054288819 107:0.054288819 110:0.054288819 120:0.10857763 125:0.054288819 142:0.054288819 145:0.054288819 149:0.054288819 155:0.054288819 165:0.054288819 178:0.054288819 193:0.054288819 198:0.054288819 264:0.054288819 273:0.054288819 366:0.054288819 369:0.054288819 375:0.054288819 377:0.054288819 413:0.054288819 416:0.10857763 422:0.10857763 448:0.054288819 450:0.054288819 454:0.054288819 469:0.054288819 483:0.10857763 489:0.054288819 509:0.054288819 518:0.054288819 525:0.054288819 528:0.054288819 532:0.054288819 552:0.054288819 573:0.054288819 577:0.054288819 578:0.054288819 588:0.054288819 591:0.054288819 618:0.054288819 621:0.054288819 643:0.054288819 660:0.054288819 679:0.054288819 680:0.054288819 697:0.054288819 710:0.054288819 737:0.054288819 749:0.054288819 752:0.054288819 753:0.054288819 779:0.054288819 782:0.054288819 783:0.054288819 791:0.054288819 792:0.054288819 795:0.054288819 828:0.054288819 847:0.054288819 889:0.054288819 946:0.054288819 951:0.054288819 956:0.054288819 959:0.054288819 1002:0.054288819 1022:0.054288819 1024:0.054288819 1025:0.054288819 1030:0.054288819 1045:0.054288819 1046:0.054288819 1089:0.054288819 1114:0.054288819 1142:0.054288819 1148:0.054288819 1153:0.054288819 1183:0.054288819 1201:0.054288819 1203:0.054288819 1208:0.054288819 1249:0.054288819 1272:0.054288819 1279:0.054288819 1300:0.054288819 1302:0.054288819 1308:0.054288819 1310:0.054288819 1321:0.054288819 1325:0.054288819 1327:0.054288819 1330:0.054288819 1337:0.10857763 1354:0.054288819 1362:0.054288819 1369:0.054288819 1376:0.054288819 1386:0.054288819 1396:0.054288819 1411:0.054288819 1420:0.054288819 1432:0.054288819 1434:0.054288819 1445:0.054288819 1474:0.054288819 1481:0.054288819 1483:0.054288819 1486:0.054288819 1492:0.10857763 1499:0.054288819 1505:0.10857763 1509:0.054288819 1527:0.054288819 1528:0.054288819 1534:0.054288819 1544:0.054288819 1572:0.054288819 1582:0.10857763 1585:0.054288819 1587:0.054288819 1591:0.054288819 1628:0.054288819 1631:0.054288819 1633:0.10857763 1634:0.054288819 1646:0.054288819 1653:0.054288819 1671:0.054288819 1674:0.054288819 1678:0.054288819 1680:0.054288819 1686:0.054288819 1702:0.054288819 1722:0.054288819 1723:0.054288819 1725:0.054288819 1729:0.10857763 1733:0.054288819 1739:0.054288819 1741:0.054288819 1742:0.054288819 1748:0.054288819 1749:0.10857763 1758:0.054288819 1767:0.10857763 1792:0.054288819 1795:0.054288819 1801:0.054288819 1804:0.054288819 1807:0.054288819 1814:0.054288819 1823:0.054288819 1829:0.054288819 1836:0.054288819 1848:0.054288819 1883:0.054288819 1940:0.054288819 1948:0.054288819 1985:0.054288819 1986:0.054288819 1996:0.054288819 1998:0.054288819 2044:0.054288819 2095:0.054288819 2099:0.054288819 2102:0.054288819 2106:0.054288819 2120:0.054288819 2155:0.10857763 2170:0.054288819 2192:0.054288819 2218:0.054288819 2220:0.054288819 2226:0.054288819 2228:0.054288819 2239:0.054288819 2243:0.054288819 2266:0.054288819 2270:0.054288819 2283:0.054288819 2285:0.054288819 2318:0.054288819 2385:0.054288819 2386:0.054288819 2420:0.054288819 2429:0.054288819 2431:0.054288819 2437:0.054288819 2449:0.054288819 2454:0.054288819 2462:0.054288819 2495:0.054288819 2496:0.10857763 2497:0.054288819 2507:0.054288819 2522:0.054288819 2534:0.054288819 2548:0.054288819 2580:0.10857763 2585:0.054288819 2589:0.054288819 2606:0.054288819 2609:0.054288819 2622:0.054288819 2634:0.054288819 2651:0.054288819 2665:0.054288819 2669:0.054288819 2679:0.054288819 2688:0.054288819 2714:0.054288819 2716:0.054288819 2720:0.054288819 2722:0.054288819 2730:0.054288819 2779:0.054288819 2788:0.054288819 2827:0.054288819 2836:0.054288819 2845:0.054288819 2847:0.054288819 2866:0.054288819 2871:0.054288819 2880:0.054288819 2891:0.054288819 2892:0.054288819 2896:0.054288819 2908:0.054288819 2914:0.054288819 2924:0.054288819 2932:0.054288819 2935:0.054288819 2945:0.054288819 2951:0.10857763 2965:0.054288819 2969:0.054288819 2971:0.054288819 2972:0.054288819 2974:0.054288819 2981:0.054288819 2984:0.054288819 2996:0.054288819 3027:0.054288819 3063:0.054288819 3064:0.054288819 3069:0.10857763 3071:0.054288819 3075:0.10857763 3112:0.054288819 3116:0.054288819 3120:0.10857763 3159:0.054288819 3165:0.054288819 3196:0.054288819 3226:0.054288819 3231:0.054288819 3235:0.054288819 3239:0.054288819 3272:0.054288819 3273:0.054288819 3275:0.054288819 3286:0.054288819 3290:0.054288819 3291:0.054288819 3304:0.054288819 3404:0.054288819 3494:0.054288819 3536:0.054288819 3546:0.054288819 3582:0.054288819 3599:0.054288819 3601:0.054288819 3607:0.054288819 3618:0.054288819 3622:0.054288819 3628:0.054288819 3643:0.054288819 3674:0.24390244 3675:0.16260162 3677:0.08130081 3678:0.08130081 3679:0.24390244 3680:0.32520324 3682:0.16260162 3683:0.16260162 3684:0.16260162 3685:0.16260162 3687:0.24390244 3688:0.16260162 3692:0.08130081 3693:0.32520324 3694:0.08130081 3697:0.40650406 3698:0.16260162 3699:0.08130081 3700:0.08130081 3701:0.08130081 3702:0.32520324 3703:0.08130081 3704:0.24390244 3705:0.16260162 3706:0.08130081 3708:0.40650406 3709:0.08130081 3710:0.24390244 3712:0.08130081 3714:0.08130081 3715:0.16260162 3716:0.08130081 3717:0.16260162 3718:0.08130081 3719:0.24390244 3721:0.24390244 3722:0.24390244 3724:0.16260162 3726:0.16260162 3729:0.16260162 3732:0.08130081 3733:0.32520324 3734:0.08130081 3735:0.08130081 3736:0.08130081 3737:0.16260162 3738:0.16260162 3739:0.24390244 3740:0.08130081 3741:0.08130081 3742:0.08130081 3743:0.08130081 3744:0.08130081 3745:0.24390244 3747:0.08130081 3748:0.08130081 3749:0.40650406 3752:0.24390244 3754:0.24390244 3756:0.08130081 3757:0.32520324 3758:0.16260162 3759:0.32520324 3760:0.32520324 3761:0.08130081 3762:0.08130081 3763:0.24390244 3764:0.08130081 3765:0.08130081 3766:0.08130081 3767:0.16260162 3768:0.08130081 3770:0.08130081 3771:0.48780489 3772:0.24390244 3773:0.32520324 3774:0.16260162 3775:0.24390244 3776:0.24390244 3778:0.16260162 3779:0.40650406 3780:0.32520324 3781:0.08130081 3782:0.24390244 3783:0.32520324 3784:0.08130081 3785:0.08130081 3786:0.48780489 3787:0.48780489 3788:0.24390244 3789:0.40650406 3791:0.24390244 3792:0.24390244 3793:0.16260162 3794:0.08130081 3797:0.16260162 3800:0.08130081 3801:0.16260162 3802:0.08130081 3804:0.16260162 3806:0.08130081 3807:0.08130081 3810:0.16260162 3811:0.16260162 3812:0.24390244 3814:0.08130081 3815:0.16260162 3816:0.08130081 3817:0.24390244 3818:0.32520324 3821:0.24390244 3822:0.08130081 3823:0.16260162 3824:0.48780489 3825:0.40650406 3827:0.24390244 3828:0.24390244 3831:0.16260162 3832:0.08130081 3833:0.32520324 3834:0.24390244 3835:0.16260162 3836:0.24390244 3838:0.08130081 3839:0.08130081 3840:0.48780489 3841:0.16260162 3844:0.32520324 3846:0.16260162 3847:0.08130081 3848:0.08130081 3849:0.16260162 3850:0.16260162 3851:0.08130081 3852:0.32520324 3853:0.08130081 3856:0.08130081 3857:0.08130081 3858:0.08130081 3860:0.16260162 3861:0.16260162 3862:0.08130081 3863:0.08130081 3864:0.08130081 3865:0.32520324 3866:0.16260162 3867:0.24390244 3868:0.40650406 3870:0.48780489 3871:0.24390244 3872:0.16260162 3874:0.16260162 3877:0.16260162 3878:0.08130081 3880:0.08130081 3881:0.24390244 3883:0.40650406 3885:0.08130081 3887:0.08130081 3888:0.16260162 3889:0.16260162 3890:0.08130081 3891:0.08130081 3892:0.48780489 3893:0.24390244 3895:0.08130081 3896:0.24390244 3897:0.08130081 3898:0.08130081 3899:0.08130081 3901:0.08130081 3902:0.08130081 3903:0.08130081 3905:0.08130081 3910:0.08130081 3911:0.08130081 3915:0.08130081 3916:0.40650406 3917:0.16260162 3918:0.08130081 3919:0.08130081 3921:0.066558443 3922:0.0097402604 3923:0.051948048 3924:0.050324671 3925:0.02922078 3926:0.050324671 3927:0.045454551 3928:0.064935073 3929:0.069805197 3930:0.094155841 3931:0.02922078 3932:0.051948048 3933:0.05681818 3934:0.058441561 3935:0.04383117 3936:0.090909094 3937:0.040584419 3938:0.051948048 3939:0.01136364 3940:0.032467529 3941:0.029529 3942:0.00092700002 3943:0.001634 3944:0.000103 3945:0.345779 #
-0.073946129078453451399788320941298 1:0.01702128 4:0.0085106399 7:0.0085106399 8:0.02553191 9:0.01702128 11:0.0085106399 12:0.021276601 14:0.0085106399 15:0.0085106399 16:0.0085106399 17:0.0085106399 19:0.0085106399 20:0.0085106399 27:0.14306152 28:0.14306152 61:0.14306152 74:0.14306152 96:0.28612304 113:0.14306152 116:0.14306152 124:0.28612304 150:0.14306152 154:0.14306152 183:0.14306152 192:0.14306152 206:0.14306152 355:0.14306152 401:0.14306152 408:0.14306152 419:0.14306152 443:0.14306152 483:0.14306152 586:0.14306152 593:0.14306152 618:0.14306152 622:0.14306152 629:0.14306152 699:0.14306152 707:0.14306152 759:0.14306152 782:0.14306152 796:0.14306152 847:0.14306152 890:0.14306152 924:0.14306152 926:0.14306152 931:0.14306152 941:0.14306152 1026:0.14306152 1027:0.14306152 1072:0.14306152 1108:0.14306152 1126:0.14306152 1251:0.14306152 1268:0.14306152 1337:0.14306152 1340:0.14306152 1365:0.14306152 1386:0.14306152 1389:0.14306152 1402:0.14306152 1415:0.14306152 1417:0.14306152 1497:0.14306152 1498:0.14306152 1509:0.14306152 1554:0.14306152 1559:0.14306152 1625:0.14306152 1626:0.14306152 1628:0.14306152 1647:0.14306152 1683:0.14306152 1735:0.14306152 1761:0.14306152 1771:0.14306152 1785:0.14306152 1786:0.14306152 1801:0.14306152 1823:0.14306152 1857:0.14306152 1935:0.14306152 2069:0.14306152 2084:0.14306152 2115:0.14306152 2146:0.14306152 2269:0.14306152 2329:0.14306152 2349:0.14306152 2409:0.14306152 2449:0.14306152 2531:0.14306152 2539:0.14306152 2565:0.14306152 2585:0.14306152 2631:0.14306152 2634:0.14306152 2682:0.14306152 2692:0.14306152 2872:0.14306152 2874:0.14306152 2899:0.14306152 2900:0.14306152 2909:0.14306152 2919:0.14306152 2935:0.14306152 2943:0.14306152 2953:0.14306152 2970:0.14306152 2986:0.14306152 3013:0.14306152 3075:0.14306152 3087:0.14306152 3124:0.14306152 3193:0.14306152 3214:0.14306152 3230:0.14306152 3235:0.14306152 3272:0.14306152 3286:0.14306152 3292:0.14306152 3365:0.14306152 3370:0.14306152 3374:0.14306152 3444:0.14306152 3557:0.14306152 3563:0.14306152 3613:0.14306152 3658:0.14306152 3674:0.42735043 3675:0.42735043 3678:0.42735043 3679:0.42735043 3680:0.85470086 3682:0.21367522 3684:0.42735043 3685:0.21367522 3686:0.21367522 3687:0.21367522 3692:0.42735043 3696:0.42735043 3697:0.21367522 3702:0.21367522 3703:0.21367522 3705:0.21367522 3707:0.21367522 3709:0.21367522 3710:0.21367522 3712:0.42735043 3720:0.21367522 3721:0.21367522 3722:0.21367522 3723:0.21367522 3726:0.42735043 3728:0.21367522 3729:0.21367522 3731:0.21367522 3732:0.85470086 3734:0.21367522 3736:0.21367522 3737:0.21367522 3740:0.42735043 3742:0.21367522 3744:0.21367522 3748:0.21367522 3752:0.21367522 3758:0.21367522 3760:0.42735043 3761:0.21367522 3762:0.42735043 3763:0.64102566 3765:0.21367522 3766:0.64102566 3768:0.21367522 3770:0.21367522 3772:0.64102566 3773:0.42735043 3776:0.21367522 3777:0.21367522 3779:0.85470086 3780:0.21367522 3781:0.42735043 3782:0.21367522 3783:0.21367522 3784:0.21367522 3787:0.21367522 3789:0.64102566 3790:0.42735043 3791:0.42735043 3792:0.21367522 3794:0.21367522 3797:0.21367522 3800:0.21367522 3810:0.21367522 3811:0.21367522 3812:0.21367522 3816:0.21367522 3817:0.21367522 3818:0.21367522 3820:0.21367522 3823:0.42735043 3825:0.21367522 3826:0.21367522 3827:0.42735043 3831:0.42735043 3832:0.21367522 3835:0.21367522 3840:0.21367522 3841:0.21367522 3843:0.21367522 3844:0.64102566 3847:0.42735043 3850:0.21367522 3851:0.21367522 3858:0.42735043 3866:0.21367522 3867:0.21367522 3868:0.21367522 3869:0.42735043 3870:0.21367522 3871:0.21367522 3874:0.21367522 3875:0.21367522 3880:0.21367522 3882:0.21367522 3884:0.21367522 3885:0.42735043 3887:0.42735043 3889:0.21367522 3890:0.21367522 3892:0.21367522 3893:0.21367522 3896:0.21367522 3897:0.21367522 3898:0.21367522 3904:0.21367522 3905:0.21367522 3906:0.21367522 3914:0.21367522 3916:0.21367522 3921:0.11489362 3922:0 3923:0.051063828 3924:0.046808511 3925:0.04255319 3926:0.089361697 3927:0.034042548 3928:0.055319149 3929:0.068085097 3930:0.089361697 3931:0.01276596 3932:0.04255319 3933:0.04255319 3934:0.046808511 3935:0.038297869 3936:0.080851063 3937:0.038297869 3938:0.038297869 3939:0.02553191 3940:0.04255319 3941:0.0051770001 3942:2.9999999e-05 3943:4.5000001e-05 3944:1e-06 3945:0.35319099 #
-0.063456591376451931818536422724719 1:0.0080321301 2:0.0080321301 3:0.0080321301 4:0.0080321301 7:0.0080321301 8:0.01606426 11:0.0080321301 15:0.024096381 16:0.040160641 17:0.01606426 20:0.028112451 52:0.13495277 95:0.13495277 96:0.13495277 120:0.13495277 149:0.13495277 170:0.13495277 175:0.13495277 190:0.13495277 192:0.13495277 243:0.13495277 306:0.13495277 382:0.13495277 393:0.13495277 422:0.26990554 441:0.13495277 477:0.13495277 486:0.13495277 501:0.13495277 503:0.13495277 525:0.13495277 547:0.13495277 646:0.13495277 715:0.13495277 751:0.13495277 848:0.13495277 862:0.13495277 885:0.13495277 905:0.13495277 909:0.13495277 914:0.13495277 924:0.13495277 947:0.13495277 996:0.13495277 1000:0.13495277 1006:0.13495277 1020:0.13495277 1039:0.13495277 1041:0.13495277 1181:0.13495277 1255:0.13495277 1326:0.13495277 1370:0.13495277 1384:0.13495277 1438:0.13495277 1518:0.13495277 1649:0.13495277 1666:0.13495277 1687:0.13495277 1689:0.13495277 1731:0.13495277 1733:0.13495277 1768:0.13495277 1793:0.13495277 1802:0.13495277 1815:0.13495277 1853:0.13495277 2006:0.13495277 2025:0.13495277 2231:0.13495277 2266:0.13495277 2269:0.13495277 2271:0.13495277 2300:0.13495277 2302:0.13495277 2314:0.13495277 2319:0.26990554 2391:0.13495277 2410:0.13495277 2530:0.13495277 2577:0.13495277 2609:0.13495277 2611:0.13495277 2648:0.13495277 2669:0.13495277 2688:0.13495277 2700:0.13495277 2801:0.13495277 2811:0.13495277 2814:0.13495277 2822:0.13495277 2826:0.13495277 2874:0.13495277 2876:0.13495277 2879:0.13495277 2916:0.13495277 2927:0.13495277 2943:0.13495277 2962:0.13495277 2965:0.40485829 2970:0.13495277 3017:0.26990554 3040:0.13495277 3043:0.13495277 3062:0.13495277 3073:0.13495277 3120:0.13495277 3131:0.13495277 3137:0.13495277 3148:0.13495277 3169:0.13495277 3232:0.13495277 3283:0.13495277 3284:0.13495277 3297:0.13495277 3324:0.13495277 3402:0.13495277 3533:0.13495277 3565:0.13495277 3674:0.2016129 3675:0.2016129 3676:0.60483873 3678:0.40322581 3679:0.2016129 3680:0.2016129 3682:0.2016129 3683:0.40322581 3684:0.60483873 3685:0.2016129 3692:0.2016129 3693:0.2016129 3694:0.2016129 3695:0.2016129 3697:0.80645162 3701:0.2016129 3702:0.40322581 3703:0.40322581 3704:0.2016129 3705:0.2016129 3706:0.2016129 3712:0.40322581 3714:0.2016129 3716:0.2016129 3719:0.40322581 3726:0.2016129 3727:0.60483873 3729:0.2016129 3732:0.2016129 3736:0.40322581 3737:0.2016129 3738:0.40322581 3739:0.40322581 3740:0.2016129 3747:0.2016129 3752:0.2016129 3759:0.40322581 3763:0.40322581 3764:0.2016129 3766:0.2016129 3767:0.2016129 3769:0.2016129 3773:0.40322581 3780:0.40322581 3781:0.2016129 3783:0.40322581 3786:0.40322581 3787:0.2016129 3789:0.40322581 3791:0.40322581 3792:0.2016129 3794:0.2016129 3798:0.2016129 3805:0.2016129 3806:0.2016129 3807:0.2016129 3811:0.2016129 3813:0.2016129 3814:0.2016129 3816:0.40322581 3823:0.80645162 3825:0.60483873 3826:1.0080645 3827:0.40322581 3828:0.40322581 3830:0.2016129 3840:0.2016129 3844:0.40322581 3846:0.40322581 3848:0.2016129 3849:0.2016129 3850:0.40322581 3851:0.2016129 3853:0.2016129 3857:0.2016129 3858:0.2016129 3859:0.60483873 3860:0.2016129 3867:0.2016129 3869:0.2016129 3870:1.0080645 3875:0.80645162 3879:0.2016129 3880:0.2016129 3882:0.2016129 3883:0.40322581 3884:0.40322581 3885:0.2016129 3886:0.2016129 3887:0.2016129 3888:0.60483873 3890:0.2016129 3892:0.40322581 3894:0.2016129 3896:0.40322581 3897:0.2016129 3899:0.2016129 3914:0.2016129 3916:0.2016129 3921:0.10040161 3922:0.01204819 3923:0.056224901 3924:0.036144581 3925:0.052208841 3926:0.064257033 3927:0.01606426 3928:0.036144581 3929:0.024096381 3930:0.076305218 3931:0.020080321 3932:0.024096381 3933:0.1124498 3934:0.036144581 3935:0.064257033 3936:0.080321282 3937:0.08835341 3938:0.080321282 3939:0.0040160599 3940:0.01606426 3941:0.0054139998 3942:-3.5000001e-05 3943:5.0999999e-05 3944:-1e-06 3945:0.37751001 #
0.15689983876338625679025540193834 3:0.0042734998 7:0.0042734998 8:0.0085470099 10:0.0042734998 11:0.01068376 12:0.0042734998 14:0.0085470099 15:0.0042734998 16:0.02991453 17:0.064102568 20:0.0064102602 78:0.071530759 117:0.071530759 149:0.071530759 183:0.071530759 188:0.071530759 192:0.21459228 193:0.071530759 311:0.071530759 326:0.071530759 331:0.071530759 333:0.071530759 407:0.071530759 411:0.071530759 466:0.071530759 470:0.071530759 471:0.071530759 474:0.071530759 476:0.071530759 477:0.071530759 485:0.071530759 493:0.071530759 517:0.071530759 542:0.071530759 665:0.071530759 706:0.071530759 776:0.071530759 779:0.071530759 812:0.071530759 813:0.071530759 851:0.071530759 859:0.071530759 862:0.071530759 909:0.14306152 914:0.071530759 917:0.071530759 930:0.14306152 992:0.071530759 1028:0.14306152 1030:0.071530759 1034:0.071530759 1036:0.071530759 1054:0.071530759 1060:0.071530759 1219:0.071530759 1313:0.071530759 1357:0.071530759 1371:0.071530759 1387:0.14306152 1393:0.071530759 1394:0.14306152 1398:0.071530759 1416:0.071530759 1419:0.071530759 1499:0.071530759 1577:0.071530759 1581:0.071530759 1692:0.071530759 1716:0.071530759 1740:0.071530759 1762:0.071530759 1791:0.071530759 1795:0.071530759 1815:0.071530759 1817:0.071530759 1984:0.071530759 2088:0.071530759 2134:0.071530759 2143:0.14306152 2163:0.071530759 2164:0.071530759 2168:0.071530759 2172:0.071530759 2175:0.071530759 2176:0.071530759 2204:0.071530759 2233:0.071530759 2253:0.071530759 2286:0.071530759 2291:0.071530759 2322:0.071530759 2323:0.071530759 2324:0.071530759 2328:0.071530759 2490:0.071530759 2527:0.071530759 2537:0.071530759 2548:0.071530759 2627:0.071530759 2714:0.071530759 2720:0.071530759 2755:0.071530759 2883:0.071530759 2894:0.071530759 2907:0.14306152 2910:0.14306152 2924:0.071530759 2935:0.071530759 2939:0.071530759 2945:0.071530759 2951:0.071530759 2958:0.071530759 2966:0.071530759 2969:0.071530759 2970:0.14306152 2973:0.071530759 2974:0.071530759 2982:0.071530759 2985:0.14306152 2987:0.071530759 2988:0.21459228 2990:0.071530759 2995:0.071530759 3005:0.071530759 3007:0.071530759 3009:0.071530759 3015:0.14306152 3017:0.14306152 3021:0.071530759 3027:0.21459228 3033:0.071530759 3037:0.071530759 3039:0.071530759 3040:0.071530759 3047:0.071530759 3048:0.071530759 3049:0.071530759 3057:0.071530759 3059:0.14306152 3067:0.14306152 3075:0.14306152 3078:0.071530759 3090:0.071530759 3093:0.071530759 3115:0.14306152 3117:0.071530759 3120:0.071530759 3122:0.14306152 3123:0.14306152 3124:0.071530759 3125:0.071530759 3126:0.071530759 3128:0.14306152 3130:0.071530759 3132:0.14306152 3133:0.14306152 3134:0.42918456 3135:0.14306152 3139:0.071530759 3141:0.14306152 3142:0.3576538 3143:0.071530759 3151:0.071530759 3154:0.071530759 3203:0.071530759 3228:0.071530759 3232:0.14306152 3246:0.071530759 3278:0.071530759 3309:0.071530759 3310:0.071530759 3311:0.071530759 3312:0.071530759 3313:0.071530759 3314:0.071530759 3317:0.071530759 3318:0.14306152 3456:0.071530759 3500:0.071530759 3502:0.071530759 3503:0.071530759 3534:0.14306152 3571:0.071530759 3637:0.071530759 3644:0.071530759 3648:0.071530759 3653:0.071530759 3666:0.071530759 3675:0.10706638 3679:0.10706638 3680:0.10706638 3681:0.10706638 3684:0.6423983 3685:0.21413276 3687:0.10706638 3690:0.21413276 3691:0.10706638 3692:0.10706638 3694:0.10706638 3697:0.21413276 3698:0.10706638 3700:0.5353319 3701:0.32119915 3702:0.32119915 3703:0.10706638 3704:0.10706638 3705:0.10706638 3706:0.10706638 3708:0.10706638 3709:0.10706638 3712:0.10706638 3715:0.10706638 3716:0.10706638 3718:0.10706638 3721:0.21413276 3722:0.10706638 3723:0.5353319 3726:0.10706638 3727:0.21413276 3729:0.10706638 3730:0.32119915 3732:0.21413276 3734:0.10706638 3736:0.10706638 3738:0.6423983 3739:0.32119915 3750:0.10706638 3752:0.10706638 3754:0.10706638 3756:0.10706638 3757:0.10706638 3758:0.10706638 3759:0.10706638 3761:0.10706638 3763:0.32119915 3764:0.74946469 3766:0.21413276 3768:0.10706638 3769:0.21413276 3771:0.10706638 3772:0.10706638 3778:0.21413276 3780:0.10706638 3781:0.10706638 3783:0.21413276 3785:0.10706638 3786:0.10706638 3787:0.32119915 3789:0.21413276 3790:0.32119915 3791:0.32119915 3802:0.10706638 3810:0.10706638 3811:0.21413276 3812:0.10706638 3813:0.10706638 3814:0.10706638 3815:0.42826551 3817:0.21413276 3818:0.32119915 3819:0.21413276 3821:0.10706638 3822:0.21413276 3824:0.21413276 3825:0.10706638 3827:0.32119915 3828:0.42826551 3836:0.10706638 3838:0.10706638 3840:0.21413276 3841:0.10706638 3844:0.10706638 3848:0.10706638 3852:0.21413276 3855:0.21413276 3856:0.10706638 3859:0.21413276 3862:0.10706638 3863:0.10706638 3864:0.21413276 3865:0.21413276 3866:0.6423983 3867:0.32119915 3868:0.21413276 3869:0.10706638 3870:0.74946469 3871:0.42826551 3872:0.6423983 3874:0.42826551 3875:0.74946469 3876:0.21413276 3877:0.42826551 3878:0.10706638 3879:0.32119915 3880:0.5353319 3881:0.42826551 3882:0.42826551 3883:0.85653102 3884:1.9271948 3885:0.96359742 3886:0.21413276 3887:0.21413276 3888:0.32119915 3890:0.42826551 3891:0.10706638 3892:0.42826551 3893:0.10706638 3894:0.21413276 3896:0.10706638 3898:0.6423983 3899:0.74946469 3901:0.10706638 3910:0.21413276 3911:0.21413276 3914:0.42826551 3918:0.10706638 3919:0.32119915 3920:0.10706638 3921:0.0534188 3922:0.01923077 3923:0.0491453 3924:0.02777778 3925:0.047008552 3926:0.068376072 3927:0.0042734998 3928:0.05555556 3929:0.036324792 3930:0.05555556 3931:0.0064102602 3932:0.05982906 3933:0.051282048 3934:0.02350427 3935:0.02350427 3936:0.10897436 3937:0.16880342 3938:0.089743592 3939:0.01282051 3940:0.03846154 3941:0.018077999 3942:0.00039999999 3943:0.000619 3944:3.4000001e-05 3945:0.32692301 #
0.069750426709891372167859913133725 1:0.0017452 3:0.0017452 4:0.0017452 9:0.0052355998 11:0.0043629999 12:0.0017452 15:0.0017452 16:0.049738221 17:0.0017452 19:0.0017452 25:0.029137529 74:0.029137529 78:0.029137529 83:0.029137529 85:0.029137529 145:0.029137529 326:0.029137529 386:0.029137529 399:0.029137529 417:0.029137529 484:0.029137529 490:0.029137529 557:0.029137529 581:0.029137529 589:0.058275059 661:0.029137529 736:0.029137529 785:0.029137529 818:0.029137529 891:0.029137529 893:0.029137529 933:0.029137529 935:0.029137529 965:0.029137529 973:0.029137529 1013:0.029137529 1058:0.029137529 1085:0.029137529 1116:0.029137529 1158:0.029137529 1182:0.029137529 1186:0.029137529 1189:0.029137529 1190:0.029137529 1321:0.029137529 1453:0.029137529 1474:0.029137529 1533:0.029137529 1573:0.029137529 1652:0.029137529 1674:0.029137529 1696:0.029137529 1731:0.029137529 1732:0.029137529 1743:0.029137529 1762:0.029137529 1811:0.029137529 1818:0.029137529 1985:0.029137529 2086:0.029137529 2094:0.029137529 2095:0.029137529 2164:0.029137529 2228:0.029137529 2236:0.029137529 2291:0.029137529 2302:0.029137529 2322:0.029137529 2349:0.029137529 2662:0.029137529 2718:0.029137529 2723:0.029137529 2865:0.029137529 2969:0.029137529 2970:0.029137529 2972:0.029137529 2976:0.029137529 2995:0.029137529 3006:0.029137529 3007:0.029137529 3010:0.029137529 3054:0.029137529 3089:0.029137529 3133:0.029137529 3159:0.029137529 3246:0.029137529 3256:0.029137529 3273:0.029137529 3309:0.058275059 3365:0.029137529 3397:0.058275059 3544:0.029137529 3595:0.029137529 3616:0.029137529 3635:0.029137529 3674:0.043668121 3677:0.087336242 3683:0.043668121 3688:0.13100436 3690:0.17467248 3691:0.087336242 3692:0.043668121 3693:0.087336242 3694:0.34934497 3695:0.087336242 3696:0.043668121 3697:0.30567685 3698:0.043668121 3700:1.3973799 3701:0.043668121 3702:0.087336242 3704:0.043668121 3707:0.087336242 3709:1.441048 3710:1.0480349 3712:0.043668121 3715:0.043668121 3717:0.043668121 3720:0.39301309 3721:0.087336242 3722:0.043668121 3725:0.043668121 3727:0.043668121 3729:0.087336242 3731:0.21834061 3733:0.043668121 3734:0.13100436 3737:0.043668121 3738:0.087336242 3741:0.17467248 3742:0.043668121 3744:0.21834061 3745:0.17467248 3747:0.26200873 3751:0.043668121 3756:0.043668121 3758:0.043668121 3759:0.043668121 3768:0.34934497 3770:0.17467248 3772:0.043668121 3773:0.21834061 3775:0.043668121 3778:0.087336242 3780:0.087336242 3782:0.043668121 3784:0.043668121 3786:0.043668121 3787:0.13100436 3789:0.043668121 3792:0.13100436 3793:0.043668121 3811:0.13100436 3814:0.043668121 3815:0.043668121 3816:0.043668121 3817:0.087336242 3818:0.043668121 3821:0.13100436 3822:0.21834061 3823:0.13100436 3824:0.043668121 3825:0.043668121 3826:0.043668121 3828:0.087336242 3829:0.043668121 3836:0.043668121 3842:0.043668121 3843:0.043668121 3844:0.043668121 3845:0.043668121 3846:0.043668121 3849:0.043668121 3852:0.087336242 3861:0.043668121 3862:0.043668121 3864:0.087336242 3865:0.043668121 3866:0.043668121 3870:1.3537118 3872:0.043668121 3873:0.087336242 3874:0.39301309 3878:0.043668121 3880:0.087336242 3882:0.043668121 3883:0.087336242 3884:0.043668121 3888:0.043668121 3891:0.087336242 3893:0.087336242 3894:0.087336242 3898:0.17467248 3903:0.043668121 3904:0.087336242 3905:0.21834061 3908:0.043668121 3910:0.043668121 3912:0.043668121 3916:0.087336242 3918:0.043668121 3920:0.087336242 3921:0.0069808001 3922:0.080279231 3923:0.14485165 3924:0.076788828 3925:0.023560209 3926:0.02094241 3927:0.059336819 3928:0.0026177999 3929:0.11343805 3930:0.05322862 3931:0.00087260001 3932:0.055846419 3933:0.03839441 3934:0.0026177999 3935:0.0069808001 3936:0.075043634 3937:0.0095985997 3938:0.01221641 3939:0.13176265 3940:0.084642231 3941:0.133928 3942:0.001952 3943:0.029957 3944:0.00098699995 3945:0.179756 #
-0.035795370333897492953756369615803 1:0.0046728998 2:0.0046728998 4:0.01401869 7:0.02803738 8:0.0046728998 10:0.0046728998 11:0.01401869 12:0.02336449 14:0.0070093502 16:0.15186916 24:0.078247257 54:0.078247257 73:0.078247257 105:0.078247257 125:0.078247257 184:0.078247257 303:0.078247257 367:0.15649453 375:0.078247257 399:0.078247257 405:0.15649453 407:0.078247257 466:0.078247257 502:0.078247257 518:0.078247257 521:0.23474178 527:0.15649453 531:0.078247257 532:0.078247257 534:0.078247257 547:0.078247257 578:0.078247257 579:0.078247257 582:0.078247257 583:0.078247257 585:0.078247257 587:0.078247257 594:0.078247257 597:0.078247257 621:0.078247257 623:0.078247257 626:0.078247257 635:0.078247257 662:0.078247257 665:0.5477308 678:0.078247257 747:0.078247257 753:0.078247257 761:0.078247257 787:0.078247257 851:0.078247257 866:0.078247257 887:0.078247257 950:0.078247257 951:0.078247257 964:0.078247257 1004:0.078247257 1103:0.078247257 1144:0.078247257 1153:0.078247257 1253:0.078247257 1269:0.078247257 1273:0.078247257 1322:0.078247257 1419:0.078247257 1438:0.078247257 1439:0.078247257 1440:0.15649453 1445:0.078247257 1454:0.078247257 1455:0.078247257 1460:0.078247257 1461:0.078247257 1494:0.078247257 1497:0.078247257 1504:0.15649453 1505:0.078247257 1514:0.078247257 1515:0.078247257 1525:0.078247257 1533:0.078247257 1534:0.15649453 1542:0.078247257 1548:0.078247257 1550:0.078247257 1561:0.078247257 1565:0.078247257 1567:0.078247257 1575:0.078247257 1588:0.078247257 1626:0.078247257 1635:0.078247257 1662:0.078247257 1723:0.078247257 1728:0.078247257 1737:0.078247257 1739:0.078247257 1740:0.15649453 1764:0.078247257 1774:0.078247257 1778:0.078247257 1783:0.078247257 1807:0.15649453 1824:0.078247257 1950:0.078247257 2089:0.078247257 2112:0.078247257 2147:0.078247257 2171:0.078247257 2217:0.078247257 2304:0.078247257 2309:0.078247257 2385:0.078247257 2396:0.078247257 2452:0.078247257 2461:0.15649453 2488:0.078247257 2510:0.15649453 2550:0.078247257 2586:0.078247257 2651:0.078247257 2656:0.078247257 2677:0.078247257 2697:0.15649453 2699:0.078247257 2740:0.078247257 2763:0.078247257 2785:0.078247257 2807:0.078247257 2883:2.0344288 2886:0.078247257 2888:0.62597811 2901:0.078247257 2908:0.078247257 2910:0.078247257 2916:0.078247257 2939:0.078247257 2949:0.078247257 2959:0.078247257 2965:0.078247257 2966:1.0172144 2967:0.23474178 2971:0.078247257 2972:2.1126761 2973:0.15649453 2978:0.078247257 2984:0.078247257 3007:0.078247257 3027:0.078247257 3069:0.078247257 3101:0.078247257 3120:0.078247257 3147:0.078247257 3178:0.078247257 3191:0.078247257 3195:0.078247257 3238:0.078247257 3296:0.078247257 3308:0.078247257 3394:0.15649453 3674:0.11709602 3675:0.11709602 3679:0.11709602 3680:0.11709602 3684:0.23419204 3687:0.11709602 3688:0.11709602 3693:0.35128805 3694:0.11709602 3696:0.11709602 3697:0.11709602 3699:0.11709602 3700:3.6299765 3701:0.11709602 3703:0.11709602 3704:1.0538641 3705:0.7025761 3706:0.11709602 3709:0.81967211 3710:0.35128805 3712:0.11709602 3713:0.11709602 3715:1.2880563 3717:0.11709602 3718:0.23419204 3719:0.11709602 3720:0.11709602 3721:0.11709602 3722:0.11709602 3723:0.11709602 3726:0.23419204 3727:0.11709602 3729:0.11709602 3732:0.11709602 3733:0.23419204 3734:0.23419204 3736:0.11709602 3738:0.11709602 3741:0.11709602 3744:0.11709602 3745:0.11709602 3750:0.11709602 3752:0.11709602 3755:0.11709602 3757:0.11709602 3758:0.23419204 3761:0.11709602 3763:0.11709602 3764:0.11709602 3766:0.23419204 3767:0.58548009 3768:0.35128805 3769:0.23419204 3770:0.23419204 3772:0.58548009 3773:0.23419204 3774:0.23419204 3775:0.46838409 3776:0.23419204 3777:0.46838409 3778:0.46838409 3779:0.35128805 3781:0.23419204 3785:0.11709602 3786:0.35128805 3787:0.46838409 3789:0.23419204 3790:0.35128805 3792:0.11709602 3801:0.11709602 3806:0.11709602 3811:0.11709602 3816:0.11709602 3818:0.35128805 3819:0.23419204 3822:0.11709602 3824:0.11709602 3826:0.23419204 3831:0.23419204 3835:0.11709602 3836:0.35128805 3839:0.23419204 3841:0.11709602 3844:0.11709602 3847:0.11709602 3848:0.23419204 3850:0.11709602 3851:0.35128805 3854:0.23419204 3855:0.11709602 3857:0.11709602 3858:0.11709602 3863:3.2786884 3864:1.6393442 3866:0.35128805 3867:0.11709602 3868:0.23419204 3869:0.23419204 3870:5.6206088 3871:0.23419204 3872:0.11709602 3874:0.35128805 3877:0.23419204 3881:0.11709602 3883:0.23419204 3886:0.11709602 3887:0.11709602 3889:0.23419204 3893:0.11709602 3894:0.23419204 3897:0.11709602 3898:0.23419204 3904:0.23419204 3915:0.11709602 3921:0.02803738 3922:0.0046728998 3923:0.11915888 3924:0.10514019 3925:0.03504673 3926:0.03738318 3927:0.0093457904 3928:0.025700931 3929:0.10981309 3930:0.053738318 3931:0.0070093502 3932:0.04205608 3933:0.025700931 3934:0.025700931 3935:0.03037383 3936:0.27102804 3937:0.025700931 3938:0.025700931 3939:0.0046728998 3940:0.01401869 3941:0.02172 3942:0.0020270001 3943:0.00077799999 3944:0.000128 3945:0.17990699 #
-0.31212889080026107180287908704486 2:0.0069930102 3:0.020979021 4:0.01398601 7:0.017482519 8:0.0069930102 11:0.01048951 12:0.020979021 15:0.0069930102 16:0.05244755 17:0.062937073 106:0.11737089 172:0.11737089 249:0.11737089 313:0.11737089 367:0.11737089 417:0.11737089 468:0.35211268 528:0.11737089 529:0.11737089 530:0.11737089 552:0.11737089 562:0.11737089 582:0.11737089 623:0.11737089 675:0.11737089 856:0.11737089 861:0.11737089 940:0.11737089 955:0.11737089 988:0.11737089 1027:0.11737089 1032:0.11737089 1067:0.11737089 1076:0.11737089 1157:0.11737089 1172:0.11737089 1195:0.11737089 1199:0.11737089 1307:0.11737089 1375:0.11737089 1391:0.11737089 1392:0.11737089 1488:0.11737089 1499:0.11737089 1503:0.11737089 1504:0.11737089 1514:0.11737089 1559:0.11737089 1562:0.11737089 1584:0.11737089 1642:0.11737089 1652:0.11737089 1723:0.11737089 1741:0.11737089 1766:0.11737089 1792:0.11737089 1808:0.11737089 1814:0.11737089 2026:0.11737089 2028:0.11737089 2083:0.11737089 2113:0.11737089 2118:0.11737089 2132:0.11737089 2165:0.11737089 2174:0.11737089 2281:0.11737089 2296:0.11737089 2314:0.11737089 2315:0.11737089 2328:0.11737089 2392:0.11737089 2460:0.11737089 2502:0.11737089 2577:0.11737089 2609:0.11737089 2618:0.11737089 2660:0.11737089 2673:0.11737089 2686:0.11737089 2706:0.11737089 2715:0.11737089 2755:0.11737089 2804:0.11737089 2808:0.11737089 2883:0.35211268 2901:0.11737089 2906:0.11737089 2909:0.11737089 2910:0.23474178 2939:0.35211268 2961:0.11737089 2969:0.11737089 2970:0.11737089 2972:0.11737089 2973:0.23474178 2983:0.11737089 2984:0.46948355 2985:0.46948355 2993:0.11737089 3067:0.11737089 3077:0.11737089 3089:0.11737089 3092:0.11737089 3109:0.11737089 3118:0.11737089 3120:0.23474178 3121:0.58685446 3133:0.23474178 3134:0.93896711 3135:0.11737089 3170:0.11737089 3190:0.11737089 3271:0.11737089 3278:0.11737089 3279:0.11737089 3308:0.11737089 3564:0.11737089 3585:0.11737089 3676:0.1754386 3678:0.1754386 3679:0.1754386 3683:0.1754386 3685:0.1754386 3688:0.1754386 3690:0.1754386 3691:0.1754386 3693:0.3508772 3697:0.1754386 3700:1.0526316 3701:0.3508772 3704:0.52631581 3705:0.52631581 3706:0.1754386 3707:0.1754386 3709:0.1754386 3713:0.1754386 3717:0.1754386 3723:0.1754386 3726:0.1754386 3727:0.3508772 3729:0.1754386 3732:0.1754386 3733:0.1754386 3738:0.1754386 3740:0.3508772 3743:0.1754386 3745:0.1754386 3747:0.1754386 3748:0.3508772 3750:0.1754386 3753:0.1754386 3754:0.1754386 3755:0.1754386 3756:0.1754386 3759:0.1754386 3761:0.1754386 3763:0.1754386 3764:0.3508772 3770:0.1754386 3771:0.1754386 3772:0.52631581 3773:0.1754386 3774:0.1754386 3775:0.3508772 3776:0.1754386 3777:0.3508772 3780:0.1754386 3784:0.1754386 3786:0.52631581 3787:0.3508772 3789:0.1754386 3791:0.1754386 3792:0.1754386 3802:0.1754386 3806:0.52631581 3810:0.1754386 3811:0.3508772 3812:0.1754386 3813:0.1754386 3814:0.52631581 3818:0.70175439 3819:0.70175439 3821:0.3508772 3823:0.3508772 3825:0.1754386 3827:0.52631581 3828:0.1754386 3832:0.1754386 3836:0.1754386 3839:0.3508772 3844:0.1754386 3846:0.1754386 3847:0.1754386 3849:0.3508772 3850:0.3508772 3851:0.1754386 3852:0.1754386 3855:0.1754386 3857:0.1754386 3858:0.3508772 3863:0.52631581 3864:0.1754386 3866:0.70175439 3867:0.87719297 3869:0.70175439 3870:1.4035088 3871:1.7543859 3872:0.3508772 3874:0.1754386 3875:0.1754386 3876:0.1754386 3882:1.0526316 3883:1.7543859 3884:2.2807016 3885:0.1754386 3888:0.1754386 3889:0.1754386 3898:0.52631581 3921:0.02447552 3922:0.017482519 3923:0.05244755 3924:0.041958041 3925:0.017482519 3926:0.045454551 3927:0.034965031 3928:0.03846154 3929:0.062937073 3930:0.059440561 3931:0.01398601 3932:0.094405591 3933:0.048951048 3934:0.020979021 3935:0.048951048 3936:0.18881118 3937:0.14335664 3938:0.031468529 3939:0 3940:0.01398601 3941:0.0076120002 3942:0.000126 3943:0.000106 3944:3.0000001e-06 3945:0.202797 #
-0.50900095121146626819808034269954 2:0.0029806299 3:0.019374071 4:0.017883761 6:0.00596125 7:0.0029806299 8:0.0029806299 10:0.0029806299 11:0.0089418804 12:0.01639344 15:0.01043219 16:0.073025338 17:0.049180329 19:0.0029806299 63:0.049825609 103:0.049825609 149:0.049825609 161:0.049825609 176:0.049825609 179:0.049825609 183:0.049825609 184:0.099651217 185:0.099651217 192:0.099651217 230:0.049825609 239:0.049825609 322:0.049825609 354:0.099651217 362:0.099651217 365:0.049825609 415:0.049825609 417:0.049825609 437:0.049825609 446:0.049825609 458:0.049825609 466:0.049825609 469:0.049825609 473:0.049825609 525:0.049825609 532:0.049825609 580:0.049825609 582:0.049825609 596:0.049825609 600:0.049825609 663:0.049825609 669:0.049825609 704:0.049825609 706:0.049825609 739:0.049825609 744:0.049825609 752:0.049825609 779:0.049825609 781:0.049825609 785:0.049825609 792:0.099651217 807:0.049825609 812:0.049825609 828:0.049825609 851:0.099651217 855:0.049825609 893:0.049825609 916:0.099651217 972:0.049825609 988:0.049825609 1005:0.049825609 1028:0.099651217 1035:0.049825609 1117:0.049825609 1199:0.049825609 1205:0.049825609 1213:0.049825609 1257:0.049825609 1273:0.049825609 1288:0.049825609 1317:0.049825609 1323:0.049825609 1351:0.049825609 1375:0.049825609 1378:0.049825609 1387:0.049825609 1388:0.14947683 1389:0.049825609 1393:0.049825609 1399:0.049825609 1431:0.049825609 1455:0.049825609 1467:0.049825609 1471:0.049825609 1483:0.049825609 1490:0.049825609 1495:0.049825609 1499:0.049825609 1505:0.049825609 1506:0.049825609 1507:0.049825609 1524:0.049825609 1534:0.049825609 1578:0.049825609 1579:0.099651217 1581:0.049825609 1589:0.049825609 1646:0.049825609 1652:0.049825609 1721:0.049825609 1724:0.099651217 1725:0.049825609 1729:0.049825609 1738:0.049825609 1740:0.049825609 1767:0.049825609 1779:0.049825609 1781:0.049825609 1801:0.049825609 1809:0.049825609 1813:0.049825609 1814:0.049825609 1815:0.049825609 1816:0.049825609 1825:0.049825609 1863:0.049825609 1910:0.049825609 1937:0.049825609 1960:0.049825609 2020:0.049825609 2084:0.049825609 2109:0.049825609 2110:0.049825609 2115:0.049825609 2120:0.049825609 2139:0.049825609 2159:0.049825609 2166:0.049825609 2168:0.049825609 2169:0.049825609 2177:0.099651217 2180:0.049825609 2193:0.049825609 2226:0.049825609 2261:0.049825609 2262:0.049825609 2274:0.049825609 2288:0.049825609 2296:0.049825609 2311:0.049825609 2315:0.049825609 2316:0.049825609 2409:0.049825609 2464:0.049825609 2495:0.049825609 2500:0.049825609 2508:0.049825609 2514:0.049825609 2547:0.049825609 2549:0.099651217 2550:0.049825609 2631:0.049825609 2670:0.049825609 2677:0.049825609 2699:0.099651217 2706:0.049825609 2707:0.049825609 2708:0.049825609 2720:0.049825609 2721:0.049825609 2755:0.049825609 2759:0.049825609 2763:0.049825609 2764:0.049825609 2793:0.049825609 2806:0.049825609 2808:0.049825609 2877:0.049825609 2883:0.049825609 2888:0.049825609 2896:0.14947683 2907:0.049825609 2909:0.099651217 2910:0.049825609 2911:0.049825609 2916:0.049825609 2918:0.049825609 2921:0.049825609 2924:0.049825609 2938:0.049825609 2939:0.049825609 2958:0.049825609 2966:0.099651217 2967:0.049825609 2969:0.049825609 2970:0.19930243 2971:0.14947683 2972:0.44843048 2973:0.34877926 2974:0.049825609 2977:0.049825609 2980:0.049825609 2981:0.049825609 2984:0.19930243 2985:0.19930243 2986:0.099651217 2990:0.099651217 2994:0.049825609 2995:0.049825609 3005:0.049825609 3008:0.049825609 3017:0.049825609 3030:0.049825609 3031:0.049825609 3033:0.049825609 3036:0.099651217 3059:0.099651217 3089:0.049825609 3093:0.14947683 3096:0.049825609 3098:0.049825609 3110:0.049825609 3111:0.049825609 3119:0.049825609 3120:0.14947683 3122:0.099651217 3124:0.14947683 3125:0.049825609 3127:0.049825609 3128:0.049825609 3133:0.14947683 3134:0.5480817 3137:0.049825609 3141:0.099651217 3168:0.049825609 3204:0.049825609 3210:0.049825609 3227:0.049825609 3230:0.099651217 3244:0.049825609 3249:0.049825609 3273:0.049825609 3288:0.049825609 3289:0.049825609 3295:0.049825609 3298:0.049825609 3309:0.099651217 3310:0.049825609 3333:0.049825609 3440:0.049825609 3462:0.049825609 3535:0.049825609 3596:0.049825609 3626:0.049825609 3635:0.049825609 3648:0.049825609 3666:0.049825609 3676:0.074626863 3679:0.14925373 3682:0.074626863 3683:0.14925373 3684:0.37313432 3685:0.074626863 3687:0.074626863 3690:0.074626863 3691:0.074626863 3692:0.14925373 3693:0.14925373 3694:0.074626863 3696:0.074626863 3697:0.14925373 3698:0.074626863 3699:0.074626863 3700:0.29850745 3701:0.14925373 3702:0.2238806 3704:0.14925373 3705:0.074626863 3708:0.074626863 3709:0.14925373 3710:0.14925373 3715:0.29850745 3716:0.14925373 3718:0.37313432 3719:0.14925373 3720:0.074626863 3721:0.2238806 3722:0.37313432 3723:0.2238806 3724:0.074626863 3726:0.37313432 3727:0.074626863 3729:0.074626863 3730:0.29850745 3733:0.2238806 3734:0.074626863 3736:0.074626863 3738:0.074626863 3739:0.074626863 3742:0.074626863 3743:0.074626863 3748:0.14925373 3749:0.074626863 3752:0.14925373 3755:0.074626863 3756:0.074626863 3757:0.074626863 3758:0.2238806 3759:0.074626863 3761:0.29850745 3762:0.074626863 3763:0.52238804 3764:0.2238806 3767:0.14925373 3768:0.2238806 3769:0.074626863 3770:0.074626863 3771:0.2238806 3772:0.44776121 3773:0.2238806 3774:0.074626863 3775:0.2238806 3776:0.074626863 3778:0.2238806 3779:0.29850745 3780:0.14925373 3784:0.074626863 3785:0.14925373 3786:0.37313432 3787:0.2238806 3788:0.074626863 3789:0.14925373 3790:0.14925373 3791:0.074626863 3792:0.2238806 3793:0.074626863 3795:0.074626863 3800:0.074626863 3802:0.074626863 3806:0.074626863 3810:0.074626863 3812:0.2238806 3814:0.52238804 3815:0.074626863 3817:0.074626863 3818:0.74626863 3819:0.37313432 3820:0.14925373 3821:0.37313432 3823:0.14925373 3824:0.37313432 3825:0.29850745 3826:0.14925373 3827:0.44776121 3828:0.14925373 3831:0.074626863 3834:0.14925373 3836:0.2238806 3837:0.074626863 3838:0.074626863 3839:0.37313432 3840:0.29850745 3841:0.37313432 3847:0.074626863 3849:0.074626863 3850:0.074626863 3851:0.37313432 3852:0.2238806 3855:0.37313432 3857:0.074626863 3858:0.37313432 3862:0.074626863 3863:0.2238806 3864:0.074626863 3865:0.2238806 3866:0.5970149 3867:0.52238804 3868:0.37313432 3869:0.2238806 3870:2.1641791 3871:1.3432835 3872:0.44776121 3874:0.14925373 3875:0.44776121 3876:0.074626863 3877:0.074626863 3878:0.29850745 3879:0.29850745 3880:0.074626863 3881:0.44776121 3882:0.37313432 3883:0.89552242 3884:1.641791 3885:0.2238806 3888:0.2238806 3890:0.14925373 3892:0.2238806 3893:0.14925373 3894:0.074626863 3896:0.29850745 3897:0.14925373 3898:0.5970149 3900:0.074626863 3901:0.074626863 3905:0.074626863 3906:0.074626863 3910:0.074626863 3914:0.074626863 3916:0.074626863 3918:0.074626863 3919:0.14925373 3920:0.14925373 3921:0.038748141 3922:0.0089418804 3923:0.049180329 3924:0.02980626 3925:0.046199702 3926:0.02980626 3927:0.01043219 3928:0.052160949 3929:0.068554386 3930:0.064083457 3931:0.0074515701 3932:0.078986593 3933:0.056631889 3934:0.044709388 3935:0.035767511 3936:0.17883755 3937:0.1147541 3938:0.052160949 3939:0.0089418804 3940:0.02384501 3941:0.035785999 3942:0.000203 3943:0.002451 3944:5.6000001e-05 3945:0.26974699 #
0.64455221488845360067188039465691 1:0.01492537 2:0.0059701502 3:0.0119403 7:0.04179104 10:0.0059701502 11:0.03582089 12:0.080597013 15:0.0119403 21:0.1001001 23:0.1001001 31:0.1001001 51:0.2002002 52:0.2002002 116:0.1001001 119:0.1001001 120:0.1001001 121:0.2002002 124:0.1001001 156:0.1001001 165:0.2002002 168:0.1001001 195:0.1001001 202:0.1001001 229:0.1001001 250:0.1001001 277:0.1001001 282:0.1001001 302:0.1001001 354:0.1001001 367:0.1001001 370:0.2002002 397:0.1001001 406:0.2002002 408:0.1001001 415:0.1001001 447:0.1001001 464:0.1001001 507:0.1001001 512:0.1001001 520:0.1001001 525:0.1001001 527:0.1001001 531:0.2002002 532:0.1001001 556:0.1001001 580:0.1001001 582:0.6006006 583:0.2002002 588:0.1001001 617:0.1001001 653:0.1001001 681:0.1001001 765:0.1001001 782:0.1001001 789:0.1001001 887:0.1001001 955:0.1001001 964:0.2002002 967:0.1001001 1001:0.1001001 1091:0.1001001 1182:0.1001001 1279:0.1001001 1297:0.1001001 1298:0.1001001 1302:0.1001001 1314:0.1001001 1330:0.1001001 1364:0.1001001 1408:0.1001001 1413:0.1001001 1419:0.1001001 1428:0.1001001 1437:0.1001001 1439:0.1001001 1444:0.1001001 1463:0.1001001 1484:0.1001001 1485:0.1001001 1487:0.1001001 1494:0.3003003 1495:0.1001001 1499:0.1001001 1500:0.1001001 1504:0.1001001 1506:0.1001001 1510:0.2002002 1514:0.2002002 1518:0.1001001 1567:0.1001001 1570:0.1001001 1577:0.1001001 1625:0.1001001 1629:0.2002002 1632:0.1001001 1639:0.1001001 1650:0.1001001 1659:0.1001001 1662:0.2002002 1665:0.1001001 1684:0.1001001 1710:0.1001001 1714:0.1001001 1719:0.2002002 1720:0.1001001 1725:0.1001001 1727:0.1001001 1732:0.1001001 1734:0.1001001 1735:0.1001001 1741:0.1001001 1764:0.1001001 1765:0.1001001 1786:0.1001001 1791:0.1001001 1797:0.1001001 1841:0.1001001 2085:0.1001001 2089:0.1001001 2096:0.1001001 2120:0.1001001 2138:0.1001001 2259:0.1001001 2269:0.1001001 2292:0.1001001 2318:0.1001001 2323:0.1001001 2327:0.1001001 2374:0.1001001 2378:0.1001001 2448:0.2002002 2580:0.1001001 2587:0.2002002 2605:0.1001001 2612:0.1001001 2623:0.1001001 2645:0.2002002 2789:0.1001001 2824:0.1001001 2856:0.1001001 3013:0.1001001 3016:0.1001001 3078:0.1001001 3090:0.1001001 3122:0.1001001 3137:0.1001001 3160:0.2002002 3169:0.1001001 3178:0.1001001 3238:0.1001001 3243:0.1001001 3294:0.1001001 3343:0.1001001 3556:0.1001001 3574:0.1001001 3598:0.1001001 3613:0.1001001 3674:0.44910181 3675:0.59880239 3680:0.89820361 3682:0.1497006 3683:0.44910181 3684:0.1497006 3685:0.29940119 3688:0.1497006 3689:0.44910181 3692:0.1497006 3693:0.44910181 3694:0.44910181 3696:0.1497006 3697:0.29940119 3698:0.1497006 3699:0.1497006 3702:0.29940119 3703:0.1497006 3704:0.74850297 3705:1.0479041 3706:0.1497006 3707:0.1497006 3708:0.1497006 3709:1.3473054 3710:0.44910181 3712:0.1497006 3713:0.1497006 3714:0.1497006 3715:0.1497006 3716:0.1497006 3717:0.1497006 3720:0.1497006 3721:0.1497006 3722:0.1497006 3729:0.29940119 3732:0.1497006 3733:0.44910181 3734:0.44910181 3736:0.1497006 3738:0.1497006 3739:0.1497006 3743:0.1497006 3747:0.1497006 3749:0.1497006 3754:0.29940119 3756:0.44910181 3757:0.1497006 3758:0.1497006 3759:0.29940119 3762:0.1497006 3764:0.1497006 3766:0.44910181 3767:0.59880239 3769:0.29940119 3771:0.59880239 3772:2.0958083 3773:0.89820361 3775:0.29940119 3777:0.44910181 3779:0.59880239 3780:0.1497006 3781:1.1976048 3782:0.1497006 3783:0.1497006 3785:0.59880239 3786:0.74850297 3787:1.0479041 3789:0.29940119 3791:0.44910181 3793:0.1497006 3811:0.1497006 3812:0.29940119 3814:0.29940119 3815:0.29940119 3822:0.1497006 3823:0.1497006 3824:0.1497006 3825:0.29940119 3827:0.29940119 3828:0.29940119 3832:0.1497006 3835:0.29940119 3838:0.1497006 3844:0.44910181 3846:0.29940119 3848:0.44910181 3854:0.1497006 3856:0.1497006 3857:0.1497006 3860:0.1497006 3862:0.1497006 3863:0.44910181 3868:0.1497006 3872:0.1497006 3875:0.44910181 3876:0.1497006 3878:0.1497006 3882:0.1497006 3883:0.1497006 3885:0.1497006 3888:0.44910181 3891:0.1497006 3893:0.29940119 3894:0.1497006 3897:0.1497006 3899:0.1497006 3901:0.1497006 3915:0.1497006 3916:0.1497006 3921:0.068656713 3922:0.065671653 3923:0.077611938 3924:0.11343284 3925:0.01492537 3926:0.047761191 3927:0.01492537 3928:0.04179104 3929:0.16119403 3930:0.12238806 3931:0.00298507 3932:0.053731341 3933:0.047761191 3934:0.023880601 3935:0.04179104 3936:0.01492537 3937:0.032835819 3938:0.032835819 3939:0 3940:0.02089552 3941:0.010254 3942:-7.0000001e-06 3943:0.00018800001 3944:0 3945:0.34925401 #
0.42372244761589200612306171933596 1:0.022831051 4:0.0091324197 7:0.01141553 8:0.01369863 10:0.0091324197 11:0.0068493201 12:0.025114151 16:0.0045662099 19:0.0045662099 20:0.015981739 23:0.076452598 24:0.076452598 26:0.076452598 27:0.076452598 43:0.076452598 49:0.076452598 51:0.076452598 54:0.076452598 70:0.076452598 78:0.076452598 92:0.076452598 96:0.076452598 103:0.076452598 104:0.076452598 113:0.076452598 115:0.1529052 121:0.076452598 124:0.076452598 147:0.076452598 179:0.1529052 184:0.076452598 185:0.076452598 202:0.076452598 205:0.076452598 368:0.076452598 394:0.076452598 413:0.076452598 415:0.076452598 420:0.076452598 505:0.076452598 507:0.1529052 525:0.076452598 526:0.076452598 528:0.076452598 532:0.076452598 582:0.076452598 592:0.076452598 594:0.076452598 599:0.076452598 636:0.076452598 649:0.076452598 677:0.076452598 709:0.076452598 887:0.076452598 891:0.076452598 914:0.076452598 929:0.076452598 953:0.076452598 971:0.076452598 1005:0.076452598 1015:0.076452598 1032:0.076452598 1033:0.076452598 1038:0.076452598 1042:0.076452598 1201:0.076452598 1210:0.076452598 1249:0.076452598 1253:0.076452598 1254:0.076452598 1278:0.076452598 1299:0.076452598 1317:0.076452598 1327:0.076452598 1332:0.076452598 1359:0.076452598 1414:0.076452598 1416:0.076452598 1417:0.076452598 1419:0.076452598 1469:0.1529052 1481:0.076452598 1494:0.076452598 1500:0.076452598 1502:0.076452598 1509:0.076452598 1511:0.076452598 1514:0.076452598 1577:0.076452598 1624:0.076452598 1626:0.076452598 1628:0.1529052 1647:0.076452598 1649:0.076452598 1678:0.076452598 1684:0.076452598 1690:0.076452598 1691:0.076452598 1718:0.076452598 1728:0.076452598 1730:0.076452598 1737:0.076452598 1754:0.076452598 1769:0.076452598 1783:0.076452598 1786:0.076452598 1788:0.076452598 1793:0.076452598 1799:0.076452598 1841:0.076452598 2074:0.076452598 2143:0.076452598 2165:0.076452598 2175:0.076452598 2197:0.076452598 2214:0.076452598 2323:0.076452598 2356:0.076452598 2437:0.076452598 2457:0.076452598 2574:0.076452598 2578:0.076452598 2678:0.076452598 2681:0.076452598 2708:0.1529052 2772:0.076452598 2805:0.076452598 2812:0.076452598 2896:0.076452598 2916:0.076452598 2918:0.076452598 2956:0.076452598 2967:0.076452598 3005:0.076452598 3010:0.076452598 3011:0.076452598 3030:0.076452598 3031:0.076452598 3045:0.076452598 3063:0.076452598 3078:0.076452598 3090:0.076452598 3142:0.076452598 3210:0.076452598 3235:0.076452598 3240:0.076452598 3251:0.1529052 3252:0.076452598 3272:0.076452598 3276:0.076452598 3278:0.076452598 3279:0.076452598 3320:0.076452598 3326:0.076452598 3339:0.076452598 3529:0.076452598 3544:0.076452598 3674:0.5720824 3675:0.22883295 3676:0.11441647 3677:0.11441647 3678:1.0297483 3679:0.45766589 3680:0.5720824 3683:0.22883295 3685:0.22883295 3686:0.11441647 3693:0.34324944 3694:0.11441647 3696:0.22883295 3697:0.68649888 3698:0.11441647 3700:0.34324944 3702:0.45766589 3703:0.5720824 3704:0.34324944 3705:0.34324944 3706:0.11441647 3709:0.22883295 3710:0.34324944 3713:0.22883295 3714:0.11441647 3715:0.11441647 3716:0.22883295 3717:0.22883295 3721:0.22883295 3722:0.11441647 3724:0.22883295 3725:0.11441647 3726:0.11441647 3729:0.45766589 3733:0.11441647 3734:0.22883295 3736:0.45766589 3737:0.11441647 3738:0.34324944 3739:0.5720824 3740:0.22883295 3744:0.11441647 3749:0.22883295 3752:0.45766589 3754:0.45766589 3756:0.22883295 3757:0.22883295 3758:0.34324944 3759:0.22883295 3761:0.11441647 3762:0.22883295 3764:0.22883295 3766:0.45766589 3767:0.11441647 3768:0.11441647 3769:0.22883295 3771:0.22883295 3772:0.68649888 3773:0.5720824 3775:0.22883295 3778:0.22883295 3779:0.80091536 3780:0.45766589 3783:0.45766589 3784:0.11441647 3785:0.11441647 3786:0.34324944 3787:0.22883295 3789:0.11441647 3790:0.11441647 3791:0.45766589 3793:0.22883295 3794:0.11441647 3800:0.11441647 3807:0.11441647 3810:0.45766589 3811:0.11441647 3813:0.11441647 3815:0.34324944 3816:0.22883295 3818:0.11441647 3823:0.11441647 3824:0.11441647 3827:0.22883295 3828:0.22883295 3830:0.22883295 3832:0.11441647 3833:0.11441647 3834:0.34324944 3836:0.11441647 3838:0.11441647 3840:0.22883295 3841:0.22883295 3844:0.34324944 3846:0.11441647 3848:0.11441647 3850:0.22883295 3852:0.22883295 3856:0.11441647 3858:0.34324944 3863:0.22883295 3864:0.45766589 3865:0.11441647 3866:0.34324944 3867:0.11441647 3869:0.11441647 3870:0.11441647 3871:0.11441647 3872:0.11441647 3874:0.22883295 3875:0.11441647 3876:0.11441647 3878:0.45766589 3880:0.45766589 3881:0.11441647 3882:0.11441647 3885:0.22883295 3887:0.11441647 3888:0.22883295 3889:0.11441647 3890:0.22883295 3893:0.34324944 3894:0.34324944 3895:0.11441647 3898:0.45766589 3899:0.34324944 3901:0.34324944 3904:0.11441647 3906:0.22883295 3910:0.11441647 3914:0.45766589 3919:0.11441647 3921:0.11872146 3922:0.0068493201 3923:0.066210046 3924:0.066210046 3925:0.022831051 3926:0.079908676 3927:0.015981739 3928:0.063926943 3929:0.089041099 3930:0.084474877 3931:0.0091324197 3932:0.04109589 3933:0.036529679 3934:0.034246579 3935:0.029680369 3936:0.066210046 3937:0.045662101 3938:0.077625573 3939:0.01141553 3940:0.034246579 3941:0.016443999 3942:-9.9999997e-06 3943:0.000478 3944:-3.0000001e-06 3945:0.383562 #
0.6389795222920848782877101257327 1:0.024096381 2:0.0080321301 4:0.0080321301 7:0.01606426 8:0.032128509 10:0.01606426 11:0.0080321301 14:0.0080321301 15:0.0080321301 17:0.0080321301 20:0.01606426 23:0.13495277 26:0.13495277 31:0.13495277 52:0.13495277 73:0.13495277 104:0.13495277 110:0.13495277 149:0.13495277 173:0.13495277 174:0.13495277 177:0.13495277 192:0.13495277 195:0.13495277 501:0.13495277 535:0.13495277 636:0.13495277 643:0.13495277 654:0.13495277 663:0.13495277 923:0.13495277 927:0.13495277 959:0.13495277 1375:0.13495277 1391:0.13495277 1397:0.13495277 1413:0.13495277 1581:0.13495277 1587:0.13495277 1596:0.13495277 1623:0.13495277 1626:0.13495277 1632:0.13495277 1741:0.13495277 1788:0.13495277 1789:0.13495277 1824:0.13495277 2315:0.13495277 2368:0.13495277 2457:0.13495277 2609:0.13495277 2616:0.13495277 2695:0.13495277 2801:0.13495277 2831:0.13495277 2873:0.13495277 2910:0.13495277 2919:0.13495277 2941:0.13495277 2979:0.13495277 2989:0.13495277 2996:0.13495277 3030:0.13495277 3044:0.13495277 3069:0.13495277 3125:0.13495277 3154:0.13495277 3160:0.13495277 3169:0.13495277 3170:0.13495277 3306:0.13495277 3326:0.13495277 3674:0.60483873 3675:0.60483873 3676:0.40322581 3678:0.60483873 3679:0.40322581 3682:0.60483873 3683:0.60483873 3684:0.2016129 3685:0.40322581 3687:0.2016129 3692:0.2016129 3693:0.40322581 3696:0.2016129 3697:0.2016129 3702:0.40322581 3703:0.40322581 3704:0.2016129 3705:0.40322581 3708:0.2016129 3709:0.40322581 3710:0.2016129 3712:0.2016129 3713:0.40322581 3714:0.40322581 3715:0.40322581 3717:0.40322581 3721:0.2016129 3722:0.2016129 3727:0.2016129 3729:0.40322581 3730:0.2016129 3731:0.2016129 3733:0.40322581 3734:0.2016129 3736:0.2016129 3738:0.40322581 3740:0.2016129 3743:0.2016129 3752:0.40322581 3756:0.40322581 3757:0.40322581 3759:0.2016129 3761:0.40322581 3763:0.2016129 3764:0.60483873 3765:0.2016129 3766:0.2016129 3768:0.2016129 3771:0.40322581 3773:0.2016129 3774:0.2016129 3778:0.40322581 3779:0.80645162 3780:0.40322581 3781:0.2016129 3786:0.2016129 3787:0.2016129 3791:0.40322581 3792:0.40322581 3810:0.2016129 3811:0.80645162 3812:0.2016129 3818:0.2016129 3819:0.2016129 3824:0.2016129 3825:0.2016129 3826:0.2016129 3827:0.2016129 3830:0.2016129 3836:0.60483873 3838:0.2016129 3841:0.2016129 3846:0.40322581 3851:0.60483873 3852:0.2016129 3856:0.40322581 3857:0.2016129 3860:0.40322581 3864:0.2016129 3866:0.40322581 3867:0.2016129 3871:0.2016129 3872:0.40322581 3875:0.2016129 3878:0.60483873 3880:0.40322581 3881:0.2016129 3882:0.2016129 3884:0.2016129 3886:0.2016129 3888:0.80645162 3889:0.2016129 3890:0.40322581 3891:0.2016129 3892:0.80645162 3894:0.40322581 3898:0.40322581 3899:0.40322581 3902:0.2016129 3906:0.2016129 3911:0.2016129 3916:0.2016129 3921:0.11646587 3922:0.0080321301 3923:0.044176709 3924:0.084337354 3925:0.032128509 3926:0.072289146 3927:0.01204819 3928:0.076305218 3929:0.056224901 3930:0.076305218 3931:0.0080321301 3932:0.056224901 3933:0.040160641 3934:0.032128509 3935:0.052208841 3936:0.052208841 3937:0.060240969 3938:0.092369467 3939:0.01606426 3940:0.01204819 3941:0.0054580001 3942:2.6e-05 3943:5.3e-05 3944:1e-06 3945:0.409639 #
1 1:0.0019900501 2:0.0079602003 3:0.0119403 4:0.01393035 5:0.0039801002 6:0.0019900501 7:0.0119403 8:0.0039801002 10:0.0039801002 11:0.0079602003 12:0.02487562 14:0.0079602003 15:0.0039801002 16:0.02686567 17:0.0069651701 19:0.0039801002 20:0.0019900501 54:0.066467263 91:0.033233631 98:0.033233631 102:0.033233631 120:0.033233631 125:0.033233631 135:0.033233631 157:0.033233631 173:0.033233631 184:0.033233631 201:0.033233631 285:0.033233631 349:0.066467263 365:0.033233631 366:0.033233631 367:0.033233631 368:0.033233631 379:0.033233631 384:0.033233631 397:0.033233631 399:0.066467263 404:0.066467263 408:0.033233631 411:0.066467263 412:0.033233631 416:0.066467263 419:0.033233631 422:0.033233631 430:0.033233631 448:0.033233631 450:0.033233631 458:0.033233631 466:0.033233631 468:0.099700898 469:0.033233631 485:0.066467263 505:0.033233631 507:0.033233631 518:0.099700898 521:0.033233631 525:0.066467263 531:0.066467263 542:0.033233631 543:0.033233631 545:0.033233631 548:0.033233631 552:0.033233631 569:0.033233631 578:0.066467263 579:0.033233631 582:0.099700898 583:0.033233631 585:0.066467263 586:0.033233631 587:0.033233631 589:0.033233631 596:0.033233631 600:0.033233631 617:0.033233631 618:0.066467263 640:0.033233631 659:0.033233631 663:0.033233631 665:0.099700898 685:0.033233631 695:0.033233631 704:0.033233631 730:0.033233631 755:0.033233631 775:0.033233631 778:0.033233631 785:0.033233631 789:0.033233631 792:0.033233631 808:0.033233631 813:0.033233631 851:0.033233631 859:0.033233631 881:0.033233631 890:0.033233631 893:0.033233631 907:0.033233631 945:0.033233631 953:0.033233631 955:0.033233631 967:0.033233631 968:0.066467263 990:0.033233631 1000:0.033233631 1013:0.033233631 1014:0.033233631 1020:0.033233631 1045:0.033233631 1108:0.033233631 1243:0.033233631 1268:0.033233631 1271:0.033233631 1278:0.033233631 1287:0.066467263 1297:0.033233631 1317:0.033233631 1318:0.066467263 1321:0.066467263 1330:0.033233631 1348:0.033233631 1350:0.033233631 1365:0.033233631 1375:0.033233631 1380:0.033233631 1381:0.033233631 1387:0.033233631 1388:0.033233631 1389:0.033233631 1392:0.033233631 1393:0.033233631 1397:0.033233631 1410:0.033233631 1414:0.033233631 1420:0.033233631 1422:0.033233631 1423:0.033233631 1432:0.033233631 1433:0.033233631 1437:0.033233631 1439:0.033233631 1443:0.033233631 1453:0.033233631 1460:0.033233631 1466:0.033233631 1467:0.033233631 1483:0.033233631 1494:0.033233631 1495:0.033233631 1499:0.033233631 1500:0.033233631 1501:0.033233631 1502:0.033233631 1503:0.033233631 1504:0.033233631 1505:0.066467263 1512:0.033233631 1514:0.033233631 1525:0.033233631 1529:0.033233631 1534:0.066467263 1545:0.033233631 1553:0.033233631 1559:0.066467263 1566:0.033233631 1567:0.066467263 1571:0.066467263 1573:0.066467263 1574:0.033233631 1581:0.033233631 1582:0.033233631 1587:0.033233631 1591:0.066467263 1616:0.066467263 1619:0.033233631 1628:0.033233631 1646:0.033233631 1649:0.066467263 1655:0.066467263 1658:0.033233631 1659:0.033233631 1663:0.033233631 1679:0.033233631 1681:0.033233631 1707:0.033233631 1718:0.033233631 1722:0.033233631 1723:0.033233631 1724:0.033233631 1725:0.033233631 1728:0.033233631 1729:0.066467263 1730:0.033233631 1731:0.033233631 1735:0.033233631 1756:0.033233631 1765:0.066467263 1789:0.033233631 1790:0.033233631 1794:0.033233631 1795:0.033233631 1801:0.033233631 1804:0.066467263 1805:0.066467263 1807:0.033233631 1812:0.033233631 1815:0.033233631 1818:0.033233631 1844:0.033233631 1950:0.033233631 2011:0.033233631 2024:0.033233631 2037:0.033233631 2071:0.066467263 2073:0.033233631 2076:0.033233631 2089:0.033233631 2095:0.033233631 2115:0.033233631 2116:0.033233631 2119:0.033233631 2138:0.033233631 2155:0.033233631 2158:0.033233631 2159:0.033233631 2163:0.033233631 2174:0.033233631 2259:0.033233631 2263:0.033233631 2269:0.033233631 2270:0.033233631 2271:0.033233631 2292:0.033233631 2323:0.033233631 2325:0.033233631 2349:0.033233631 2363:0.033233631 2368:0.033233631 2395:0.033233631 2426:0.033233631 2436:0.033233631 2437:0.033233631 2443:0.033233631 2452:0.033233631 2460:0.033233631 2461:0.033233631 2491:0.033233631 2498:0.033233631 2511:0.033233631 2539:0.033233631 2581:0.033233631 2587:0.033233631 2609:0.033233631 2610:0.033233631 2620:0.033233631 2628:0.033233631 2637:0.033233631 2639:0.033233631 2645:0.033233631 2656:0.033233631 2686:0.033233631 2699:0.033233631 2705:0.066467263 2706:0.066467263 2707:0.033233631 2710:0.033233631 2718:0.033233631 2744:0.033233631 2749:0.033233631 2774:0.033233631 2789:0.033233631 2831:0.033233631 2855:0.033233631 2858:0.033233631 2859:0.033233631 2869:0.033233631 2870:0.033233631 2874:0.033233631 2883:0.033233631 2886:0.033233631 2892:0.033233631 2894:0.033233631 2896:0.033233631 2898:0.066467263 2907:0.033233631 2909:0.066467263 2911:0.033233631 2914:0.033233631 2915:0.099700898 2916:0.033233631 2917:0.033233631 2923:0.033233631 2939:0.033233631 2943:0.066467263 2959:0.033233631 2962:0.033233631 2968:0.066467263 2971:0.066467263 2972:0.099700898 2973:0.033233631 2974:0.066467263 2976:0.033233631 2979:0.033233631 2982:0.033233631 2986:0.033233631 2988:0.033233631 2989:0.033233631 2991:0.033233631 3030:0.033233631 3047:0.033233631 3062:0.033233631 3065:0.033233631 3066:0.033233631 3070:0.033233631 3078:0.033233631 3118:0.033233631 3123:0.033233631 3134:0.033233631 3135:0.066467263 3141:0.033233631 3167:0.033233631 3183:0.033233631 3191:0.033233631 3193:0.033233631 3203:0.033233631 3230:0.033233631 3235:0.033233631 3241:0.033233631 3244:0.066467263 3247:0.033233631 3249:0.066467263 3273:0.033233631 3298:0.033233631 3303:0.033233631 3323:0.033233631 3340:0.033233631 3513:0.033233631 3548:0.033233631 3550:0.033233631 3565:0.033233631 3575:0.033233631 3576:0.033233631 3588:0.033233631 3624:0.033233631 3631:0.033233631 3634:0.033233631 3650:0.033233631 3668:0.033233631 3674:0.049800798 3675:0.14940239 3676:0.19920319 3678:0.14940239 3679:0.14940239 3680:0.14940239 3681:0.049800798 3682:0.049800798 3683:0.099601597 3685:0.14940239 3686:0.049800798 3687:0.049800798 3689:0.19920319 3690:0.049800798 3691:0.049800798 3692:0.19920319 3693:0.24900399 3694:0.19920319 3695:0.099601597 3696:0.29880479 3697:0.24900399 3698:0.14940239 3699:0.049800798 3700:0.54780877 3701:0.049800798 3702:0.24900399 3703:0.099601597 3704:0.29880479 3705:0.29880479 3706:0.19920319 3708:0.29880479 3709:0.74701196 3710:0.14940239 3713:0.049800798 3714:0.099601597 3715:0.34860557 3716:0.099601597 3717:0.19920319 3718:0.24900399 3719:0.099601597 3721:0.14940239 3722:0.19920319 3723:0.34860557 3725:0.049800798 3726:0.29880479 3727:0.099601597 3729:0.099601597 3730:0.099601597 3732:0.049800798 3733:0.14940239 3734:0.14940239 3735:0.049800798 3736:0.099601597 3737:0.14940239 3739:0.099601597 3740:0.14940239 3742:0.049800798 3744:0.049800798 3746:0.049800798 3747:0.049800798 3750:0.049800798 3753:0.049800798 3754:0.24900399 3755:0.29880479 3756:0.099601597 3757:0.099601597 3758:0.44820717 3759:0.099601597 3761:0.29880479 3762:0.099601597 3763:0.39840639 3764:0.099601597 3766:0.29880479 3767:0.24900399 3768:0.099601597 3769:0.14940239 3770:0.099601597 3771:0.24900399 3772:0.69721115 3773:0.34860557 3774:0.14940239 3775:0.64741033 3776:0.14940239 3777:0.39840639 3778:0.39840639 3779:0.099601597 3780:0.39840639 3781:0.19920319 3782:0.099601597 3783:0.099601597 3784:0.049800798 3785:0.19920319 3786:0.64741033 3787:0.19920319 3789:0.19920319 3790:0.099601597 3791:0.24900399 3792:0.049800798 3793:0.14940239 3798:0.099601597 3800:0.049800798 3801:0.099601597 3805:0.049800798 3806:0.099601597 3810:0.24900399 3811:0.24900399 3812:0.44820717 3814:0.29880479 3815:0.049800798 3816:0.14940239 3817:0.14940239 3818:0.14940239 3819:0.099601597 3821:0.049800798 3822:0.049800798 3823:0.24900399 3824:0.049800798 3825:0.099601597 3827:0.099601597 3828:0.099601597 3829:0.099601597 3830:0.099601597 3831:0.049800798 3832:0.049800798 3833:0.049800798 3834:0.14940239 3835:0.14940239 3836:0.14940239 3838:0.049800798 3839:0.049800798 3840:0.14940239 3841:0.049800798 3844:0.099601597 3846:0.14940239 3847:0.14940239 3848:0.099601597 3849:0.049800798 3850:0.099601597 3851:0.34860557 3852:0.14940239 3854:0.099601597 3856:0.049800798 3857:0.19920319 3858:0.14940239 3859:0.049800798 3860:0.099601597 3861:0.049800798 3862:0.14940239 3863:0.39840639 3864:0.29880479 3865:0.24900399 3866:0.29880479 3867:0.64741033 3868:0.099601597 3869:0.14940239 3870:0.74701196 3871:0.24900399 3872:0.19920319 3874:0.34860557 3878:0.29880479 3880:0.049800798 3881:0.099601597 3882:0.049800798 3883:0.14940239 3884:0.19920319 3885:0.29880479 3887:0.049800798 3888:0.099601597 3889:0.14940239 3891:0.049800798 3892:0.24900399 3893:0.29880479 3894:0.29880479 3897:0.099601597 3898:0.34860557 3899:0.049800798 3901:0.14940239 3906:0.049800798 3911:0.049800798 3912:0.099601597 3914:0.099601597 3915:0.14940239 3916:0.049800798 3917:0.049800798 3918:0.099601597 3919:0.049800798 3921:0.036815919 3922:0.017910451 3923:0.073631838 3924:0.074626863 3925:0.046766169 3926:0.03781094 3927:0.01393035 3928:0.061691541 3929:0.11442786 3930:0.076616913 3931:0.0119403 3932:0.084577113 3933:0.028855721 3934:0.02686567 3935:0.042786069 3936:0.10845771 3937:0.03980099 3938:0.053731341 3939:0.0059701502 3940:0.042786069 3941:0.084763996 3942:-0.0047010002 3943:0.013199 3944:-0.00157 3945:0.305473 #
-0.23621981036462633141148614868143 1:0.0049916799 2:0.0033277899 3:0.01331115 4:0.01580699 6:0.01164725 7:0.0049916799 8:0.01039933 9:0.00166389 10:0.0083194701 11:0.0099833598 12:0.01580699 14:0.0049916799 15:0.0020798701 16:0.024126461 17:0.0062396 19:0.0033277899 20:0.0066555701 21:0.01408252 23:0.01408252 28:0.01408252 30:0.01408252 33:0.02816505 43:0.01408252 45:0.01408252 48:0.01408252 51:0.02816505 52:0.01408252 54:0.01408252 59:0.01408252 60:0.02816505 62:0.01408252 63:0.01408252 67:0.01408252 86:0.01408252 94:0.01408252 96:0.02816505 102:0.02816505 103:0.01408252 106:0.01408252 110:0.01408252 115:0.01408252 121:0.01408252 124:0.01408252 130:0.01408252 131:0.01408252 138:0.01408252 139:0.02816505 142:0.01408252 143:0.042247571 147:0.01408252 150:0.01408252 152:0.01408252 155:0.01408252 160:0.02816505 165:0.01408252 169:0.01408252 179:0.01408252 180:0.01408252 181:0.01408252 182:0.01408252 184:0.042247571 185:0.02816505 186:0.01408252 189:0.01408252 195:0.01408252 198:0.01408252 202:0.01408252 242:0.02816505 252:0.01408252 264:0.01408252 273:0.01408252 281:0.01408252 285:0.01408252 293:0.01408252 327:0.01408252 347:0.01408252 361:0.01408252 362:0.14082524 369:0.01408252 372:0.01408252 373:0.01408252 374:0.01408252 380:0.01408252 382:0.01408252 384:0.01408252 393:0.01408252 394:0.02816505 395:0.02816505 396:0.01408252 398:0.01408252 399:0.02816505 402:0.01408252 403:0.01408252 406:0.01408252 407:0.01408252 408:0.02816505 409:0.01408252 411:0.01408252 414:0.01408252 415:0.02816505 416:0.042247571 417:0.02816505 420:0.01408252 422:0.01408252 433:0.01408252 434:0.01408252 435:0.02816505 437:0.042247571 438:0.01408252 453:0.01408252 466:0.01408252 467:0.01408252 468:0.02816505 470:0.01408252 471:0.042247571 474:0.01408252 475:0.01408252 483:0.01408252 491:0.01408252 504:0.01408252 507:0.01408252 508:0.01408252 511:0.02816505 517:0.01408252 518:0.042247571 522:0.01408252 525:0.01408252 527:0.01408252 532:0.02816505 536:0.01408252 540:0.01408252 543:0.01408252 552:0.02816505 564:0.01408252 568:0.01408252 569:0.02816505 572:0.01408252 574:0.01408252 575:0.01408252 577:0.01408252 578:0.01408252 582:0.02816505 583:0.01408252 585:0.01408252 587:0.01408252 590:0.01408252 592:0.01408252 594:0.042247571 596:0.01408252 597:0.02816505 600:0.01408252 611:0.01408252 613:0.01408252 615:0.01408252 617:0.01408252 618:0.01408252 619:0.01408252 620:0.02816505 621:0.01408252 622:0.01408252 623:0.02816505 624:0.01408252 632:0.02816505 643:0.01408252 647:0.02816505 648:0.01408252 651:0.02816505 656:0.01408252 658:0.01408252 659:0.01408252 660:0.01408252 661:0.01408252 662:0.02816505 663:0.01408252 665:0.0563301 667:0.01408252 670:0.01408252 674:0.01408252 679:0.01408252 680:0.01408252 681:0.01408252 683:0.01408252 690:0.01408252 702:0.01408252 705:0.02816505 708:0.01408252 712:0.01408252 716:0.01408252 719:0.01408252 722:0.01408252 725:0.01408252 733:0.01408252 738:0.01408252 742:0.01408252 745:0.01408252 748:0.02816505 751:0.01408252 753:0.01408252 761:0.01408252 762:0.01408252 764:0.01408252 774:0.01408252 775:0.01408252 776:0.01408252 777:0.01408252 782:0.02816505 785:0.01408252 788:0.02816505 792:0.01408252 795:0.01408252 807:0.01408252 811:0.01408252 816:0.01408252 831:0.01408252 835:0.01408252 837:0.01408252 839:0.01408252 841:0.02816505 855:0.01408252 863:0.01408252 866:0.01408252 868:0.01408252 882:0.01408252 883:0.01408252 892:0.01408252 893:0.01408252 901:0.01408252 909:0.01408252 913:0.01408252 926:0.01408252 930:0.01408252 941:0.01408252 949:0.02816505 950:0.01408252 951:0.042247571 952:0.01408252 954:0.02816505 961:0.01408252 962:0.01408252 964:0.01408252 965:0.02816505 970:0.01408252 988:0.01408252 990:0.01408252 1002:0.01408252 1005:0.01408252 1006:0.01408252 1015:0.01408252 1028:0.02816505 1034:0.01408252 1039:0.02816505 1040:0.01408252 1057:0.01408252 1067:0.01408252 1069:0.01408252 1070:0.01408252 1078:0.01408252 1082:0.01408252 1088:0.01408252 1111:0.01408252 1120:0.01408252 1122:0.01408252 1148:0.01408252 1153:0.01408252 1154:0.01408252 1156:0.01408252 1176:0.01408252 1188:0.01408252 1194:0.01408252 1197:0.01408252 1198:0.042247571 1203:0.01408252 1207:0.01408252 1214:0.01408252 1227:0.01408252 1253:0.01408252 1254:0.01408252 1258:0.01408252 1268:0.01408252 1269:0.01408252 1271:0.01408252 1274:0.01408252 1275:0.02816505 1276:0.01408252 1278:0.01408252 1279:0.02816505 1282:0.02816505 1284:0.02816505 1286:0.01408252 1288:0.01408252 1292:0.01408252 1295:0.02816505 1297:0.01408252 1305:0.02816505 1307:0.01408252 1310:0.02816505 1311:0.01408252 1312:0.02816505 1316:0.01408252 1317:0.01408252 1318:0.02816505 1321:0.01408252 1322:0.01408252 1326:0.01408252 1330:0.042247571 1333:0.01408252 1337:0.01408252 1341:0.01408252 1348:0.01408252 1351:0.01408252 1352:0.01408252 1357:0.02816505 1364:0.01408252 1365:0.02816505 1370:0.01408252 1372:0.01408252 1373:0.01408252 1376:0.01408252 1379:0.01408252 1381:0.042247571 1382:0.01408252 1385:0.042247571 1387:0.01408252 1388:0.01408252 1391:0.02816505 1393:0.01408252 1397:0.01408252 1407:0.01408252 1414:0.01408252 1415:0.0563301 1418:0.01408252 1421:0.01408252 1426:0.02816505 1432:0.01408252 1437:0.01408252 1438:0.01408252 1440:0.01408252 1442:0.01408252 1445:0.01408252 1446:0.01408252 1448:0.01408252 1451:0.01408252 1455:0.01408252 1460:0.01408252 1464:0.01408252 1467:0.01408252 1470:0.01408252 1477:0.01408252 1483:0.02816505 1484:0.0563301 1486:0.01408252 1487:0.042247571 1492:0.01408252 1495:0.02816505 1496:0.01408252 1497:0.01408252 1500:0.042247571 1502:0.042247571 1503:0.01408252 1507:0.042247571 1510:0.02816505 1511:0.02816505 1512:0.01408252 1514:0.01408252 1515:0.02816505 1517:0.02816505 1518:0.01408252 1531:0.01408252 1534:0.01408252 1535:0.01408252 1536:0.01408252 1538:0.01408252 1541:0.01408252 1542:0.01408252 1548:0.01408252 1552:0.01408252 1553:0.01408252 1556:0.01408252 1561:0.01408252 1562:0.01408252 1563:0.01408252 1567:0.01408252 1569:0.01408252 1570:0.01408252 1571:0.01408252 1572:0.01408252 1573:0.042247571 1574:0.02816505 1579:0.01408252 1582:0.02816505 1585:0.01408252 1588:0.01408252 1591:0.01408252 1592:0.01408252 1596:0.01408252 1606:0.01408252 1608:0.01408252 1614:0.01408252 1615:0.01408252 1625:0.01408252 1627:0.01408252 1629:0.01408252 1632:0.01408252 1637:0.01408252 1646:0.01408252 1647:0.02816505 1650:0.01408252 1656:0.01408252 1658:0.02816505 1662:0.01408252 1669:0.01408252 1672:0.01408252 1678:0.01408252 1680:0.01408252 1681:0.01408252 1683:0.02816505 1685:0.01408252 1687:0.01408252 1690:0.01408252 1693:0.01408252 1696:0.01408252 1712:0.01408252 1715:0.01408252 1719:0.02816505 1720:0.01408252 1722:0.042247571 1724:0.02816505 1725:0.01408252 1726:0.01408252 1727:0.042247571 1728:0.042247571 1729:0.02816505 1731:0.01408252 1733:0.02816505 1736:0.01408252 1737:0.01408252 1738:0.042247571 1741:0.01408252 1742:0.01408252 1743:0.01408252 1744:0.01408252 1746:0.01408252 1750:0.01408252 1755:0.01408252 1759:0.01408252 1763:0.01408252 1766:0.01408252 1767:0.02816505 1775:0.042247571 1780:0.01408252 1781:0.01408252 1788:0.01408252 1791:0.01408252 1793:0.01408252 1794:0.02816505 1795:0.01408252 1799:0.01408252 1802:0.01408252 1803:0.01408252 1804:0.01408252 1805:0.0563301 1807:0.02816505 1808:0.02816505 1809:0.042247571 1811:0.01408252 1813:0.01408252 1814:0.01408252 1815:0.01408252 1816:0.01408252 1818:0.01408252 1820:0.01408252 1826:0.01408252 1838:0.01408252 1842:0.01408252 1852:0.01408252 1856:0.01408252 1869:0.01408252 1876:0.01408252 1878:0.01408252 1880:0.01408252 1888:0.01408252 1889:0.01408252 1904:0.01408252 1914:0.01408252 1931:0.01408252 1951:0.01408252 1954:0.01408252 1978:0.01408252 1981:0.01408252 1982:0.02816505 1996:0.01408252 2012:0.01408252 2018:0.01408252 2025:0.01408252 2026:0.01408252 2033:0.01408252 2037:0.01408252 2055:0.01408252 2071:0.01408252 2073:0.02816505 2076:0.01408252 2084:0.01408252 2087:0.01408252 2089:0.01408252 2090:0.02816505 2092:0.01408252 2099:0.01408252 2100:0.02816505 2102:0.01408252 2103:0.01408252 2105:0.01408252 2108:0.01408252 2111:0.02816505 2113:0.01408252 2115:0.01408252 2117:0.01408252 2120:0.02816505 2121:0.01408252 2122:0.02816505 2123:0.02816505 2130:0.01408252 2138:0.01408252 2140:0.01408252 2142:0.01408252 2150:0.01408252 2154:0.01408252 2157:0.01408252 2158:0.01408252 2161:0.01408252 2164:0.01408252 2166:0.042247571 2168:0.01408252 2170:0.01408252 2172:0.01408252 2174:0.01408252 2188:0.01408252 2205:0.01408252 2207:0.01408252 2215:0.01408252 2218:0.01408252 2228:0.01408252 2231:0.01408252 2233:0.01408252 2236:0.01408252 2239:0.02816505 2251:0.01408252 2259:0.01408252 2262:0.01408252 2270:0.01408252 2276:0.01408252 2284:0.01408252 2286:0.01408252 2294:0.01408252 2303:0.01408252 2306:0.01408252 2308:0.02816505 2312:0.01408252 2313:0.02816505 2314:0.01408252 2315:0.01408252 2317:0.01408252 2318:0.01408252 2319:0.02816505 2322:0.01408252 2323:0.01408252 2352:0.01408252 2360:0.01408252 2363:0.01408252 2367:0.01408252 2369:0.01408252 2374:0.01408252 2395:0.01408252 2396:0.01408252 2403:0.02816505 2406:0.01408252 2408:0.01408252 2416:0.01408252 2431:0.01408252 2432:0.01408252 2436:0.01408252 2447:0.02816505 2449:0.042247571 2452:0.01408252 2453:0.02816505 2461:0.01408252 2479:0.01408252 2484:0.01408252 2486:0.01408252 2488:0.01408252 2490:0.01408252 2492:0.01408252 2496:0.01408252 2498:0.01408252 2499:0.01408252 2505:0.01408252 2512:0.01408252 2518:0.01408252 2522:0.042247571 2523:0.02816505 2524:0.02816505 2529:0.01408252 2530:0.01408252 2531:0.01408252 2533:0.01408252 2544:0.01408252 2549:0.02816505 2567:0.01408252 2571:0.01408252 2572:0.01408252 2574:0.01408252 2584:0.01408252 2603:0.01408252 2609:0.02816505 2611:0.01408252 2616:0.01408252 2624:0.042247571 2628:0.01408252 2633:0.01408252 2644:0.01408252 2648:0.01408252 2651:0.01408252 2656:0.01408252 2672:0.01408252 2674:0.01408252 2675:0.01408252 2681:0.01408252 2683:0.01408252 2686:0.02816505 2687:0.01408252 2690:0.01408252 2692:0.01408252 2695:0.01408252 2697:0.01408252 2699:0.01408252 2700:0.01408252 2703:0.01408252 2706:0.01408252 2711:0.01408252 2715:0.01408252 2718:0.01408252 2719:0.01408252 2722:0.01408252 2725:0.02816505 2727:0.01408252 2732:0.01408252 2733:0.01408252 2739:0.01408252 2743:0.01408252 2744:0.01408252 2749:0.01408252 2755:0.01408252 2762:0.01408252 2768:0.02816505 2781:0.01408252 2784:0.01408252 2787:0.01408252 2792:0.02816505 2797:0.01408252 2803:0.01408252 2804:0.01408252 2808:0.01408252 2809:0.01408252 2811:0.02816505 2816:0.01408252 2817:0.01408252 2818:0.01408252 2821:0.01408252 2823:0.01408252 2825:0.01408252 2830:0.01408252 2831:0.01408252 2832:0.01408252 2836:0.01408252 2859:0.02816505 2861:0.01408252 2864:0.01408252 2869:0.01408252 2873:0.01408252 2875:0.01408252 2877:0.02816505 2878:0.01408252 2883:0.070412621 2885:0.01408252 2887:0.01408252 2888:0.042247571 2892:0.042247571 2893:0.01408252 2894:0.01408252 2895:0.01408252 2896:0.01408252 2898:0.01408252 2899:0.01408252 2901:0.0563301 2902:0.01408252 2907:0.01408252 2909:0.01408252 2911:0.01408252 2914:0.01408252 2915:0.02816505 2917:0.02816505 2919:0.042247571 2920:0.01408252 2921:0.02816505 2922:0.01408252 2923:0.01408252 2924:0.02816505 2927:0.01408252 2931:0.01408252 2936:0.01408252 2937:0.01408252 2938:0.02816505 2941:0.01408252 2943:0.01408252 2951:0.02816505 2953:0.01408252 2954:0.01408252 2955:0.02816505 2957:0.01408252 2958:0.01408252 2962:0.01408252 2964:0.02816505 2965:0.042247571 2968:0.01408252 2969:0.084495142 2970:0.042247571 2971:0.070412621 2972:0.02816505 2974:0.02816505 2980:0.01408252 2981:0.01408252 2983:0.01408252 2984:0.042247571 2985:0.01408252 2986:0.01408252 2987:0.01408252 2988:0.02816505 2995:0.01408252 2999:0.01408252 3009:0.042247571 3011:0.01408252 3012:0.01408252 3025:0.01408252 3026:0.01408252 3027:0.01408252 3028:0.01408252 3030:0.01408252 3040:0.02816505 3041:0.01408252 3042:0.01408252 3044:0.02816505 3045:0.01408252 3055:0.01408252 3057:0.01408252 3061:0.01408252 3062:0.01408252 3067:0.01408252 3071:0.01408252 3074:0.01408252 3077:0.01408252 3078:0.01408252 3087:0.01408252 3089:0.01408252 3096:0.02816505 3098:0.01408252 3103:0.01408252 3110:0.02816505 3114:0.01408252 3115:0.02816505 3117:0.01408252 3120:0.042247571 3122:0.01408252 3124:0.01408252 3125:0.01408252 3127:0.01408252 3132:0.02816505 3133:0.01408252 3134:0.01408252 3139:0.02816505 3141:0.02816505 3155:0.01408252 3158:0.02816505 3161:0.01408252 3164:0.01408252 3170:0.01408252 3174:0.01408252 3175:0.01408252 3185:0.01408252 3195:0.01408252 3201:0.02816505 3207:0.01408252 3210:0.02816505 3213:0.01408252 3214:0.01408252 3221:0.01408252 3225:0.01408252 3228:0.01408252 3231:0.01408252 3232:0.01408252 3234:0.01408252 3238:0.01408252 3239:0.01408252 3241:0.02816505 3243:0.01408252 3245:0.01408252 3246:0.01408252 3249:0.01408252 3253:0.02816505 3254:0.01408252 3260:0.01408252 3270:0.01408252 3273:0.01408252 3279:0.01408252 3290:0.02816505 3297:0.01408252 3306:0.01408252 3307:0.01408252 3308:0.01408252 3310:0.01408252 3312:0.01408252 3317:0.01408252 3323:0.01408252 3324:0.01408252 3342:0.01408252 3349:0.01408252 3442:0.01408252 3479:0.01408252 3501:0.01408252 3529:0.01408252 3548:0.01408252 3560:0.01408252 3562:0.01408252 3563:0.01408252 3577:0.02816505 3583:0.01408252 3587:0.01408252 3589:0.01408252 3592:0.01408252 3594:0.01408252 3596:0.01408252 3598:0.01408252 3613:0.02816505 3619:0.01408252 3626:0.01408252 3633:0.01408252 3643:0.01408252 3644:0.01408252 3647:0.01408252 3654:0.01408252 3656:0.0563301 3664:0.01408252 3668:0.01408252 3674:0.1266892 3675:0.21114865 3676:0.10557432 3677:0.063344598 3678:0.10557432 3679:0.16891892 3680:0.084459461 3681:0.10557432 3682:0.084459461 3683:0.1266892 3684:0.1266892 3685:0.14780405 3687:0.042229731 3688:0.084459461 3689:0.063344598 3690:0.063344598 3691:0.042229731 3692:0.084459461 3693:0.2956081 3694:0.084459461 3695:0.042229731 3696:0.33783785 3697:0.21114865 3698:0.042229731 3699:0.042229731 3700:0.44341215 3701:0.084459461 3702:0.10557432 3703:0.14780405 3704:0.19003378 3705:0.1266892 3706:0.1266892 3707:0.063344598 3708:0.19003378 3709:0.23226352 3710:0.27449325 3711:0.063344598 3712:0.10557432 3713:0.10557432 3714:0.19003378 3715:0.4222973 3716:0.16891892 3717:0.14780405 3718:0.16891892 3719:0.10557432 3720:0.10557432 3721:0.084459461 3722:0.1266892 3723:0.1266892 3724:0.042229731 3725:0.1266892 3726:0.042229731 3727:0.10557432 3728:0.021114871 3729:0.084459461 3730:0.063344598 3731:0.021114871 3732:0.23226352 3733:0.2956081 3734:0.1266892 3736:0.10557432 3737:0.021114871 3738:0.021114871 3739:0.084459461 3740:0.10557432 3741:0.021114871 3742:0.042229731 3744:0.042229731 3745:0.16891892 3747:0.063344598 3748:0.1266892 3749:0.084459461 3750:0.021114871 3752:0.19003378 3753:0.021114871 3754:0.3589527 3755:0.16891892 3756:0.084459461 3757:0.21114865 3758:0.25337839 3759:0.14780405 3760:0.042229731 3761:0.14780405 3762:0.14780405 3763:0.33783785 3764:0.10557432 3765:0.042229731 3766:0.23226352 3767:0.23226352 3768:0.10557432 3769:0.1266892 3770:0.084459461 3771:0.3589527 3772:0.44341215 3773:0.44341215 3774:0.063344598 3775:0.21114865 3776:0.16891892 3777:0.14780405 3778:0.19003378 3779:0.14780405 3780:0.27449325 3781:0.27449325 3782:0.14780405 3783:0.19003378 3784:0.042229731 3785:0.10557432 3786:0.44341215 3787:0.27449325 3788:0.1266892 3789:0.14780405 3790:0.21114865 3791:0.19003378 3792:0.14780405 3793:0.084459461 3794:0.084459461 3796:0.084459461 3797:0.084459461 3798:0.063344598 3799:0.021114871 3800:0.021114871 3801:0.042229731 3804:0.063344598 3805:0.084459461 3806:0.084459461 3808:0.021114871 3809:0.021114871 3810:0.14780405 3811:0.084459461 3812:0.38006756 3813:0.063344598 3814:0.38006756 3815:0.10557432 3816:0.1266892 3817:0.14780405 3818:0.3589527 3819:0.23226352 3820:0.021114871 3821:0.10557432 3822:0.1266892 3823:0.19003378 3824:0.063344598 3825:0.063344598 3826:0.10557432 3827:0.2956081 3828:0.21114865 3830:0.084459461 3831:0.021114871 3832:0.042229731 3833:0.042229731 3834:0.10557432 3835:0.19003378 3836:0.084459461 3838:0.16891892 3839:0.063344598 3840:0.4222973 3841:0.063344598 3843:0.10557432 3844:0.063344598 3845:0.021114871 3846:0.1266892 3847:0.084459461 3848:0.10557432 3849:0.042229731 3850:0.19003378 3851:0.14780405 3852:0.10557432 3853:0.1266892 3854:0.14780405 3855:0.042229731 3856:0.084459461 3857:0.084459461 3858:0.16891892 3859:0.16891892 3860:0.10557432 3861:0.021114871 3862:0.14780405 3863:0.38006756 3864:0.31672296 3865:0.19003378 3866:0.46452704 3867:0.44341215 3868:0.21114865 3869:0.27449325 3870:0.6545608 3871:0.2956081 3872:0.19003378 3873:0.021114871 3874:0.1266892 3875:0.1266892 3877:0.1266892 3878:0.084459461 3879:0.14780405 3880:0.16891892 3881:0.1266892 3882:0.21114865 3883:0.23226352 3884:0.16891892 3885:0.1266892 3886:0.021114871 3887:0.084459461 3888:0.084459461 3889:0.1266892 3890:0.10557432 3891:0.063344598 3892:0.21114865 3893:0.25337839 3894:0.14780405 3895:0.042229731 3896:0.063344598 3897:0.042229731 3898:0.21114865 3899:0.1266892 3901:0.021114871 3902:0.021114871 3905:0.021114871 3906:0.042229731 3907:0.021114871 3908:0.021114871 3910:0.042229731 3912:0.042229731 3914:0.042229731 3915:0.16891892 3916:0.14780405 3918:0.021114871 3919:0.10557432 3920:0.042229731 3921:0.046010971 3922:0.01097509 3923:0.067539044 3924:0.06416209 3925:0.040101308 3926:0.048543692 3927:0.0244829 3928:0.067116924 3929:0.08315745 3930:0.076403543 3931:0.018573239 3932:0.07471507 3933:0.040523428 3934:0.045166738 3935:0.042211909 3936:0.11355002 3937:0.051498521 3938:0.043478262 3939:0.0063317898 3940:0.035457999 3941:0.44825 3942:-0.011818 3943:0.38852501 3944:-0.02815 3945:0.302659 #
-0.30220728790592421564298319935915 1:0.0096231 3:0.016840421 4:0.01283079 6:0.01202887 7:0.00561347 8:0.01523657 10:0.0080192499 11:0.01122694 12:0.01443464 15:0.029671211 16:0.045709699 17:0.0032077001 20:0.00160385 21:0.02718869 26:0.02718869 28:0.02718869 43:0.02718869 49:0.02718869 87:0.02718869 91:0.02718869 101:0.02718869 104:0.02718869 108:0.02718869 113:0.02718869 116:0.02718869 119:0.02718869 143:0.02718869 149:0.21750952 150:0.02718869 153:0.02718869 157:0.02718869 158:0.02718869 160:0.02718869 168:0.02718869 174:0.054377381 201:0.02718869 203:0.02718869 225:0.02718869 283:0.02718869 346:0.02718869 350:0.02718869 361:0.02718869 365:0.02718869 370:0.02718869 375:0.02718869 377:0.02718869 399:0.02718869 402:0.054377381 422:0.02718869 433:0.02718869 434:0.02718869 435:0.02718869 437:0.02718869 445:0.02718869 463:0.02718869 469:0.02718869 475:0.054377381 486:0.02718869 487:0.02718869 522:0.02718869 528:0.02718869 531:0.02718869 534:0.02718869 544:0.02718869 568:0.02718869 574:0.054377381 582:0.054377381 585:0.054377381 589:0.02718869 590:0.02718869 595:0.02718869 596:0.02718869 608:0.02718869 615:0.02718869 620:0.02718869 621:0.02718869 627:0.02718869 629:0.02718869 635:0.02718869 649:0.02718869 653:0.02718869 662:0.02718869 663:0.02718869 665:0.054377381 667:0.02718869 670:0.02718869 677:0.02718869 678:0.02718869 682:0.02718869 703:0.02718869 752:0.02718869 758:0.02718869 764:0.02718869 773:0.02718869 776:0.02718869 782:0.02718869 787:0.054377381 791:0.02718869 810:0.02718869 813:0.02718869 851:0.02718869 914:0.02718869 923:0.02718869 924:0.02718869 929:0.02718869 941:0.02718869 955:0.02718869 967:0.02718869 969:0.02718869 995:0.02718869 1009:0.02718869 1026:0.02718869 1028:0.054377381 1031:0.02718869 1033:0.054377381 1041:0.02718869 1054:0.02718869 1083:0.02718869 1085:0.02718869 1096:0.02718869 1129:0.02718869 1142:0.02718869 1148:0.02718869 1151:0.02718869 1172:0.02718869 1175:0.02718869 1183:0.02718869 1186:0.02718869 1193:0.02718869 1195:0.02718869 1197:0.02718869 1201:0.02718869 1203:0.02718869 1211:0.02718869 1214:0.02718869 1216:0.02718869 1227:0.02718869 1253:0.02718869 1256:0.02718869 1257:0.02718869 1268:0.081566073 1271:0.02718869 1278:0.02718869 1279:0.02718869 1280:0.02718869 1283:0.02718869 1308:0.02718869 1310:0.02718869 1311:0.054377381 1319:0.054377381 1321:0.02718869 1333:0.02718869 1337:0.02718869 1340:0.02718869 1348:0.081566073 1357:0.02718869 1375:0.02718869 1381:0.054377381 1388:0.054377381 1389:0.02718869 1422:0.02718869 1445:0.02718869 1448:0.02718869 1455:0.054377381 1467:0.02718869 1469:0.02718869 1474:0.02718869 1481:0.02718869 1485:0.02718869 1487:0.054377381 1491:0.02718869 1494:0.02718869 1496:0.054377381 1497:0.02718869 1501:0.02718869 1502:0.02718869 1504:0.081566073 1514:0.054377381 1518:0.02718869 1534:0.02718869 1543:0.02718869 1549:0.02718869 1553:0.02718869 1556:0.02718869 1557:0.02718869 1560:0.02718869 1561:0.054377381 1568:0.02718869 1572:0.02718869 1573:0.02718869 1574:0.02718869 1581:0.02718869 1584:0.02718869 1595:0.02718869 1624:0.02718869 1627:0.054377381 1652:0.02718869 1659:0.02718869 1665:0.02718869 1667:0.02718869 1683:0.02718869 1690:0.02718869 1691:0.02718869 1696:0.02718869 1703:0.02718869 1719:0.02718869 1723:0.02718869 1728:0.02718869 1729:0.02718869 1736:0.02718869 1737:0.02718869 1738:0.02718869 1741:0.02718869 1742:0.02718869 1754:0.02718869 1768:0.054377381 1776:0.02718869 1777:0.02718869 1783:0.02718869 1786:0.02718869 1789:0.054377381 1797:0.02718869 1798:0.02718869 1804:0.054377381 1808:0.02718869 1812:0.054377381 1815:0.02718869 1823:0.054377381 1853:0.02718869 1870:0.02718869 1885:0.02718869 1893:0.02718869 1897:0.02718869 1917:0.02718869 1945:0.02718869 1958:0.02718869 1992:0.02718869 2017:0.02718869 2028:0.02718869 2073:0.02718869 2074:0.054377381 2091:0.02718869 2104:0.054377381 2105:0.02718869 2109:0.02718869 2111:0.02718869 2113:0.054377381 2120:0.081566073 2121:0.02718869 2143:0.054377381 2168:0.02718869 2169:0.02718869 2170:0.02718869 2174:0.02718869 2196:0.02718869 2216:0.054377381 2217:0.02718869 2220:0.02718869 2233:0.02718869 2236:0.02718869 2241:0.02718869 2248:0.02718869 2253:0.02718869 2260:0.02718869 2273:0.02718869 2274:0.02718869 2276:0.02718869 2285:0.02718869 2289:0.02718869 2293:0.02718869 2308:0.02718869 2313:0.02718869 2314:0.081566073 2315:0.02718869 2318:0.02718869 2321:0.02718869 2352:0.02718869 2355:0.02718869 2356:0.054377381 2364:0.02718869 2380:0.02718869 2384:0.02718869 2391:0.02718869 2393:0.02718869 2400:0.02718869 2404:0.02718869 2412:0.02718869 2415:0.02718869 2418:0.02718869 2431:0.02718869 2439:0.02718869 2448:0.02718869 2449:0.02718869 2454:0.02718869 2475:0.02718869 2482:0.02718869 2496:0.02718869 2500:0.02718869 2509:0.02718869 2511:0.02718869 2517:0.02718869 2522:0.02718869 2523:0.02718869 2533:0.02718869 2537:0.054377381 2544:0.02718869 2580:0.02718869 2582:0.02718869 2605:0.02718869 2608:0.02718869 2618:0.02718869 2623:0.054377381 2624:0.02718869 2656:0.02718869 2658:0.02718869 2683:0.02718869 2688:0.02718869 2694:0.02718869 2695:0.02718869 2702:0.02718869 2706:0.054377381 2715:0.02718869 2716:0.02718869 2720:0.02718869 2739:0.02718869 2748:0.02718869 2752:0.054377381 2777:0.02718869 2779:0.02718869 2780:0.02718869 2803:0.02718869 2804:0.02718869 2811:0.02718869 2814:0.02718869 2821:0.054377381 2824:0.02718869 2869:0.02718869 2877:0.054377381 2883:0.02718869 2887:0.02718869 2888:0.02718869 2899:0.02718869 2901:0.13594344 2906:0.02718869 2908:0.02718869 2909:0.02718869 2910:0.02718869 2914:0.02718869 2916:0.02718869 2917:0.02718869 2919:0.054377381 2920:0.054377381 2924:0.02718869 2927:0.02718869 2931:0.02718869 2938:0.10875476 2942:0.02718869 2943:0.02718869 2944:0.02718869 2945:0.02718869 2949:0.02718869 2951:0.081566073 2957:0.054377381 2959:0.02718869 2965:0.02718869 2966:0.02718869 2967:0.02718869 2968:0.02718869 2969:0.02718869 2970:0.10875476 2971:0.02718869 2972:0.24469821 2973:0.054377381 2974:0.02718869 2976:0.02718869 2977:0.02718869 2983:0.02718869 2984:0.13594344 2985:0.02718869 2986:0.02718869 2990:0.02718869 2992:0.02718869 2995:0.02718869 3006:0.02718869 3007:0.02718869 3008:0.02718869 3011:0.02718869 3015:0.081566073 3023:0.02718869 3025:0.02718869 3028:0.02718869 3030:0.02718869 3037:0.02718869 3045:0.02718869 3057:0.02718869 3063:0.02718869 3066:0.054377381 3067:0.02718869 3070:0.02718869 3073:0.02718869 3076:0.02718869 3077:0.02718869 3089:0.02718869 3092:0.081566073 3094:0.02718869 3096:0.02718869 3097:0.02718869 3098:0.02718869 3108:0.02718869 3117:0.054377381 3118:0.02718869 3120:0.10875476 3121:0.13594344 3122:0.02718869 3124:0.02718869 3133:0.02718869 3143:0.02718869 3161:0.02718869 3179:0.02718869 3204:0.02718869 3223:0.02718869 3229:0.02718869 3230:0.02718869 3240:0.02718869 3260:0.02718869 3264:0.02718869 3280:0.02718869 3283:0.02718869 3294:0.02718869 3296:0.02718869 3308:0.02718869 3309:0.02718869 3310:0.02718869 3312:0.02718869 3321:0.02718869 3323:0.02718869 3335:0.02718869 3376:0.02718869 3445:0.02718869 3500:0.02718869 3501:0.02718869 3646:0.02718869 3664:0.02718869 3674:0.24449877 3676:0.12224939 3677:0.16299918 3678:0.081499591 3679:0.12224939 3680:0.20374899 3682:0.16299918 3683:0.12224939 3684:0.24449877 3685:0.081499591 3686:0.040749799 3689:0.040749799 3692:0.12224939 3693:0.16299918 3694:0.081499591 3696:0.32599837 3697:0.12224939 3698:0.040749799 3699:0.040749799 3700:0.28524858 3701:0.20374899 3702:0.16299918 3703:0.081499591 3704:0.081499591 3705:0.16299918 3706:0.16299918 3708:0.28524858 3709:0.28524858 3710:0.28524858 3711:0.040749799 3712:0.081499591 3713:0.20374899 3714:0.081499591 3715:0.36674815 3716:0.24449877 3717:0.16299918 3719:0.12224939 3720:0.12224939 3721:0.081499591 3722:0.12224939 3723:0.12224939 3726:0.040749799 3727:0.040749799 3729:0.081499591 3730:0.040749799 3732:0.20374899 3733:0.12224939 3734:0.12224939 3735:0.040749799 3736:0.16299918 3737:0.040749799 3738:0.32599837 3739:0.20374899 3741:0.040749799 3743:0.040749799 3744:0.081499591 3745:0.12224939 3747:0.12224939 3748:0.16299918 3749:0.12224939 3750:0.040749799 3752:0.24449877 3753:0.040749799 3754:0.20374899 3756:0.081499591 3757:0.20374899 3758:0.24449877 3759:0.12224939 3760:0.081499591 3761:0.28524858 3762:0.081499591 3763:0.16299918 3764:0.28524858 3766:0.081499591 3767:0.12224939 3768:0.20374899 3769:0.20374899 3770:0.040749799 3771:0.32599837 3772:0.36674815 3773:0.16299918 3774:0.040749799 3775:0.24449877 3776:0.20374899 3777:0.24449877 3778:0.12224939 3779:0.20374899 3780:0.081499591 3781:0.28524858 3783:0.12224939 3784:0.16299918 3785:0.12224939 3786:0.28524858 3787:0.28524858 3789:0.16299918 3790:0.16299918 3791:0.20374899 3792:0.12224939 3793:0.081499591 3794:0.040749799 3796:0.081499591 3797:0.081499591 3798:0.040749799 3799:0.040749799 3800:0.040749799 3801:0.040749799 3802:0.040749799 3805:0.040749799 3806:0.16299918 3807:0.040749799 3810:0.24449877 3811:0.16299918 3812:0.20374899 3813:0.040749799 3814:0.57049716 3815:0.24449877 3816:0.081499591 3817:0.040749799 3818:0.44824776 3819:0.24449877 3822:0.32599837 3823:0.20374899 3824:0.20374899 3825:0.89649552 3826:0.24449877 3827:0.57049716 3828:0.28524858 3830:0.16299918 3831:0.12224939 3832:0.16299918 3833:0.16299918 3834:0.12224939 3835:0.12224939 3836:0.081499591 3837:0.040749799 3838:0.16299918 3839:0.12224939 3840:0.20374899 3841:0.12224939 3843:0.081499591 3844:0.12224939 3846:0.16299918 3848:0.081499591 3850:0.081499591 3851:0.20374899 3852:0.16299918 3853:0.040749799 3854:0.081499591 3855:0.081499591 3856:0.16299918 3858:0.24449877 3859:0.20374899 3860:0.040749799 3863:0.24449877 3864:0.36674815 3865:0.040749799 3866:0.24449877 3867:0.36674815 3868:0.32599837 3869:0.20374899 3870:1.3447433 3871:0.61124694 3872:0.16299918 3874:0.20374899 3875:0.24449877 3877:0.16299918 3878:0.20374899 3879:0.040749799 3880:0.12224939 3881:0.081499591 3882:0.32599837 3883:0.85574573 3884:0.081499591 3885:0.040749799 3888:0.12224939 3889:0.081499591 3890:0.12224939 3891:0.040749799 3892:0.24449877 3893:0.16299918 3895:0.16299918 3896:0.040749799 3897:0.081499591 3898:0.20374899 3899:0.081499591 3900:0.040749799 3907:0.040749799 3910:0.081499591 3912:0.040749799 3916:0.12224939 3917:0.040749799 3919:0.12224939 3920:0.040749799 3921:0.05618893 3922:0.0040716599 3923:0.050488599 3924:0.06026059 3925:0.01872964 3926:0.057817589 3927:0.026872961 3928:0.059446249 3929:0.067589574 3930:0.064332247 3931:0.01791531 3932:0.071661241 3933:0.086319223 3934:0.049674269 3935:0.03745928 3936:0.14250815 3937:0.071661241 3938:0.039087951 3939:0.0048859902 3940:0.01302932 3941:0.13113099 3942:-0.014957 3943:0.031061999 3944:-0.0080709998 3945:0.259772 #
